|--- 6  <= -0.69
|   |--- 3  <= -3 .34
|   |   |--- 7  <= -0.69
|   |   |   |--- 8  <= -0.8 8 
|   |   |   |   |--- class: 0.0|   |   |   |--- 8  >  -0.8 8 
|   |   |   |   |--- 8  <= 0.83
|   |   |   |   |   |--- class_0  <= -0.63
|   |   |   |   |   |   |--- class: 1.0|   |   |   |   |   |--- class_0  >  -0.63
|   |   |   |   |   |   |--- class: 1.0|   |   |   |   |--- 8  >  0.83
|   |   |   |   |   |--- class: 0.0|   |   |--- 7  >  -0.69
|   |   |   |--- 2  <= -2 .87
|   |   |   |   |--- 4  <= 0.03
|   |   |   |   |   |--- class: 0.0|   |   |   |   |--- 4  >  0.03
|   |   |   |   |   |--- class_0  <= -0.23
|   |   |   |   |   |   |--- class: 0.0|   |   |   |   |   |--- class_0  >  -0.23
|   |   |   |   |   |   |--- class: 1.0|   |   |   |--- 2  >  -2 .87
|   |   |   |   |--- 5  <= -1.25 
|   |   |   |   |   |--- class: 0.0|   |   |   |   |--- 5  >  -1.25 
|   |   |   |   |   |--- class: 1.0|   |--- 3  >  -3 .34
|   |   |--- class_0  <= -2.58
|   |   |   |--- class: 0.0|   |   |--- class_0  >  -2.58
|   |   |   |--- 5  <= -1.22
|   |   |   |   |--- class_0  <= -1.08
|   |   |   |   |   |--- class: 0.0|   |   |   |   |--- class_0  >  -1.08
|   |   |   |   |   |--- 3  <= 0.82
|   |   |   |   |   |   |--- 5  <= -1.25 
|   |   |   |   |   |   |   |--- 7  <= -0.7 7 
|   |   |   |   |   |   |   |   |--- 7  <= -1.37
|   |   |   |   |   |   |   |   |   |--- class: 0.0|   |   |   |   |   |   |   |   |--- 7  >  -1.37
|   |   |   |   |   |   |   |   |   |--- 7  <= -0.78
|   |   |   |   |   |   |   |   |   |   |--- class: 1.0|   |   |   |   |   |   |   |   |   |--- 7  >  -0.78
|   |   |   |   |   |   |   |   |   |   |--- class: 0.0|   |   |   |   |   |   |   |--- 7  >  -0.7 7 
|   |   |   |   |   |   |   |   |--- 4  <= -1.4 3
|   |   |   |   |   |   |   |   |   |--- 4  <= -1.64
|   |   |   |   |   |   |   |   |   |   |--- class: 0.0|   |   |   |   |   |   |   |   |   |--- 4  >  -1.64
|   |   |   |   |   |   |   |   |   |   |--- class: 1.0|   |   |   |   |   |   |   |   |--- 4  >  -1.4 3
|   |   |   |   |   |   |   |   |   |--- class: 1.0|   |   |   |   |   |   |--- 5  >  -1.25 
|   |   |   |   |   |   |   |--- class: 0.0|   |   |   |   |   |--- 3  >  0.82
|   |   |   |   |   |   |--- 8  <= -0.44
|   |   |   |   |   |   |   |--- class: 0.0|   |   |   |   |   |   |--- 8  >  -0.44
|   |   |   |   |   |   |   |--- 8  <= 1.02
|   |   |   |   |   |   |   |   |--- 2  <= -2 .25
|   |   |   |   |   |   |   |   |   |--- class: 0.0|   |   |   |   |   |   |   |   |--- 2  >  -2 .25
|   |   |   |   |   |   |   |   |   |--- class: 1.0|   |   |   |   |   |   |   |--- 8  >  1.02
|   |   |   |   |   |   |   |   |--- class: 0.0|   |   |   |--- 5  >  -1.22
|   |   |   |   |--- 4  <= -1.38
|   |   |   |   |   |--- 2  <= -1.2 4
|   |   |   |   |   |   |--- 5  <= 0.68
|   |   |   |   |   |   |   |--- 8  <= -0.01
|   |   |   |   |   |   |   |   |--- class: 1.0|   |   |   |   |   |   |   |--- 8  >  -0.01
|   |   |   |   |   |   |   |   |--- class: 1.0|   |   |   |   |   |   |--- 5  >  0.68
|   |   |   |   |   |   |   |--- class: 0.0|   |   |   |   |   |--- 2  >  -1.2 4
|   |   |   |   |   |   |--- class: 1.0|   |   |   |   |--- 4  >  -1.38
|   |   |   |   |   |--- 4  <= -0.96
|   |   |   |   |   |   |--- 8  <= -1.11
|   |   |   |   |   |   |   |--- 7  <= -0.69
|   |   |   |   |   |   |   |   |--- class: 0.0|   |   |   |   |   |   |   |--- 7  >  -0.69
|   |   |   |   |   |   |   |   |--- class: 1.0|   |   |   |   |   |   |--- 8  >  -1.11
|   |   |   |   |   |   |   |--- class: 1.0|   |   |   |   |   |--- 4  >  -0.96
|   |   |   |   |   |   |--- class: 1.0|--- 6  >  -0.69
|   |--- class_0  <= -2.53
|   |   |--- 3  <= 0.37
|   |   |   |--- class_0  <= -2.81
|   |   |   |   |--- class: 1.0|   |   |   |--- class_0  >  -2.81
|   |   |   |   |--- class: 0.0|   |   |--- 3  >  0.37
|   |   |   |--- class: 1.0|   |--- class_0  >  -2.53
|   |   |--- 5  <= -1.28
|   |   |   |--- 6  <= 0.86
|   |   |   |   |--- 3  <= -2.27
|   |   |   |   |   |--- class: 1.0|   |   |   |   |--- 3  >  -2.27
|   |   |   |   |   |--- class: 1.0|   |   |   |--- 6  >  0.86
|   |   |   |   |--- 6  <= 0.93
|   |   |   |   |   |--- class: 0.0|   |   |   |   |--- 6  >  0.93
|   |   |   |   |   |--- class_0  <= -1.11
|   |   |   |   |   |   |--- 2  <= -2 .62 
|   |   |   |   |   |   |   |--- class: 0.0|   |   |   |   |   |   |--- 2  >  -2 .62 
|   |   |   |   |   |   |   |--- class: 1.0|   |   |   |   |   |--- class_0  >  -1.11
|   |   |   |   |   |   |--- class: 1.0|   |   |--- 5  >  -1.28
|   |   |   |--- class: 1.0