0:[2<1_no checking ] yes=1_no checking ,no=2,missing=2
	1:[32<1] yes=3,no=4,missing=4
		3:[33<1] yes=7,no=8,missing=8
			7:[42<0.632513821] yes=13,no=14,missing=14
				13:leaf=-0.0469942205				14:leaf=-0.00322316634			8:leaf=0.00279305223		4:[34<1] yes=9,no=10,missing=10
			9:[5<1] yes=15,no=16,missing=16
				15:[44<-0.63997668] yes=21,no=22,missing=22
					21:leaf=-0.0277824495					22:[47<-0.594026625] yes=31,no=32,missing=32
						31:leaf=-0.00505573023						32:leaf=0.0475476384				16:[47<-0.709518731] yes=23,no=24,missing=24
					23:leaf=0.0304969922					24:leaf=-0.0689455196			10:[42<-0.275406688] yes=17,no=18,missing=18
				17:[42<-0.495790273] yes=25,no=26,missing=26
					25:[47<0.371196628] yes=33,no=34,missing=34
						33:leaf=-0.0216257796						34:leaf=0.0299432557					26:leaf=-0.0636313781				18:[43<-1.27567196] yes=27,no=28,missing=28
					27:leaf=-0.0290261563					28:[43<0.949445546] yes=35,no=36,missing=36
						35:leaf=0.048142083						36:leaf=-0.0159248821	2:[22<1] yes=5,no=6,missing=6
		5:[31<1] yes=11,no=12,missing=12
			11:[17<1] yes=19,no=20,missing=20
				19:leaf=0.023012314				20:[46<-0.571816742] yes=29,no=30,missing=30
					29:leaf=0.0142138172					30:[45<-0.308579504] yes=37,no=38,missing=38
						37:leaf=0.00746376161						38:leaf=-0.0414407775			12:leaf=0.0287009832		6:leaf=0.0356210209