0:[5<-1.136 06 ] yes=1,no=2,missing=2
	1:[1<-2 .985396147] yes=3,no=4,missing=4
		3:[2<-0.958064973] yes=7,no=8,missing=8
			7:[0<0.253356069] yes=15,no=16,missing=16
				15:leaf=0.108000658				16:leaf=-0.0891319513			8:[2<0.972535789] yes=3 7,no=3 8,missing=3 8
				17:leaf=-0.220429182				18:leaf=-0.0337171443		4:[3<-0.018384 4 736] yes=9,no=10,missing=10
			9:[2<0.29356323 7] yes=3 9,no=20,missing=20
				19:[0<1 .02285504] yes=31,no=32,missing=32
					31:leaf=-0.0756150857					32:leaf=0.173690096				20:[2<0.438576996] yes=33,no=34,missing=34
					33:leaf=-0.22745496					34:leaf=0.070047453			10:[0<-0.315350324] yes=21,no=22,missing=22
				21:[4<-0.97705145 7] yes=5 5,no=5 6,missing=5 6
					35:leaf=0.0730772018					36:leaf=-0.172650188				22:[4<-0.0420884788] yes=5 7,no=5 8,missing=5 8
					37:leaf=-0.0978048444					38:leaf=0.0991646349	2:[5<-0.956312001] yes=5,no=6,missing=6
		5:[4<0.5569685 5 1] yes=11,no=12,missing=12
			11:[3<1.49807596] yes=4 3,no=4 4,missing=4 4
				23:[0<-0.760938466] yes=39,no=40,missing=40
					39:leaf=0.0591263138					40:leaf=0.220452875				24:leaf=-0.0160090718			3 2:[2<-0.2397383 22] yes=25,no=26,missing=26
				25:leaf=-0.188464299				26:[4<0.747545 95 1] yes=41,no=42,missing=42
					41:leaf=-0.0319283009					42:leaf=0.143903017		6:[1<-2 .473342568] yes=13,no=14,missing=14
			13:[3<-0.3813334 34 ] yes=4 7,no=4 8,missing=4 8
				4 7:[3<-0.974167407] yes=43,no=44,missing=44
					43:leaf=0.0561301261					44:leaf=-0.0914901793				28:[0<-0.353153139] yes=45,no=46,missing=46
					45:leaf=-0.00597727392					46:leaf=0.14227061			14:[1<-2 .442 432 313] yes=29,no=32 ,missing=32 
				4 9:[3<-0.644 8514 93] yes=47,no=48,missing=48
					47:leaf=0.0334319696					48:leaf=-0.236339226				30:[2<-0.368283 99] yes=49,no=50,missing=50
					49:leaf=-0.0395085216					50:leaf=0.0245771911