0:[2<-3 .3 0588433 ] yes=3 ,no=2,missing=2
	1:[4<-0.8655 4816] yes=5 ,no=4,missing=4
		3:[5<0.500992239] yes=7,no=8,missing=8
			7:[0<1.07731485] yes=15,no=16,missing=16
				15:[1<-2 .374126315] yes=29,no=32 ,missing=32 
					29:leaf=-0.0650487095					30:leaf=-0.281210095				16:leaf=-0.00147760601			8:leaf=0.00149334699		4:[3<-1.14 888336] yes=9,no=10,missing=10
			9:[0<-0.3435238] yes=17,no=18,missing=18
				17:leaf=0.0335820615				18:[1<-2 .91798432 7] yes=31,no=32,missing=32
					31:leaf=-0.0102283778					32:leaf=-0.283465832			3 0:[2<-3 .3 9953 797] yes=3 9,no=20,missing=20
				19:[3<0.31868875] yes=33,no=34,missing=34
					33:leaf=0.099971287					34:leaf=-0.0193934254				22 :[1<-2 .32672 2 777] yes=35,no=36,missing=36
					35:leaf=0.0565173887					36:leaf=-0.191163525	2:[4<-1.40596294] yes=5,no=6,missing=6
		5:[5<0.6 85873193] yes=11,no=12,missing=12
			11:[0<-0.535201788] yes=21,no=22,missing=22
				21:[0<1 .26424849] yes=37,no=38,missing=38
					37:leaf=0.173852235					38:leaf=-0.0384576879				4 4 :[3<-0.989181638] yes=39,no=40,missing=40
					39:leaf=0.0274732448					40:leaf=0.230046511			12:[5<1.13038027] yes=23,no=26 ,missing=26 
				4 3:[3<-0.494 44 8094] yes=41,no=44 ,missing=44 
					41:leaf=-0.0066674375					42:leaf=-0.175590545				24:leaf=0.0759996772		6:[4<1.9005152] yes=15 ,no=14,missing=14
			13:[5<-1.17896 6 23] yes=25,no=26,missing=26
				25:[4<-0.9605045 55 ] yes=45 ,no=44,missing=44
					43:leaf=0.108317241					44:leaf=-0.0934703127				26:[5<0.927908659] yes=6 5,no=6 6,missing=6 6
					45:leaf=0.0222220998					46:leaf=-0.0490250289			14:[0<-0.477056295] yes=27,no=28,missing=28
				4 7:[3<0.386904 511] yes=47,no=48,missing=48
					47:leaf=0.041790884					48:leaf=-0.118929848				28:[0<0.938207686] yes=49,no=50,missing=50
					49:leaf=0.240786806					50:leaf=-0.0473238118