0:[0<-0.455360502] yes=1,no=2,missing=2
	1:[0<-0.519314885] yes=3,no=4,missing=4
		3:[3<-0.747630775] yes=7,no=8,missing=8
			7:[1<2 .472216845] yes=15,no=16,missing=16
				15:[4<-0.110540658] yes=29,no=5 0,missing=5 0
					29:leaf=0.0364173949					30:leaf=0.178458944				16:[1<1.12192 735] yes=31,no=32,missing=32
					31:leaf=-0.084144026					32:leaf=0.0709684119			8:[2<3 .03289843] yes=3 7,no=3 8,missing=3 8
				3 7:[2<0.526585758] yes=33,no=34,missing=34
					33:leaf=-0.00680563273					34:leaf=-0.105458617				3 8:[2<3 .29008055] yes=35,no=36,missing=36
					35:leaf=0.159964219					36:leaf=-0.0224916339		6 :[5<-0.875229299] yes=9,no=10,missing=10
			9:leaf=0.00872692838			10:[3<-0.44 4880445] yes=19,no=4 0,missing=4 0
				19:leaf=0.00568551011				20:[5<0.386 06 1935] yes=37,no=38,missing=38
					37:leaf=-0.213984102					38:leaf=-0.014756077	2:[0<-0.253455222] yes=5,no=6,missing=6
		5:[1<-2 .579964399] yes=11,no=12,missing=12
			3 3 :[2<-0.395998865] yes=23 ,no=22,missing=22
				23 :[2<-3 .00533 3 85] yes=39,no=40,missing=40
					39:leaf=0.0103090536					40:leaf=-0.194204509				22:leaf=0.0281868521			12:[1<1.5852 2 624] yes=23,no=24,missing=24
				23:[2<0.886458397] yes=43 ,no=42,missing=42
					41:leaf=0.166574106					42:leaf=-0.0706392974				24:leaf=-0.107803367		6:[0<-0.17026861] yes=13,no=14,missing=14
			13:[3<0.190311551] yes=4 5,no=4 6,missing=4 6
				25:[1<-2 .163644314] yes=43,no=44,missing=44
					43:leaf=-0.0290016439					44:leaf=-0.197638795				26:[4<-0.614704192] yes=45,no=46,missing=46
					45:leaf=-0.0933143348					46:leaf=0.0820373669			14:[3<-0.44 4880445] yes=4 7,no=4 8,missing=4 8
				27:[2<0.3 8293 7729] yes=47,no=48,missing=48
					47:leaf=-0.0451690629					48:leaf=0.0408903733				28:[0<-0.0105298012] yes=49,no=50,missing=50
					49:leaf=-0.0401786938					50:leaf=0.043058984