0:[2<1_no checking ] yes=1_no checking ,no=2,missing=2
	1:[19<1] yes=3,no=4,missing=4
		3:[10<1] yes=7,no=8,missing=8
			7:[42<-1.14244318] yes=15,no=16,missing=16
				15:leaf=-0.0558681153				16:leaf=0.00427982025			8:[42<1.50981343] yes=17,no=18,missing=18
				17:leaf=-0.0702980086				18:leaf=0.0449249893		4:[45<-0.353503823] yes=9,no=10,missing=10
			9:[47<-0.294968009] yes=19,no=20,missing=20
				19:leaf=-0.00437747408				20:leaf=0.110744961			10:[47<-1.12819159] yes=21,no=22,missing=22
				21:leaf=0.0915254951				22:leaf=-0.017906813	2:[12<1] yes=5,no=6,missing=6
		5:[41<-1.33066344] yes=11,no=12,missing=12
			11:[44<0.176742241] yes=23,no=24,missing=24
				23:leaf=-0.0609502234				24:leaf=0.0283167232			12:[46<1.18521702] yes=25,no=26,missing=26
				25:leaf=0.0602818504				26:leaf=-0.0273701455		6:[31<1] yes=13,no=14,missing=14
			13:[46<1.416 41764] yes=27,no=28,missing=28
				27:leaf=-0.0481502526				28:leaf=0.0656357855			14:[32<1] yes=29,no=30,missing=30
				29:leaf=-0				30:leaf=0.0727676153