0:[12<1] yes=1,no=2,missing=2
	1:[10<1] yes=3,no=4,missing=4
		3:[42<0.77437526] yes=7,no=8,missing=8
			7:[42<-0.449622273] yes=15,no=16,missing=16
				15:leaf=0.000941925216				16:leaf=0.0647323132			8:[44<0.511345327] yes=17,no=18,missing=18
				17:leaf=0.0111341504				18:leaf=-0.125776544		4:[20<1] yes=9,no=10,missing=10
			9:[42<0.7438308] yes=19,no=20,missing=20
				19:leaf=-0.0626189783				20:leaf=0.0511400513			10:[43<-0.5355739] yes=21,no=22,missing=22
				21:leaf=-0.08941295				22:leaf=0.0871606767	2:[42<-1.0297426] yes=5,no=6,missing=6
		5:[47<0.0457721874] yes=11,no=12,missing=12
			11:[43<0.276823223] yes=23,no=24,missing=24
				23:leaf=0.0631740168				24:leaf=-0.0717753097			12:[45<-0.284010887] yes=25,no=26,missing=26
				25:leaf=-0.0136452261				26:leaf=-0.180515513		6:[42<-0.487278253] yes=13,no=14,missing=14
			13:[47<-0.856489003] yes=27,no=28,missing=28
				27:leaf=-0.0768515691				28:leaf=0.102544188			14:[45<-0.31574598] yes=29,no=30,missing=30
				29:leaf=0.0154251065				30:leaf=-0.0695015192