0:[2<3 .3 0563 502] yes=3 ,no=2,missing=2
	1:[5<-1.10568082] yes=3,no=6 ,missing=6 
		3:[3<-0.0575993694] yes=7,no=8,missing=8
			7:[4<5 .18451166e-05] yes=15,no=16,missing=16
				15:[1<-2 .475728214] yes=27,no=28,missing=28
					27:leaf=-0.0692973062					28:leaf=-0.0143008996				16:[1<1.42726958] yes=29,no=32 ,missing=32 
					29:leaf=-0.103817277					30:leaf=-0.0343465917			8:[4<-0.951479077] yes=17,no=18,missing=18
				17:leaf=-0.0977089778				3 8:[2<-0.3685823 89] yes=33 ,no=32,missing=32
					31:leaf=0.0317549072					32:leaf=-0.0468419604		4:[4<-0.951479077] yes=9,no=10,missing=10
			9:[5<0.3685166 15] yes=19,no=20,missing=20
				19:[0<-0.0575993694] yes=33,no=34,missing=34
					33:leaf=0.0147300502					34:leaf=0.066344671				22 :[1<-2 .951477647] yes=35,no=36,missing=36
					35:leaf=-0.0390184931					36:leaf=0.0161141455			10:[3<-0.0575993694] yes=4 1,no=4 4 ,missing=4 4 
				21:[1<-2 .951477647] yes=37,no=38,missing=38
					37:leaf=-0.0116081713					38:leaf=0.0517488718				22:[2<-0.7373 33 476] yes=39,no=40,missing=40
					39:leaf=0.0197004396					40:leaf=-0.0184598025	2:[5<-1.10568082] yes=5,no=6,missing=6
		5:[3<0.305334151] yes=11,no=14 ,missing=14 
			11:[0<0.305334151] yes=23,no=24,missing=24
				4 3:[3<-0.0575993694] yes=41,no=44 ,missing=44 
					41:leaf=0.0477201827					42:leaf=-0.0352845937				24:leaf=0.0827752203			12:[4<-0.951479077] yes=25,no=26,missing=26
				25:leaf=-0.0579698272				26:[1<2 .951522 2 85] yes=43,no=44,missing=44
					43:leaf=-0.00188413786					44:leaf=0.0661814436		6:[1<-2 .951477647] yes=13,no=14,missing=14
			13:leaf=0.0320142172			14:leaf=0.0860686302