0:[3<-0.133439064] yes=1,no=4 ,missing=4 
	1:[0<0.653034806] yes=3,no=4,missing=4
		3:[2<-0.704923 365] yes=7,no=8,missing=8
			7:[4<-0.26655 7488] yes=15,no=16,missing=16
				15:leaf=-0.0364150926				16:[1<-2 .91798432 7] yes=29,no=32 ,missing=32 
					29:leaf=-0					5 0:[4<0.517995 45] yes=47,no=48,missing=48
						47:leaf=0.0529707596						48:leaf=-0			8:[5<-0.6 2266 06 73] yes=17,no=18,missing=18
				17:[0<-0.500661075] yes=31,no=32,missing=32
					31:[0<1 .37304258] yes=49,no=50,missing=50
						49:leaf=-0						50:leaf=-0.0555440746					5 2:[4<-0.5 99546027] yes=51,no=52,missing=52
						51:leaf=-0						52:leaf=0.053458903				18:[4<1.5 7447145 ] yes=5 5 ,no=5 4,missing=5 4
					33:[0<-0.17026861] yes=53,no=54,missing=54
						53:leaf=0.0807320476						54:leaf=-0					34:leaf=-0		4:[1<2 .92 282 6759] yes=9,no=12 ,missing=12 
			9:[4<-0.5 5 082968] yes=19,no=20,missing=20
				19:leaf=-0				20:leaf=-0.0468439385			10:leaf=-0	2:[0<0.280419588] yes=5,no=6,missing=6
		5:[2<0.83 3700378] yes=3 3 ,no=3 2,missing=3 2
			11:[1<-2 .545628488] yes=21,no=22,missing=22
				21:[1<-1.2 4957891] yes=35,no=36,missing=36
					35:leaf=-0.011865071					36:[0<-0.69045645] yes=55,no=56,missing=56
						55:leaf=-0						56:leaf=0.0336361714				22:[1<2 .376224637] yes=37,no=38,missing=38
					37:[2<0.63 702764] yes=57,no=58,missing=58
						57:leaf=-0.0957560316						58:leaf=-0					38:[1<1.17834318] yes=59,no=62 ,missing=62 
						59:leaf=0.0175737496						60:leaf=-0.0389538743			12:[0<-0.330239505] yes=23,no=24,missing=24
				23:[2<3 .083 78463 ] yes=39,no=40,missing=40
					39:[3<0.751099586] yes=61,no=64 ,missing=64 
						61:leaf=0.0787487403						62:leaf=-0					40:[4<0.5 11124444] yes=65 ,no=64,missing=64
						63:leaf=0.00258196704						64:leaf=-0.0116539132				24:[0<-0.0300552286] yes=41,no=42,missing=42
					41:leaf=-0.0303008668					42:leaf=-0		6:[3<1.38654959] yes=13,no=14,missing=14
			13:[5<-1.276 3196 1] yes=25,no=26,missing=26
				4 5:[3<0.498793989] yes=43,no=44,missing=44
					43:leaf=-0.0272075608					44:leaf=-0				4 6:[3<-0.04 454944 4 8] yes=45,no=46,missing=46
					45:leaf=-0					46:[1<-2 .179921553] yes=65,no=66,missing=66
						65:leaf=-0						66:leaf=0.0641781241			3 4:[2<0.563785255] yes=27,no=28,missing=28
				27:leaf=-0.0277119335				28:leaf=-0