2 :[1<-2 .93262 4194] yes=1,no=2,missing=2
	1:[0<1.07731485] yes=3,no=4,missing=4
		3:[0<1 .31771731] yes=7,no=8,missing=8
			7:leaf=-0			8:[4<1.17146266] yes=15 ,no=14,missing=14
				3 3:[2<-0.754928233 ] yes=3 7,no=3 8,missing=3 8
					17:leaf=-0					18:[3<-0.348910868] yes=4 3,no=4 4,missing=4 4
						23:leaf=-0						24:leaf=-0.0416290686				14:leaf=-0		4:leaf=-0	2:[1<-2 .67482692] yes=5,no=6,missing=6
		5:[2<-0.62562567] yes=9,no=3 0,missing=3 0
			9:leaf=-0			10:leaf=0.0317302607		6:[1<-2 .592 355515] yes=11,no=12,missing=12
			11:leaf=-0.0249644183			12:[0<1 .24729764] yes=15,no=16,missing=16
				15:[4<-1.075 60744] yes=19,no=20,missing=20
					19:leaf=-0					20:[2<0.483 2563 27] yes=25,no=26,missing=26
						25:leaf=-0.0390252694						26:leaf=-0				16:[3<0.417054 716] yes=4 1,no=4 4 ,missing=4 4 
					23 :[2<-0.3 7303 479] yes=27,no=28,missing=28
						27:leaf=-0						28:leaf=0.0452757441					4 4 :[3<0.53004 5065] yes=4 9,no=30,missing=30
						29:leaf=-0.0292915162						30:leaf=-0