0:[5<1.6 76 166 25] yes=1,no=2,missing=2
	1:[0<-0.0575993694] yes=3,no=4,missing=4
		3:[1<2 .951522 2 85] yes=7,no=8,missing=8
			7:[3<0.305334151] yes=13,no=14,missing=14
				13:[5<0.3685166 15] yes=21,no=22,missing=22
					21:leaf=-0.0237171631					22:leaf=0.0480242372				3 4:[2<0.737065732] yes=23,no=24,missing=24
					23:leaf=-0.0951460227					24:leaf=-0.0101480577			8:[5<0.3685166 15] yes=15,no=16,missing=16
				15:[4<0.475787282] yes=25,no=26,missing=26
					25:leaf=0.0993696824					26:leaf=-0.036059048				16:[4<0.95154275 5] yes=27,no=28,missing=28
					27:leaf=-0.0837630555					28:leaf=0.0325311534		6 :[5<0.737065732] yes=9,no=10,missing=10
			9:leaf=0.0825408623			10:[4<5 .18451166e-05] yes=17,no=18,missing=18
				17:[0<0.668267667] yes=29,no=30,missing=30
					29:leaf=0.0376131646					30:leaf=-0.0322561674				18:[1<2 .475772 682] yes=31,no=32,missing=32
					31:leaf=0.0780411586					32:leaf=-0.00347432238	2:[2<3 .4743 6425] yes=5,no=6,missing=6
		5:[0<-0.0575993694] yes=11,no=12,missing=12
			11:[1<2 .951522 2 85] yes=19,no=22 ,missing=22 
				19:[4<-0.951479077] yes=5 5 ,no=5 4,missing=5 4
					33:leaf=0.069645755					34:leaf=0.0114859976				20:[2<3 .3 0563 502] yes=35,no=36,missing=36
					35:leaf=0.0108793005					36:leaf=-0.0629132614			12:leaf=0.0704274103		6:leaf=0.0853897259