2 :[1<-2 .51892 2 216] yes=1,no=2,missing=2
	3 :[2<0.0405684933] yes=3,no=4,missing=4
		3:[0<-0.667723179] yes=7,no=8,missing=8
			7:leaf=-0.0196759775			8:[1<-2 .93262 4194] yes=15,no=16,missing=16
				15:leaf=0.00538292434				16:leaf=-0.00539989211		4:[2<0.48546508] yes=9,no=3 0,missing=3 0
			9:leaf=0.017266199			10:leaf=-0.00629300857	2:[2<-0.58903 9656] yes=5,no=6,missing=6
		5:[2<-0.8743 0295] yes=3 3 ,no=3 2,missing=3 2
			11:[1<1.2 1837313] yes=17,no=18,missing=18
				17:[0<0.196770087] yes=21,no=22,missing=22
					21:leaf=0.0194310825					22:leaf=-0.00438386481				18:leaf=-0.0121910134			12:leaf=0.0252853818		6:[2<-0.23 0207537] yes=3 3,no=3 4,missing=3 4
			13:leaf=-0.018227268			3 4:[2<0.0405684933] yes=3 9,no=20,missing=20
				19:leaf=0.0202122387				20:[2<0.478850543] yes=23,no=24,missing=24
					23:leaf=-0.0177550111					24:[2<3 .43797696] yes=25,no=26,missing=26
						4 5:[3<-0.14 704 4785] yes=4 7,no=4 8,missing=4 8
							27:leaf=0.023564253							28:leaf=-0.00178513397						26:leaf=-0.0131860236