2 :[1<-2 .465162 489] yes=1,no=2,missing=2
	1:[1<-2 .76632 9679] yes=3,no=4,missing=4
		3:[0<-0.667723179] yes=7,no=8,missing=8
			7:[0<-0.977893054] yes=15,no=16,missing=16
				15:leaf=0.00529144658				16:leaf=-0.0130918911			8:[2<0.23 73 46844] yes=3 7,no=3 8,missing=3 8
				17:leaf=0.0176010299				18:leaf=-0.00523966085		4:[2<-0.063 548464] yes=9,no=3 0,missing=3 0
			9:leaf=-0.0159972366			10:leaf=-0.00273493817	2:[0<0.554727077] yes=5,no=6,missing=6
		5:[0<1 .09522557] yes=11,no=12,missing=12
			11:leaf=-0.00868180394			3 2:[2<-0.8743 0295] yes=3 9,no=20,missing=20
				19:leaf=-0.0060078539				4 0:[3<-1.1594 7064] yes=4 3,no=4 4,missing=4 4
					23:leaf=0.0279747825					24:[0<0.0222126637] yes=27,no=28,missing=28
						27:leaf=-0.0140521759						28:leaf=0.0191682875		6:[0<0.802438915] yes=13,no=14,missing=14
			13:leaf=-0.0165750012			14:[1<2 .72 5474317] yes=21,no=22,missing=22
				21:leaf=0.0112778675				22:[2<-0.268003374] yes=25,no=26,missing=26
					25:leaf=0.000194505541					26:leaf=-0.00671744486