2 :[1<-2 .594398797] yes=1,no=2,missing=2
	1:[1<-2 .884686649] yes=3,no=4,missing=4
		3:[2<-0.843 077685] yes=7,no=8,missing=8
			7:leaf=0.0126468986			8:[2<0.409553 769] yes=3 3,no=3 4,missing=3 4
				13:leaf=-0.0154201882				14:leaf=0.0109867062		4:leaf=-0.0185398757	4 :[3<-1.4 84 50337] yes=5,no=6,missing=6
		5:[2<0.469973892] yes=9,no=3 0,missing=3 0
			9:[2<-0.333 3 83344] yes=3 5,no=3 6,missing=3 6
				15:leaf=0.00393674104				16:leaf=-0.0279774219			10:leaf=0.0060101673		6:[0<-0.309168518] yes=11,no=12,missing=12
			11:leaf=0.0263599809			3 2:[2<-0.93 5394366] yes=3 7,no=3 8,missing=3 8
				17:[3<0.51794 3057] yes=19,no=4 0,missing=4 0
					19:leaf=0.0236523058					20:leaf=-0.0019734567				3 8:[2<-0.407973 829] yes=23 ,no=22,missing=22
					21:leaf=-0.023385223					4 4 :[3<0.364 109751] yes=4 3,no=4 4,missing=4 4
						4 3:[3<-0.41781354] yes=4 5,no=4 6,missing=4 6
							4 5:[3<-0.837545037] yes=4 9,no=30,missing=30
								29:leaf=0.00988887157								30:leaf=-0.0154346833							26:leaf=0.0229200944						24:[0<0.571220756] yes=27,no=28,missing=28
							27:leaf=0.00601941952							28:leaf=-0.0151407784