0:[2<-3 .3 223 2765] yes=3 ,no=2,missing=2
	1:leaf=-0.0666479096	2:[0<1 .15800726] yes=3,no=4,missing=4
		3:[3<-1.13867664] yes=5,no=6,missing=6
			5:leaf=0.0433280431			6:[4<0.86270745 6] yes=9,no=10,missing=10
				9:[2<0.83 2674046] yes=3 5,no=3 6,missing=3 6
					15:leaf=-0.0763831735					16:leaf=0.0082103638				10:[5<-0.507236 6 56 ] yes=17,no=18,missing=18
					17:leaf=-0.0409673825					18:leaf=0.0295559447		4:[1<-2 .955411255] yes=7,no=8,missing=8
			7:[1<-1.2 62 33897] yes=11,no=12,missing=12
				11:[4<0.5 04595 414] yes=19,no=20,missing=20
					19:[3<0.6106094 93] yes=4 5,no=4 6,missing=4 6
						25:[0<0.0940743685] yes=35,no=36,missing=36
							35:leaf=-0.011208076							36:leaf=0.0680846944						26:leaf=-0.0203178823					20:[4<0.65 5069072] yes=27,no=28,missing=28
						27:leaf=-0.063203007						28:[4<1.5 5 8955 02] yes=5 7,no=5 8,missing=5 8
							37:leaf=0.0329911336							38:leaf=-0.0197731778				12:leaf=-0.04965486			8:[3<0.314 555343] yes=13,no=14,missing=14
				13:[5<1.82989323] yes=21,no=22,missing=22
					21:[5<-1.03320765] yes=29,no=30,missing=30
						4 9:[3<-1.110934 4 3] yes=39,no=40,missing=40
							39:leaf=-0.0545814373							40:[4<-0.5 405 865 01] yes=49,no=50,missing=50
								49:[3<-0.355944 1] yes=59,no=60,missing=60
									59:leaf=0.00935209077									60:leaf=-0.0474299528								50:[5<-1.38092387] yes=61,no=62,missing=62
									61:leaf=0.0733131096									62:leaf=0.0048029311						30:[2<0.799307525] yes=43 ,no=42,missing=42
							41:[1<1.13181198] yes=51,no=52,missing=52
								51:[0<-0.906692445] yes=63,no=64,missing=64
									63:leaf=0.00436088163									64:leaf=0.0766884163								52:[1<1.33282 528] yes=65,no=66,missing=66
									65:leaf=-0.0220777635									66:leaf=0.0252517778							42:leaf=-0.0142468791					22:leaf=-0.0235690325				14:[3<0.514 4 4 5986] yes=4 3,no=4 4,missing=4 4
					23:[5<-0.158062801] yes=31,no=32,missing=32
						31:leaf=-0.073114574						32:[5<0.782578886] yes=6 3,no=6 6 ,missing=6 6 
							43:leaf=0.0192826726							44:leaf=-0.0230619833					4 4:[3<1.04 38134 5] yes=33,no=34,missing=34
						33:[0<0.711925268] yes=45,no=46,missing=46
							45:[0<-0.105477162] yes=53,no=54,missing=54
								53:leaf=0.0512024499								54:[4<0.025 976745 2] yes=67,no=68,missing=68
									67:[4<-0.604566514] yes=71,no=72,missing=72
										71:leaf=0.00517483056										72:leaf=-0.0763418823									68:leaf=0.0226168856							46:leaf=0.0782823265						34:[2<0.003 73722266] yes=47,no=48,missing=48
							6 7:[5<-0.752906 536 ] yes=55,no=56,missing=56
								55:leaf=0.0131640481								56:leaf=-0.0718041509							6 8:[5<-0.875229299] yes=57,no=58,missing=58
								57:leaf=-0.0380425304								58:[3<1.4 1160638] yes=69,no=70,missing=70
									69:leaf=-0.0168240014									70:[4<0.6460085 15 ] yes=75 ,no=74,missing=74
										73:leaf=0.0820188895										74:leaf=-0.0164112132