0:[97<0.205726624] yes=1,no=2,missing=2
	1:[98<3.93263674] yes=3,no=4,missing=4
		3:[34<1] yes=7,no=8,missing=8
			7:[36<1] yes=15,no=16,missing=16
				15:[3<1] yes=2_ Private 5,no=2_ Private 6,missing=2_ Private 6
					25:leaf=-0.0163450036					26:leaf=0.00933536422				16:[96<0.357334077] yes=27,no=28,missing=28
					27:leaf=-0.0843945369					28:leaf=0.0104975216			8:[94<0.690473199] yes=17,no=18,missing=18
				17:leaf=-0.085902296				18:leaf=-0.0221624877		4:[94<-0.409198672] yes=9,no=10,missing=10
			9:leaf=-0.0187313687			10:[98<4.85084152] yes=19,no=20,missing=20
				19:leaf=0.0722979233				20:leaf=0.0164020378	2:[43<1] yes=5,no=6,missing=6
		5:[99<-1.25025678] yes=11,no=12,missing=12
			11:leaf=-0.0171826519			12:[97<0.512823462] yes=21,no=22,missing=22
				21:[99<0.855444849] yes=29,no=30,missing=30
					29:leaf=0.0379355103					30:leaf=-0.017345069				22:[46<1] yes=31,no=32,missing=32
					31:leaf=0.0793969855					32:leaf=0.0215868		6:[52<1] yes=13,no=14,missing=14
			13:leaf=-0.032109648			14:[26<1] yes=23,no=24,missing=24
				23:[95<-0.163338423] yes=33,no=34,missing=34
					33:leaf=0.0444752537					34:leaf=-0.0032378044				24:leaf=-0.0187485944