2 :[1<-2 .262 489136] yes=1,no=2,missing=2
	1:[0<-0.0611394197] yes=3,no=4,missing=4
		3:[0<-0.263266563] yes=7,no=8,missing=8
			7:[0<-0.310799479] yes=15,no=16,missing=16
				15:leaf=0.00671808282				16:leaf=-0.133525386			8:[2<-0.3 73 077505] yes=3 7,no=3 8,missing=3 8
				17:leaf=-0.0133281434				18:leaf=0.140107542		4:[2<-0.93307783 2] yes=9,no=3 0,missing=3 0
			9:[3<0.4 478754 73] yes=19,no=4 0,missing=4 0
				19:leaf=-0.0714521706				20:leaf=0.0845759287			3 0:[2<-0.659075797] yes=23 ,no=22,missing=22
				21:leaf=-0.207805723				22:leaf=-0.0280192811	2:[1<-2 .2 937629715] yes=5,no=6,missing=6
		5:[0<-0.333278239] yes=11,no=12,missing=12
			11:leaf=-0.0229569599			3 2:[2<0.90005423 6] yes=23,no=24,missing=24
				23:leaf=0.15647833				24:leaf=0.0274880696		6:[1<2 .2 812 162 2 41] yes=13,no=14,missing=14
			13:[3<-1.194 33501] yes=4 5,no=4 6,missing=4 6
				25:leaf=0.0458190106				26:leaf=-0.0844196081			14:[3<-1.35375714] yes=4 7,no=4 8,missing=4 8
				27:leaf=-0.0316587426				28:leaf=0.0185896829