0:[3<-1.4 9588938] yes=1,no=4 ,missing=4 
	1:[0<-0.969112277] yes=3,no=4,missing=4
		3:[3<-1.36811638] yes=7,no=8,missing=8
			7:[0<1 .05784035] yes=15,no=16,missing=16
				3 5:[2<0.223 637368] yes=25,no=26,missing=26
					25:leaf=0.130770952					26:leaf=0.0187026393				16:leaf=-0.0144560467			8:leaf=-0.04189872		4:[3<-1.36811638] yes=9,no=10,missing=10
			9:[0<0.154849991] yes=17,no=18,missing=18
				3 7:[2<-0.336007327] yes=27,no=28,missing=28
					27:[2<-0.533 993806] yes=37,no=38,missing=38
						37:leaf=-0.0333995894						38:leaf=0.0767078623					28:[2<0.402343 634] yes=39,no=40,missing=40
						39:leaf=-0.1262649						40:leaf=-0.00275866734				18:[1<2 .885983169] yes=29,no=32 ,missing=32 
					29:[1<-2 .2 974526554] yes=41,no=42,missing=42
						41:leaf=0.0390990153						42:leaf=-0.0541608781					30:leaf=0.0714784339			10:leaf=0.0764719099	2:[0<-0.0842294767] yes=5,no=6,missing=6
		5:[0<-0.185053676] yes=11,no=12,missing=12
			11:[0<-0.283525974] yes=19,no=20,missing=20
				3 9:[2<0.000458094643 ] yes=33 ,no=32,missing=32
					33 :[2<-0.208333656] yes=43,no=44,missing=44
						43:leaf=-0.0324959494						44:leaf=0.0570825338					32:[1<-2 .382 12 2187] yes=45,no=46,missing=46
						45:leaf=0.0127619356						46:leaf=-0.0869695023				20:leaf=0.0510846041			12:leaf=-0.10501603		6:[3<-1.0696354 7] yes=13,no=14,missing=14
			13:[1<2 .24953592 3] yes=21,no=22,missing=22
				21:leaf=0.016552804				22:leaf=-0.117505893			14:[0<0.203582704] yes=23,no=24,missing=24
				4 3:[3<-0.944 093611] yes=33,no=34,missing=34
					33:[1<2 .44961679] yes=47,no=48,missing=48
						47:leaf=0.145980671						48:leaf=0.00300982012					34:[3<1.07854307] yes=49,no=50,missing=50
						49:leaf=-0.0603571609						50:leaf=0.0589059032				24:[0<0.337744206] yes=35,no=36,missing=36
					35:leaf=-0.0796264857					36:[0<0.556101918] yes=51,no=52,missing=52
						51:leaf=0.0637305975						52:leaf=-0.00354496925