0:[28<-0.338460833] yes=1,no=2,missing=2
	1:[17<1] yes=3,no=4,missing=4
		3:[18<1] yes=7,no=8,missing=8
			7:[23<1] yes=15,no=16,missing=16
				15:[28<-0.804429948] yes=31,no=32,missing=32
					31:leaf=-0.0168301612					32:leaf=0.0492415167				16:[26<1.46513867] yes=33,no=34,missing=34
					33:leaf=0.00066263834					34:leaf=-0.0602199212			8:[25<0.326044112] yes=17,no=18,missing=18
				17:leaf=-0.0862015113				18:leaf=0.0237108227		4:[26<-1.41861856] yes=9,no=10,missing=10
			9:[27<-0.475348383] yes=19,no=20,missing=20
				19:[24<0.194353148] yes=35,no=36,missing=36
					35:leaf=-0.0682143793					36:leaf=0.0270798691				20:[23<1] yes=37,no=38,missing=38
					37:leaf=0.0936061293					38:leaf=-0.00945701078			10:[22<1] yes=16_success ,no=22,missing=22
				21:[27<-0.89062494] yes=39,no=40,missing=40
					39:leaf=-0.037657436					40:leaf=-0.0925124809				22:leaf=0.00657458836	2:[28<-0.264682412] yes=5,no=6,missing=6
		5:[27<-0.475348383] yes=11,no=12,missing=12
			11:[25<-0.401762277] yes=23,no=6 ,missing=6 
				23:leaf=-0.00968522951				24:leaf=0.131061971			12:[6<1] yes=22_services ,no=26,missing=26
				25:[27<0.770481229] yes=41,no=42,missing=42
					41:leaf=-0.0257451776					42:leaf=0.0496507213				26:leaf=0.146329969		6:[28<-0.105476297] yes=13,no=14,missing=14
			13:[25<0.90966866 ] yes=27,no=28,missing=28
				27:[4<1] yes=42_retired ,no=44,missing=44
					43:leaf=-0.0534668863					44:leaf=0.0363920406				28:[27<0.355204672] yes=45,no=46,missing=46
					45:leaf=-0.0226227324					46:leaf=0.0767308548			14:[17<1] yes=29,no=30,missing=30
				29:[18<1] yes=47,no=48,missing=48
					47:leaf=0.0304293483					48:leaf=-0.017039163				30:[26<0.864355862] yes=49,no=50,missing=50
					49:leaf=-0.00856654812					50:leaf=0.0245794039