0:[20<1] yes=1,no=2,missing=2
	1:[28<1.26524949] yes=3,no=4,missing=4
		3:[27<0.355204672] yes=7,no=8,missing=8
			7:[27<-0.0600718521] yes=15,no=16,missing=16
				15:[27<-1.72117794] yes=29,no=30,missing=30
					29:leaf=-0.0328909643					30:leaf=0.0162270777				16:[24<-1.12406802] yes=31,no=32,missing=32
					31:leaf=0.00109870464					32:leaf=0.103637554			8:[26<-0.697679222] yes=17,no=18,missing=18
				17:[28<-0.800546825] yes=33,no=34,missing=34
					33:leaf=-0.0909902155					34:leaf=0.0287664682				18:[29<4.91802979] yes=35,no=36,missing=36
					35:leaf=-0.0252042711					36:leaf=0.0916729197		4:[27<2.01631069] yes=9,no=10,missing=10
			9:[18<1] yes=19,no=20,missing=20
				19:leaf=0.0949134827				20:[17<1] yes=37,no=38,missing=38
					37:leaf=-0.0457807779					38:leaf=0.0572783761			10:[25<0.176935762] yes=21,no=22,missing=22
				21:[29<-0.246557623] yes=39,no=40,missing=40
					39:leaf=0.0209789183					40:leaf=-0.0747495964				22:leaf=0.0669139847	2:[28<0.344960481] yes=5,no=6,missing=6
		5:[28<-0.924805284] yes=11,no=12,missing=12
			11:leaf=0.0301316269			12:[28<0.306129724] yes=23,no=24,missing=24
				23:leaf=-0.0957692638				24:leaf=-0.0308092423		6:[26<0.143416598] yes=13,no=14,missing=14
			13:[25<-0.114055425] yes=25,no=26,missing=26
				25:[25<-0.167261481] yes=41,no=42,missing=42
					41:leaf=0.00299124233					42:leaf=-0.109525494				26:[24<0.194353148] yes=43,no=44,missing=44
					43:leaf=0.0947005525					44:leaf=0.00388867757			14:[26<0.624042809] yes=27,no=28,missing=28
				27:[13<1] yes=45,no=46,missing=46
					45:leaf=-0.0328094661					46:leaf=-0.108125404				28:[25<-0.0565797389] yes=47,no=48,missing=48
					47:leaf=0.0343802348					48:leaf=-0.0592053942