0:[2<0.737065732] yes=3 ,no=2,missing=2
	1:[3<0.6684 67667] yes=3,no=4,missing=4
		3:[2<-3 .3 0568082] yes=7,no=8,missing=8
			7:leaf=-0.20894675			8:[5<-1.10568082] yes=15,no=16,missing=16
				15:[0<0.305334151] yes=27,no=28,missing=28
					27:leaf=-0.203151226					28:leaf=-0.0852464214				16:[3<-0.0575993694] yes=4 9,no=30,missing=30
					29:leaf=0.138631746					30:leaf=0.033912342		4:[0<1.03120124] yes=9,no=10,missing=10
			9:[0<0.668267667] yes=17,no=18,missing=18
				3 7:[2<0.36853 643 5] yes=33 ,no=32,missing=32
					31:leaf=-0.203084618					32:leaf=-0.131458864				18:[3<1.0314 014 4] yes=33,no=34,missing=34
					33:leaf=-0.0611224845					34:leaf=-0.188200951			3 0:[2<-3 .3 0568082] yes=3 9,no=20,missing=20
				19:leaf=-0.203229532				4 0:[3<1.0314 014 4] yes=35,no=36,missing=36
					35:leaf=0.0959843472					36:leaf=-0.0338496305	2:[5<-1.10568082] yes=5,no=6,missing=6
		5:[2<3 .3 0563 502] yes=3 3 ,no=3 2,missing=3 2
			11:[0<1.03120124] yes=21,no=22,missing=22
				21:leaf=-0.200391456				22:[4<0.95154275 5] yes=5 7,no=5 8,missing=5 8
					37:leaf=-0.154857799					38:leaf=-0.0382026955			12:[0<-0.0575993694] yes=23,no=24,missing=24
				4 3:[3<-0.0575993694] yes=39,no=40,missing=40
					39:leaf=0.107025497					40:leaf=-0.133292958				24:[1<-2 .951477647] yes=41,no=42,missing=42
					41:leaf=0.0215560868					42:leaf=0.13198711		6:[2<3 .3 0563 502] yes=3 3,no=3 4,missing=3 4
			13:[3<1.0314 014 4] yes=4 5,no=4 6,missing=4 6
				25:[0<-0.0575993694] yes=43,no=44,missing=44
					43:leaf=0.0639293045					44:leaf=0.150046095				26:[0<0.305334151] yes=45,no=46,missing=46
					45:leaf=-0.126328021					46:leaf=0.0690224171			14:leaf=0.159136117