0:[2<-0.93307783 2] yes=3 ,no=2,missing=2
	1:[0<1 .11022341] yes=3,no=4,missing=4
		3:leaf=0.00610888889		4:[1<2 .642395616] yes=7,no=8,missing=8
			7:leaf=-0.0393962711			8:leaf=-0.00214948575	2:[0<-0.437846959] yes=5,no=6,missing=6
		5:[1<-2 .442342222] yes=9,no=12 ,missing=12 
			9:[1<-2 .6431822 39] yes=13,no=14,missing=14
				13:[3<0.8568304 99] yes=4 1,no=4 4 ,missing=4 4 
					4 1:[3<-1.1464 0817] yes=4 9,no=30,missing=30
						29:leaf=-0.0165362097						30:leaf=0.0446880981					22:leaf=-0.0209310297				14:leaf=-0.0261171628			3 0:[2<0.654393435] yes=3 5,no=3 6,missing=3 6
				15:[0<1 .00898111] yes=23,no=24,missing=24
					23:leaf=-0.00394093012					24:[2<-0.333790958] yes=33 ,no=32,missing=32
						31:leaf=0.0113107469						32:leaf=0.0644505918				16:leaf=0.00469869003		6:[0<-0.236640364] yes=11,no=12,missing=12
			11:[1<2 .292156488] yes=17,no=18,missing=18
				17:leaf=-0.0510275364				18:leaf=0.00818654336			12:[0<0.0551713556] yes=19,no=20,missing=20
				3 9:[2<0.722852409] yes=25,no=26,missing=26
					25:[2<0.33 63 3 8747] yes=33,no=34,missing=34
						33:leaf=0.00552381761						34:leaf=0.0573620237					26:leaf=-0.020590229				4 0:[3<-0.953134 4 74 ] yes=4 7,no=4 8,missing=4 8
					27:leaf=-0.0433929302					28:[1<-2 .72 9727943] yes=35,no=36,missing=36
						35:leaf=-0.0313069001						36:leaf=0.0245561227