0:[3<0.94 67754 77] yes=1,no=4 ,missing=4 
	1:[3<-1.34 54 933] yes=3,no=4,missing=4
		3:[0<-0.139227048] yes=7,no=8,missing=8
			7:leaf=-0.0258501396			8:leaf=0.00267412537		4:[1<2 .93832 122 6] yes=9,no=12 ,missing=12 
			9:[0<-0.555073619] yes=13,no=14,missing=14
				13:[1<-2 .4148782 7] yes=17,no=18,missing=18
					17:[1<-2 .764332891] yes=23,no=24,missing=24
						23:leaf=0.025174316						24:leaf=-0.0309054162					18:leaf=0.0395499468				3 4:[2<0.698650243 ] yes=3 9,no=20,missing=20
					19:[3<-0.333458513] yes=4 5,no=4 6,missing=4 6
						25:leaf=-0.0351832844						26:leaf=0.00217160094					20:[2<0.90353 0928] yes=27,no=28,missing=28
						27:leaf=0.0437985212						28:leaf=-0.0156883635			3 0:[2<-0.07673 86433] yes=3 5,no=3 6,missing=3 6
				15:[3<-0.333458513] yes=4 1,no=4 4 ,missing=4 4 
					21:leaf=0.0174215939					22:leaf=-0.0209345464				16:leaf=0.0443174988	2:[0<-0.750139534] yes=5,no=6,missing=6
		5:[1<2 .237398848] yes=11,no=12,missing=12
			11:leaf=-0.0189085007			12:leaf=0.015269273		6:leaf=-0.0307992175