0:[0<-0.437846959] yes=1,no=2,missing=2
	1:[1<2 .255682349] yes=3,no=4,missing=4
		3:[3<0.633898139] yes=7,no=8,missing=8
			7:[2<-0.532489896] yes=3 5,no=3 6,missing=3 6
				15:[3<-0.913753033] yes=4 7,no=4 8,missing=4 8
					27:leaf=0.0207804255					4 8:[3<-0.341617435] yes=35,no=36,missing=36
						35:leaf=-0.0425233282						36:leaf=-0.00290434761				16:[3<-1.19834 015] yes=4 9,no=30,missing=30
					29:leaf=-0.0244134068					30:[0<-0.516286552] yes=37,no=38,missing=38
						37:leaf=0.051516775						38:leaf=-0.00327117858			8:[1<-2 .873316348] yes=17,no=18,missing=18
				17:leaf=0.00380977266				3 8:[2<-0.047562059] yes=33 ,no=32,missing=32
					31:leaf=0.00381520134					32:leaf=-0.0575727336		4:[3<0.94 67754 77] yes=9,no=10,missing=10
			9:leaf=0.0614573359			3 0:[2<-0.333790958] yes=3 9,no=20,missing=20
				19:leaf=-0.0262058619				20:leaf=0.0321386419	2:[0<-0.195103377] yes=5,no=6,missing=6
		5:[1<2 .292156488] yes=11,no=12,missing=12
			3 3 :[2<0.83 63 26466] yes=23 ,no=22,missing=22
				21:leaf=-0.068240732				22:leaf=-0.000695606985			12:[1<2 .715938866] yes=23,no=24,missing=24
				23:leaf=0.0203514267				24:leaf=-0.0169865638		6:[2<-0.83 644088] yes=3 3,no=3 4,missing=3 4
			13:leaf=-0.0432507247			3 4:[2<-0.592288733] yes=25,no=26,missing=26
				25:leaf=0.0489551388				26:[0<-0.130106956] yes=33,no=34,missing=34
					33:[3<-1.19834 015] yes=39,no=40,missing=40
						39:leaf=0.0516215973						40:leaf=-0.0064592869					34:[3<-0.636947393] yes=41,no=44 ,missing=44 
						41:leaf=-0.0448601544						42:leaf=0.00831859373