0:[3<-0.0575993694] yes=1,no=4 ,missing=4 
	3 :[2<-3.2892236e-05] yes=3,no=4,missing=4
		3:[5<0.3685166 15] yes=7,no=8,missing=8
			7:[5<-0.368582189] yes=15,no=16,missing=16
				15:[5<-0.7371316 76] yes=31,no=32,missing=32
					31:leaf=-0.0608434863					32:leaf=0.0786707252				16:[1<2 .951522 2 85] yes=33,no=34,missing=34
					33:leaf=-0.0769986734					34:leaf=-0.0157028716			8:[2<-0.7373 33 476] yes=3 7,no=3 8,missing=3 8
				3 7:[2<-3 .3 0568082] yes=35,no=36,missing=36
					35:leaf=0.0719657317					36:leaf=-0.0440548137				3 8:[2<-0.3685823 89] yes=37,no=38,missing=38
					37:leaf=0.0874213576					38:leaf=0.0301679224		6 :[5<-3.2892236e-05] yes=9,no=10,missing=10
			9:[4<-0.475725 594] yes=19,no=20,missing=20
				19:[5<-0.7371316 76] yes=39,no=6 0,missing=6 0
					39:leaf=0.050413318					40:leaf=0.107269667				20:[2<3 .3 0563 502] yes=43 ,no=42,missing=42
					41:leaf=-0.00639438024					42:leaf=0.0889432803			10:[5<0.3685166 15] yes=21,no=22,missing=22
				23 :[2<0.36853 643 5] yes=43,no=44,missing=44
					43:leaf=0.00248038652					44:leaf=0.0877995417				22:leaf=0.0987232104	2:[4<-0.475725 594] yes=5,no=6,missing=6
		5:[1<-2 .475728214] yes=11,no=12,missing=12
			11:[4<-0.951479077] yes=25 ,no=24,missing=24
				23:[0<0.668267667] yes=45,no=46,missing=46
					45:leaf=-0.0363573991					46:leaf=0.0406175926				24:[0<1.03120124] yes=47,no=48,missing=48
					47:leaf=-0.086913012					48:leaf=-0.0247391965			3 2:[2<-0.7373 33 476] yes=25,no=26,missing=26
				25:[0<1.03120124] yes=49,no=50,missing=50
					49:leaf=-0.0436720215					50:leaf=0.0355162993				26:[1<2 .951522 2 85] yes=51,no=52,missing=52
					51:leaf=0.0658207014					52:leaf=0.00990027748		6:[2<3 .3 0563 502] yes=3 3,no=3 4,missing=3 4
			13:[5<1.10561502] yes=27,no=28,missing=28
				27:[1<-2 .951477647] yes=53,no=54,missing=54
					53:leaf=-0.10037329					54:leaf=-0.032761164				28:[0<0.668267667] yes=55,no=56,missing=56
					55:leaf=-0.0462423824					56:leaf=0.0318225212			16 :[5<-0.7371316 76] yes=29,no=30,missing=30
				29:[5<-1.10568082] yes=57,no=58,missing=58
					57:leaf=0.0548027828					58:leaf=-0.0377408862				32 :[1<-2 .951477647] yes=59,no=62 ,missing=62 
					59:leaf=0.0126139624					60:leaf=0.0815712959