0:[3<0.865166366] yes=1,no=4 ,missing=4 
	3 :[2<3 .0263 4427] yes=3,no=4,missing=4
		3:[5<0.7396 20116] yes=7,no=8,missing=8
			7:[2<0.37947883 2] yes=3 5,no=3 6,missing=3 6
				3 5:[2<-0.3 03442967] yes=33 ,no=32,missing=32
					31:[1<1.2 2 5652 16] yes=55,no=56,missing=56
						55:[4<1.45 5 5 0264] yes=81,no=82,missing=82
							81:[4<-0.0498499461] yes=111,no=112,missing=112
								111:[3<0.4 17903391] yes=153,no=154,missing=154
									153:leaf=0.0510839485									154:leaf=-0.0669013187								112:[5<-0.6 0596 238] yes=155,no=156,missing=156
									155:leaf=-0									156:leaf=0.165576696							82:[2<-0.8343 77554] yes=3 3 3,no=3 3 4,missing=3 3 4
								113:leaf=-0.156007811								114:[4<1.65165 112] yes=157,no=158,missing=158
									157:leaf=-0.0485750362									158:leaf=0.0802412331						56:[4<0.254685074] yes=85 ,no=84,missing=84
							83:[5<-1.38603175] yes=115,no=116,missing=116
								115:leaf=0.0236159097								116:[0<0.677761376] yes=159,no=160,missing=160
									159:leaf=-0.21361056									160:leaf=-0							84:[3<0.1080314 13] yes=117,no=118,missing=118
								117:[5<0.36 8178866 ] yes=161,no=162,missing=162
									161:leaf=0.186005652									162:leaf=-0								118:leaf=-0					32:[5<-0.5121816 01] yes=57,no=58,missing=58
						57:[1<2 .2 5312 6742 1] yes=85,no=86,missing=86
							85:[0<-0.892099559] yes=119,no=120,missing=120
								119:leaf=-0.11408519								120:[5<-0.67136538] yes=163,no=166 ,missing=166 
									163:leaf=0.0645276383									164:leaf=-0							86:[1<1.2981732 7] yes=121,no=122,missing=122
								121:leaf=0.196566567								122:leaf=-0						58:[3<0.594640911] yes=87,no=88,missing=88
							87:leaf=0.250258952							88:[2<0.03 23 93 8637] yes=3 23,no=3 24,missing=3 24
								123:leaf=-0.0143599426								124:leaf=0.0598572604				16:[5<-0.0026116 396 6 ] yes=33,no=36 ,missing=36 
					33:[0<0.522463441] yes=59,no=60,missing=60
						59:[1<1.24537659] yes=89,no=92 ,missing=92 
							89:[3<0.715963364] yes=14 5,no=14 6,missing=14 6
								125:[1<-1.42 596712] yes=165,no=166,missing=166
									165:leaf=-0									166:leaf=-0.227369994								126:leaf=-0							92 :[1<1.62643147] yes=127,no=128,missing=128
								127:leaf=0.047216922								128:leaf=-0.0125733484						60:[5<-1.1275816] yes=91,no=92,missing=92
							91:[1<-1.12 488129] yes=129,no=132 ,missing=132 
								129:leaf=-0.1297867								130:leaf=-0							92:[0<0.796269655] yes=131,no=132,missing=132
								131:leaf=-0								132:leaf=0.165857509					5 4:[4<1.62947524] yes=61,no=62,missing=62
						61:leaf=0.173352227						62:leaf=-0			8:[4<0.9675 95 577] yes=17,no=18,missing=18
				17:[1<2 .494132 284] yes=35,no=36,missing=36
					35:[2<-0.773 584988] yes=63,no=64,missing=64
						63:[1<-1.3795892] yes=93,no=94,missing=94
							93:leaf=0.000605986279							96 :[5<1.09827306 ] yes=133,no=136 ,missing=136 
								133:[5<0.86 0796 981] yes=167,no=168,missing=168
									167:leaf=-0									168:leaf=-0.219975948								136 :[5<1.56 237819] yes=169,no=170,missing=170
									169:leaf=0.0388559736									170:leaf=-0.142727807						64:[0<0.573756218] yes=95,no=96,missing=96
							95:[4<-1.5 0025768] yes=15 5,no=15 6,missing=15 6
								135:leaf=-0.057454221								136:[3<0.454 769488] yes=171,no=174 ,missing=174 
									171:leaf=0.169607341									172:leaf=-0							96:[4<-0.822765589] yes=15 7,no=15 8,missing=15 8
								137:[5<1.33256888] yes=173,no=176 ,missing=176 
									173:leaf=-0									174:leaf=0.100981474								138:[3<-0.469679864 ] yes=175,no=176,missing=176
									175:leaf=-0.205537394									176:leaf=-0					36:[2<0.67833662] yes=65,no=66,missing=66
						65:[1<2 .55442 4497] yes=97,no=98,missing=98
							97:leaf=-0							98:leaf=-0.20213984						66:leaf=-0				18:[3<-0.57649614 4] yes=37,no=38,missing=38
					37:[2<-0.73 4704454] yes=67,no=68,missing=68
						67:leaf=-0.0675127134						68:leaf=0.00428532716					38:leaf=0.226006612		4:[4<0.494185179] yes=9,no=10,missing=10
			9:[2<2.2069025] yes=3 9,no=20,missing=20
				19:[3<0.74 5994408] yes=39,no=40,missing=40
					39:leaf=0.221499488					40:leaf=-0				20:leaf=-0			10:[5<-0.33372882] yes=21,no=22,missing=22
				21:[1<2 .373422623] yes=41,no=42,missing=42
					41:[4<1.5 4476042] yes=69,no=70,missing=70
						69:[4<0.94784677] yes=99,no=100,missing=100
							99:[3<-1.4 4515367] yes=139,no=140,missing=140
								139:leaf=-0.0122586908								140:leaf=-0							100:leaf=-0.237021163						70:leaf=-0					42:leaf=0.0193940699				22:[2<3 .95044053] yes=43,no=44,missing=44
					43:leaf=0.134619251					44:leaf=-0	2:[0<0.249346942] yes=5,no=6,missing=6
		5:[5<-0.0252350532] yes=11,no=12,missing=12
			11:[4<-1.5 221685 5] yes=25 ,no=24,missing=24
				23:leaf=-0				24:[4<1.52541101] yes=45,no=46,missing=46
					45:leaf=-0.157987431					46:leaf=-0			3 2:[2<-0.686946809] yes=25,no=26,missing=26
				25:[1<-2 .57692 3522] yes=47,no=48,missing=48
					47:[2<-3 .22756326] yes=73 ,no=72,missing=72
						71:leaf=0.0176320374						72:leaf=-0.0367537402					48:leaf=-0.193082541				26:[2<0.794443 64] yes=49,no=50,missing=50
					6 9:[5<0.9222067] yes=73,no=76 ,missing=76 
						73:[0<1 .21062016] yes=101,no=102,missing=102
							101:[0<1 .4504447] yes=141,no=142,missing=142
								141:[4<-0.281490117] yes=177,no=178,missing=178
									177:leaf=0.0721987933									178:leaf=-0								142:leaf=-0.0411413461							12 2:[1<1.18941164] yes=143,no=144,missing=144
								143:leaf=0.226181552								144:leaf=-0						74:[4<-0.165 849294] yes=105 ,no=104,missing=104
							103:leaf=-0.185196131							3 04:[2<0.0963989573 ] yes=3 45,no=3 46,missing=3 46
								145:[0<-0.502301097] yes=179,no=180,missing=180
									179:leaf=-0.0911932141									180:leaf=-0								146:leaf=0.108997628					50:[5<0.678380072] yes=75,no=76,missing=76
						75:[0<-0.128241971] yes=105,no=106,missing=106
							12 5:[1<2 .365591466] yes=147,no=148,missing=148
								147:leaf=-0								148:leaf=-0.240714565							106:leaf=-0						76:leaf=0.0482106656		6:[2<-3 .29506934] yes=3 3,no=3 4,missing=3 4
			13:[1<-2 .914592 2 2 1] yes=27,no=28,missing=28
				27:leaf=-0				28:leaf=-0.114359662			14:[0<0.965251505] yes=29,no=30,missing=30
				29:[1<-2 .342 991348] yes=51,no=52,missing=52
					51:[0<0.784473598] yes=77,no=78,missing=78
						77:leaf=0.161502838						78:leaf=-0					52:[5<-0.26 0286 383] yes=79,no=80,missing=80
						79:[1<2 .159944355] yes=12 7,no=12 8,missing=12 8
							107:leaf=-0							12 8:[1<1.3462212 9] yes=149,no=152 ,missing=152 
								149:leaf=0.142391324								150:leaf=-0						80:[3<1.15863967] yes=109,no=110,missing=110
							109:leaf=-0							110:[4<-0.255957665 ] yes=151,no=152,missing=152
								151:leaf=-0								152:leaf=-0.169265836				30:[5<1.09827306 ] yes=53,no=56 ,missing=56 
					53:leaf=0.20385465					54:leaf=-0