0:[20<1] yes=1,no=2,missing=2
	1:[14<1] yes=3,no=4,missing=4
		3:[13<1] yes=5,no=6,missing=6
			5:[24<-0.184822991] yes=9,no=10,missing=10
				9:[24<-0.855041 98] yes=17,no=18,missing=18
					17:[24<-1.6128881] yes=27,no=28,missing=28
						27:[31<0.186542749] yes=43,no=44,missing=44
							43:leaf=-0.149269074							44:leaf=-0						28:[30<0.164909035] yes=45,no=46,missing=46
							45:leaf=0.117530741							46:leaf=-0.0285576601					18:[29<0.104526438] yes=29,no=30,missing=30
						29:leaf=-0.193284959						30:leaf=-0.00307944301				10:[28<0.453688353] yes=19,no=20,missing=20
					19:[27<0.740206122] yes=31,no=32,missing=32
						31:[28<-0.492024958] yes=47,no=48,missing=48
							47:leaf=0.00611370336							48:leaf=-0.108626932						32:leaf=0.04130283					20:leaf=0.080458805			6:[31<0.499889821] yes=11,no=12,missing=12
				11:[30<-0.0952065215] yes=21,no=22,missing=22
					21:[0<1] yes=33,no=34,missing=34
						33:[24<-1.97296917] yes=49,no=50,missing=50
							49:leaf=-0.0219360273							50:leaf=0.164277032						34:[11<1] yes=51,no=52,missing=52
							51:leaf=-0.072479859							52:leaf=0.0623542033					22:[28<0.177662954] yes=35,no=36,missing=36
						35:[28<-0.992405951] yes=53,no=54,missing=54
							53:leaf=-0.015049275							54:leaf=0.0931932926						36:[26<0.767133534] yes=55,no=56,missing=56
							55:leaf=-0.114396155							56:leaf=0.0144527992				12:[29<0.778786957] yes=23,no=24,missing=24
					23:[28<-0.49925065] yes=37,no=38,missing=38
						37:[29<-0.879744232] yes=57,no=58,missing=58
							57:leaf=-0.00796802435							58:leaf=-0.163558498						38:[28<0.04912 02387] yes=59,no=60,missing=60
							59:leaf=0.110567592							60:leaf=-0.0583510734					24:leaf=0.101223625		4:[7<1] yes=7,no=8,missing=8
			7:[9<1] yes=13,no=14,missing=14
				12_retired :[4<1] yes=25,no=26,missing=26
					25:[0<1] yes=39,no=40,missing=40
						39:[6<1] yes=61,no=62,missing=62
							61:leaf=0.153088719							62:leaf=0.00433974434						40:[31<-0.146232381] yes=63,no=64,missing=64
							63:leaf=-0.0939084068							64:leaf=0.0938254073					26:[24<-0.521806836] yes=41,no=42,missing=42
						41:leaf=-0.0780638307						42:leaf=0.0397115313				14:leaf=-0.0607052222			8:[30<-0.105537906] yes=15,no=16,missing=16
				15:leaf=-0.0774142146				16:leaf=0.0131632714	2:leaf=-0.144100666