0:[38<1] yes=1,no=2,missing=2
	1:[18<1] yes=3,no=4,missing=4
		3:[99<0.914034486] yes=5,no=6,missing=6
			5:[94<1.41480947] yes=9,no=10,missing=10
				9:[97<0.631606221] yes=17,no=18,missing=18
					17:[3<1] yes=2_ Private 7,no=2_ Private 8,missing=2_ Private 8
						27:[95<0.606157303] yes=31,no=32,missing=32
							31:leaf=-0.0353237204							32:leaf=0.0416255593						28:[94<-0.568888485] yes=33,no=34,missing=34
							33:leaf=-0.0224075988							34:leaf=0.0575572141					18:[97<1.51453817] yes=29,no=30,missing=30
						2_ Private 9:[3<1] yes=35,no=36,missing=36
							35:leaf=0.0308674295							36:leaf=-0.0548479706						30:[99<-0.277897835] yes=37,no=38,missing=38
							37:leaf=-0.0129189696							38:leaf=0.0526328571				10:leaf=-0.0369690806			6:[3<1] yes=11,no=12_ Private ,missing=12_ Private 
				11:[95<0.21560888] yes=19,no=20,missing=20
					19:leaf=0.0444642715					20:leaf=-0.0241061784				12:[95<0.353830695] yes=21,no=22,missing=22
					21:leaf=-0.0766527653					22:leaf=0.0266864672		4:[97<0.316414714] yes=7,no=8,missing=8
			7:[94<0.814286053] yes=13,no=14,missing=14
				13:leaf=-0.0697442442				14:leaf=0.00438056001			8:[98<0.408213943] yes=15,no=16,missing=16
				15:[95<0.53 198525] yes=23,no=24,missing=24
					23:leaf=0.0546309911					24:leaf=-0.0279792715				16:[95<-0.149353057] yes=25,no=26,missing=26
					25:leaf=-0.0656031072					26:leaf=0.0281899981	2:leaf=0.0285431929