0:[24<1] yes=1,no=2,missing=2
	1:[26<1] yes=3,no=4,missing=4
		3:[38<1] yes=7,no=8,missing=8
			7:[32<1] yes=15,no=16,missing=16
				15:[3<1] yes=2_ Private 7,no=2_ Private 8,missing=2_ Private 8
					27:[18<1] yes=45,no=46,missing=46
						45:[99<0.933965504] yes=69,no=70,missing=70
							69:leaf=0.0618112236							70:leaf=-0.226252884						46:leaf=-0.311751842					28:[25<1] yes=47,no=48,missing=48
						47:[19<1] yes=71,no=72,missing=72
							71:leaf=-0.334837556							72:leaf=-0.043103233						48:[98<1.04078758] yes=73,no=74,missing=74
							73:leaf=-0.122248851							74:leaf=0.117033511				16:[18<1] yes=29,no=30,missing=30
					29:[94<-0.800433397] yes=49,no=50,missing=50
						49:leaf=-0.0949146673						50:[94<1.36092567] yes=75,no=76,missing=76
							75:leaf=0.343270838							76:leaf=-0.0119781671					30:[99<0.56213 2261] yes=51,no=52,missing=52
						51:leaf=-0.206763133						52:leaf=0.0771491379			8:[94<-0.962730169] yes=17,no=18,missing=18
				17:[96<0.341475606] yes=31,no=32,missing=32
					31:leaf=-0.184573144					32:leaf=0.0451513082				18:[46<1] yes=33,no=34,missing=34
					33:[91<1] yes=53,no=54,missing=54
						53:leaf=-0.0138042774						54:[99<0.13 0130851] yes=77,no=78,missing=78
							77:leaf=0.45053035							78:leaf=0.0729880482					34:leaf=-0.0340267681		4:[99<2.33609438] yes=9,no=10,missing=10
			9:leaf=-0.362939298			10:leaf=-0.0774336457	2:[46<1] yes=5,no=6,missing=6
		5:[43<1] yes=11,no=12,missing=12
			11:[94<-0.703337908] yes=19,no=20,missing=20
				19:[16<1] yes=35,no=36,missing=36
					35:[97<-0.0346449055] yes=55,no=56,missing=56
						55:[19<1] yes=79,no=80,missing=80
							79:leaf=-0.184478492							80:leaf=0.254782319						56:[94<-1.38221073] yes=81,no=82,missing=82
							81:leaf=-0.00199545315							82:leaf=0.279096156					36:[97<0.631606221] yes=57,no=58,missing=58
						57:[98<-0.209952682] yes=83,no=84,missing=84
							83:leaf=0.521764219							84:leaf=0.15965347						58:leaf=-0.0425053239				20:[45<1] yes=37,no=38,missing=38
					37:[3<1] yes=59,no=60,missing=60
						59:[34<1] yes=85,no=86,missing=86
							85:leaf=0.585346282							86:leaf=0.171063691						60:[97<0.0297149438] yes=87,no=88,missing=88
							87:leaf=0.201389611							88:leaf=0.461475462					38:[18<1] yes=61,no=62,missing=62
						61:[94<0.510762036] yes=89,no=90,missing=90
							89:leaf=0.404805928							90:leaf=0.0756317452						62:[32<1] yes=91,no=92,missing=92
							91:leaf=-0.179587349							92:leaf=0.374567449			12:[38<1] yes=21,no=22,missing=22
				21:[32<1] yes=39,no=40,missing=40
					39:[19<1] yes=63,no=64,missing=64
						63:[94<-0.362615407] yes=1 ,no=94,missing=94
							93:leaf=-0.344255149							94:leaf=-0.177624315						64:[97<0.285029858] yes=95,no=11 ,missing=11 
							95:leaf=0.359826714							96:leaf=-0.0101700285					40:[98<1.4176563] yes=65,no=66,missing=66
						65:[94<-1.14090216] yes=97,no=98,missing=98
							97:leaf=-0.0431813486							98:leaf=0.291965276						66:leaf=-0.13336435				22:[94<-0.859169841] yes=41,no=42,missing=42
					41:[18<1] yes=67,no=68,missing=68
						67:[52<1] yes=99,no=100,missing=100
							99:leaf=-0.073146157							100:leaf=0.203270793						68:leaf=-0.19481419					42:leaf=0.470377296		6:[38<1] yes=13,no=14,missing=14
			13:[95<1.71265125] yes=23,no=24,missing=24
				23:leaf=-0.328813553				24:leaf=-0.0295304358			14:[96<-0.823093176] yes=25,no=26,missing=26
				25:leaf=0.197218522				26:[94<-0.074228651 ] yes=43,no=44,missing=44
					43:leaf=0.0275851768					44:leaf=-0.17498444