0:[32<1] yes=1,no=2,missing=2
	1:[38<1] yes=3,no=4,missing=4
		3:[18<1] yes=5,no=6,missing=6
			5:[94<0.510762036] yes=7,no=8,missing=8
				7:[94<-0.0568518825] yes=11,no=12,missing=12
					11:[96<-0.941225708] yes=17,no=18,missing=18
						17:[95<0.25425458] yes=25,no=26,missing=26
							25:leaf=-0.0681331605							26:leaf=0.00344914803						18:[99<0.883906186] yes=27,no=28,missing=28
							27:leaf=0.024194805							28:leaf=-0.028664425					12:[98<0.847725391] yes=19,no=20,missing=20
						19:[99<0.487725377] yes=29,no=30,missing=30
							29:leaf=0.0650937855							30:leaf=-0.0110123483						20:leaf=-0.0169791877				8:[98<1.1212 4143] yes=13,no=14,missing=14
					13:[99<-0.22708489] yes=21,no=22,missing=22
						21:leaf=-0.0697022229						22:[22<1] yes=31,no=32,missing=32
							31:leaf=-0.0327907093							32:leaf=0.0275359973					14:leaf=0.035103675			6:[3<1] yes=9,no=10,missing=10
				9:leaf=0.0104072168				10:[94<1.02497125] yes=15,no=16,missing=16
					15:[96<0.718582571] yes=23,no=24,missing=24
						23:leaf=-0.0835055634						24:leaf=-0.00422088709					16:leaf=0.0193866529		4:leaf=0.0241824985	2:leaf=0.0212193783