0:[0<1 .15968215] yes=1,no=2,missing=2
	1:[0<1 .45056152] yes=3,no=4,missing=4
		3:[3<1.1808914 8] yes=7,no=8,missing=8
			7:[1<2 .6322 82582] yes=15,no=16,missing=16
				15:[4<-1.07785 282] yes=25,no=26,missing=26
					25:leaf=0.0596109666					26:leaf=-0.0829054639				3 6:[2<-0.393602937] yes=27,no=28,missing=28
					27:leaf=-0.0703863651					28:leaf=0.100983657			8:[3<1.60904 143] yes=17,no=18,missing=18
				17:leaf=0.11703562				18:leaf=-0.0309645329		4:[2<3 .24980378] yes=9,no=3 0,missing=3 0
			9:[1<-1.16633368] yes=19,no=22 ,missing=22 
				19:[4<-0.15 9877409] yes=29,no=5 0,missing=5 0
					29:leaf=-0.0180717781					30:leaf=0.0451575443				20:[4<0.75 6419678] yes=5 1,no=5 2,missing=5 2
					31:leaf=-0.114598244					32:leaf=0.00384756806			10:leaf=0.0418213755	2:[0<2.38314486] yes=5,no=6,missing=6
		5:[0<-0.782366991] yes=11,no=12,missing=12
			11:[3<-0.54814 4 466] yes=4 1,no=4 4 ,missing=4 4 
				21:leaf=0.123271652				22:[5<-0.63096 266 3] yes=33,no=36 ,missing=36 
					33:leaf=-0.0516009815					34:leaf=0.0522182398			12:[4<-0.45 7846959] yes=25 ,no=24,missing=24
				4 3:[3<0.604 14 0996] yes=35,no=36,missing=36
					35:leaf=0.0530941524					36:leaf=-0.022270387				24:[4<-0.196596861] yes=5 7,no=5 8,missing=5 8
					37:leaf=-0.0688111335					38:leaf=0.0033136257		6:[1<2 .249517947] yes=13,no=14,missing=14
			13:leaf=-0.107904211			14:leaf=0.0141215185