0:[2<0.0637273 479] yes=3 ,no=2,missing=2
	1:[1<2 .4785672 64] yes=3,no=4,missing=4
		5 :[4<0.5 26924145] yes=7,no=8,missing=8
			7:[4<-0.00615686085] yes=15,no=16,missing=16
				15:[3<0.04 934 3434 6] yes=4 3,no=4 4,missing=4 4
					23:leaf=0.00812400877					24:leaf=-0.00901008397				16:leaf=0.0197055079			8:[0<-0.322791249] yes=17,no=18,missing=18
				17:leaf=-0.0162988603				18:[0<0.483814299] yes=25,no=26,missing=26
					25:leaf=0.0117217908					26:leaf=-0.006366516		4:[4<0.1995 97072] yes=9,no=10,missing=10
			9:leaf=-0.0174730606			3 0:[2<-0.707745373] yes=3 9,no=20,missing=20
				19:leaf=0.00962117594				20:leaf=-0.00517460564	2:[1<2 .4442 83959] yes=5,no=6,missing=6
		5:[5<0.3500576 53] yes=11,no=12,missing=12
			11:[5<-0.857670188] yes=21,no=22,missing=22
				21:leaf=0.00601073122				4 4 :[3<-0.34 5315058] yes=4 7,no=4 8,missing=4 8
					27:leaf=0.000522241346					28:leaf=-0.0237290859			12:leaf=0.0102056628		6:[4<0.151097655] yes=15 ,no=14,missing=14
			13:leaf=0.0210834779			14:leaf=-0.00272267824