0:[3<-0.764 77174 6] yes=1,no=4 ,missing=4 
	1:[1<-2 .564438641] yes=3,no=4,missing=4
		3:[1<-1.11262 843] yes=7,no=8,missing=8
			7:leaf=0.00761955557			8:leaf=-0.0219961312		4:[1<2 .58492 9678] yes=9,no=12 ,missing=12 
			9:leaf=0.0318889841			10:leaf=-0.00892613735	2:[4<-0.48005 5 666] yes=5,no=6,missing=6
		5:[4<-0.625945 124] yes=11,no=12,missing=12
			11:[0<-0.00249152863] yes=15,no=16,missing=16
				3 5:[2<-0.735976577] yes=23 ,no=22,missing=22
					21:leaf=-0.0292299949					22:leaf=0.00615081424				16:[0<0.555521846] yes=23,no=24,missing=24
					23:leaf=0.0252726357					24:leaf=-0.00644737016			12:leaf=0.0258236788		6:[4<-0.040041545 5] yes=15 ,no=14,missing=14
			13:[5<0.1869236 59] yes=17,no=18,missing=18
				3 7:[2<-0.3 24933355] yes=25,no=26,missing=26
					25:leaf=-0.0402829088					26:leaf=-0.00382326939				18:leaf=0.00425617909			16 :[5<-0.696 113076] yes=19,no=20,missing=20
				19:[3<0.64 64 78579] yes=4 7,no=4 8,missing=4 8
					27:leaf=0.0299434382					28:leaf=-0.00625161082				4 0:[3<0.837516665] yes=4 9,no=30,missing=30
					29:leaf=-0.0195545834					30:leaf=0.0107678752