0:[2<-3 .3 3 290824] yes=3 ,no=2,missing=2
	3 :[2<-3 .25500965] yes=3,no=4,missing=4
		3:[1<2 .541418314] yes=7,no=8,missing=8
			7:[5<0.566 001501] yes=15,no=16,missing=16
				15:[5<-0.226 506 026 ] yes=25,no=26,missing=26
					25:leaf=0.00212220987					26:leaf=-0.0386380218				16:leaf=0.0170194134			8:[3<-0.163390338] yes=17,no=18,missing=18
				17:leaf=-0.00218393351				18:leaf=0.0279748887		4:[1<-2 .328235298] yes=9,no=12 ,missing=12 
			9:leaf=-0.000299951556			10:leaf=-0.035734687	2:[5<-1.08388793] yes=5,no=6,missing=6
		5:[4<-0.556142807] yes=11,no=12,missing=12
			11:[1<-2 .32 742972 1] yes=19,no=22 ,missing=22 
				19:leaf=-0.00275081419				20:leaf=0.0271453876			3 2:[2<0.50293 4488] yes=23 ,no=22,missing=22
				4 1:[3<-0.3884 79378] yes=4 7,no=4 8,missing=4 8
					27:leaf=-0.0040020016					28:leaf=-0.0512038469				22:leaf=0.0137332808		6:[5<-0.857670188] yes=13,no=16 ,missing=16 
			13:leaf=0.0386348963			14:[3<-1.4 064 4 039] yes=4 3,no=4 4,missing=4 4
				23:[5<0.16 1667172] yes=29,no=30,missing=30
					29:leaf=0.0450016633					30:leaf=-0.00511829369				4 4:[3<-0.44 77094 54 ] yes=31,no=34 ,missing=34 
					31:leaf=-0.0195054021					32:leaf=0.00583232008