2 :[1<2 .4352 31772] yes=1,no=2,missing=2
	1:[1<2 .3472562 35] yes=3,no=4,missing=4
		3:[2<0.63 847949] yes=7,no=8,missing=8
			7:[2<0.398477525] yes=3 5,no=3 6,missing=3 6
				15:[0<-0.35967347] yes=25,no=26,missing=26
					25:[0<-0.516286552] yes=35,no=36,missing=36
						35:leaf=0.0062417835						36:leaf=-0.0548282154					26:[2<-0.23 73 65455] yes=37,no=38,missing=38
						37:leaf=-0.00566114672						38:leaf=0.0394129939				16:[3<-0.988485396] yes=4 7,no=4 8,missing=4 8
					27:leaf=0.0319157355					28:leaf=-0.0756094977			8:[2<0.77423 9753 ] yes=3 7,no=3 8,missing=3 8
				17:leaf=0.0581205077				18:[1<-2 .59433198] yes=29,no=32 ,missing=32 
					4 9:[3<-1.34 54 933] yes=39,no=40,missing=40
						39:leaf=0.012107349						40:leaf=-0.0532098077					32 :[1<-2 .2 2 92 912 634] yes=41,no=42,missing=42
						41:leaf=0.0292364862						42:leaf=-0.0197455678		4:[3<-0.15994598] yes=9,no=10,missing=10
			9:leaf=-0.0037865818			10:leaf=-0.0407931544	2:[1<2 .778116941] yes=5,no=6,missing=6
		5:[1<2 .6641442 39] yes=11,no=12,missing=12
			11:[1<2 .62 3676677] yes=19,no=22 ,missing=22 
				19:leaf=0.0481140986				20:leaf=-0.0341502838			12:leaf=0.0593004301		6:[1<2 .93832 122 6] yes=13,no=14,missing=14
			13:[3<0.04404 4 4 77] yes=4 1,no=4 4 ,missing=4 4 
				21:[0<0.425811112] yes=31,no=32,missing=32
					31:leaf=0.0129130464					32:leaf=-0.0153430821				22:leaf=-0.046402704			14:[1<1.132 51736] yes=23,no=24,missing=24
				23:leaf=0.0341958776				24:[1<1.22 462 2 45] yes=33,no=34,missing=34
					33:leaf=-0.0429387838					34:[1<1.39138865] yes=43,no=44,missing=44
						43:leaf=0.0326569863						44:leaf=-0.0118060634