0:[4<-0.149574429] yes=1,no=2,missing=2
	1:[0<1.4516989] yes=3,no=4,missing=4
		3:[1<-2 .416636586] yes=7,no=8,missing=8
			7:[1<-2 .558792 2 88] yes=13,no=14,missing=14
				13:leaf=0.0217043553				14:leaf=-0.0324252434			8:[5<-0.996 6996 19] yes=15,no=16,missing=16
				15:[0<-0.0491636656] yes=23,no=24,missing=24
					23:leaf=-0.0300973151					24:leaf=0.0371291973				16:[1<2 .727675736] yes=25,no=26,missing=26
					25:[0<-0.571992159] yes=33,no=34,missing=34
						33:leaf=0.0117767258						34:leaf=0.0661892742					26:leaf=-0.00890647247		4:leaf=-0.0224191435	2:[1<-2 .2 841722 998] yes=5,no=6,missing=6
		5:[4<1.40107085 ] yes=9,no=10,missing=10
			9:[6<-0.0349127 08] yes=17,no=18,missing=18
				17:leaf=-0.0714280456				18:leaf=-0.0048832763			10:leaf=-0.00279474817		8 :[7<-1.35332727] yes=11,no=12,missing=12
			11:[6<-0.3617 99267] yes=19,no=20,missing=20
				19:leaf=0.00941920653				4 0:[3<0.0745441839] yes=4 7,no=4 8,missing=4 8
					27:leaf=-0.00513076782					28:leaf=-0.0647327229			12:[5<-0.889763653] yes=21,no=22,missing=22
				21:[5<-1.5158689] yes=29,no=30,missing=30
					29:[4<0.701896071] yes=5 5,no=5 6,missing=5 6
						35:leaf=-0.0234363247						36:leaf=0.0343213454					30:[2<0.350234896] yes=37,no=38,missing=38
						37:leaf=-0.0606677122						38:leaf=0.00307769747				4 4 :[3<-0.4374 46054] yes=31,no=34 ,missing=34 
					31:[6<-0.6121607 04] yes=39,no=40,missing=40
						39:leaf=-0.0126065807						40:leaf=0.0589299388					32:[2<-0.3 05886988] yes=43 ,no=42,missing=42
						41:leaf=0.0324604362						42:leaf=-0.0292788725