0:[22<1] yes=1,no=2,missing=2
	1:[28<-0.37729159] yes=3,no=4,missing=4
		3:[17<1] yes=7,no=8,missing=8
			7:[26<1.5852952] yes=13,no=14,missing=14
				13:[27<0.355204672] yes=21,no=22,missing=22
					21:leaf=0.01287953					22:leaf=-0.0188519973				14:[23<1] yes=23,no=24,missing=24
					23:leaf=0.0232229922					24:leaf=-0.0739329457			8:[26<-1.41861856] yes=15,no=16,missing=16
				15:[28<-0.470485419] yes=25,no=26,missing=26
					25:leaf=0.0159961339					26:leaf=-0.0726651251				16:[27<-0.89062494] yes=27,no=28,missing=28
					27:leaf=-0.0221946631					28:leaf=-0.0866440907		4:[7<1] yes=9,no=10,missing=10
			9:[3<1] yes=17,no=18,missing=18
				17:[28<-0.249150097] yes=29,no=30,missing=30
					29:leaf=0.0267856847					30:leaf=-0.00726583088				18:[28<-0.043347083] yes=31,no=32,missing=32
					31:leaf=-0.0019798798					32:leaf=0.0365945399			10:[17<1] yes=19,no=20,missing=20
				19:leaf=0.103871346				20:[25<-0.321953177] yes=33,no=34,missing=34
					33:leaf=0.031854596					34:leaf=0.00271946075	2:[31<0.616328597] yes=5,no=6,missing=6
		5:[24<-0.653203309] yes=11,no=12,missing=12
			11:leaf=-0.0149267586			12:leaf=0.0333762877		6:leaf=0.0751355588