0:[20<1] yes=1,no=2,missing=2
	1:[28<1.23030174] yes=3,no=4,missing=4
		3:[27<0.355204672] yes=7,no=8,missing=8
			7:[27<-0.0600718521] yes=15,no=16,missing=16
				15:[28<-0.839377582] yes=29,no=30,missing=30
					29:leaf=-0.0569748692					30:leaf=0.0128248958				16:[28<-0.652989984] yes=31,no=32,missing=32
					31:leaf=-0.0358769149					32:leaf=0.093746461			8:[26<-0.697679222] yes=17,no=18,missing=18
				17:[10<1] yes=33,no=34,missing=34
					33:leaf=0.0248161927					34:leaf=-0.106870882				18:[29<4.91802979] yes=35,no=36,missing=36
					35:leaf=-0.0222870745					36:leaf=0.102063738		4:[18<1] yes=9,no=10,missing=10
			9:[27<2.01631069] yes=19,no=20,missing=20
				19:[27<-0.475348383] yes=37,no=38,missing=38
					37:leaf=0.0362710282					38:leaf=0.0939452201				20:[25<-0.0447561704] yes=39,no=40,missing=40
					39:leaf=-0.0261070877					40:leaf=0.0685435385			10:[26<0.503886223] yes=21,no=22,missing=22
				21:leaf=0.0352240615				22:leaf=-0.0761816725	2:[28<0.344960481] yes=5,no=6,missing=6
		5:[28<-0.963636041] yes=11,no=12,missing=12
			11:leaf=0.0493192598			12:[30<0.457432806] yes=23,no=24,missing=24
				23:[28<0.306129724] yes=41,no=42,missing=42
					41:leaf=-0.0942694321					42:leaf=-0.0254474524				24:leaf=-0.00708199665		6:[28<3.65334105] yes=13,no=14,missing=14
			13:[28<1.93313849] yes=25,no=26,missing=26
				25:[28<1.34679401] yes=43,no=44,missing=44
					43:leaf=0.00294510997					44:leaf=-0.0534055345				26:[25<0.390416861] yes=45,no=46,missing=46
					45:leaf=0.0742158219					46:leaf=-0.0334285274			14:[25<-0.0332610346] yes=27,no=28,missing=28
				27:[25<-0.326551229] yes=47,no=48,missing=48
					47:leaf=-0.0355161056					48:leaf=-0.11102277				28:leaf=0.0407618396