|--- class_0  <= -1.45
|   |--- 6  <= -0.69
|   |   |--- 2  <= -2 .27
|   |   |   |--- 7  <= -0.7 7 
|   |   |   |   |--- class: 0.0|   |   |   |--- 7  >  -0.7 7 
|   |   |   |   |--- class: 1.0|   |   |--- 2  >  -2 .27
|   |   |   |--- 7  <= -0.84
|   |   |   |   |--- class: 1.0|   |   |   |--- 7  >  -0.84
|   |   |   |   |--- class: 0.0|   |--- 6  >  -0.69
|   |   |--- class_0  <= -2.55
|   |   |   |--- 2  <= -2 .73
|   |   |   |   |--- class: 0.0|   |   |   |--- 2  >  -2 .73
|   |   |   |   |--- class: 0.0|   |   |--- class_0  >  -2.55
|   |   |   |--- 2  <= 1.11
|   |   |   |   |--- class: 1.0|   |   |   |--- 2  >  1.11
|   |   |   |   |--- class: 1.0|--- class_0  >  -1.45
|   |--- 6  <= -0.69
|   |   |--- 5  <= -1.22
|   |   |   |--- 7  <= 1.30
|   |   |   |   |--- class: 1.0|   |   |   |--- 7  >  1.30
|   |   |   |   |--- class: 0.0|   |   |--- 5  >  -1.22
|   |   |   |--- 3  <= -3 .66
|   |   |   |   |--- class: 1.0|   |   |   |--- 3  >  -3 .66
|   |   |   |   |--- class: 1.0|   |--- 6  >  -0.69
|   |   |--- class_0  <= -1.15
|   |   |   |--- class_0  <= -1.15
|   |   |   |   |--- class: 1.0|   |   |   |--- class_0  >  -1.15
|   |   |   |   |--- class: 0.0|   |   |--- class_0  >  -1.15
|   |   |   |--- 3  <= -3 .46
|   |   |   |   |--- class: 1.0|   |   |   |--- 3  >  -3 .46
|   |   |   |   |--- class: 1.0