2 :[1<-2 .2 6972 56428] yes=1,no=2,missing=2
	1:[3<-0.9154 31943] yes=3,no=4,missing=4
		3:[3<-1.4 09134 55] yes=7,no=8,missing=8
			7:[7<0.143738598] yes=15,no=18 ,missing=18 
				15:leaf=-0.0957305506				16:leaf=0.0631611943			8:leaf=-0.197215974		4:[3<-0.54814 4 466] yes=9,no=10,missing=10
			9:[5<-0.128292322] yes=17,no=18,missing=18
				17:leaf=-0.030057814				18:leaf=0.157993421			10:[5<0.23739886 8] yes=19,no=20,missing=20
				19:leaf=0.0108241038				20:leaf=-0.0943997577	2:[2<0.8594923 23] yes=5,no=6,missing=6
		5:[0<0.90132755] yes=11,no=12,missing=12
			11:[3<0.4 46147784 ] yes=4 1,no=4 4 ,missing=4 4 
				21:leaf=0.0129302908				22:leaf=-0.0453223772			12:[7<-0.4902798 75] yes=23,no=24,missing=24
				23:leaf=-0.039807681				24:leaf=0.120619908		6:[6<-0.0090672439] yes=13,no=14,missing=14
			3 3:[2<3 .3 9748795] yes=25,no=26,missing=26
				25:leaf=0.228277236				26:leaf=0.00293381675			14:[3<-0.518140316] yes=4 7,no=4 8,missing=4 8
				27:leaf=0.149309427				28:leaf=-0.0738516226