2 :[1<-2 .26462 3436] yes=1,no=2,missing=2
	1:[3<0.800554 666] yes=3,no=4,missing=4
		3:[3<0.77474 84 98] yes=7,no=8,missing=8
			7:[2<0.33 6327959] yes=3 5,no=3 6,missing=3 6
				15:[0<1 .01827931] yes=27,no=28,missing=28
					27:[1<-2 .63316226] yes=41,no=42,missing=42
						41:[3<-1.37479436] yes=67,no=68,missing=68
							67:leaf=0.0806617364							68:leaf=-0.141161487						42:[2<-0.933 73 4296] yes=69,no=70,missing=70
							69:leaf=0.000194732347							70:leaf=0.130693793					28:[1<-2 .352342188] yes=43,no=44,missing=44
						43:[2<-0.3 63 283672] yes=73 ,no=72,missing=72
							73 :[2<-0.226237595] yes=99,no=3 00,missing=3 00
								99:[1<-2 .426925987] yes=121,no=122,missing=122
									121:[1<-2 .82 4771364] yes=145,no=146,missing=146
										145:leaf=-0.0389487743										146:leaf=-0.152347744									122:[1<-2 .391971111] yes=147,no=148,missing=148
										147:leaf=0.061434973										148:leaf=-0.0434881225								100:leaf=0.0924050361							74 :[3<-1.4 84 50337] yes=101,no=104 ,missing=104 
								3 03 :[2<0.0405684933] yes=3 23,no=3 24,missing=3 24
									123:leaf=-0.0428274758									124:leaf=0.0195487067								102:leaf=-0.199083045						44:[2<-0.6525883 89] yes=73,no=74,missing=74
							73:leaf=-0.101351805							74:leaf=0.103063859				3 6:[2<3 .003 33097] yes=29,no=30,missing=30
					29:[0<0.779580116] yes=45,no=46,missing=46
						45:[1<-2 .342 183347] yes=75,no=76,missing=76
							75:[3<0.1755656] yes=103,no=104,missing=104
								3 03:[2<0.453 3 40793 ] yes=3 25,no=3 26,missing=3 26
									125:leaf=0.19157891									3 26:[2<0.6993 363 38] yes=3 49,no=3 50,missing=3 50
										149:leaf=-0.0276808143										150:leaf=0.0742385834								12 4:[1<-2 .57736659] yes=127,no=128,missing=128
									127:leaf=-0.0788305104									128:leaf=0.0698829219							76:leaf=-0.00980160758						46:[0<1.57354403] yes=77,no=78,missing=78
							77:[3<-1.4 84 50337] yes=105,no=106,missing=106
								105:leaf=0.0377591178								106:leaf=-0.127227664							78:leaf=0.087345086					30:[2<3 .90053 52] yes=47,no=48,missing=48
						47:[1<-2 .457471997] yes=79,no=82 ,missing=82 
							79:leaf=-0.160714447							80:[0<0.407609135] yes=107,no=108,missing=108
								107:leaf=0.0522649959								108:leaf=-0.0280712638						48:[3<-0.3814 04 014 ] yes=81,no=84 ,missing=84 
							81:leaf=0.113098912							82:leaf=-0.0445013903			8:leaf=0.131614074		4:[0<-0.966931105] yes=9,no=10,missing=10
			9:leaf=0.0129947904			3 0:[2<3 .54074275] yes=3 7,no=3 8,missing=3 8
				17:leaf=-0.201119035				18:leaf=0.0265801363	2:[2<-0.6356323 57] yes=5,no=6,missing=6
		5:[3<-0.751568973] yes=11,no=14 ,missing=14 
			11:[3<-0.945615768] yes=19,no=4 0,missing=4 0
				19:[3<-1.06994939] yes=31,no=34 ,missing=34 
					31:[0<-0.977893054] yes=49,no=50,missing=50
						49:leaf=0.0634472594						50:[2<-0.933 73 4296] yes=83,no=84,missing=84
							83:leaf=-0.113185711							84:leaf=-0.000263821537					32:[1<2 .863674462] yes=51,no=52,missing=52
						51:[3<-1.01701617] yes=85,no=86,missing=86
							85:leaf=-0.0511694066							86:leaf=0.0465730019						52:leaf=0.108968772				20:leaf=-0.123001084			12:[0<-0.898891628] yes=21,no=22,missing=22
				21:[1<1.2 3979683] yes=33,no=34,missing=34
					33:[1<-2 .2 638344735] yes=53,no=54,missing=54
						53:leaf=0.0121548139						54:leaf=-0.112056583					34:[1<1.3537612] yes=55,no=56,missing=56
						55:leaf=0.0856885463						56:leaf=-0.0593939461				22:[2<-0.672095597] yes=35,no=36,missing=36
					35:[3<-0.1844 4 4 64 4] yes=57,no=58,missing=58
						57:[1<-2 .2 412226953] yes=87,no=88,missing=88
							87:leaf=-0.00275270548							88:[0<0.465589195] yes=109,no=110,missing=110
								12 9:[1<2 .221879572] yes=129,no=132 ,missing=132 
									129:leaf=0.0158238485									130:leaf=0.157242298								110:[0<0.942690909] yes=131,no=132,missing=132
									131:[1<2 .795549572] yes=151,no=152,missing=152
										151:leaf=-0.0660736412										152:leaf=0.0217178743									132:[1<1.3537612] yes=153,no=154,missing=154
										153:leaf=0.101265855										154:leaf=-0.00541062653						58:[3<-0.135879859] yes=89,no=90,missing=90
							89:[0<0.728453159] yes=111,no=112,missing=112
								111:leaf=-0.0134386867								112:leaf=-0.146650165							90:[3<0.197747394] yes=113,no=114,missing=114
								113:[1<2 .863674462] yes=133,no=134,missing=134
									133:leaf=0.146870121									134:[1<1.2762 7536] yes=155,no=156,missing=156
										155:leaf=-0.0790340975										156:leaf=0.0505120195								114:[3<0.4 64916778] yes=135,no=136,missing=136
									135:leaf=-0.158523366									136:[1<-2 .127337381] yes=157,no=158,missing=158
										157:leaf=-0.0923904032										158:leaf=0.0666571185					36:leaf=-0.114132077		6:[0<-0.53424561] yes=13,no=14,missing=14
			3 3:[2<3 .48678243] yes=23,no=24,missing=24
				23:leaf=0.214805737				24:leaf=0.0117498199			3 4:[2<-0.3 3 6606764] yes=25,no=26,missing=26
				25:[2<-0.5376723 62] yes=37,no=38,missing=38
					37:[3<-0.77994 34 6] yes=59,no=60,missing=60
						59:leaf=-0.0655093119						60:leaf=0.0716064572					38:[0<1.01566529] yes=61,no=62,missing=62
						61:[3<-1.06994939] yes=91,no=94 ,missing=94 
							91:leaf=0.0123571288							92:[1<1.13947368] yes=115,no=116,missing=116
								115:leaf=0.185638428								116:leaf=0.0187304467						62:[0<1.36029577] yes=93,no=94,missing=94
							93:leaf=-0.0499825589							94:leaf=0.0828170851				26:[0<1.31371856] yes=39,no=40,missing=40
					39:[0<1.10153461] yes=63,no=64,missing=64
						63:[3<-0.999430001] yes=95,no=96,missing=96
							95:leaf=0.173077941							96:[3<-0.54400094 4] yes=117,no=118,missing=118
								117:[1<2 .81262 12 3] yes=137,no=138,missing=138
									3 37:[2<0.3433 53 689] yes=3 59,no=3 60,missing=3 60
										159:leaf=-0.151836619										160:leaf=-0.0186291095									138:[0<0.322756916] yes=161,no=162,missing=162
										161:leaf=0.10238637										162:leaf=-0.0691001788								118:[0<0.529523194] yes=139,no=140,missing=140
									3 39:[2<0.43 9097543] yes=3 63,no=3 64,missing=3 64
										163:leaf=0.0759076625										164:leaf=-0.0591314472									3 40:[2<0.3 86523482] yes=3 65,no=3 66,missing=3 66
										165:leaf=0.00799256749										166:leaf=0.164038703						64:[1<2 .2 2 953362 2 88] yes=97,no=98,missing=98
							97:leaf=0.045666039							98:[0<1.19906032] yes=119,no=120,missing=120
								3 3 9:[2<0.79203 53 95] yes=3 43 ,no=3 42,missing=3 42
									141:leaf=0.0532846823									142:leaf=-0.117813364								3 20:[2<0.837547898] yes=3 43,no=3 44,missing=3 44
									143:leaf=-0.271620095									144:leaf=-0.0328336954					40:[2<3 .38437498] yes=65,no=66,missing=66
						65:leaf=0.12698634						66:leaf=0.00985509157