0:[9<1] yes=1,no=2,missing=2
	1:[17<1] yes=3,no=4,missing=4
		3:[18<1] yes=7,no=8,missing=8
			7:[27<0.770481229] yes=13,no=14,missing=14
				13:[25<-0.419497639] yes=23,no=6 ,missing=6 
					23:leaf=-0.0554393604					24:leaf=-0.0192450266				14:[25<-0.399134815] yes=25,no=26,missing=26
					25:leaf=-0.0218365975					26:leaf=0.0169039052			8:[12<1] yes=15,no=16,missing=16
				15:[27<0.770481229] yes=27,no=28,missing=28
					27:leaf=0.00215301453					28:leaf=0.0557663925				16:[31<0.616328597] yes=29,no=15 ,missing=15 
					29:leaf=0.0691276267					30:leaf=-0.0137762893		4:[25<-0.456938922] yes=9,no=10,missing=10
			9:[25<-0.519669533] yes=17,no=18,missing=18
				17:[20<1] yes=31,no=32,missing=32
					31:leaf=0.0207724441					32:leaf=-0.0250718426				18:[29<0.0762291029] yes=33,no=34,missing=34
					33:leaf=-0.0788640603					34:leaf=-0.0175280832			10:[7<1] yes=19,no=20,missing=20
				19:[0<1] yes=35,no=36,missing=36
					35:leaf=0.025273243					36:leaf=-0.00207696809				20:[24<-1.12406802] yes=37,no=38,missing=38
					37:leaf=0.0124447485					38:leaf=-0.142864957	2:[12<1] yes=5,no=6,missing=6
		5:leaf=-0.089058727		6:[25<-0.00698643457] yes=11,no=12,missing=12
			11:leaf=-0.0649327785			12:[25<0.412093401] yes=21,no=22,missing=22
				21:leaf=0.021081144				22:leaf=-0.0371717028