0:[4<1] yes=1,no=2,missing=2
	1:[9<1] yes=3,no=4,missing=4
		3:[23<1] yes=7,no=8,missing=8
			7:[21<1] yes=15,no=16,missing=16
				15:[22<1] yes=29,no=30,missing=30
					29:leaf=-0.0751905069					30:leaf=-0.00380811654				16:[25<-0.430664331] yes=31,no=32,missing=32
					31:leaf=-0.0333018228					32:leaf=0.037206497			8:[20<1] yes=17,no=18,missing=18
				17:[10<1] yes=33,no=34,missing=34
					33:leaf=0.0528122857					34:leaf=-0.250777572				18:[17<1] yes=35,no=36,missing=36
					35:leaf=-0.0610273741					36:leaf=0.00981686544		4:[19<1] yes=9,no=10,missing=10
			9:leaf=-0.128427416			10:[12<1] yes=19,no=20,missing=20
				19:leaf=-0.0891135931				20:leaf=0.0065609375	2:[26<0.624042809] yes=5,no=6,missing=6
		5:[25<0.432127804] yes=11,no=12,missing=12
			11:[19<1] yes=21,no=22,missing=22
				21:leaf=-0.141894236				22:[14<1] yes=37,no=38,missing=38
					37:leaf=-0.0900149569					38:leaf=0.0036452224			12:[29<0.0762291029] yes=23,no=24,missing=24
				23:[26<-0.457366139] yes=39,no=40,missing=40
					39:leaf=-0.0199651141					40:leaf=-0.126943693				24:[27<0.355204672] yes=41,no=42,missing=42
					41:leaf=-0.00828053709					42:leaf=0.0851586163		6:[25<-0.400776982] yes=13,no=14,missing=14
			4_tertiary :[14<1] yes=25,no=26,missing=26
				25:leaf=-0.131966203				26:leaf=0.000654307485			14:[27<0.355204672] yes=27,no=28,missing=28
				12 :[28<1.05168033] yes=43,no=44,missing=44
					43:leaf=-0.0807413757					44:leaf=0.0649598464				28:[27<1.60103428] yes=45,no=46,missing=46
					45:leaf=0.0893447921					46:leaf=-0.0132198902