0:[3<-0.743154 499] yes=1,no=4 ,missing=4 
	1:[3<-0.84 1534514] yes=3,no=4,missing=4
		3:[0<0.541298926] yes=7,no=8,missing=8
			7:[0<0.183088392] yes=15,no=16,missing=16
				15:[3<-0.936986446] yes=4 7,no=4 8,missing=4 8
					27:[1<1.12 262799] yes=37,no=38,missing=38
						37:[1<2 .733723462] yes=39,no=42 ,missing=42 
							39:[2<0.557264864] yes=43 ,no=42,missing=42
								43 :[2<0.368888706] yes=43,no=44,missing=44
									43:[2<-0.3 93873 453] yes=47,no=48,missing=48
										47:[3<-1.35334 74 7] yes=49,no=50,missing=50
											49:leaf=0.0669506788											50:leaf=-0.0182908531										48:[3<-1.4 4866581] yes=51,no=54 ,missing=54 
											51:leaf=-0.0666906834											52:leaf=0.00787921716									44:leaf=0.114439748								42:[2<3 .202723 73 ] yes=45,no=46,missing=46
									45:leaf=-0.0897323638									46:leaf=0.0230025128							40:leaf=0.0844582245						38:leaf=-0.0434452221					28:leaf=-0.0728823766				3 6:[2<-0.573358059] yes=29,no=30,missing=30
					29:leaf=-0.0124976328					30:leaf=0.0943493471			8:[0<1.07731485] yes=17,no=18,missing=18
				17:[1<2 .896167219] yes=31,no=32,missing=32
					31:leaf=-0.11762616					32:leaf=-0.0156289246				18:leaf=0.0042415983		4:[0<0.571443617] yes=9,no=10,missing=10
			9:leaf=-0.0437030271			10:leaf=0.114884034	2:[0<1.03521347] yes=5,no=6,missing=6
		5:[3<0.164914 73] yes=11,no=14 ,missing=14 
			11:[3<-0.690144 393] yes=19,no=4 0,missing=4 0
				19:leaf=0.00387696014				20:leaf=-0.140668795			12:[0<0.0385950543] yes=21,no=22,missing=22
				21:leaf=-0.0468610823				22:[1<1.2 492 9325] yes=33,no=34,missing=34
					33:leaf=-0.0156366564					34:leaf=0.0571719259		6:[0<1.26547706] yes=13,no=14,missing=14
			13:[3<-0.519764185] yes=4 3,no=4 4,missing=4 4
				23:leaf=0.0834599659				24:leaf=-0.00319595239			3 4:[2<0.699647307] yes=25,no=26,missing=26
				25:[2<-0.269883 3 29] yes=35,no=36,missing=36
					35:leaf=0.0077418508					36:leaf=-0.0857763961				26:leaf=0.0175564643