|--- 2  <= -1.16
|   |--- class_0  <= 0.46
|   |   |--- class_0  <= -1.11
|   |   |   |--- 4  <= 0.05
|   |   |   |   |--- 2  <= -1.51
|   |   |   |   |   |--- 6  <= -1.21
|   |   |   |   |   |   |--- class: 1.0|   |   |   |   |   |--- 6  >  -1.21
|   |   |   |   |   |   |--- 4  <= -1.36
|   |   |   |   |   |   |   |--- 5  <= -0.5 4
|   |   |   |   |   |   |   |   |--- class: 1.0|   |   |   |   |   |   |   |--- 5  >  -0.5 4
|   |   |   |   |   |   |   |   |--- class: 0.0|   |   |   |   |   |   |--- 4  >  -1.36
|   |   |   |   |   |   |   |--- class: 0.0|   |   |   |   |--- 2  >  -1.51
|   |   |   |   |   |--- class: 0.0|   |   |   |--- 4  >  0.05
|   |   |   |   |--- class: 0.0|   |   |--- class_0  >  -1.11
|   |   |   |--- 4  <= -1.4 3
|   |   |   |   |--- class_0  <= -0.22
|   |   |   |   |   |--- 6  <= -0.26
|   |   |   |   |   |   |--- class_0  <= -0.49
|   |   |   |   |   |   |   |--- class: 1.0|   |   |   |   |   |   |--- class_0  >  -0.49
|   |   |   |   |   |   |   |--- class: 0.0|   |   |   |   |   |--- 6  >  -0.26
|   |   |   |   |   |   |--- 3  <= -0.72
|   |   |   |   |   |   |   |--- 6  <= 1.36 
|   |   |   |   |   |   |   |   |--- class: 1.0|   |   |   |   |   |   |   |--- 6  >  1.36 
|   |   |   |   |   |   |   |   |--- class: 0.0|   |   |   |   |   |   |--- 3  >  -0.72
|   |   |   |   |   |   |   |--- class: 0.0|   |   |   |   |--- class_0  >  -0.22
|   |   |   |   |   |--- class: 0.0|   |   |   |--- 4  >  -1.4 3
|   |   |   |   |--- 5  <= -0.95 
|   |   |   |   |   |--- 6  <= -1.23
|   |   |   |   |   |   |--- 4  <= -0.40
|   |   |   |   |   |   |   |--- class: 0.0|   |   |   |   |   |   |--- 4  >  -0.40
|   |   |   |   |   |   |   |--- class: 1.0|   |   |   |   |   |--- 6  >  -1.23
|   |   |   |   |   |   |--- class: 1.0|   |   |   |   |--- 5  >  -0.95 
|   |   |   |   |   |--- 3  <= -0.55
|   |   |   |   |   |   |--- 5  <= 1.26
|   |   |   |   |   |   |   |--- class_0  <= -0.04
|   |   |   |   |   |   |   |   |--- 4  <= 1.03
|   |   |   |   |   |   |   |   |   |--- 4  <= -0.15
|   |   |   |   |   |   |   |   |   |   |--- class_0  <= -0.28
|   |   |   |   |   |   |   |   |   |   |   |--- class: 1.0|   |   |   |   |   |   |   |   |   |   |--- class_0  >  -0.28
|   |   |   |   |   |   |   |   |   |   |   |--- 5  <= 0.11
|   |   |   |   |   |   |   |   |   |   |   |   |--- class: 1.0|   |   |   |   |   |   |   |   |   |   |   |--- 5  >  0.11
|   |   |   |   |   |   |   |   |   |   |   |   |--- class: 0.0|   |   |   |   |   |   |   |   |   |--- 4  >  -0.15
|   |   |   |   |   |   |   |   |   |   |--- 2  <= -1.31
|   |   |   |   |   |   |   |   |   |   |   |--- 5  <= 0.71
|   |   |   |   |   |   |   |   |   |   |   |   |--- class: 0.0|   |   |   |   |   |   |   |   |   |   |   |--- 5  >  0.71
|   |   |   |   |   |   |   |   |   |   |   |   |--- class_0  <= -0.class_0 3
|   |   |   |   |   |   |   |   |   |   |   |   |   |--- class: 1.0|   |   |   |   |   |   |   |   |   |   |   |   |--- class_0  >  -0.class_0 3
|   |   |   |   |   |   |   |   |   |   |   |   |   |--- class: 0.0|   |   |   |   |   |   |   |   |   |   |--- 2  >  -1.31
|   |   |   |   |   |   |   |   |   |   |   |--- class: 1.0|   |   |   |   |   |   |   |   |--- 4  >  1.03
|   |   |   |   |   |   |   |   |   |--- 4  <= 4 .08
|   |   |   |   |   |   |   |   |   |   |--- class: 1.0|   |   |   |   |   |   |   |   |   |--- 4  >  4 .08
|   |   |   |   |   |   |   |   |   |   |--- class: 0.0|   |   |   |   |   |   |   |--- class_0  >  -0.04
|   |   |   |   |   |   |   |   |--- 6  <= -0.35
|   |   |   |   |   |   |   |   |   |--- 3  <= -3 .06
|   |   |   |   |   |   |   |   |   |   |--- class: 1.0|   |   |   |   |   |   |   |   |   |--- 3  >  -3 .06
|   |   |   |   |   |   |   |   |   |   |--- class: 0.0|   |   |   |   |   |   |   |   |--- 6  >  -0.35
|   |   |   |   |   |   |   |   |   |--- class: 1.0|   |   |   |   |   |   |--- 5  >  1.26
|   |   |   |   |   |   |   |--- 3  <= -0.66
|   |   |   |   |   |   |   |   |--- class: 0.0|   |   |   |   |   |   |   |--- 3  >  -0.66
|   |   |   |   |   |   |   |   |--- class: 1.0|   |   |   |   |   |--- 3  >  -0.55
|   |   |   |   |   |   |--- 5  <= 0.77
|   |   |   |   |   |   |   |--- class_0  <= -0.82
|   |   |   |   |   |   |   |   |--- 6  <= -0.82
|   |   |   |   |   |   |   |   |   |--- 5  <= 0.24
|   |   |   |   |   |   |   |   |   |   |--- class: 1.0|   |   |   |   |   |   |   |   |   |--- 5  >  0.24
|   |   |   |   |   |   |   |   |   |   |--- class: 0.0|   |   |   |   |   |   |   |   |--- 6  >  -0.82
|   |   |   |   |   |   |   |   |   |--- class_0  <= -1.0class_0 
|   |   |   |   |   |   |   |   |   |   |--- class: 0.0|   |   |   |   |   |   |   |   |   |--- class_0  >  -1.0class_0 
|   |   |   |   |   |   |   |   |   |   |--- class: 1.0|   |   |   |   |   |   |   |--- class_0  >  -0.82
|   |   |   |   |   |   |   |   |--- 5  <= 0.61
|   |   |   |   |   |   |   |   |   |--- 2  <= -1.19
|   |   |   |   |   |   |   |   |   |   |--- 4  <= -0.34 
|   |   |   |   |   |   |   |   |   |   |   |--- class: 0.0|   |   |   |   |   |   |   |   |   |   |--- 4  >  -0.34 
|   |   |   |   |   |   |   |   |   |   |   |--- 5  <= -0.26
|   |   |   |   |   |   |   |   |   |   |   |   |--- class: 0.0|   |   |   |   |   |   |   |   |   |   |   |--- 5  >  -0.26
|   |   |   |   |   |   |   |   |   |   |   |   |--- 2  <= -1.49
|   |   |   |   |   |   |   |   |   |   |   |   |   |--- 4  <= 1.09
|   |   |   |   |   |   |   |   |   |   |   |   |   |   |--- 6  <= -0.6 5
|   |   |   |   |   |   |   |   |   |   |   |   |   |   |   |--- 5  <= 0.49
|   |   |   |   |   |   |   |   |   |   |   |   |   |   |   |   |--- class: 1.0|   |   |   |   |   |   |   |   |   |   |   |   |   |   |   |--- 5  >  0.49
|   |   |   |   |   |   |   |   |   |   |   |   |   |   |   |   |--- class: 0.0|   |   |   |   |   |   |   |   |   |   |   |   |   |   |--- 6  >  -0.6 5
|   |   |   |   |   |   |   |   |   |   |   |   |   |   |   |--- class: 1.0|   |   |   |   |   |   |   |   |   |   |   |   |   |--- 4  >  1.09
|   |   |   |   |   |   |   |   |   |   |   |   |   |   |--- class: 0.0|   |   |   |   |   |   |   |   |   |   |   |   |--- 2  >  -1.49
|   |   |   |   |   |   |   |   |   |   |   |   |   |--- class: 0.0|   |   |   |   |   |   |   |   |   |--- 2  >  -1.19
|   |   |   |   |   |   |   |   |   |   |--- class_0  <= 0.20
|   |   |   |   |   |   |   |   |   |   |   |--- class: 1.0|   |   |   |   |   |   |   |   |   |   |--- class_0  >  0.20
|   |   |   |   |   |   |   |   |   |   |   |--- class: 0.0|   |   |   |   |   |   |   |   |--- 5  >  0.61
|   |   |   |   |   |   |   |   |   |--- 5  <= 0.69
|   |   |   |   |   |   |   |   |   |   |--- class: 1.0|   |   |   |   |   |   |   |   |   |--- 5  >  0.69
|   |   |   |   |   |   |   |   |   |   |--- 3  <= -0.02
|   |   |   |   |   |   |   |   |   |   |   |--- class: 0.0|   |   |   |   |   |   |   |   |   |   |--- 3  >  -0.02
|   |   |   |   |   |   |   |   |   |   |   |--- class: 1.0|   |   |   |   |   |   |--- 5  >  0.77
|   |   |   |   |   |   |   |--- 4  <= 0.31
|   |   |   |   |   |   |   |   |--- 5  <= 1.5 5
|   |   |   |   |   |   |   |   |   |--- class: 0.0|   |   |   |   |   |   |   |   |--- 5  >  1.5 5
|   |   |   |   |   |   |   |   |   |--- class_0  <= -0.40
|   |   |   |   |   |   |   |   |   |   |--- class: 0.0|   |   |   |   |   |   |   |   |   |--- class_0  >  -0.40
|   |   |   |   |   |   |   |   |   |   |--- class: 1.0|   |   |   |   |   |   |   |--- 4  >  0.31
|   |   |   |   |   |   |   |   |--- class: 0.0|   |--- class_0  >  0.46
|   |   |--- 6  <= 1.08
|   |   |   |--- 3  <= 0.83 
|   |   |   |   |--- 6  <= 1.05
|   |   |   |   |   |--- 4  <= -0.19
|   |   |   |   |   |   |--- 5  <= -0.71
|   |   |   |   |   |   |   |--- 5  <= -1.5 5
|   |   |   |   |   |   |   |   |--- class_0  <= 1.08
|   |   |   |   |   |   |   |   |   |--- class: 0.0|   |   |   |   |   |   |   |   |--- class_0  >  1.08
|   |   |   |   |   |   |   |   |   |--- class: 1.0|   |   |   |   |   |   |   |--- 5  >  -1.5 5
|   |   |   |   |   |   |   |   |--- class: 1.0|   |   |   |   |   |   |--- 5  >  -0.71
|   |   |   |   |   |   |   |--- 6  <= 0.75
|   |   |   |   |   |   |   |   |--- 5  <= -0.29
|   |   |   |   |   |   |   |   |   |--- 3  <= -0.54
|   |   |   |   |   |   |   |   |   |   |--- class: 1.0|   |   |   |   |   |   |   |   |   |--- 3  >  -0.54
|   |   |   |   |   |   |   |   |   |   |--- class: 0.0|   |   |   |   |   |   |   |   |--- 5  >  -0.29
|   |   |   |   |   |   |   |   |   |--- class: 0.0|   |   |   |   |   |   |   |--- 6  >  0.75
|   |   |   |   |   |   |   |   |--- class: 1.0|   |   |   |   |   |--- 4  >  -0.19
|   |   |   |   |   |   |--- 4  <= 1.99
|   |   |   |   |   |   |   |--- 5  <= -0.18
|   |   |   |   |   |   |   |   |--- class: 1.0|   |   |   |   |   |   |   |--- 5  >  -0.18
|   |   |   |   |   |   |   |   |--- 6  <= -0.6 9
|   |   |   |   |   |   |   |   |   |--- class: 1.0|   |   |   |   |   |   |   |   |--- 6  >  -0.6 9
|   |   |   |   |   |   |   |   |   |--- 4  <= 0.70
|   |   |   |   |   |   |   |   |   |   |--- 6  <= -0.01
|   |   |   |   |   |   |   |   |   |   |   |--- class: 0.0|   |   |   |   |   |   |   |   |   |   |--- 6  >  -0.01
|   |   |   |   |   |   |   |   |   |   |   |--- class: 1.0|   |   |   |   |   |   |   |   |   |--- 4  >  0.70
|   |   |   |   |   |   |   |   |   |   |--- 5  <= 0.50
|   |   |   |   |   |   |   |   |   |   |   |--- class: 1.0|   |   |   |   |   |   |   |   |   |   |--- 5  >  0.50
|   |   |   |   |   |   |   |   |   |   |   |--- 3  <= -3 .32
|   |   |   |   |   |   |   |   |   |   |   |   |--- class: 0.0|   |   |   |   |   |   |   |   |   |   |   |--- 3  >  -3 .32
|   |   |   |   |   |   |   |   |   |   |   |   |--- class: 1.0|   |   |   |   |   |   |--- 4  >  1.99
|   |   |   |   |   |   |   |--- class: 0.0|   |   |   |   |--- 6  >  1.05
|   |   |   |   |   |--- class: 0.0|   |   |   |--- 3  >  0.83 
|   |   |   |   |--- 6  <= 0.99
|   |   |   |   |   |--- class: 0.0|   |   |   |   |--- 6  >  0.99
|   |   |   |   |   |--- class: 1.0|   |   |--- 6  >  1.08
|   |   |   |--- class_0  <= 0.60
|   |   |   |   |--- 6  <= 1.89
|   |   |   |   |   |--- class: 1.0|   |   |   |   |--- 6  >  1.89
|   |   |   |   |   |--- class: 0.0|   |   |   |--- class_0  >  0.60
|   |   |   |   |--- class: 1.0|--- 2  >  -1.16
|   |--- 3  <= 0.69
|   |   |--- 6  <= 1.6 9
|   |   |   |--- 2  <= -2 .34
|   |   |   |   |--- 5  <= 0.52
|   |   |   |   |   |--- 2  <= -2 .37
|   |   |   |   |   |   |--- 2  <= -2 .46
|   |   |   |   |   |   |   |--- class_0  <= -1.21
|   |   |   |   |   |   |   |   |--- 6  <= -0.17
|   |   |   |   |   |   |   |   |   |--- 5  <= -0.66
|   |   |   |   |   |   |   |   |   |   |--- class: 1.0|   |   |   |   |   |   |   |   |   |--- 5  >  -0.66
|   |   |   |   |   |   |   |   |   |   |--- class_0  <= -1.28
|   |   |   |   |   |   |   |   |   |   |   |--- 4  <= -0.04
|   |   |   |   |   |   |   |   |   |   |   |   |--- 2  <= -2 .92 
|   |   |   |   |   |   |   |   |   |   |   |   |   |--- class: 1.0|   |   |   |   |   |   |   |   |   |   |   |   |--- 2  >  -2 .92 
|   |   |   |   |   |   |   |   |   |   |   |   |   |--- class: 0.0|   |   |   |   |   |   |   |   |   |   |   |--- 4  >  -0.04
|   |   |   |   |   |   |   |   |   |   |   |   |--- class: 0.0|   |   |   |   |   |   |   |   |   |   |--- class_0  >  -1.28
|   |   |   |   |   |   |   |   |   |   |   |--- class: 1.0|   |   |   |   |   |   |   |   |--- 6  >  -0.17
|   |   |   |   |   |   |   |   |   |--- 4  <= -0.53
|   |   |   |   |   |   |   |   |   |   |--- class: 1.0|   |   |   |   |   |   |   |   |   |--- 4  >  -0.53
|   |   |   |   |   |   |   |   |   |   |--- 3  <= -0.44
|   |   |   |   |   |   |   |   |   |   |   |--- 6  <= 0.83
|   |   |   |   |   |   |   |   |   |   |   |   |--- class: 0.0|   |   |   |   |   |   |   |   |   |   |   |--- 6  >  0.83
|   |   |   |   |   |   |   |   |   |   |   |   |--- class: 1.0|   |   |   |   |   |   |   |   |   |   |--- 3  >  -0.44
|   |   |   |   |   |   |   |   |   |   |   |--- class: 0.0|   |   |   |   |   |   |   |--- class_0  >  -1.21
|   |   |   |   |   |   |   |   |--- 4  <= -0.85
|   |   |   |   |   |   |   |   |   |--- 5  <= 0.14
|   |   |   |   |   |   |   |   |   |   |--- class_0  <= 0.74
|   |   |   |   |   |   |   |   |   |   |   |--- 6  <= -0.73
|   |   |   |   |   |   |   |   |   |   |   |   |--- 3  <= 0.32
|   |   |   |   |   |   |   |   |   |   |   |   |   |--- class: 1.0|   |   |   |   |   |   |   |   |   |   |   |   |--- 3  >  0.32
|   |   |   |   |   |   |   |   |   |   |   |   |   |--- class: 0.0|   |   |   |   |   |   |   |   |   |   |   |--- 6  >  -0.73
|   |   |   |   |   |   |   |   |   |   |   |   |--- class_0  <= 0.62
|   |   |   |   |   |   |   |   |   |   |   |   |   |--- class: 1.0|   |   |   |   |   |   |   |   |   |   |   |   |--- class_0  >  0.62
|   |   |   |   |   |   |   |   |   |   |   |   |   |--- 5  <= -0.49
|   |   |   |   |   |   |   |   |   |   |   |   |   |   |--- class: 1.0|   |   |   |   |   |   |   |   |   |   |   |   |   |--- 5  >  -0.49
|   |   |   |   |   |   |   |   |   |   |   |   |   |   |--- class: 0.0|   |   |   |   |   |   |   |   |   |   |--- class_0  >  0.74
|   |   |   |   |   |   |   |   |   |   |   |--- 5  <= -0.28
|   |   |   |   |   |   |   |   |   |   |   |   |--- 3  <= -0.04
|   |   |   |   |   |   |   |   |   |   |   |   |   |--- 5  <= -1.40
|   |   |   |   |   |   |   |   |   |   |   |   |   |   |--- class: 0.0|   |   |   |   |   |   |   |   |   |   |   |   |   |--- 5  >  -1.40
|   |   |   |   |   |   |   |   |   |   |   |   |   |   |--- class: 1.0|   |   |   |   |   |   |   |   |   |   |   |   |--- 3  >  -0.04
|   |   |   |   |   |   |   |   |   |   |   |   |   |--- class: 0.0|   |   |   |   |   |   |   |   |   |   |   |--- 5  >  -0.28
|   |   |   |   |   |   |   |   |   |   |   |   |--- class: 0.0|   |   |   |   |   |   |   |   |   |--- 5  >  0.14
|   |   |   |   |   |   |   |   |   |   |--- class_0  <= 0.26
|   |   |   |   |   |   |   |   |   |   |   |--- class_0  <= 0.16
|   |   |   |   |   |   |   |   |   |   |   |   |--- class: 1.0|   |   |   |   |   |   |   |   |   |   |   |--- class_0  >  0.16
|   |   |   |   |   |   |   |   |   |   |   |   |--- class: 0.0|   |   |   |   |   |   |   |   |   |   |--- class_0  >  0.26
|   |   |   |   |   |   |   |   |   |   |   |--- class: 1.0|   |   |   |   |   |   |   |   |--- 4  >  -0.85
|   |   |   |   |   |   |   |   |   |--- class_0  <= -0.64
|   |   |   |   |   |   |   |   |   |   |--- 4  <= 0.39
|   |   |   |   |   |   |   |   |   |   |   |--- class: 1.0|   |   |   |   |   |   |   |   |   |   |--- 4  >  0.39
|   |   |   |   |   |   |   |   |   |   |   |--- 6  <= -0.6 8
|   |   |   |   |   |   |   |   |   |   |   |   |--- class: 1.0|   |   |   |   |   |   |   |   |   |   |   |--- 6  >  -0.6 8
|   |   |   |   |   |   |   |   |   |   |   |   |--- 4  <= 1.08
|   |   |   |   |   |   |   |   |   |   |   |   |   |--- 4  <= 0.70
|   |   |   |   |   |   |   |   |   |   |   |   |   |   |--- class: 0.0|   |   |   |   |   |   |   |   |   |   |   |   |   |--- 4  >  0.70
|   |   |   |   |   |   |   |   |   |   |   |   |   |   |--- class_0  <= -0.86
|   |   |   |   |   |   |   |   |   |   |   |   |   |   |   |--- class: 0.0|   |   |   |   |   |   |   |   |   |   |   |   |   |   |--- class_0  >  -0.86
|   |   |   |   |   |   |   |   |   |   |   |   |   |   |   |--- class: 1.0|   |   |   |   |   |   |   |   |   |   |   |   |--- 4  >  1.08
|   |   |   |   |   |   |   |   |   |   |   |   |   |--- class: 1.0|   |   |   |   |   |   |   |   |   |--- class_0  >  -0.64
|   |   |   |   |   |   |   |   |   |   |--- 3  <= 0.04
|   |   |   |   |   |   |   |   |   |   |   |--- class: 1.0|   |   |   |   |   |   |   |   |   |   |--- 3  >  0.04
|   |   |   |   |   |   |   |   |   |   |   |--- 6  <= 1.6 2
|   |   |   |   |   |   |   |   |   |   |   |   |--- 6  <= -0.25
|   |   |   |   |   |   |   |   |   |   |   |   |   |--- 3  <= 0.06
|   |   |   |   |   |   |   |   |   |   |   |   |   |   |--- class: 0.0|   |   |   |   |   |   |   |   |   |   |   |   |   |--- 3  >  0.06
|   |   |   |   |   |   |   |   |   |   |   |   |   |   |--- class: 1.0|   |   |   |   |   |   |   |   |   |   |   |   |--- 6  >  -0.25
|   |   |   |   |   |   |   |   |   |   |   |   |   |--- class: 1.0|   |   |   |   |   |   |   |   |   |   |   |--- 6  >  1.6 2
|   |   |   |   |   |   |   |   |   |   |   |   |--- class: 0.0|   |   |   |   |   |   |--- 2  >  -2 .46
|   |   |   |   |   |   |   |--- 4  <= -1.38
|   |   |   |   |   |   |   |   |--- 2  <= -2 .41
|   |   |   |   |   |   |   |   |   |--- class: 0.0|   |   |   |   |   |   |   |   |--- 2  >  -2 .41
|   |   |   |   |   |   |   |   |   |--- class: 1.0|   |   |   |   |   |   |   |--- 4  >  -1.38
|   |   |   |   |   |   |   |   |--- class: 1.0|   |   |   |   |   |--- 2  >  -2 .37
|   |   |   |   |   |   |--- 4  <= -0.96
|   |   |   |   |   |   |   |--- 5  <= -0.5 5 
|   |   |   |   |   |   |   |   |--- class: 0.0|   |   |   |   |   |   |   |--- 5  >  -0.5 5 
|   |   |   |   |   |   |   |   |--- class: 1.0|   |   |   |   |   |   |--- 4  >  -0.96
|   |   |   |   |   |   |   |--- 2  <= -2 .37
|   |   |   |   |   |   |   |   |--- class: 0.0|   |   |   |   |   |   |   |--- 2  >  -2 .37
|   |   |   |   |   |   |   |   |--- 6  <= 0.21
|   |   |   |   |   |   |   |   |   |--- class: 1.0|   |   |   |   |   |   |   |   |--- 6  >  0.21
|   |   |   |   |   |   |   |   |   |--- 4  <= 0.4 1
|   |   |   |   |   |   |   |   |   |   |--- class: 1.0|   |   |   |   |   |   |   |   |   |--- 4  >  0.4 1
|   |   |   |   |   |   |   |   |   |   |--- class: 0.0|   |   |   |   |--- 5  >  0.52
|   |   |   |   |   |--- 2  <= -2 .76
|   |   |   |   |   |   |--- 4  <= -1.33
|   |   |   |   |   |   |   |--- class: 0.0|   |   |   |   |   |   |--- 4  >  -1.33
|   |   |   |   |   |   |   |--- 6  <= -0.27
|   |   |   |   |   |   |   |   |--- 5  <= 1.00
|   |   |   |   |   |   |   |   |   |--- 6  <= -0.56 
|   |   |   |   |   |   |   |   |   |   |--- 4  <= 0.57
|   |   |   |   |   |   |   |   |   |   |   |--- class: 1.0|   |   |   |   |   |   |   |   |   |   |--- 4  >  0.57
|   |   |   |   |   |   |   |   |   |   |   |--- class: 0.0|   |   |   |   |   |   |   |   |   |--- 6  >  -0.56 
|   |   |   |   |   |   |   |   |   |   |--- class_0  <= -0.07
|   |   |   |   |   |   |   |   |   |   |   |--- class: 0.0|   |   |   |   |   |   |   |   |   |   |--- class_0  >  -0.07
|   |   |   |   |   |   |   |   |   |   |   |--- class: 1.0|   |   |   |   |   |   |   |   |--- 5  >  1.00
|   |   |   |   |   |   |   |   |   |--- 4  <= -0.11
|   |   |   |   |   |   |   |   |   |   |--- class: 0.0|   |   |   |   |   |   |   |   |   |--- 4  >  -0.11
|   |   |   |   |   |   |   |   |   |   |--- class: 1.0|   |   |   |   |   |   |   |--- 6  >  -0.27
|   |   |   |   |   |   |   |   |--- 6  <= 0.30
|   |   |   |   |   |   |   |   |   |--- class: 1.0|   |   |   |   |   |   |   |   |--- 6  >  0.30
|   |   |   |   |   |   |   |   |   |--- 3  <= -0.08
|   |   |   |   |   |   |   |   |   |   |--- class_0  <= -0.23
|   |   |   |   |   |   |   |   |   |   |   |--- 3  <= -3 .34
|   |   |   |   |   |   |   |   |   |   |   |   |--- class: 1.0|   |   |   |   |   |   |   |   |   |   |   |--- 3  >  -3 .34
|   |   |   |   |   |   |   |   |   |   |   |   |--- class: 0.0|   |   |   |   |   |   |   |   |   |   |--- class_0  >  -0.23
|   |   |   |   |   |   |   |   |   |   |   |--- class: 1.0|   |   |   |   |   |   |   |   |   |--- 3  >  -0.08
|   |   |   |   |   |   |   |   |   |   |--- class_0  <= -0.82
|   |   |   |   |   |   |   |   |   |   |   |--- class: 0.0|   |   |   |   |   |   |   |   |   |   |--- class_0  >  -0.82
|   |   |   |   |   |   |   |   |   |   |   |--- class: 1.0|   |   |   |   |   |--- 2  >  -2 .76
|   |   |   |   |   |   |--- 3  <= 0.20
|   |   |   |   |   |   |   |--- class_0  <= -0.02
|   |   |   |   |   |   |   |   |--- 6  <= -0.55
|   |   |   |   |   |   |   |   |   |--- 5  <= 2.46
|   |   |   |   |   |   |   |   |   |   |--- 6  <= -1.06
|   |   |   |   |   |   |   |   |   |   |   |--- class: 1.0|   |   |   |   |   |   |   |   |   |   |--- 6  >  -1.06
|   |   |   |   |   |   |   |   |   |   |   |--- class_0  <= -1.11
|   |   |   |   |   |   |   |   |   |   |   |   |--- class: 0.0|   |   |   |   |   |   |   |   |   |   |   |--- class_0  >  -1.11
|   |   |   |   |   |   |   |   |   |   |   |   |--- class: 1.0|   |   |   |   |   |   |   |   |   |--- 5  >  2.46
|   |   |   |   |   |   |   |   |   |   |--- class: 0.0|   |   |   |   |   |   |   |   |--- 6  >  -0.55
|   |   |   |   |   |   |   |   |   |--- 6  <= -0.03
|   |   |   |   |   |   |   |   |   |   |--- class: 0.0|   |   |   |   |   |   |   |   |   |--- 6  >  -0.03
|   |   |   |   |   |   |   |   |   |   |--- 5  <= 2.24
|   |   |   |   |   |   |   |   |   |   |   |--- 2  <= -2 .42 
|   |   |   |   |   |   |   |   |   |   |   |   |--- class_0  <= -0.38
|   |   |   |   |   |   |   |   |   |   |   |   |   |--- class: 0.0|   |   |   |   |   |   |   |   |   |   |   |   |--- class_0  >  -0.38
|   |   |   |   |   |   |   |   |   |   |   |   |   |--- 5  <= 0.86
|   |   |   |   |   |   |   |   |   |   |   |   |   |   |--- class: 1.0|   |   |   |   |   |   |   |   |   |   |   |   |   |--- 5  >  0.86
|   |   |   |   |   |   |   |   |   |   |   |   |   |   |--- class: 0.0|   |   |   |   |   |   |   |   |   |   |   |--- 2  >  -2 .42 
|   |   |   |   |   |   |   |   |   |   |   |   |--- class: 1.0|   |   |   |   |   |   |   |   |   |   |--- 5  >  2.24
|   |   |   |   |   |   |   |   |   |   |   |--- class: 1.0|   |   |   |   |   |   |   |--- class_0  >  -0.02
|   |   |   |   |   |   |   |   |--- 6  <= 0.11
|   |   |   |   |   |   |   |   |   |--- 6  <= -1.07
|   |   |   |   |   |   |   |   |   |   |--- 3  <= -0.48
|   |   |   |   |   |   |   |   |   |   |   |--- class: 1.0|   |   |   |   |   |   |   |   |   |   |--- 3  >  -0.48
|   |   |   |   |   |   |   |   |   |   |   |--- class: 0.0|   |   |   |   |   |   |   |   |   |--- 6  >  -1.07
|   |   |   |   |   |   |   |   |   |   |--- class: 1.0|   |   |   |   |   |   |   |   |--- 6  >  0.11
|   |   |   |   |   |   |   |   |   |--- 5  <= 1.65
|   |   |   |   |   |   |   |   |   |   |--- 6  <= 0.31
|   |   |   |   |   |   |   |   |   |   |   |--- class: 0.0|   |   |   |   |   |   |   |   |   |   |--- 6  >  0.31
|   |   |   |   |   |   |   |   |   |   |   |--- 2  <= -2 .37
|   |   |   |   |   |   |   |   |   |   |   |   |--- 6  <= 1.25
|   |   |   |   |   |   |   |   |   |   |   |   |   |--- class: 1.0|   |   |   |   |   |   |   |   |   |   |   |   |--- 6  >  1.25
|   |   |   |   |   |   |   |   |   |   |   |   |   |--- class: 0.0|   |   |   |   |   |   |   |   |   |   |   |--- 2  >  -2 .37
|   |   |   |   |   |   |   |   |   |   |   |   |--- class: 0.0|   |   |   |   |   |   |   |   |   |--- 5  >  1.65
|   |   |   |   |   |   |   |   |   |   |--- class: 0.0|   |   |   |   |   |   |--- 3  >  0.20
|   |   |   |   |   |   |   |--- 5  <= 1.15
|   |   |   |   |   |   |   |   |--- 5  <= 1.10
|   |   |   |   |   |   |   |   |   |--- 3  <= 0.65
|   |   |   |   |   |   |   |   |   |   |--- class: 0.0|   |   |   |   |   |   |   |   |   |--- 3  >  0.65
|   |   |   |   |   |   |   |   |   |   |--- class: 1.0|   |   |   |   |   |   |   |   |--- 5  >  1.10
|   |   |   |   |   |   |   |   |   |--- class: 1.0|   |   |   |   |   |   |   |--- 5  >  1.15
|   |   |   |   |   |   |   |   |--- class: 0.0|   |   |   |--- 2  >  -2 .34
|   |   |   |   |--- 4  <= -0.79
|   |   |   |   |   |--- 5  <= -0.52
|   |   |   |   |   |   |--- class_0  <= 0.33
|   |   |   |   |   |   |   |--- 3  <= -3 .22
|   |   |   |   |   |   |   |   |--- class: 1.0|   |   |   |   |   |   |   |--- 3  >  -3 .22
|   |   |   |   |   |   |   |   |--- 6  <= -1.30
|   |   |   |   |   |   |   |   |   |--- class: 0.0|   |   |   |   |   |   |   |   |--- 6  >  -1.30
|   |   |   |   |   |   |   |   |   |--- 3  <= 0.49
|   |   |   |   |   |   |   |   |   |   |--- 3  <= -0.26
|   |   |   |   |   |   |   |   |   |   |   |--- 2  <= 2 .2 1
|   |   |   |   |   |   |   |   |   |   |   |   |--- 2  <= -2 .24
|   |   |   |   |   |   |   |   |   |   |   |   |   |--- class: 0.0|   |   |   |   |   |   |   |   |   |   |   |   |--- 2  >  -2 .24
|   |   |   |   |   |   |   |   |   |   |   |   |   |--- class: 1.0|   |   |   |   |   |   |   |   |   |   |   |--- 2  >  2 .2 1
|   |   |   |   |   |   |   |   |   |   |   |   |--- 5  <= -1.00
|   |   |   |   |   |   |   |   |   |   |   |   |   |--- 5  <= -1.24
|   |   |   |   |   |   |   |   |   |   |   |   |   |   |--- class_0  <= 0.02
|   |   |   |   |   |   |   |   |   |   |   |   |   |   |   |--- class: 0.0|   |   |   |   |   |   |   |   |   |   |   |   |   |   |--- class_0  >  0.02
|   |   |   |   |   |   |   |   |   |   |   |   |   |   |   |--- class: 1.0|   |   |   |   |   |   |   |   |   |   |   |   |   |--- 5  >  -1.24
|   |   |   |   |   |   |   |   |   |   |   |   |   |   |--- 4  <= -0.81
|   |   |   |   |   |   |   |   |   |   |   |   |   |   |   |--- class: 1.0|   |   |   |   |   |   |   |   |   |   |   |   |   |   |--- 4  >  -0.81
|   |   |   |   |   |   |   |   |   |   |   |   |   |   |   |--- class: 0.0|   |   |   |   |   |   |   |   |   |   |   |   |--- 5  >  -1.00
|   |   |   |   |   |   |   |   |   |   |   |   |   |--- class: 0.0|   |   |   |   |   |   |   |   |   |   |--- 3  >  -0.26
|   |   |   |   |   |   |   |   |   |   |   |--- 4  <= -1.17
|   |   |   |   |   |   |   |   |   |   |   |   |--- 6  <= 0.39
|   |   |   |   |   |   |   |   |   |   |   |   |   |--- 3  <= 0.33
|   |   |   |   |   |   |   |   |   |   |   |   |   |   |--- class: 1.0|   |   |   |   |   |   |   |   |   |   |   |   |   |--- 3  >  0.33
|   |   |   |   |   |   |   |   |   |   |   |   |   |   |--- class: 0.0|   |   |   |   |   |   |   |   |   |   |   |   |--- 6  >  0.39
|   |   |   |   |   |   |   |   |   |   |   |   |   |--- class: 0.0|   |   |   |   |   |   |   |   |   |   |   |--- 4  >  -1.17
|   |   |   |   |   |   |   |   |   |   |   |   |--- class: 1.0|   |   |   |   |   |   |   |   |   |--- 3  >  0.49
|   |   |   |   |   |   |   |   |   |   |--- class: 0.0|   |   |   |   |   |   |--- class_0  >  0.33
|   |   |   |   |   |   |   |--- 6  <= 0.35
|   |   |   |   |   |   |   |   |--- class: 0.0|   |   |   |   |   |   |   |--- 6  >  0.35
|   |   |   |   |   |   |   |   |--- 3  <= -0.36
|   |   |   |   |   |   |   |   |   |--- 5  <= -1.15 
|   |   |   |   |   |   |   |   |   |   |--- class: 0.0|   |   |   |   |   |   |   |   |   |--- 5  >  -1.15 
|   |   |   |   |   |   |   |   |   |   |--- class: 1.0|   |   |   |   |   |   |   |   |--- 3  >  -0.36
|   |   |   |   |   |   |   |   |   |--- class: 0.0|   |   |   |   |   |--- 5  >  -0.52
|   |   |   |   |   |   |--- 5  <= 1.5 5
|   |   |   |   |   |   |   |--- 3  <= -0.36
|   |   |   |   |   |   |   |   |--- 5  <= 0.5 6
|   |   |   |   |   |   |   |   |   |--- 3  <= -3 .38
|   |   |   |   |   |   |   |   |   |   |--- 2  <= 2 .88
|   |   |   |   |   |   |   |   |   |   |   |--- class: 1.0|   |   |   |   |   |   |   |   |   |   |--- 2  >  2 .88
|   |   |   |   |   |   |   |   |   |   |   |--- class_0  <= 0.49
|   |   |   |   |   |   |   |   |   |   |   |   |--- class: 1.0|   |   |   |   |   |   |   |   |   |   |   |--- class_0  >  0.49
|   |   |   |   |   |   |   |   |   |   |   |   |--- class: 0.0|   |   |   |   |   |   |   |   |   |--- 3  >  -3 .38
|   |   |   |   |   |   |   |   |   |   |--- 6  <= -0.22
|   |   |   |   |   |   |   |   |   |   |   |--- 6  <= -1.06 
|   |   |   |   |   |   |   |   |   |   |   |   |--- 2  <= 2 .72 
|   |   |   |   |   |   |   |   |   |   |   |   |   |--- class: 1.0|   |   |   |   |   |   |   |   |   |   |   |   |--- 2  >  2 .72 
|   |   |   |   |   |   |   |   |   |   |   |   |   |--- 5  <= 0.14
|   |   |   |   |   |   |   |   |   |   |   |   |   |   |--- class: 1.0|   |   |   |   |   |   |   |   |   |   |   |   |   |--- 5  >  0.14
|   |   |   |   |   |   |   |   |   |   |   |   |   |   |--- class: 0.0|   |   |   |   |   |   |   |   |   |   |   |--- 6  >  -1.06 
|   |   |   |   |   |   |   |   |   |   |   |   |--- 3  <= -0.88
|   |   |   |   |   |   |   |   |   |   |   |   |   |--- class: 0.0|   |   |   |   |   |   |   |   |   |   |   |   |--- 3  >  -0.88
|   |   |   |   |   |   |   |   |   |   |   |   |   |--- 2  <= 2 .18
|   |   |   |   |   |   |   |   |   |   |   |   |   |   |--- class: 1.0|   |   |   |   |   |   |   |   |   |   |   |   |   |--- 2  >  2 .18
|   |   |   |   |   |   |   |   |   |   |   |   |   |   |--- class: 0.0|   |   |   |   |   |   |   |   |   |   |--- 6  >  -0.22
|   |   |   |   |   |   |   |   |   |   |   |--- 4  <= -1.47
|   |   |   |   |   |   |   |   |   |   |   |   |--- 2  <= 2 .22 
|   |   |   |   |   |   |   |   |   |   |   |   |   |--- class: 1.0|   |   |   |   |   |   |   |   |   |   |   |   |--- 2  >  2 .22 
|   |   |   |   |   |   |   |   |   |   |   |   |   |--- 3  <= -3 .06
|   |   |   |   |   |   |   |   |   |   |   |   |   |   |--- class: 1.0|   |   |   |   |   |   |   |   |   |   |   |   |   |--- 3  >  -3 .06
|   |   |   |   |   |   |   |   |   |   |   |   |   |   |--- class: 0.0|   |   |   |   |   |   |   |   |   |   |   |--- 4  >  -1.47
|   |   |   |   |   |   |   |   |   |   |   |   |--- class: 1.0|   |   |   |   |   |   |   |   |--- 5  >  0.5 6
|   |   |   |   |   |   |   |   |   |--- 6  <= 0.26 
|   |   |   |   |   |   |   |   |   |   |--- class: 1.0|   |   |   |   |   |   |   |   |   |--- 6  >  0.26 
|   |   |   |   |   |   |   |   |   |   |--- 2  <= -2 .26
|   |   |   |   |   |   |   |   |   |   |   |--- class: 0.0|   |   |   |   |   |   |   |   |   |   |--- 2  >  -2 .26
|   |   |   |   |   |   |   |   |   |   |   |--- class: 1.0|   |   |   |   |   |   |   |--- 3  >  -0.36
|   |   |   |   |   |   |   |   |--- 5  <= 0.97
|   |   |   |   |   |   |   |   |   |--- class_0  <= 0.44
|   |   |   |   |   |   |   |   |   |   |--- 6  <= 1.21
|   |   |   |   |   |   |   |   |   |   |   |--- class_0  <= -0.class_0 1
|   |   |   |   |   |   |   |   |   |   |   |   |--- class: 1.0|   |   |   |   |   |   |   |   |   |   |   |--- class_0  >  -0.class_0 1
|   |   |   |   |   |   |   |   |   |   |   |   |--- 4  <= -1.46
|   |   |   |   |   |   |   |   |   |   |   |   |   |--- class_0  <= 0.19
|   |   |   |   |   |   |   |   |   |   |   |   |   |   |--- 6  <= -0.95
|   |   |   |   |   |   |   |   |   |   |   |   |   |   |   |--- class: 0.0|   |   |   |   |   |   |   |   |   |   |   |   |   |   |--- 6  >  -0.95
|   |   |   |   |   |   |   |   |   |   |   |   |   |   |   |--- class: 1.0|   |   |   |   |   |   |   |   |   |   |   |   |   |--- class_0  >  0.19
|   |   |   |   |   |   |   |   |   |   |   |   |   |   |--- class: 0.0|   |   |   |   |   |   |   |   |   |   |   |   |--- 4  >  -1.46
|   |   |   |   |   |   |   |   |   |   |   |   |   |--- class: 1.0|   |   |   |   |   |   |   |   |   |   |--- 6  >  1.21
|   |   |   |   |   |   |   |   |   |   |   |--- class: 0.0|   |   |   |   |   |   |   |   |   |--- class_0  >  0.44
|   |   |   |   |   |   |   |   |   |   |--- 5  <= -0.5 7
|   |   |   |   |   |   |   |   |   |   |   |--- class: 1.0|   |   |   |   |   |   |   |   |   |   |--- 5  >  -0.5 7
|   |   |   |   |   |   |   |   |   |   |   |--- 4  <= -0.83
|   |   |   |   |   |   |   |   |   |   |   |   |--- 6  <= -1.12
|   |   |   |   |   |   |   |   |   |   |   |   |   |--- 6  <= -1.26 
|   |   |   |   |   |   |   |   |   |   |   |   |   |   |--- 3  <= 0.30
|   |   |   |   |   |   |   |   |   |   |   |   |   |   |   |--- class: 0.0|   |   |   |   |   |   |   |   |   |   |   |   |   |   |--- 3  >  0.30
|   |   |   |   |   |   |   |   |   |   |   |   |   |   |   |--- class: 1.0|   |   |   |   |   |   |   |   |   |   |   |   |   |--- 6  >  -1.26 
|   |   |   |   |   |   |   |   |   |   |   |   |   |   |--- class: 1.0|   |   |   |   |   |   |   |   |   |   |   |   |--- 6  >  -1.12
|   |   |   |   |   |   |   |   |   |   |   |   |   |--- 6  <= 0.01
|   |   |   |   |   |   |   |   |   |   |   |   |   |   |--- class: 0.0|   |   |   |   |   |   |   |   |   |   |   |   |   |--- 6  >  0.01
|   |   |   |   |   |   |   |   |   |   |   |   |   |   |--- 4  <= -1.13
|   |   |   |   |   |   |   |   |   |   |   |   |   |   |   |--- 5  <= -0.15 
|   |   |   |   |   |   |   |   |   |   |   |   |   |   |   |   |--- class: 0.0|   |   |   |   |   |   |   |   |   |   |   |   |   |   |   |--- 5  >  -0.15 
|   |   |   |   |   |   |   |   |   |   |   |   |   |   |   |   |--- class: 1.0|   |   |   |   |   |   |   |   |   |   |   |   |   |   |--- 4  >  -1.13
|   |   |   |   |   |   |   |   |   |   |   |   |   |   |   |--- class: 1.0|   |   |   |   |   |   |   |   |   |   |   |--- 4  >  -0.83
|   |   |   |   |   |   |   |   |   |   |   |   |--- class: 1.0|   |   |   |   |   |   |   |   |--- 5  >  0.97
|   |   |   |   |   |   |   |   |   |--- 3  <= 0.38
|   |   |   |   |   |   |   |   |   |   |--- class: 0.0|   |   |   |   |   |   |   |   |   |--- 3  >  0.38
|   |   |   |   |   |   |   |   |   |   |--- 2  <= 2 .98
|   |   |   |   |   |   |   |   |   |   |   |--- 2  <= 2 .2 3
|   |   |   |   |   |   |   |   |   |   |   |   |--- class: 1.0|   |   |   |   |   |   |   |   |   |   |   |--- 2  >  2 .2 3
|   |   |   |   |   |   |   |   |   |   |   |   |--- class: 0.0|   |   |   |   |   |   |   |   |   |   |--- 2  >  2 .98
|   |   |   |   |   |   |   |   |   |   |   |--- class: 1.0|   |   |   |   |   |   |--- 5  >  1.5 5
|   |   |   |   |   |   |   |--- class_0  <= 0.40
|   |   |   |   |   |   |   |   |--- 6  <= 0.76 
|   |   |   |   |   |   |   |   |   |--- 5  <= 1.69
|   |   |   |   |   |   |   |   |   |   |--- 6  <= 0.6 6 
|   |   |   |   |   |   |   |   |   |   |   |--- class: 0.0|   |   |   |   |   |   |   |   |   |   |--- 6  >  0.6 6 
|   |   |   |   |   |   |   |   |   |   |   |--- class: 1.0|   |   |   |   |   |   |   |   |   |--- 5  >  1.69
|   |   |   |   |   |   |   |   |   |   |--- 2  <= 2 .17
|   |   |   |   |   |   |   |   |   |   |   |--- class: 0.0|   |   |   |   |   |   |   |   |   |   |--- 2  >  2 .17
|   |   |   |   |   |   |   |   |   |   |   |--- class: 1.0|   |   |   |   |   |   |   |   |--- 6  >  0.76 
|   |   |   |   |   |   |   |   |   |--- class: 0.0|   |   |   |   |   |   |   |--- class_0  >  0.40
|   |   |   |   |   |   |   |   |--- 2  <= 2 .37
|   |   |   |   |   |   |   |   |   |--- 3  <= -0.27
|   |   |   |   |   |   |   |   |   |   |--- class: 1.0|   |   |   |   |   |   |   |   |   |--- 3  >  -0.27
|   |   |   |   |   |   |   |   |   |   |--- class: 0.0|   |   |   |   |   |   |   |   |--- 2  >  2 .37
|   |   |   |   |   |   |   |   |   |--- class: 0.0|   |   |   |   |--- 4  >  -0.79
|   |   |   |   |   |--- 2  <= 1.65
|   |   |   |   |   |   |--- class_0  <= -1.14
|   |   |   |   |   |   |   |--- 3  <= -0.89
|   |   |   |   |   |   |   |   |--- 6  <= -1.23
|   |   |   |   |   |   |   |   |   |--- 6  <= -1.33
|   |   |   |   |   |   |   |   |   |   |--- 4  <= -0.10
|   |   |   |   |   |   |   |   |   |   |   |--- class: 1.0|   |   |   |   |   |   |   |   |   |   |--- 4  >  -0.10
|   |   |   |   |   |   |   |   |   |   |   |--- class: 0.0|   |   |   |   |   |   |   |   |   |--- 6  >  -1.33
|   |   |   |   |   |   |   |   |   |   |--- class: 1.0|   |   |   |   |   |   |   |   |--- 6  >  -1.23
|   |   |   |   |   |   |   |   |   |--- class: 0.0|   |   |   |   |   |   |   |--- 3  >  -0.89
|   |   |   |   |   |   |   |   |--- 6  <= -0.96 
|   |   |   |   |   |   |   |   |   |--- class: 1.0|   |   |   |   |   |   |   |   |--- 6  >  -0.96 
|   |   |   |   |   |   |   |   |   |--- 4  <= 0.4 4 
|   |   |   |   |   |   |   |   |   |   |--- 6  <= -0.85
|   |   |   |   |   |   |   |   |   |   |   |--- class: 0.0|   |   |   |   |   |   |   |   |   |   |--- 6  >  -0.85
|   |   |   |   |   |   |   |   |   |   |   |--- class: 1.0|   |   |   |   |   |   |   |   |   |--- 4  >  0.4 4 
|   |   |   |   |   |   |   |   |   |   |--- 4  <= 0.4 7
|   |   |   |   |   |   |   |   |   |   |   |--- class: 0.0|   |   |   |   |   |   |   |   |   |   |--- 4  >  0.4 7
|   |   |   |   |   |   |   |   |   |   |   |--- 3  <= 0.23
|   |   |   |   |   |   |   |   |   |   |   |   |--- 3  <= -0.04
|   |   |   |   |   |   |   |   |   |   |   |   |   |--- 6  <= 0.31
|   |   |   |   |   |   |   |   |   |   |   |   |   |   |--- 4  <= 0.46
|   |   |   |   |   |   |   |   |   |   |   |   |   |   |   |--- class: 0.0|   |   |   |   |   |   |   |   |   |   |   |   |   |   |--- 4  >  0.46
|   |   |   |   |   |   |   |   |   |   |   |   |   |   |   |--- 6  <= 0.25
|   |   |   |   |   |   |   |   |   |   |   |   |   |   |   |   |--- class: 1.0|   |   |   |   |   |   |   |   |   |   |   |   |   |   |   |--- 6  >  0.25
|   |   |   |   |   |   |   |   |   |   |   |   |   |   |   |   |--- class: 0.0|   |   |   |   |   |   |   |   |   |   |   |   |   |--- 6  >  0.31
|   |   |   |   |   |   |   |   |   |   |   |   |   |   |--- class: 1.0|   |   |   |   |   |   |   |   |   |   |   |   |--- 3  >  -0.04
|   |   |   |   |   |   |   |   |   |   |   |   |   |--- class: 0.0|   |   |   |   |   |   |   |   |   |   |   |--- 3  >  0.23
|   |   |   |   |   |   |   |   |   |   |   |   |--- class: 1.0|   |   |   |   |   |   |--- class_0  >  -1.14
|   |   |   |   |   |   |   |--- class_0  <= 0.99
|   |   |   |   |   |   |   |   |--- 6  <= -0.6 5
|   |   |   |   |   |   |   |   |   |--- class_0  <= -0.4class_0 
|   |   |   |   |   |   |   |   |   |   |--- 6  <= -0.90
|   |   |   |   |   |   |   |   |   |   |   |--- class: 1.0|   |   |   |   |   |   |   |   |   |   |--- 6  >  -0.90
|   |   |   |   |   |   |   |   |   |   |   |--- 5  <= 1.52
|   |   |   |   |   |   |   |   |   |   |   |   |--- class_0  <= -0.class_0 7
|   |   |   |   |   |   |   |   |   |   |   |   |   |--- class: 1.0|   |   |   |   |   |   |   |   |   |   |   |   |--- class_0  >  -0.class_0 7
|   |   |   |   |   |   |   |   |   |   |   |   |   |--- 6  <= -0.75
|   |   |   |   |   |   |   |   |   |   |   |   |   |   |--- class: 0.0|   |   |   |   |   |   |   |   |   |   |   |   |   |--- 6  >  -0.75
|   |   |   |   |   |   |   |   |   |   |   |   |   |   |--- class: 1.0|   |   |   |   |   |   |   |   |   |   |   |--- 5  >  1.52
|   |   |   |   |   |   |   |   |   |   |   |   |--- class: 0.0|   |   |   |   |   |   |   |   |   |--- class_0  >  -0.4class_0 
|   |   |   |   |   |   |   |   |   |   |--- 3  <= 0.50
|   |   |   |   |   |   |   |   |   |   |   |--- class: 1.0|   |   |   |   |   |   |   |   |   |   |--- 3  >  0.50
|   |   |   |   |   |   |   |   |   |   |   |--- class_0  <= 0.72
|   |   |   |   |   |   |   |   |   |   |   |   |--- class: 1.0|   |   |   |   |   |   |   |   |   |   |   |--- class_0  >  0.72
|   |   |   |   |   |   |   |   |   |   |   |   |--- class_0  <= 0.76
|   |   |   |   |   |   |   |   |   |   |   |   |   |--- class: 0.0|   |   |   |   |   |   |   |   |   |   |   |   |--- class_0  >  0.76
|   |   |   |   |   |   |   |   |   |   |   |   |   |--- class: 1.0|   |   |   |   |   |   |   |   |--- 6  >  -0.6 5
|   |   |   |   |   |   |   |   |   |--- class_0  <= -0.09
|   |   |   |   |   |   |   |   |   |   |--- 2  <= 2 .73
|   |   |   |   |   |   |   |   |   |   |   |--- 5  <= 2.06
|   |   |   |   |   |   |   |   |   |   |   |   |--- 2  <= 2 .2 1
|   |   |   |   |   |   |   |   |   |   |   |   |   |--- 4  <= 0.44
|   |   |   |   |   |   |   |   |   |   |   |   |   |   |--- class: 1.0|   |   |   |   |   |   |   |   |   |   |   |   |   |--- 4  >  0.44
|   |   |   |   |   |   |   |   |   |   |   |   |   |   |--- class_0  <= -0.1class_0 
|   |   |   |   |   |   |   |   |   |   |   |   |   |   |   |--- class: 1.0|   |   |   |   |   |   |   |   |   |   |   |   |   |   |--- class_0  >  -0.1class_0 
|   |   |   |   |   |   |   |   |   |   |   |   |   |   |   |--- 6  <= 0.08
|   |   |   |   |   |   |   |   |   |   |   |   |   |   |   |   |--- class: 0.0|   |   |   |   |   |   |   |   |   |   |   |   |   |   |   |--- 6  >  0.08
|   |   |   |   |   |   |   |   |   |   |   |   |   |   |   |   |--- class_0  <= -0.11
|   |   |   |   |   |   |   |   |   |   |   |   |   |   |   |   |   |--- class: 1.0|   |   |   |   |   |   |   |   |   |   |   |   |   |   |   |   |--- class_0  >  -0.11
|   |   |   |   |   |   |   |   |   |   |   |   |   |   |   |   |   |--- class: 0.0|   |   |   |   |   |   |   |   |   |   |   |   |--- 2  >  2 .2 1
|   |   |   |   |   |   |   |   |   |   |   |   |   |--- 6  <= 0.05
|   |   |   |   |   |   |   |   |   |   |   |   |   |   |--- 5  <= 1.49
|   |   |   |   |   |   |   |   |   |   |   |   |   |   |   |--- class_0  <= -0.8class_0 
|   |   |   |   |   |   |   |   |   |   |   |   |   |   |   |   |--- class_0  <= -0.87
|   |   |   |   |   |   |   |   |   |   |   |   |   |   |   |   |   |--- class: 1.0|   |   |   |   |   |   |   |   |   |   |   |   |   |   |   |   |--- class_0  >  -0.87
|   |   |   |   |   |   |   |   |   |   |   |   |   |   |   |   |   |--- class: 0.0|   |   |   |   |   |   |   |   |   |   |   |   |   |   |   |--- class_0  >  -0.8class_0 
|   |   |   |   |   |   |   |   |   |   |   |   |   |   |   |   |--- class: 1.0|   |   |   |   |   |   |   |   |   |   |   |   |   |   |--- 5  >  1.49
|   |   |   |   |   |   |   |   |   |   |   |   |   |   |   |--- 2  <= 2 .19
|   |   |   |   |   |   |   |   |   |   |   |   |   |   |   |   |--- class: 0.0|   |   |   |   |   |   |   |   |   |   |   |   |   |   |   |--- 2  >  2 .19
|   |   |   |   |   |   |   |   |   |   |   |   |   |   |   |   |--- class: 1.0|   |   |   |   |   |   |   |   |   |   |   |   |   |--- 6  >  0.05
|   |   |   |   |   |   |   |   |   |   |   |   |   |   |--- 6  <= 0.08
|   |   |   |   |   |   |   |   |   |   |   |   |   |   |   |--- class: 0.0|   |   |   |   |   |   |   |   |   |   |   |   |   |   |--- 6  >  0.08
|   |   |   |   |   |   |   |   |   |   |   |   |   |   |   |--- 5  <= -1.21
|   |   |   |   |   |   |   |   |   |   |   |   |   |   |   |   |--- 3  <= -0.46
|   |   |   |   |   |   |   |   |   |   |   |   |   |   |   |   |   |--- 3  <= -0.89
|   |   |   |   |   |   |   |   |   |   |   |   |   |   |   |   |   |   |--- class: 0.0|   |   |   |   |   |   |   |   |   |   |   |   |   |   |   |   |   |--- 3  >  -0.89
|   |   |   |   |   |   |   |   |   |   |   |   |   |   |   |   |   |   |--- class: 1.0|   |   |   |   |   |   |   |   |   |   |   |   |   |   |   |   |--- 3  >  -0.46
|   |   |   |   |   |   |   |   |   |   |   |   |   |   |   |   |   |--- class: 0.0|   |   |   |   |   |   |   |   |   |   |   |   |   |   |   |--- 5  >  -1.21
|   |   |   |   |   |   |   |   |   |   |   |   |   |   |   |   |--- 4  <= 0.69
|   |   |   |   |   |   |   |   |   |   |   |   |   |   |   |   |   |--- 5  <= -0.44
|   |   |   |   |   |   |   |   |   |   |   |   |   |   |   |   |   |   |--- 4  <= -0.58
|   |   |   |   |   |   |   |   |   |   |   |   |   |   |   |   |   |   |   |--- class: 0.0|   |   |   |   |   |   |   |   |   |   |   |   |   |   |   |   |   |   |--- 4  >  -0.58
|   |   |   |   |   |   |   |   |   |   |   |   |   |   |   |   |   |   |   |--- 5  <= -0.65 
|   |   |   |   |   |   |   |   |   |   |   |   |   |   |   |   |   |   |   |   |--- class: 1.0|   |   |   |   |   |   |   |   |   |   |   |   |   |   |   |   |   |   |   |--- 5  >  -0.65 
|   |   |   |   |   |   |   |   |   |   |   |   |   |   |   |   |   |   |   |   |--- 4  <= -0.4 9
|   |   |   |   |   |   |   |   |   |   |   |   |   |   |   |   |   |   |   |   |   |--- class: 1.0|   |   |   |   |   |   |   |   |   |   |   |   |   |   |   |   |   |   |   |   |--- 4  >  -0.4 9
|   |   |   |   |   |   |   |   |   |   |   |   |   |   |   |   |   |   |   |   |   |--- class: 0.0|   |   |   |   |   |   |   |   |   |   |   |   |   |   |   |   |   |--- 5  >  -0.44
|   |   |   |   |   |   |   |   |   |   |   |   |   |   |   |   |   |   |--- class: 1.0|   |   |   |   |   |   |   |   |   |   |   |   |   |   |   |   |--- 4  >  0.69
|   |   |   |   |   |   |   |   |   |   |   |   |   |   |   |   |   |--- 3  <= -0.77
|   |   |   |   |   |   |   |   |   |   |   |   |   |   |   |   |   |   |--- 5  <= -0.5 8
|   |   |   |   |   |   |   |   |   |   |   |   |   |   |   |   |   |   |   |--- class: 0.0|   |   |   |   |   |   |   |   |   |   |   |   |   |   |   |   |   |   |--- 5  >  -0.5 8
|   |   |   |   |   |   |   |   |   |   |   |   |   |   |   |   |   |   |   |--- 2  <= 2 .34
|   |   |   |   |   |   |   |   |   |   |   |   |   |   |   |   |   |   |   |   |--- class: 0.0|   |   |   |   |   |   |   |   |   |   |   |   |   |   |   |   |   |   |   |--- 2  >  2 .34
|   |   |   |   |   |   |   |   |   |   |   |   |   |   |   |   |   |   |   |   |--- class: 1.0|   |   |   |   |   |   |   |   |   |   |   |   |   |   |   |   |   |--- 3  >  -0.77
|   |   |   |   |   |   |   |   |   |   |   |   |   |   |   |   |   |   |--- 6  <= 0.26
|   |   |   |   |   |   |   |   |   |   |   |   |   |   |   |   |   |   |   |--- class: 1.0|   |   |   |   |   |   |   |   |   |   |   |   |   |   |   |   |   |   |--- 6  >  0.26
|   |   |   |   |   |   |   |   |   |   |   |   |   |   |   |   |   |   |   |--- class_0  <= -0.36
|   |   |   |   |   |   |   |   |   |   |   |   |   |   |   |   |   |   |   |   |--- class: 0.0|   |   |   |   |   |   |   |   |   |   |   |   |   |   |   |   |   |   |   |--- class_0  >  -0.36
|   |   |   |   |   |   |   |   |   |   |   |   |   |   |   |   |   |   |   |   |--- class: 1.0|   |   |   |   |   |   |   |   |   |   |   |--- 5  >  2.06
|   |   |   |   |   |   |   |   |   |   |   |   |--- class: 0.0|   |   |   |   |   |   |   |   |   |   |--- 2  >  2 .73
|   |   |   |   |   |   |   |   |   |   |   |--- 6  <= 0.99
|   |   |   |   |   |   |   |   |   |   |   |   |--- class: 1.0|   |   |   |   |   |   |   |   |   |   |   |--- 6  >  0.99
|   |   |   |   |   |   |   |   |   |   |   |   |--- 4  <= 0.89
|   |   |   |   |   |   |   |   |   |   |   |   |   |--- class: 1.0|   |   |   |   |   |   |   |   |   |   |   |   |--- 4  >  0.89
|   |   |   |   |   |   |   |   |   |   |   |   |   |--- class: 0.0|   |   |   |   |   |   |   |   |   |--- class_0  >  -0.09
|   |   |   |   |   |   |   |   |   |   |--- class_0  <= 0.class_0 9
|   |   |   |   |   |   |   |   |   |   |   |--- 5  <= 0.85 
|   |   |   |   |   |   |   |   |   |   |   |   |--- class: 1.0|   |   |   |   |   |   |   |   |   |   |   |--- 5  >  0.85 
|   |   |   |   |   |   |   |   |   |   |   |   |--- 6  <= -0.21
|   |   |   |   |   |   |   |   |   |   |   |   |   |--- 3  <= -0.40
|   |   |   |   |   |   |   |   |   |   |   |   |   |   |--- class: 1.0|   |   |   |   |   |   |   |   |   |   |   |   |   |--- 3  >  -0.40
|   |   |   |   |   |   |   |   |   |   |   |   |   |   |--- class: 0.0|   |   |   |   |   |   |   |   |   |   |   |   |--- 6  >  -0.21
|   |   |   |   |   |   |   |   |   |   |   |   |   |--- class: 1.0|   |   |   |   |   |   |   |   |   |   |--- class_0  >  0.class_0 9
|   |   |   |   |   |   |   |   |   |   |   |--- class_0  <= 0.60
|   |   |   |   |   |   |   |   |   |   |   |   |--- class: 0.0|   |   |   |   |   |   |   |   |   |   |   |--- class_0  >  0.60
|   |   |   |   |   |   |   |   |   |   |   |   |--- 6  <= -0.16
|   |   |   |   |   |   |   |   |   |   |   |   |   |--- 4  <= -0.74 
|   |   |   |   |   |   |   |   |   |   |   |   |   |   |--- class: 0.0|   |   |   |   |   |   |   |   |   |   |   |   |   |--- 4  >  -0.74 
|   |   |   |   |   |   |   |   |   |   |   |   |   |   |--- 4  <= 0.09
|   |   |   |   |   |   |   |   |   |   |   |   |   |   |   |--- 6  <= -0.16
|   |   |   |   |   |   |   |   |   |   |   |   |   |   |   |   |--- class: 1.0|   |   |   |   |   |   |   |   |   |   |   |   |   |   |   |--- 6  >  -0.16
|   |   |   |   |   |   |   |   |   |   |   |   |   |   |   |   |--- class: 0.0|   |   |   |   |   |   |   |   |   |   |   |   |   |   |--- 4  >  0.09
|   |   |   |   |   |   |   |   |   |   |   |   |   |   |   |--- class: 1.0|   |   |   |   |   |   |   |   |   |   |   |   |--- 6  >  -0.16
|   |   |   |   |   |   |   |   |   |   |   |   |   |--- 3  <= 0.59
|   |   |   |   |   |   |   |   |   |   |   |   |   |   |--- 5  <= -0.45 
|   |   |   |   |   |   |   |   |   |   |   |   |   |   |   |--- 3  <= -0.85
|   |   |   |   |   |   |   |   |   |   |   |   |   |   |   |   |--- 5  <= -0.59
|   |   |   |   |   |   |   |   |   |   |   |   |   |   |   |   |   |--- class: 1.0|   |   |   |   |   |   |   |   |   |   |   |   |   |   |   |   |--- 5  >  -0.59
|   |   |   |   |   |   |   |   |   |   |   |   |   |   |   |   |   |--- class: 0.0|   |   |   |   |   |   |   |   |   |   |   |   |   |   |   |--- 3  >  -0.85
|   |   |   |   |   |   |   |   |   |   |   |   |   |   |   |   |--- class: 1.0|   |   |   |   |   |   |   |   |   |   |   |   |   |   |--- 5  >  -0.45 
|   |   |   |   |   |   |   |   |   |   |   |   |   |   |   |--- class: 1.0|   |   |   |   |   |   |   |   |   |   |   |   |   |--- 3  >  0.59
|   |   |   |   |   |   |   |   |   |   |   |   |   |   |--- 4  <= -0.46
|   |   |   |   |   |   |   |   |   |   |   |   |   |   |   |--- class: 0.0|   |   |   |   |   |   |   |   |   |   |   |   |   |   |--- 4  >  -0.46
|   |   |   |   |   |   |   |   |   |   |   |   |   |   |   |--- class: 1.0|   |   |   |   |   |   |   |--- class_0  >  0.99
|   |   |   |   |   |   |   |   |--- 2  <= 2 .53
|   |   |   |   |   |   |   |   |   |--- 4  <= -0.00
|   |   |   |   |   |   |   |   |   |   |--- 4  <= -0.03
|   |   |   |   |   |   |   |   |   |   |   |--- 4  <= -0.41
|   |   |   |   |   |   |   |   |   |   |   |   |--- class_0  <= 1.26
|   |   |   |   |   |   |   |   |   |   |   |   |   |--- class: 0.0|   |   |   |   |   |   |   |   |   |   |   |   |--- class_0  >  1.26
|   |   |   |   |   |   |   |   |   |   |   |   |   |--- 6  <= 1.00
|   |   |   |   |   |   |   |   |   |   |   |   |   |   |--- class: 1.0|   |   |   |   |   |   |   |   |   |   |   |   |   |--- 6  >  1.00
|   |   |   |   |   |   |   |   |   |   |   |   |   |   |--- class: 0.0|   |   |   |   |   |   |   |   |   |   |   |--- 4  >  -0.41
|   |   |   |   |   |   |   |   |   |   |   |   |--- class: 1.0|   |   |   |   |   |   |   |   |   |   |--- 4  >  -0.03
|   |   |   |   |   |   |   |   |   |   |   |--- class: 0.0|   |   |   |   |   |   |   |   |   |--- 4  >  -0.00
|   |   |   |   |   |   |   |   |   |   |--- class: 1.0|   |   |   |   |   |   |   |   |--- 2  >  2 .53
|   |   |   |   |   |   |   |   |   |--- class_0  <= 0.99
|   |   |   |   |   |   |   |   |   |   |--- class: 0.0|   |   |   |   |   |   |   |   |   |--- class_0  >  0.99
|   |   |   |   |   |   |   |   |   |   |--- 5  <= -0.46
|   |   |   |   |   |   |   |   |   |   |   |--- 5  <= -0.52
|   |   |   |   |   |   |   |   |   |   |   |   |--- 2  <= 2 .64
|   |   |   |   |   |   |   |   |   |   |   |   |   |--- class: 1.0|   |   |   |   |   |   |   |   |   |   |   |   |--- 2  >  2 .64
|   |   |   |   |   |   |   |   |   |   |   |   |   |--- class_0  <= 1.29
|   |   |   |   |   |   |   |   |   |   |   |   |   |   |--- 3  <= -0.75
|   |   |   |   |   |   |   |   |   |   |   |   |   |   |   |--- 2  <= 1.2 9
|   |   |   |   |   |   |   |   |   |   |   |   |   |   |   |   |--- class: 1.0|   |   |   |   |   |   |   |   |   |   |   |   |   |   |   |--- 2  >  1.2 9
|   |   |   |   |   |   |   |   |   |   |   |   |   |   |   |   |--- class: 0.0|   |   |   |   |   |   |   |   |   |   |   |   |   |   |--- 3  >  -0.75
|   |   |   |   |   |   |   |   |   |   |   |   |   |   |   |--- class: 1.0|   |   |   |   |   |   |   |   |   |   |   |   |   |--- class_0  >  1.29
|   |   |   |   |   |   |   |   |   |   |   |   |   |   |--- 6  <= -1.16
|   |   |   |   |   |   |   |   |   |   |   |   |   |   |   |--- class: 0.0|   |   |   |   |   |   |   |   |   |   |   |   |   |   |--- 6  >  -1.16
|   |   |   |   |   |   |   |   |   |   |   |   |   |   |   |--- 5  <= -1.5 2
|   |   |   |   |   |   |   |   |   |   |   |   |   |   |   |   |--- class: 0.0|   |   |   |   |   |   |   |   |   |   |   |   |   |   |   |--- 5  >  -1.5 2
|   |   |   |   |   |   |   |   |   |   |   |   |   |   |   |   |--- 5  <= -0.81
|   |   |   |   |   |   |   |   |   |   |   |   |   |   |   |   |   |--- 6  <= -0.71
|   |   |   |   |   |   |   |   |   |   |   |   |   |   |   |   |   |   |--- class: 1.0|   |   |   |   |   |   |   |   |   |   |   |   |   |   |   |   |   |--- 6  >  -0.71
|   |   |   |   |   |   |   |   |   |   |   |   |   |   |   |   |   |   |--- 2  <= 1.2 1
|   |   |   |   |   |   |   |   |   |   |   |   |   |   |   |   |   |   |   |--- class: 0.0|   |   |   |   |   |   |   |   |   |   |   |   |   |   |   |   |   |   |--- 2  >  1.2 1
|   |   |   |   |   |   |   |   |   |   |   |   |   |   |   |   |   |   |   |--- class: 1.0|   |   |   |   |   |   |   |   |   |   |   |   |   |   |   |   |--- 5  >  -0.81
|   |   |   |   |   |   |   |   |   |   |   |   |   |   |   |   |   |--- class: 0.0|   |   |   |   |   |   |   |   |   |   |   |--- 5  >  -0.52
|   |   |   |   |   |   |   |   |   |   |   |   |--- class: 0.0|   |   |   |   |   |   |   |   |   |   |--- 5  >  -0.46
|   |   |   |   |   |   |   |   |   |   |   |--- 3  <= 0.24
|   |   |   |   |   |   |   |   |   |   |   |   |--- 2  <= 2 .54
|   |   |   |   |   |   |   |   |   |   |   |   |   |--- class: 0.0|   |   |   |   |   |   |   |   |   |   |   |   |--- 2  >  2 .54
|   |   |   |   |   |   |   |   |   |   |   |   |   |--- class: 1.0|   |   |   |   |   |   |   |   |   |   |   |--- 3  >  0.24
|   |   |   |   |   |   |   |   |   |   |   |   |--- class: 0.0|   |   |   |   |   |--- 2  >  1.65
|   |   |   |   |   |   |--- class_0  <= 2.06
|   |   |   |   |   |   |   |--- 4  <= 0.60
|   |   |   |   |   |   |   |   |--- class: 1.0|   |   |   |   |   |   |   |--- 4  >  0.60
|   |   |   |   |   |   |   |   |--- 5  <= -1.48
|   |   |   |   |   |   |   |   |   |--- class_0  <= 0.18
|   |   |   |   |   |   |   |   |   |   |--- class: 0.0|   |   |   |   |   |   |   |   |   |--- class_0  >  0.18
|   |   |   |   |   |   |   |   |   |   |--- class: 1.0|   |   |   |   |   |   |   |   |--- 5  >  -1.48
|   |   |   |   |   |   |   |   |   |--- class: 1.0|   |   |   |   |   |   |--- class_0  >  2.06
|   |   |   |   |   |   |   |--- class: 0.0|   |   |--- 6  >  1.6 9
|   |   |   |--- 4  <= -1.08
|   |   |   |   |--- 2  <= -1.13
|   |   |   |   |   |--- class: 1.0|   |   |   |   |--- 2  >  -1.13
|   |   |   |   |   |--- 4  <= -1.31
|   |   |   |   |   |   |--- 6  <= 1.63
|   |   |   |   |   |   |   |--- class: 0.0|   |   |   |   |   |   |--- 6  >  1.63
|   |   |   |   |   |   |   |--- 2  <= -2 .97
|   |   |   |   |   |   |   |   |--- class: 0.0|   |   |   |   |   |   |   |--- 2  >  -2 .97
|   |   |   |   |   |   |   |   |--- 5  <= -0.97
|   |   |   |   |   |   |   |   |   |--- class: 0.0|   |   |   |   |   |   |   |   |--- 5  >  -0.97
|   |   |   |   |   |   |   |   |   |--- 3  <= -0.36
|   |   |   |   |   |   |   |   |   |   |--- class: 1.0|   |   |   |   |   |   |   |   |   |--- 3  >  -0.36
|   |   |   |   |   |   |   |   |   |   |--- 5  <= -0.09
|   |   |   |   |   |   |   |   |   |   |   |--- class: 1.0|   |   |   |   |   |   |   |   |   |   |--- 5  >  -0.09
|   |   |   |   |   |   |   |   |   |   |   |--- class: 0.0|   |   |   |   |   |--- 4  >  -1.31
|   |   |   |   |   |   |--- class: 0.0|   |   |   |--- 4  >  -1.08
|   |   |   |   |--- 4  <= 1.05
|   |   |   |   |   |--- class_0  <= 0.19
|   |   |   |   |   |   |--- 6  <= 1.53
|   |   |   |   |   |   |   |--- class: 0.0|   |   |   |   |   |   |--- 6  >  1.53
|   |   |   |   |   |   |   |--- 5  <= 0.70
|   |   |   |   |   |   |   |   |--- 6  <= 2.25
|   |   |   |   |   |   |   |   |   |--- 4  <= 0.60
|   |   |   |   |   |   |   |   |   |   |--- 2  <= 1.17
|   |   |   |   |   |   |   |   |   |   |   |--- 5  <= -0.51
|   |   |   |   |   |   |   |   |   |   |   |   |--- 4  <= 0.4 9
|   |   |   |   |   |   |   |   |   |   |   |   |   |--- class_0  <= 0.07
|   |   |   |   |   |   |   |   |   |   |   |   |   |   |--- class: 1.0|   |   |   |   |   |   |   |   |   |   |   |   |   |--- class_0  >  0.07
|   |   |   |   |   |   |   |   |   |   |   |   |   |   |--- class: 0.0|   |   |   |   |   |   |   |   |   |   |   |   |--- 4  >  0.4 9
|   |   |   |   |   |   |   |   |   |   |   |   |   |--- class: 0.0|   |   |   |   |   |   |   |   |   |   |   |--- 5  >  -0.51
|   |   |   |   |   |   |   |   |   |   |   |   |--- class: 1.0|   |   |   |   |   |   |   |   |   |   |--- 2  >  1.17
|   |   |   |   |   |   |   |   |   |   |   |--- 5  <= 0.14
|   |   |   |   |   |   |   |   |   |   |   |   |--- class_0  <= -0.72
|   |   |   |   |   |   |   |   |   |   |   |   |   |--- class: 1.0|   |   |   |   |   |   |   |   |   |   |   |   |--- class_0  >  -0.72
|   |   |   |   |   |   |   |   |   |   |   |   |   |--- class: 0.0|   |   |   |   |   |   |   |   |   |   |   |--- 5  >  0.14
|   |   |   |   |   |   |   |   |   |   |   |   |--- class: 1.0|   |   |   |   |   |   |   |   |   |--- 4  >  0.60
|   |   |   |   |   |   |   |   |   |   |--- 6  <= 1.91
|   |   |   |   |   |   |   |   |   |   |   |--- class: 0.0|   |   |   |   |   |   |   |   |   |   |--- 6  >  1.91
|   |   |   |   |   |   |   |   |   |   |   |--- class: 1.0|   |   |   |   |   |   |   |   |--- 6  >  2.25
|   |   |   |   |   |   |   |   |   |--- class: 1.0|   |   |   |   |   |   |   |--- 5  >  0.70
|   |   |   |   |   |   |   |   |--- 5  <= 0.89
|   |   |   |   |   |   |   |   |   |--- class: 0.0|   |   |   |   |   |   |   |   |--- 5  >  0.89
|   |   |   |   |   |   |   |   |   |--- 4  <= -0.00
|   |   |   |   |   |   |   |   |   |   |--- class: 1.0|   |   |   |   |   |   |   |   |   |--- 4  >  -0.00
|   |   |   |   |   |   |   |   |   |   |--- class: 0.0|   |   |   |   |   |--- class_0  >  0.19
|   |   |   |   |   |   |--- 2  <= 2 .51
|   |   |   |   |   |   |   |--- class: 1.0|   |   |   |   |   |   |--- 2  >  2 .51
|   |   |   |   |   |   |   |--- 4  <= 0.75
|   |   |   |   |   |   |   |   |--- 6  <= 1.56 
|   |   |   |   |   |   |   |   |   |--- 6  <= 1.53
|   |   |   |   |   |   |   |   |   |   |--- class: 1.0|   |   |   |   |   |   |   |   |   |--- 6  >  1.53
|   |   |   |   |   |   |   |   |   |   |--- class: 0.0|   |   |   |   |   |   |   |   |--- 6  >  1.56 
|   |   |   |   |   |   |   |   |   |--- class: 1.0|   |   |   |   |   |   |   |--- 4  >  0.75
|   |   |   |   |   |   |   |   |--- class: 0.0|   |   |   |   |--- 4  >  1.05
|   |   |   |   |   |--- 3  <= -3 .23
|   |   |   |   |   |   |--- class: 0.0|   |   |   |   |   |--- 3  >  -3 .23
|   |   |   |   |   |   |--- class: 1.0|   |--- 3  >  0.69
|   |   |--- class_0  <= 0.77
|   |   |   |--- 4  <= -0.48
|   |   |   |   |--- 2  <= 2 .2 3
|   |   |   |   |   |--- 5  <= 0.42
|   |   |   |   |   |   |--- 3  <= 0.93 
|   |   |   |   |   |   |   |--- class: 1.0|   |   |   |   |   |   |--- 3  >  0.93 
|   |   |   |   |   |   |   |--- 4  <= -0.53
|   |   |   |   |   |   |   |   |--- 6  <= 0.36 
|   |   |   |   |   |   |   |   |   |--- 3  <= 3 .3 3
|   |   |   |   |   |   |   |   |   |   |--- class: 0.0|   |   |   |   |   |   |   |   |   |--- 3  >  3 .3 3
|   |   |   |   |   |   |   |   |   |   |--- class_0  <= -0.34
|   |   |   |   |   |   |   |   |   |   |   |--- class: 1.0|   |   |   |   |   |   |   |   |   |   |--- class_0  >  -0.34
|   |   |   |   |   |   |   |   |   |   |   |--- class: 0.0|   |   |   |   |   |   |   |   |--- 6  >  0.36 
|   |   |   |   |   |   |   |   |   |--- class: 1.0|   |   |   |   |   |   |   |--- 4  >  -0.53
|   |   |   |   |   |   |   |   |--- class: 1.0|   |   |   |   |   |--- 5  >  0.42
|   |   |   |   |   |   |--- 6  <= 0.96
|   |   |   |   |   |   |   |--- class: 0.0|   |   |   |   |   |   |--- 6  >  0.96
|   |   |   |   |   |   |   |--- 5  <= 1.15 
|   |   |   |   |   |   |   |   |--- class: 1.0|   |   |   |   |   |   |   |--- 5  >  1.15 
|   |   |   |   |   |   |   |   |--- class: 0.0|   |   |   |   |--- 2  >  2 .2 3
|   |   |   |   |   |--- class_0  <= -0.33
|   |   |   |   |   |   |--- 3  <= 3 .87
|   |   |   |   |   |   |   |--- class: 1.0|   |   |   |   |   |   |--- 3  >  3 .87
|   |   |   |   |   |   |   |--- 2  <= 2 .94
|   |   |   |   |   |   |   |   |--- class: 1.0|   |   |   |   |   |   |   |--- 2  >  2 .94
|   |   |   |   |   |   |   |   |--- class: 0.0|   |   |   |   |   |--- class_0  >  -0.33
|   |   |   |   |   |   |--- 3  <= 3 .97
|   |   |   |   |   |   |   |--- 3  <= 3 .60
|   |   |   |   |   |   |   |   |--- 6  <= 0.21
|   |   |   |   |   |   |   |   |   |--- 2  <= 2 .69
|   |   |   |   |   |   |   |   |   |   |--- class: 0.0|   |   |   |   |   |   |   |   |   |--- 2  >  2 .69
|   |   |   |   |   |   |   |   |   |   |--- 4  <= -0.96
|   |   |   |   |   |   |   |   |   |   |   |--- 2  <= 2 .88
|   |   |   |   |   |   |   |   |   |   |   |   |--- class: 0.0|   |   |   |   |   |   |   |   |   |   |   |--- 2  >  2 .88
|   |   |   |   |   |   |   |   |   |   |   |   |--- 4  <= -1.39
|   |   |   |   |   |   |   |   |   |   |   |   |   |--- 5  <= 0.11
|   |   |   |   |   |   |   |   |   |   |   |   |   |   |--- class: 0.0|   |   |   |   |   |   |   |   |   |   |   |   |   |--- 5  >  0.11
|   |   |   |   |   |   |   |   |   |   |   |   |   |   |--- class: 1.0|   |   |   |   |   |   |   |   |   |   |   |   |--- 4  >  -1.39
|   |   |   |   |   |   |   |   |   |   |   |   |   |--- class: 1.0|   |   |   |   |   |   |   |   |   |   |--- 4  >  -0.96
|   |   |   |   |   |   |   |   |   |   |   |--- class: 1.0|   |   |   |   |   |   |   |   |--- 6  >  0.21
|   |   |   |   |   |   |   |   |   |--- class_0  <= 0.08
|   |   |   |   |   |   |   |   |   |   |--- class: 0.0|   |   |   |   |   |   |   |   |   |--- class_0  >  0.08
|   |   |   |   |   |   |   |   |   |   |--- class: 1.0|   |   |   |   |   |   |   |--- 3  >  3 .60
|   |   |   |   |   |   |   |   |--- class: 0.0|   |   |   |   |   |   |--- 3  >  3 .97
|   |   |   |   |   |   |   |--- class_0  <= 0.04
|   |   |   |   |   |   |   |   |--- class: 1.0|   |   |   |   |   |   |   |--- class_0  >  0.04
|   |   |   |   |   |   |   |   |--- 5  <= 0.25 
|   |   |   |   |   |   |   |   |   |--- 6  <= 0.71
|   |   |   |   |   |   |   |   |   |   |--- class: 0.0|   |   |   |   |   |   |   |   |   |--- 6  >  0.71
|   |   |   |   |   |   |   |   |   |   |--- class: 1.0|   |   |   |   |   |   |   |   |--- 5  >  0.25 
|   |   |   |   |   |   |   |   |   |--- class: 1.0|   |   |   |--- 4  >  -0.48
|   |   |   |   |--- 3  <= 0.73 
|   |   |   |   |   |--- 5  <= 0.25 
|   |   |   |   |   |   |--- 2  <= -2 .23
|   |   |   |   |   |   |   |--- 5  <= -0.52
|   |   |   |   |   |   |   |   |--- class: 1.0|   |   |   |   |   |   |   |--- 5  >  -0.52
|   |   |   |   |   |   |   |   |--- class: 0.0|   |   |   |   |   |   |--- 2  >  -2 .23
|   |   |   |   |   |   |   |--- class: 1.0|   |   |   |   |   |--- 5  >  0.25 
|   |   |   |   |   |   |--- class: 0.0|   |   |   |   |--- 3  >  0.73 
|   |   |   |   |   |--- 4  <= 0.75
|   |   |   |   |   |   |--- 6  <= 0.62
|   |   |   |   |   |   |   |--- class: 1.0|   |   |   |   |   |   |--- 6  >  0.62
|   |   |   |   |   |   |   |--- 3  <= 3 .02
|   |   |   |   |   |   |   |   |--- class: 1.0|   |   |   |   |   |   |   |--- 3  >  3 .02
|   |   |   |   |   |   |   |   |--- 4  <= -0.03
|   |   |   |   |   |   |   |   |   |--- 3  <= 3 .07
|   |   |   |   |   |   |   |   |   |   |--- class: 0.0|   |   |   |   |   |   |   |   |   |--- 3  >  3 .07
|   |   |   |   |   |   |   |   |   |   |--- 4  <= -0.07
|   |   |   |   |   |   |   |   |   |   |   |--- class: 1.0|   |   |   |   |   |   |   |   |   |   |--- 4  >  -0.07
|   |   |   |   |   |   |   |   |   |   |   |--- class: 0.0|   |   |   |   |   |   |   |   |--- 4  >  -0.03
|   |   |   |   |   |   |   |   |   |--- class: 1.0|   |   |   |   |   |--- 4  >  0.75
|   |   |   |   |   |   |--- 5  <= 0.5 5 
|   |   |   |   |   |   |   |--- 3  <= 0.98
|   |   |   |   |   |   |   |   |--- 3  <= 0.95
|   |   |   |   |   |   |   |   |   |--- class: 1.0|   |   |   |   |   |   |   |   |--- 3  >  0.95
|   |   |   |   |   |   |   |   |   |--- class: 0.0|   |   |   |   |   |   |   |--- 3  >  0.98
|   |   |   |   |   |   |   |   |--- class: 1.0|   |   |   |   |   |   |--- 5  >  0.5 5 
|   |   |   |   |   |   |   |--- 2  <= -2 .2 7
|   |   |   |   |   |   |   |   |--- 4  <= 1.03
|   |   |   |   |   |   |   |   |   |--- 3  <= 3 .3 3 
|   |   |   |   |   |   |   |   |   |   |--- class: 0.0|   |   |   |   |   |   |   |   |   |--- 3  >  3 .3 3 
|   |   |   |   |   |   |   |   |   |   |--- 4  <= 0.86
|   |   |   |   |   |   |   |   |   |   |   |--- 6  <= -0.97
|   |   |   |   |   |   |   |   |   |   |   |   |--- class: 1.0|   |   |   |   |   |   |   |   |   |   |   |--- 6  >  -0.97
|   |   |   |   |   |   |   |   |   |   |   |   |--- class: 0.0|   |   |   |   |   |   |   |   |   |   |--- 4  >  0.86
|   |   |   |   |   |   |   |   |   |   |   |--- class: 1.0|   |   |   |   |   |   |   |   |--- 4  >  1.03
|   |   |   |   |   |   |   |   |   |--- class: 0.0|   |   |   |   |   |   |   |--- 2  >  -2 .2 7
|   |   |   |   |   |   |   |   |--- 5  <= 1.17
|   |   |   |   |   |   |   |   |   |--- class: 1.0|   |   |   |   |   |   |   |   |--- 5  >  1.17
|   |   |   |   |   |   |   |   |   |--- 2  <= 2 .39
|   |   |   |   |   |   |   |   |   |   |--- class: 1.0|   |   |   |   |   |   |   |   |   |--- 2  >  2 .39
|   |   |   |   |   |   |   |   |   |   |--- 6  <= -0.85
|   |   |   |   |   |   |   |   |   |   |   |--- class: 1.0|   |   |   |   |   |   |   |   |   |   |--- 6  >  -0.85
|   |   |   |   |   |   |   |   |   |   |   |--- 5  <= 1.42
|   |   |   |   |   |   |   |   |   |   |   |   |--- class: 0.0|   |   |   |   |   |   |   |   |   |   |   |--- 5  >  1.42
|   |   |   |   |   |   |   |   |   |   |   |   |--- 4  <= 0.86
|   |   |   |   |   |   |   |   |   |   |   |   |   |--- class: 1.0|   |   |   |   |   |   |   |   |   |   |   |   |--- 4  >  0.86
|   |   |   |   |   |   |   |   |   |   |   |   |   |--- class: 0.0|   |   |--- class_0  >  0.77
|   |   |   |--- 6  <= 1.6 9
|   |   |   |   |--- 4  <= 0.36
|   |   |   |   |   |--- 4  <= -0.35
|   |   |   |   |   |   |--- class: 0.0|   |   |   |   |   |--- 4  >  -0.35
|   |   |   |   |   |   |--- 6  <= -0.96
|   |   |   |   |   |   |   |--- 2  <= 2 .68
|   |   |   |   |   |   |   |   |--- class: 1.0|   |   |   |   |   |   |   |--- 2  >  2 .68
|   |   |   |   |   |   |   |   |--- class: 0.0|   |   |   |   |   |   |--- 6  >  -0.96
|   |   |   |   |   |   |   |--- 3  <= 3 .03 
|   |   |   |   |   |   |   |   |--- 5  <= 1.5 5
|   |   |   |   |   |   |   |   |   |--- 5  <= 0.78
|   |   |   |   |   |   |   |   |   |   |--- 6  <= 1.01
|   |   |   |   |   |   |   |   |   |   |   |--- 3  <= 0.99
|   |   |   |   |   |   |   |   |   |   |   |   |--- 3  <= 0.72
|   |   |   |   |   |   |   |   |   |   |   |   |   |--- class: 0.0|   |   |   |   |   |   |   |   |   |   |   |   |--- 3  >  0.72
|   |   |   |   |   |   |   |   |   |   |   |   |   |--- class_0  <= 1.29
|   |   |   |   |   |   |   |   |   |   |   |   |   |   |--- class: 0.0|   |   |   |   |   |   |   |   |   |   |   |   |   |--- class_0  >  1.29
|   |   |   |   |   |   |   |   |   |   |   |   |   |   |--- 3  <= 0.90
|   |   |   |   |   |   |   |   |   |   |   |   |   |   |   |--- class: 1.0|   |   |   |   |   |   |   |   |   |   |   |   |   |   |--- 3  >  0.90
|   |   |   |   |   |   |   |   |   |   |   |   |   |   |   |--- class: 0.0|   |   |   |   |   |   |   |   |   |   |   |--- 3  >  0.99
|   |   |   |   |   |   |   |   |   |   |   |   |--- class: 1.0|   |   |   |   |   |   |   |   |   |   |--- 6  >  1.01
|   |   |   |   |   |   |   |   |   |   |   |--- class: 1.0|   |   |   |   |   |   |   |   |   |--- 5  >  0.78
|   |   |   |   |   |   |   |   |   |   |--- class: 1.0|   |   |   |   |   |   |   |   |--- 5  >  1.5 5
|   |   |   |   |   |   |   |   |   |--- class: 0.0|   |   |   |   |   |   |   |--- 3  >  3 .03 
|   |   |   |   |   |   |   |   |--- class: 0.0|   |   |   |   |--- 4  >  0.36
|   |   |   |   |   |--- class_0  <= 0.93
|   |   |   |   |   |   |--- 5  <= -0.77
|   |   |   |   |   |   |   |--- class: 0.0|   |   |   |   |   |   |--- 5  >  -0.77
|   |   |   |   |   |   |   |--- class: 1.0|   |   |   |   |   |--- class_0  >  0.93
|   |   |   |   |   |   |--- class: 1.0|   |   |   |--- 6  >  1.6 9
|   |   |   |   |--- class: 1.0