0:[5<-0.7371316 76] yes=1,no=2,missing=2
	3 :[2<0.737065732] yes=3,no=4,missing=4
		5 :[4<0.95154275 5] yes=7,no=8,missing=8
			7:[1<2 .475772 682] yes=15,no=16,missing=16
				3 5:[2<0.36853 643 5] yes=29,no=30,missing=30
					29:leaf=-0.0363488831					30:leaf=0.0316089988				3 6:[2<-3 .3 0568082] yes=33 ,no=32,missing=32
					31:leaf=0.0196540281					32:leaf=-0.0862326175			8:leaf=-0.0795061961		4:[0<1.03120124] yes=9,no=10,missing=10
			9:[1<-2 .951477647] yes=17,no=18,missing=18
				17:[3<0.6684 67667] yes=33,no=34,missing=34
					33:leaf=-0.0127847632					34:leaf=-0.0697759166				18:[1<-2 .475728214] yes=35,no=36,missing=36
					35:leaf=0.0641095936					36:leaf=-0.00146592536			10:[3<1.0314 014 4] yes=19,no=4 0,missing=4 0
				19:[4<1.42729819] yes=5 7,no=5 8,missing=5 8
					37:leaf=-0.0688131601					38:leaf=0.0371067785				20:[5<-1.10568082] yes=39,no=6 0,missing=6 0
					39:leaf=0.0448607206					40:leaf=0.00703232316	2:[2<-0.7373 33 476] yes=5,no=6,missing=6
		5:[5<1.10561502] yes=11,no=12,missing=12
			11:[3<0.6684 67667] yes=4 1,no=4 4 ,missing=4 4 
				21:[4<1.42729819] yes=41,no=42,missing=42
					41:leaf=0.000554456143					42:leaf=-0.0505452342				22:[1<1.42726958] yes=43,no=44,missing=44
					43:leaf=-0.0630896389					44:leaf=0.00820800848			12:[1<2 .475772 682] yes=23,no=24,missing=24
				23:[5<1.6 76 166 25] yes=6 5,no=6 6,missing=6 6
					45:leaf=0.0533667319					46:leaf=-0.000406377803				4 4:[3<0.6684 67667] yes=47,no=48,missing=48
					47:leaf=0.0250094216					48:leaf=-0.0456251428		6:[1<-2 .951477647] yes=13,no=14,missing=14
			13:[0<-0.0575993694] yes=25,no=26,missing=26
				25:[2<-3.2892236e-05] yes=49,no=50,missing=50
					49:leaf=-0.0158963557					50:leaf=0.0465329401				4 6:[3<1.0314 014 4] yes=51,no=54 ,missing=54 
					51:leaf=-0.0124760494					52:leaf=-0.0668870956			14:[0<-0.0575993694] yes=27,no=28,missing=28
				27:[5<1.10561502] yes=53,no=56 ,missing=56 
					53:leaf=0.00584730646					54:leaf=-0.0486145616				28:[5<-0.368582189] yes=55,no=56,missing=56
					55:leaf=0.0449111126					56:leaf=0.0152862323