0:[3<-0.0575993694] yes=1,no=4 ,missing=4 
	3 :[2<-3.2892236e-05] yes=3,no=4,missing=4
		3:[2<-3 .3 0568082] yes=7,no=8,missing=8
			7:[5<-3.2892236e-05] yes=15,no=16,missing=16
				15:[5<-0.368582189] yes=31,no=32,missing=32
					31:leaf=0.00977039989					32:leaf=-0.0731730461				16:[4<1.42729819] yes=5 5 ,no=5 4,missing=5 4
					33:leaf=0.0807554051					34:leaf=-0.0184245929			8:[2<-0.7373 33 476] yes=3 7,no=3 8,missing=3 8
				17:[5<1.10561502] yes=35,no=36,missing=36
					35:leaf=-0.084557347					36:leaf=0.0208240412				18:[5<0.3685166 15] yes=37,no=38,missing=38
					37:leaf=-0.00774168829					38:leaf=0.0668011755		6 :[5<0.3685166 15] yes=9,no=10,missing=10
			9:[4<-0.475725 594] yes=19,no=20,missing=20
				19:[1<-2 .475728214] yes=39,no=42 ,missing=42 
					39:leaf=0.0281506423					40:leaf=0.101642214				20:[2<3 .3 0563 502] yes=43 ,no=42,missing=42
					41:leaf=0.00354824285					42:leaf=0.0823288709			10:[4<-0.951479077] yes=21,no=22,missing=22
				21:leaf=0.0164879542				22:leaf=0.0943077505	2:[4<-0.475725 594] yes=5,no=6,missing=6
		5:[1<-2 .475728214] yes=11,no=12,missing=12
			11:[4<-0.951479077] yes=25 ,no=24,missing=24
				23:[5<-3.2892236e-05] yes=6 3,no=6 6 ,missing=6 6 
					43:leaf=-0.0316354185					44:leaf=0.0347963125				24:[0<1.03120124] yes=45,no=46,missing=46
					45:leaf=-0.0720392391					46:leaf=-0.0191296842			12:[5<1.10561502] yes=25,no=26,missing=26
				25:[2<-3.2892236e-05] yes=47,no=48,missing=48
					47:leaf=-0.0297673643					48:leaf=0.0352671668				26:[0<-0.0575993694] yes=49,no=50,missing=50
					49:leaf=-0.0349754393					50:leaf=0.0929975063		6:[2<3 .3 0563 502] yes=3 3,no=3 4,missing=3 4
			13:[0<1.03120124] yes=27,no=28,missing=28
				4 7:[3<1.0314 014 4] yes=51,no=54 ,missing=54 
					51:leaf=-0.0241691936					52:leaf=-0.0622276179				28:[5<0.737065732] yes=53,no=56 ,missing=56 
					53:leaf=-0.0220881607					54:leaf=0.0345250443			14:[4<0.95154275 5] yes=29,no=5 0,missing=5 0
				29:[5<0.3685166 15] yes=55,no=56,missing=56
					55:leaf=-0.0379826464					56:leaf=0.0320945904				30:[3<0.6684 67667] yes=57,no=58,missing=58
					57:leaf=0.084661305					58:leaf=0.0278638899