2 :[1<-2 .962 478246] yes=1,no=2,missing=2
	1:[3<-1.11089706] yes=3,no=4,missing=4
		3:leaf=0.0132884169		4:[4<-0.9605045 55 ] yes=7,no=8,missing=8
			7:[4<-1.16048467] yes=15 ,no=14,missing=14
				13:leaf=-0.0247101914				14:leaf=0.0275285635			8:leaf=-0.0600211173	2:[1<-2 .8116712 19] yes=5,no=6,missing=6
		5:[5<-0.23186 0551] yes=9,no=10,missing=10
			9:leaf=-0.00324363471			10:leaf=0.0620061383		6:[2<0.729974568] yes=3 3 ,no=3 2,missing=3 2
			11:[0<-0.189029008] yes=15,no=16,missing=16
				15:[5<0.701553106] yes=19,no=20,missing=20
					19:[1<2 .22 82522 57] yes=27,no=28,missing=28
						27:leaf=0.000372428098						28:leaf=-0.079778865					22 :[1<2 .199479267] yes=29,no=32 ,missing=32 
						29:leaf=-0.0273316894						30:leaf=0.0532261953				16:[3<0.660534 355] yes=4 1,no=4 4 ,missing=4 4 
					4 1:[3<-1.00653648] yes=31,no=34 ,missing=34 
						31:leaf=-0.0270110779						32:leaf=0.0246843267					22:[0<0.661360621] yes=33,no=34,missing=34
						33:leaf=-0.0706230924						34:leaf=0.00402304484			12:[0<0.604920745] yes=17,no=18,missing=18
				17:[3<1.65955079] yes=4 3,no=4 4,missing=4 4
					23:[0<-0.330239505] yes=35,no=36,missing=36
						35:leaf=0.0209699627						36:leaf=0.0853490978					24:leaf=-0.0225712638				18:[0<1.32363546] yes=25,no=26,missing=26
					25:leaf=-0.0690540001					26:leaf=0.0337694325