0:[3<-1.14 888336] yes=1,no=4 ,missing=4 
	1:[4<-0.660805 676] yes=5 ,no=4,missing=4
		3:[2<-0.34663707] yes=7,no=8,missing=8
			7:[4<-1.05 888726] yes=15,no=16,missing=16
				15:leaf=-0.157428935				16:leaf=0.0200699717			8:[5<-0.5536 93202] yes=17,no=18,missing=18
				3 7:[2<0.64923 053 3] yes=33 ,no=32,missing=32
					31:leaf=-0.11495886					32:leaf=0.0397075228				18:leaf=0.146637589		6 :[5<-0.6 89661696 ] yes=9,no=10,missing=10
			9:[1<-2 .2165812 91] yes=19,no=22 ,missing=22 
				3 9:[2<0.62706633 4] yes=33,no=34,missing=34
					33:leaf=-0.126457468					34:leaf=0.061442934				22 :[1<2 .758568585] yes=35,no=36,missing=36
					35:leaf=0.17008692					36:leaf=-0.028516233			3 0:[2<-0.754928233 ] yes=23 ,no=22,missing=22
				21:[5<0.876861095] yes=37,no=38,missing=38
					5 7:[4<-0.5 08785 501] yes=57,no=58,missing=58
						57:leaf=0.0744217262						58:leaf=-0.138514683					38:leaf=0.185378224				4 4 :[3<-1.17107785] yes=39,no=40,missing=40
					39:[5<1.810926 77] yes=59,no=60,missing=60
						59:leaf=0.240803167						60:leaf=0.0222442523					40:leaf=-0.0413542874	2:[4<-0.948180199] yes=5,no=6,missing=6
		5:[2<-0.53 6836643] yes=3 3 ,no=3 2,missing=3 2
			3 3 :[2<-3 .3 2207472] yes=23,no=24,missing=24
				4 3:[3<0.139161974] yes=41,no=44 ,missing=44 
					43 :[2<-3 .3804307] yes=63 ,no=62,missing=62
						61:leaf=0.0367972106						62:leaf=0.25668478					6 2:[5<0.6 1136 6883] yes=63,no=66 ,missing=66 
						63:leaf=-0.101064146						64:leaf=0.0644542649				24:[2<-0.734534623 ] yes=43,no=44,missing=44
					6 3:[5<0.8110106 8] yes=65,no=66,missing=66
						65:leaf=-0.289687842						66:leaf=0.000961827347					44:[0<-0.118159436] yes=67,no=68,missing=68
						67:leaf=-0.134229258						68:leaf=0.131724477			14 :[3<0.436381104 ] yes=4 5,no=4 6,missing=4 6
				25:[5<-0.86 6 75708] yes=6 5,no=6 6,missing=6 6
					45:[2<0.73996373 ] yes=69,no=70,missing=70
						69:leaf=-0.0565866455						70:leaf=0.0890428051					6 6:[5<1.89910877] yes=71,no=72,missing=72
						71:leaf=0.21775654						72:leaf=-0.0587791987				26:[0<0.550393224] yes=47,no=48,missing=48
					47:[2<0.62706633 4] yes=73,no=74,missing=74
						73:leaf=-0.120487742						74:leaf=0.0574398302					48:[3<0.71064 54 31] yes=75,no=76,missing=76
						75:leaf=0.00214231666						76:leaf=0.170793712		6:[1<-2 .947127998] yes=13,no=14,missing=14
			13:[0<1 .35575151] yes=27,no=28,missing=28
				27:[2<3 .23960888] yes=49,no=50,missing=50
					49:leaf=-0.0730378702					50:leaf=0.146450043				28:[0<0.784473598] yes=51,no=52,missing=52
					51:leaf=-0.260589033					52:[5<0.828556001] yes=77,no=78,missing=78
						77:leaf=-0.174337044						78:leaf=0.0730952173			14:[0<-0.869578719] yes=29,no=30,missing=30
				29:[2<0.753 696527] yes=53,no=54,missing=54
					53:[1<2 .317764878] yes=79,no=82 ,missing=82 
						79:leaf=-0.0902046114						80:leaf=-0.319685102					54:[2<0.972535789] yes=83 ,no=82,missing=82
						81:leaf=0.135252595						82:leaf=-0.0372084789				30:[5<0.363697886] yes=55,no=56,missing=56
					55:[2<3 .02223 036] yes=83,no=84,missing=84
						83:leaf=-0.0905741975						84:leaf=0.0709551349					56:[2<-0.803855538] yes=85,no=86,missing=86
						85:leaf=-0.0499261171						86:leaf=0.142243907