0:[99<-1.3312453] yes=1,no=2,missing=2
	1:[19<1] yes=3,no=4,missing=4
		3:[94<1.64352214] yes=7,no=8,missing=8
			7:[95<0.0903 87009] yes=15,no=16,missing=16
				15:leaf=-0.105928779				16:[99<-1.97915339] yes=25,no=26,missing=26
					25:leaf=-0.0119389119					26:leaf=-0.0619186722			8:[94<2.23001385] yes=17,no=18,missing=18
				17:[96<-0.031355 459] yes=27,no=28,missing=28
					27:leaf=-0.0419518612					28:leaf=0.03632636				18:leaf=-0.0787678659		4:[95<-0.145574316] yes=9,no=10,missing=10
			9:leaf=-0.0213427674			10:leaf=0.0425322913	2:[91<1] yes=5,no=6,missing=6
		5:[54<1] yes=11,no=12,missing=12
			11:[82<1] yes=19,no=20,missing=20
				19:[19<1] yes=29,no=30,missing=30
					29:leaf=-0.0636940151					30:leaf=0.0373598225				20:leaf=0.0543513186			12:leaf=0.0727334619		6:[35<1] yes=13,no=14,missing=14
			13:[46<1] yes=21,no=22,missing=22
				21:[94<-0.189264283] yes=31,no=32,missing=32
					31:leaf=-0.0094873365					32:leaf=0.0275093149				22:[94<0.763784647] yes=33,no=34,missing=34
					33:leaf=-0.0742772371					34:leaf=-0.0108904755			14:[99<0.693467796] yes=23,no=24,missing=24
				23:leaf=-0.086790815				24:[95<0.180006042] yes=35,no=36,missing=36
					35:leaf=-0.0561293028					36:leaf=0.0351846181