0:[24<1] yes=1,no=2,missing=2
	1:[28<1] yes=3,no=4,missing=4
		3:[96<-0.031355 459] yes=7,no=8,missing=8
			7:[97<0.512823462] yes=15,no=16,missing=16
				15:[27<1] yes=27,no=28,missing=28
					27:leaf=-0.100897133					28:leaf=-0.0595926046				16:leaf=0.0200852286			8:[27<1] yes=17,no=18,missing=18
				17:[99<0.693467796] yes=29,no=30,missing=30
					29:leaf=-0.0597809926					30:leaf=0.01343471				18:[94<0.103981547] yes=31,no=32,missing=32
					31:leaf=-0.0125744632					32:leaf=0.0883515775		4:[99<-0.116417423] yes=9,no=10,missing=10
			9:[95<0.230588719] yes=19,no=20,missing=20
				19:leaf=-0.0819941089				20:leaf=0.0367996283			10:[96<-0.420053184] yes=21,no=22,missing=22
				21:leaf=-0.0702945665				22:[46<1] yes=33,no=34,missing=34
					33:leaf=0.172966808					34:leaf=-0.00284496765	2:[0<1] yes=5,no=6,missing=6
		5:[3<1] yes=11,no=12_ Private ,missing=12_ Private 
			11:[96<1.52341497] yes=23,no=24,missing=24
				23:[32<1] yes=35,no=36,missing=36
					35:leaf=-0.0603712872					36:leaf=0.0366284959				24:[99<-1.97915339] yes=37,no=38,missing=38
					37:leaf=-0.0771235079					38:leaf=0.0898253247			12:[94<0.323915929] yes=25,no=26,missing=26
				25:[31<1] yes=39,no=40,missing=40
					39:leaf=0.0208138563					40:leaf=-0.062864624				26:[96<-1.19744039] yes=41,no=42,missing=42
					41:leaf=-0.0641480386					42:leaf=0.079019621		6:[91<1] yes=13,no=14,missing=14
			13:leaf=0.0149379075			14:leaf=0.147958383