0:[2<0.0974658283 ] yes=3 ,no=2,missing=2
	3 :[2<0.08373 68992] yes=3,no=4,missing=4
		3:[1<2 .2 572272 155] yes=7,no=8,missing=8
			7:[2<-0.040538003 8] yes=3 3 ,no=3 2,missing=3 2
				3 3 :[2<-0.0925537944] yes=3 9,no=20,missing=20
					19:[1<-2 .25692 2277] yes=31,no=32,missing=32
						31:leaf=-0.00279651419						32:leaf=0.0352774262					20:leaf=-0.0375483409				12:leaf=0.0602156222			8:[0<-0.759934247] yes=13,no=14,missing=14
				13:[3<0.393064 919] yes=4 1,no=4 4 ,missing=4 4 
					21:leaf=0.0443888716					22:[1<1.2 6567919] yes=33,no=34,missing=34
						33:leaf=-0.0414464548						34:leaf=0.0304148626				14:[0<0.240056932] yes=23,no=24,missing=24
					23:[1<1.39138865] yes=35,no=36,missing=36
						35:leaf=-0.0492605381						36:leaf=0.0173607301					24:[1<2 .571941197] yes=37,no=38,missing=38
						37:leaf=-0.020375127						38:leaf=0.0285418071		4:leaf=-0.0477295816	2:[2<0.3 62363037] yes=5,no=6,missing=6
		5:leaf=0.0454903245		6:[3<1.4544 7346] yes=9,no=10,missing=10
			9:[2<3 .96772969] yes=3 5,no=3 6,missing=3 6
				15:[0<1 .0781641] yes=25,no=26,missing=26
					4 5:[3<0.04404 4 4 77] yes=39,no=40,missing=40
						39:leaf=-0.00826055463						40:leaf=0.0623236448					26:[0<-0.545850694] yes=41,no=42,missing=42
						41:leaf=-0.026340045						42:leaf=0.0159358867				16:leaf=-0.0262371507			3 0:[2<0.733058095] yes=3 7,no=3 8,missing=3 8
				17:[3<1.794 764 76] yes=4 7,no=4 8,missing=4 8
					27:leaf=-0.0526228212					28:leaf=-0.00689046737				18:[0<-0.030133307] yes=29,no=30,missing=30
					29:leaf=0.0242626313					30:leaf=-0.017445989