0:[3<1.4 18844 03] yes=1,no=4 ,missing=4 
	1:[3<1.08686376] yes=3,no=4,missing=4
		3:[2<3 .96772969] yes=7,no=8,missing=8
			7:[2<3 .46683049] yes=3 3 ,no=3 2,missing=3 2
				11:[3<0.9751001] yes=17,no=18,missing=18
					17:[0<-0.780804157] yes=27,no=28,missing=28
						27:leaf=0.0170462877						28:leaf=-0.00229169847					3 8:[2<-0.248923406] yes=29,no=30,missing=30
						29:leaf=-0.0401884653						30:leaf=0.010358003				12:[0<-0.0666432232] yes=19,no=20,missing=20
					19:leaf=0.0425192676					20:leaf=0.00588140357			8:leaf=-0.0297544021		4:leaf=0.040887963	4 :[3<1.4 604 3948] yes=5,no=6,missing=6
		5:leaf=-0.050343316		6:[2<-0.0823436454] yes=9,no=3 0,missing=3 0
			9:[2<-0.642952563 ] yes=3 3,no=3 4,missing=3 4
				3 3:[2<-0.93 8950498] yes=23 ,no=22,missing=22
					21:[0<-0.376784116] yes=31,no=32,missing=32
						31:leaf=-0.012371961						32:leaf=0.0304118432					22:leaf=-0.0303236116				14:leaf=0.04836132			10:[0<-0.030133307] yes=15,no=16,missing=16
				15:[1<2 .839619994] yes=23,no=24,missing=24
					4 3:[3<1.64674699] yes=33,no=34,missing=34
						33:leaf=0.0639401749						34:leaf=-0.00461665262					24:leaf=-0.0358290337				16:[1<2 .78526832 7] yes=25,no=26,missing=26
					25:[0<0.508622766] yes=35,no=36,missing=36
						35:leaf=-0.0647080168						36:leaf=-0.00938776415					26:leaf=0.00607173005