|--- 8_yes  <= 0.50
|   |--- 9_telephone  <= 0.50
|   |   |--- 10  <= -0.39
|   |   |   |--- 14  <= 0.11
|   |   |   |   |--- 4_unknown  <= 0.50
|   |   |   |   |   |--- 12  <= 0.80
|   |   |   |   |   |   |--- class: 0.0|   |   |   |   |   |--- 12  >  0.80
|   |   |   |   |   |   |--- 12  <= 0.80
|   |   |   |   |   |   |   |--- class: 1.0|   |   |   |   |   |   |--- 12  >  0.80
|   |   |   |   |   |   |   |--- 13  <= -0.90
|   |   |   |   |   |   |   |   |--- 15  <= 0.92
|   |   |   |   |   |   |   |   |   |--- class: 0.0|   |   |   |   |   |   |   |   |--- 15  >  0.92
|   |   |   |   |   |   |   |   |   |--- class: 1.0|   |   |   |   |   |   |   |--- 13  >  -0.90
|   |   |   |   |   |   |   |   |--- class: 0.0|   |   |   |   |--- 4_unknown  >  0.50
|   |   |   |   |   |--- 2_unemployed  <= 0.50
|   |   |   |   |   |   |--- 16_other  <= 0.50
|   |   |   |   |   |   |   |--- 12  <= 0.55
|   |   |   |   |   |   |   |   |--- 2_technician  <= 0.50
|   |   |   |   |   |   |   |   |   |--- 2_retired  <= 0.50
|   |   |   |   |   |   |   |   |   |   |--- 3_single  <= 0.50
|   |   |   |   |   |   |   |   |   |   |   |--- 1  <= 0.50
|   |   |   |   |   |   |   |   |   |   |   |   |--- 15  <= 0.13
|   |   |   |   |   |   |   |   |   |   |   |   |   |--- class: 0.0|   |   |   |   |   |   |   |   |   |   |   |   |--- 15  >  0.13
|   |   |   |   |   |   |   |   |   |   |   |   |   |--- class: 1.0|   |   |   |   |   |   |   |   |   |   |   |--- 1  >  0.50
|   |   |   |   |   |   |   |   |   |   |   |   |--- class: 0.0|   |   |   |   |   |   |   |   |   |   |--- 3_single  >  0.50
|   |   |   |   |   |   |   |   |   |   |   |--- 14  <= -0.42
|   |   |   |   |   |   |   |   |   |   |   |   |--- 13  <= 0.48
|   |   |   |   |   |   |   |   |   |   |   |   |   |--- 14  <= -0.69
|   |   |   |   |   |   |   |   |   |   |   |   |   |   |--- class: 0.0|   |   |   |   |   |   |   |   |   |   |   |   |   |--- 14  >  -0.69
|   |   |   |   |   |   |   |   |   |   |   |   |   |   |--- class: 1.0|   |   |   |   |   |   |   |   |   |   |   |   |--- 13  >  0.48
|   |   |   |   |   |   |   |   |   |   |   |   |   |--- class: 0.0|   |   |   |   |   |   |   |   |   |   |   |--- 14  >  -0.42
|   |   |   |   |   |   |   |   |   |   |   |   |--- class: 0.0|   |   |   |   |   |   |   |   |   |--- 2_retired  >  0.50
|   |   |   |   |   |   |   |   |   |   |--- 13  <= -0.66
|   |   |   |   |   |   |   |   |   |   |   |--- class: 1.0|   |   |   |   |   |   |   |   |   |   |--- 13  >  -0.66
|   |   |   |   |   |   |   |   |   |   |   |--- class: 0.0|   |   |   |   |   |   |   |   |--- 2_technician  >  0.50
|   |   |   |   |   |   |   |   |   |--- class: 0.0|   |   |   |   |   |   |   |--- 12  >  0.55
|   |   |   |   |   |   |   |   |--- class: 0.0|   |   |   |   |   |   |--- 16_other  >  0.50
|   |   |   |   |   |   |   |--- 2_entrepreneur  <= 2_entrepreneur .52_entrepreneur 
|   |   |   |   |   |   |   |   |--- 11  <= 0.02
|   |   |   |   |   |   |   |   |   |--- 15  <= 0.17
|   |   |   |   |   |   |   |   |   |   |--- 12  <= 1.14
|   |   |   |   |   |   |   |   |   |   |   |--- class: 1.0|   |   |   |   |   |   |   |   |   |   |--- 12  >  1.14
|   |   |   |   |   |   |   |   |   |   |   |--- class: 0.0|   |   |   |   |   |   |   |   |   |--- 15  >  0.17
|   |   |   |   |   |   |   |   |   |   |--- class: 0.0|   |   |   |   |   |   |   |   |--- 11  >  0.02
|   |   |   |   |   |   |   |   |   |--- class: 0.0|   |   |   |   |   |   |   |--- 2_entrepreneur  >  2_entrepreneur .52_entrepreneur 
|   |   |   |   |   |   |   |   |--- class: 0.0|   |   |   |   |   |--- 2_unemployed  >  0.50
|   |   |   |   |   |   |--- 12  <= 0.80
|   |   |   |   |   |   |   |--- 14  <= -0.38
|   |   |   |   |   |   |   |   |--- 13  <= 1.82
|   |   |   |   |   |   |   |   |   |--- class: 0.0|   |   |   |   |   |   |   |   |--- 13  >  1.82
|   |   |   |   |   |   |   |   |   |--- class: 1.0|   |   |   |   |   |   |   |--- 14  >  -0.38
|   |   |   |   |   |   |   |   |--- class: 0.0|   |   |   |   |   |   |--- 12  >  0.80
|   |   |   |   |   |   |   |--- 11  <= -1.13
|   |   |   |   |   |   |   |   |--- class: 0.0|   |   |   |   |   |   |   |--- 11  >  -1.13
|   |   |   |   |   |   |   |   |--- class: 1.0|   |   |   |--- 14  >  0.11
|   |   |   |   |--- 16_success  <= 0.50
|   |   |   |   |   |--- 1  <= 0.50
|   |   |   |   |   |   |--- class: 0.0|   |   |   |   |   |--- 1  >  0.50
|   |   |   |   |   |   |--- 2_student  <= 0.50
|   |   |   |   |   |   |   |--- 15  <= 0.05
|   |   |   |   |   |   |   |   |--- 14  <= 0.96
|   |   |   |   |   |   |   |   |   |--- 14  <= 0.94
|   |   |   |   |   |   |   |   |   |   |--- class_1  <= -0.21
|   |   |   |   |   |   |   |   |   |   |   |--- 9_unknown  <= 0.50
|   |   |   |   |   |   |   |   |   |   |   |   |--- 12  <= 1.11
|   |   |   |   |   |   |   |   |   |   |   |   |   |--- 4_secondary  <= 0.50
|   |   |   |   |   |   |   |   |   |   |   |   |   |   |--- class: 0.0|   |   |   |   |   |   |   |   |   |   |   |   |   |--- 4_secondary  >  0.50
|   |   |   |   |   |   |   |   |   |   |   |   |   |   |--- 16_other  <= 0.50
|   |   |   |   |   |   |   |   |   |   |   |   |   |   |   |--- 6  <= 0.39
|   |   |   |   |   |   |   |   |   |   |   |   |   |   |   |   |--- class: 0.0|   |   |   |   |   |   |   |   |   |   |   |   |   |   |   |--- 6  >  0.39
|   |   |   |   |   |   |   |   |   |   |   |   |   |   |   |   |--- class: 1.0|   |   |   |   |   |   |   |   |   |   |   |   |   |   |--- 16_other  >  0.50
|   |   |   |   |   |   |   |   |   |   |   |   |   |   |   |--- class: 0.0|   |   |   |   |   |   |   |   |   |   |   |   |--- 12  >  1.11
|   |   |   |   |   |   |   |   |   |   |   |   |   |--- class: 1.0|   |   |   |   |   |   |   |   |   |   |   |--- 9_unknown  >  0.50
|   |   |   |   |   |   |   |   |   |   |   |   |--- class: 1.0|   |   |   |   |   |   |   |   |   |   |--- class_1  >  -0.21
|   |   |   |   |   |   |   |   |   |   |   |--- class: 0.0|   |   |   |   |   |   |   |   |   |--- 14  >  0.94
|   |   |   |   |   |   |   |   |   |   |--- class: 1.0|   |   |   |   |   |   |   |   |--- 14  >  0.96
|   |   |   |   |   |   |   |   |   |--- class: 0.0|   |   |   |   |   |   |   |--- 15  >  0.05
|   |   |   |   |   |   |   |   |--- 12  <= -0.79
|   |   |   |   |   |   |   |   |   |--- class: 0.0|   |   |   |   |   |   |   |   |--- 12  >  -0.79
|   |   |   |   |   |   |   |   |   |--- 15  <= 0.06
|   |   |   |   |   |   |   |   |   |   |--- class: 1.0|   |   |   |   |   |   |   |   |   |--- 15  >  0.06
|   |   |   |   |   |   |   |   |   |   |--- 13  <= -0.74
|   |   |   |   |   |   |   |   |   |   |   |--- class: 0.0|   |   |   |   |   |   |   |   |   |   |--- 13  >  -0.74
|   |   |   |   |   |   |   |   |   |   |   |--- 2_unemployed  <= 0.50
|   |   |   |   |   |   |   |   |   |   |   |   |--- 9_unknown  <= 0.50
|   |   |   |   |   |   |   |   |   |   |   |   |   |--- 4_unknown  <= 0.50
|   |   |   |   |   |   |   |   |   |   |   |   |   |   |--- 4_secondary  <= 0.50
|   |   |   |   |   |   |   |   |   |   |   |   |   |   |   |--- 2_entrepreneur  <= 2_entrepreneur .52_entrepreneur 
|   |   |   |   |   |   |   |   |   |   |   |   |   |   |   |   |--- 6  <= 1.01
|   |   |   |   |   |   |   |   |   |   |   |   |   |   |   |   |   |--- class: 0.0|   |   |   |   |   |   |   |   |   |   |   |   |   |   |   |   |--- 6  >  1.01
|   |   |   |   |   |   |   |   |   |   |   |   |   |   |   |   |   |--- class: 1.0|   |   |   |   |   |   |   |   |   |   |   |   |   |   |   |--- 2_entrepreneur  >  2_entrepreneur .52_entrepreneur 
|   |   |   |   |   |   |   |   |   |   |   |   |   |   |   |   |--- class: 0.0|   |   |   |   |   |   |   |   |   |   |   |   |   |   |--- 4_secondary  >  0.50
|   |   |   |   |   |   |   |   |   |   |   |   |   |   |   |--- class: 0.0|   |   |   |   |   |   |   |   |   |   |   |   |   |--- 4_unknown  >  0.50
|   |   |   |   |   |   |   |   |   |   |   |   |   |   |--- 2_services  <= 0.2_services 0
|   |   |   |   |   |   |   |   |   |   |   |   |   |   |   |--- 12  <= 0.57
|   |   |   |   |   |   |   |   |   |   |   |   |   |   |   |   |--- class: 1.0|   |   |   |   |   |   |   |   |   |   |   |   |   |   |   |--- 12  >  0.57
|   |   |   |   |   |   |   |   |   |   |   |   |   |   |   |   |--- class: 0.0|   |   |   |   |   |   |   |   |   |   |   |   |   |   |--- 2_services  >  0.2_services 0
|   |   |   |   |   |   |   |   |   |   |   |   |   |   |   |--- class: 1.0|   |   |   |   |   |   |   |   |   |   |   |   |--- 9_unknown  >  0.50
|   |   |   |   |   |   |   |   |   |   |   |   |   |--- class: 1.0|   |   |   |   |   |   |   |   |   |   |   |--- 2_unemployed  >  0.50
|   |   |   |   |   |   |   |   |   |   |   |   |--- 14  <= 0.44
|   |   |   |   |   |   |   |   |   |   |   |   |   |--- class: 0.0|   |   |   |   |   |   |   |   |   |   |   |   |--- 14  >  0.44
|   |   |   |   |   |   |   |   |   |   |   |   |   |--- class: 1.0|   |   |   |   |   |   |--- 2_student  >  0.50
|   |   |   |   |   |   |   |--- class: 0.0|   |   |   |   |--- 16_success  >  0.50
|   |   |   |   |   |--- 2_unemployed  <= 0.50
|   |   |   |   |   |   |--- 4_unknown  <= 0.50
|   |   |   |   |   |   |   |--- class: 0.0|   |   |   |   |   |   |--- 4_unknown  >  0.50
|   |   |   |   |   |   |   |--- class_1  <= 0.72
|   |   |   |   |   |   |   |   |--- class: 1.0|   |   |   |   |   |   |   |--- class_1  >  0.72
|   |   |   |   |   |   |   |   |--- class: 0.0|   |   |   |   |   |--- 2_unemployed  >  0.50
|   |   |   |   |   |   |--- class: 1.0|   |   |--- 10  >  -0.39
|   |   |   |--- 10  <= 2.34
|   |   |   |   |--- 16_other  <= 0.50
|   |   |   |   |   |--- 1  <= 0.50
|   |   |   |   |   |   |--- 4_unknown  <= 0.50
|   |   |   |   |   |   |   |--- 16_success  <= 0.50
|   |   |   |   |   |   |   |   |--- 12  <= 1.15
|   |   |   |   |   |   |   |   |   |--- 9_unknown  <= 0.50
|   |   |   |   |   |   |   |   |   |   |--- 13  <= 0.65
|   |   |   |   |   |   |   |   |   |   |   |--- 16_unknown  <= 0.50
|   |   |   |   |   |   |   |   |   |   |   |   |--- class: 0.0|   |   |   |   |   |   |   |   |   |   |   |--- 16_unknown  >  0.50
|   |   |   |   |   |   |   |   |   |   |   |   |--- 2_entrepreneur  <= 2_entrepreneur .52_entrepreneur 
|   |   |   |   |   |   |   |   |   |   |   |   |   |--- class: 0.0|   |   |   |   |   |   |   |   |   |   |   |   |--- 2_entrepreneur  >  2_entrepreneur .52_entrepreneur 
|   |   |   |   |   |   |   |   |   |   |   |   |   |--- 7_yes  <= 0.50
|   |   |   |   |   |   |   |   |   |   |   |   |   |   |--- class: 1.0|   |   |   |   |   |   |   |   |   |   |   |   |   |--- 7_yes  >  0.50
|   |   |   |   |   |   |   |   |   |   |   |   |   |   |--- class: 0.0|   |   |   |   |   |   |   |   |   |   |--- 13  >  0.65
|   |   |   |   |   |   |   |   |   |   |   |--- 6  <= 0.20
|   |   |   |   |   |   |   |   |   |   |   |   |--- class: 0.0|   |   |   |   |   |   |   |   |   |   |   |--- 6  >  0.20
|   |   |   |   |   |   |   |   |   |   |   |   |--- 13  <= 1.29
|   |   |   |   |   |   |   |   |   |   |   |   |   |--- 11  <= 0.17
|   |   |   |   |   |   |   |   |   |   |   |   |   |   |--- class: 1.0|   |   |   |   |   |   |   |   |   |   |   |   |   |--- 11  >  0.17
|   |   |   |   |   |   |   |   |   |   |   |   |   |   |--- 4_tertiary  <= 0.50
|   |   |   |   |   |   |   |   |   |   |   |   |   |   |   |--- class: 1.0|   |   |   |   |   |   |   |   |   |   |   |   |   |   |--- 4_tertiary  >  0.50
|   |   |   |   |   |   |   |   |   |   |   |   |   |   |   |--- class: 0.0|   |   |   |   |   |   |   |   |   |   |   |   |--- 13  >  1.29
|   |   |   |   |   |   |   |   |   |   |   |   |   |--- class: 0.0|   |   |   |   |   |   |   |   |   |--- 9_unknown  >  0.50
|   |   |   |   |   |   |   |   |   |   |--- 13  <= 0.87
|   |   |   |   |   |   |   |   |   |   |   |--- class: 0.0|   |   |   |   |   |   |   |   |   |   |--- 13  >  0.87
|   |   |   |   |   |   |   |   |   |   |   |--- class: 1.0|   |   |   |   |   |   |   |   |--- 12  >  1.15
|   |   |   |   |   |   |   |   |   |--- 6  <= 0.44
|   |   |   |   |   |   |   |   |   |   |--- class: 0.0|   |   |   |   |   |   |   |   |   |--- 6  >  0.44
|   |   |   |   |   |   |   |   |   |   |--- 13  <= 0.56
|   |   |   |   |   |   |   |   |   |   |   |--- class: 1.0|   |   |   |   |   |   |   |   |   |   |--- 13  >  0.56
|   |   |   |   |   |   |   |   |   |   |   |--- 13  <= 1.19
|   |   |   |   |   |   |   |   |   |   |   |   |--- class: 0.0|   |   |   |   |   |   |   |   |   |   |   |--- 13  >  1.19
|   |   |   |   |   |   |   |   |   |   |   |   |--- class: 1.0|   |   |   |   |   |   |   |--- 16_success  >  0.50
|   |   |   |   |   |   |   |   |--- 10  <= 1.63
|   |   |   |   |   |   |   |   |   |--- class_1  <= -0.12
|   |   |   |   |   |   |   |   |   |   |--- class: 1.0|   |   |   |   |   |   |   |   |   |--- class_1  >  -0.12
|   |   |   |   |   |   |   |   |   |   |--- 10  <= 0.34
|   |   |   |   |   |   |   |   |   |   |   |--- 13  <= -0.39
|   |   |   |   |   |   |   |   |   |   |   |   |--- class: 1.0|   |   |   |   |   |   |   |   |   |   |   |--- 13  >  -0.39
|   |   |   |   |   |   |   |   |   |   |   |   |--- class: 0.0|   |   |   |   |   |   |   |   |   |   |--- 10  >  0.34
|   |   |   |   |   |   |   |   |   |   |   |--- class: 1.0|   |   |   |   |   |   |   |   |--- 10  >  1.63
|   |   |   |   |   |   |   |   |   |--- 3_single  <= 0.50
|   |   |   |   |   |   |   |   |   |   |--- class: 0.0|   |   |   |   |   |   |   |   |   |--- 3_single  >  0.50
|   |   |   |   |   |   |   |   |   |   |--- class: 1.0|   |   |   |   |   |   |--- 4_unknown  >  0.50
|   |   |   |   |   |   |   |--- 12  <= -0.64
|   |   |   |   |   |   |   |   |--- class: 0.0|   |   |   |   |   |   |   |--- 12  >  -0.64
|   |   |   |   |   |   |   |   |--- 15  <= -0.33
|   |   |   |   |   |   |   |   |   |--- 2_retired  <= 0.50
|   |   |   |   |   |   |   |   |   |   |--- 12  <= -0.43
|   |   |   |   |   |   |   |   |   |   |   |--- class: 1.0|   |   |   |   |   |   |   |   |   |   |--- 12  >  -0.43
|   |   |   |   |   |   |   |   |   |   |   |--- class: 0.0|   |   |   |   |   |   |   |   |   |--- 2_retired  >  0.50
|   |   |   |   |   |   |   |   |   |   |--- 14  <= 1.14
|   |   |   |   |   |   |   |   |   |   |   |--- class: 0.0|   |   |   |   |   |   |   |   |   |   |--- 14  >  1.14
|   |   |   |   |   |   |   |   |   |   |   |--- class: 1.0|   |   |   |   |   |   |   |   |--- 15  >  -0.33
|   |   |   |   |   |   |   |   |   |--- 2_entrepreneur  <= 2_entrepreneur .52_entrepreneur 
|   |   |   |   |   |   |   |   |   |   |--- 3_single  <= 0.50
|   |   |   |   |   |   |   |   |   |   |   |--- class: 1.0|   |   |   |   |   |   |   |   |   |   |--- 3_single  >  0.50
|   |   |   |   |   |   |   |   |   |   |   |--- class: 0.0|   |   |   |   |   |   |   |   |   |--- 2_entrepreneur  >  2_entrepreneur .52_entrepreneur 
|   |   |   |   |   |   |   |   |   |   |--- class: 0.0|   |   |   |   |   |--- 1  >  0.50
|   |   |   |   |   |   |--- 6  <= -1.16
|   |   |   |   |   |   |   |--- 9_unknown  <= 0.50
|   |   |   |   |   |   |   |   |--- 10  <= 0.11
|   |   |   |   |   |   |   |   |   |--- class: 0.0|   |   |   |   |   |   |   |   |--- 10  >  0.11
|   |   |   |   |   |   |   |   |   |--- 13  <= 1.11
|   |   |   |   |   |   |   |   |   |   |--- 12  <= -0.24
|   |   |   |   |   |   |   |   |   |   |   |--- class: 0.0|   |   |   |   |   |   |   |   |   |   |--- 12  >  -0.24
|   |   |   |   |   |   |   |   |   |   |   |--- 12  <= -0.07
|   |   |   |   |   |   |   |   |   |   |   |   |--- class: 1.0|   |   |   |   |   |   |   |   |   |   |   |--- 12  >  -0.07
|   |   |   |   |   |   |   |   |   |   |   |   |--- 10  <= 0.24
|   |   |   |   |   |   |   |   |   |   |   |   |   |--- class: 1.0|   |   |   |   |   |   |   |   |   |   |   |   |--- 10  >  0.24
|   |   |   |   |   |   |   |   |   |   |   |   |   |--- 10  <= 0.59
|   |   |   |   |   |   |   |   |   |   |   |   |   |   |--- class: 0.0|   |   |   |   |   |   |   |   |   |   |   |   |   |--- 10  >  0.59
|   |   |   |   |   |   |   |   |   |   |   |   |   |   |--- 14  <= -0.32
|   |   |   |   |   |   |   |   |   |   |   |   |   |   |   |--- class_1  <= 0.38
|   |   |   |   |   |   |   |   |   |   |   |   |   |   |   |   |--- class: 0.0|   |   |   |   |   |   |   |   |   |   |   |   |   |   |   |--- class_1  >  0.38
|   |   |   |   |   |   |   |   |   |   |   |   |   |   |   |   |--- class: 1.0|   |   |   |   |   |   |   |   |   |   |   |   |   |   |--- 14  >  -0.32
|   |   |   |   |   |   |   |   |   |   |   |   |   |   |   |--- 10  <= 1.02
|   |   |   |   |   |   |   |   |   |   |   |   |   |   |   |   |--- class: 0.0|   |   |   |   |   |   |   |   |   |   |   |   |   |   |   |--- 10  >  1.02
|   |   |   |   |   |   |   |   |   |   |   |   |   |   |   |   |--- 4_tertiary  <= 0.50
|   |   |   |   |   |   |   |   |   |   |   |   |   |   |   |   |   |--- class: 1.0|   |   |   |   |   |   |   |   |   |   |   |   |   |   |   |   |--- 4_tertiary  >  0.50
|   |   |   |   |   |   |   |   |   |   |   |   |   |   |   |   |   |--- 3_single  <= 0.50
|   |   |   |   |   |   |   |   |   |   |   |   |   |   |   |   |   |   |--- 6  <= -1.27
|   |   |   |   |   |   |   |   |   |   |   |   |   |   |   |   |   |   |   |--- class: 1.0|   |   |   |   |   |   |   |   |   |   |   |   |   |   |   |   |   |   |--- 6  >  -1.27
|   |   |   |   |   |   |   |   |   |   |   |   |   |   |   |   |   |   |   |--- class: 0.0|   |   |   |   |   |   |   |   |   |   |   |   |   |   |   |   |   |--- 3_single  >  0.50
|   |   |   |   |   |   |   |   |   |   |   |   |   |   |   |   |   |   |--- class: 0.0|   |   |   |   |   |   |   |   |   |--- 13  >  1.11
|   |   |   |   |   |   |   |   |   |   |--- 4_unknown  <= 0.50
|   |   |   |   |   |   |   |   |   |   |   |--- class: 1.0|   |   |   |   |   |   |   |   |   |   |--- 4_unknown  >  0.50
|   |   |   |   |   |   |   |   |   |   |   |--- class: 0.0|   |   |   |   |   |   |   |--- 9_unknown  >  0.50
|   |   |   |   |   |   |   |   |--- 2_retired  <= 0.50
|   |   |   |   |   |   |   |   |   |--- 2_student  <= 0.50
|   |   |   |   |   |   |   |   |   |   |--- 11  <= 0.04
|   |   |   |   |   |   |   |   |   |   |   |--- 4_unknown  <= 0.50
|   |   |   |   |   |   |   |   |   |   |   |   |--- class: 0.0|   |   |   |   |   |   |   |   |   |   |   |--- 4_unknown  >  0.50
|   |   |   |   |   |   |   |   |   |   |   |   |--- 10  <= 0.67
|   |   |   |   |   |   |   |   |   |   |   |   |   |--- class: 0.0|   |   |   |   |   |   |   |   |   |   |   |   |--- 10  >  0.67
|   |   |   |   |   |   |   |   |   |   |   |   |   |--- class: 1.0|   |   |   |   |   |   |   |   |   |   |--- 11  >  0.04
|   |   |   |   |   |   |   |   |   |   |   |--- class: 1.0|   |   |   |   |   |   |   |   |   |--- 2_student  >  0.50
|   |   |   |   |   |   |   |   |   |   |--- class: 0.0|   |   |   |   |   |   |   |   |--- 2_retired  >  0.50
|   |   |   |   |   |   |   |   |   |--- class: 0.0|   |   |   |   |   |   |--- 6  >  -1.16
|   |   |   |   |   |   |   |--- 2_self-employed  <= 0.50
|   |   |   |   |   |   |   |   |--- class_1  <= 0.19
|   |   |   |   |   |   |   |   |   |--- 12  <= 0.58
|   |   |   |   |   |   |   |   |   |   |--- 4_unknown  <= 0.50
|   |   |   |   |   |   |   |   |   |   |   |--- 13  <= -0.97
|   |   |   |   |   |   |   |   |   |   |   |   |--- 14  <= 1.48
|   |   |   |   |   |   |   |   |   |   |   |   |   |--- class: 0.0|   |   |   |   |   |   |   |   |   |   |   |   |--- 14  >  1.48
|   |   |   |   |   |   |   |   |   |   |   |   |   |--- class: 1.0|   |   |   |   |   |   |   |   |   |   |   |--- 13  >  -0.97
|   |   |   |   |   |   |   |   |   |   |   |   |--- 12  <= -0.68
|   |   |   |   |   |   |   |   |   |   |   |   |   |--- 15  <= 0.89
|   |   |   |   |   |   |   |   |   |   |   |   |   |   |--- 4_tertiary  <= 0.50
|   |   |   |   |   |   |   |   |   |   |   |   |   |   |   |--- 5_yes  <= 0.50
|   |   |   |   |   |   |   |   |   |   |   |   |   |   |   |   |--- class: 0.0|   |   |   |   |   |   |   |   |   |   |   |   |   |   |   |--- 5_yes  >  0.50
|   |   |   |   |   |   |   |   |   |   |   |   |   |   |   |   |--- 12  <= -1.10
|   |   |   |   |   |   |   |   |   |   |   |   |   |   |   |   |   |--- class: 1.0|   |   |   |   |   |   |   |   |   |   |   |   |   |   |   |   |--- 12  >  -1.10
|   |   |   |   |   |   |   |   |   |   |   |   |   |   |   |   |   |--- class: 0.0|   |   |   |   |   |   |   |   |   |   |   |   |   |   |--- 4_tertiary  >  0.50
|   |   |   |   |   |   |   |   |   |   |   |   |   |   |   |--- 3_single  <= 0.50
|   |   |   |   |   |   |   |   |   |   |   |   |   |   |   |   |--- 2_entrepreneur  <= 2_entrepreneur .52_entrepreneur 
|   |   |   |   |   |   |   |   |   |   |   |   |   |   |   |   |   |--- 12  <= -1.87
|   |   |   |   |   |   |   |   |   |   |   |   |   |   |   |   |   |   |--- class: 0.0|   |   |   |   |   |   |   |   |   |   |   |   |   |   |   |   |   |--- 12  >  -1.87
|   |   |   |   |   |   |   |   |   |   |   |   |   |   |   |   |   |   |--- class: 1.0|   |   |   |   |   |   |   |   |   |   |   |   |   |   |   |   |--- 2_entrepreneur  >  2_entrepreneur .52_entrepreneur 
|   |   |   |   |   |   |   |   |   |   |   |   |   |   |   |   |   |--- 12  <= -1.49
|   |   |   |   |   |   |   |   |   |   |   |   |   |   |   |   |   |   |--- class: 0.0|   |   |   |   |   |   |   |   |   |   |   |   |   |   |   |   |   |--- 12  >  -1.49
|   |   |   |   |   |   |   |   |   |   |   |   |   |   |   |   |   |   |--- class: 1.0|   |   |   |   |   |   |   |   |   |   |   |   |   |   |   |--- 3_single  >  0.50
|   |   |   |   |   |   |   |   |   |   |   |   |   |   |   |   |--- class_1  <= 0.03
|   |   |   |   |   |   |   |   |   |   |   |   |   |   |   |   |   |--- 12  <= -0.81
|   |   |   |   |   |   |   |   |   |   |   |   |   |   |   |   |   |   |--- class: 0.0|   |   |   |   |   |   |   |   |   |   |   |   |   |   |   |   |   |--- 12  >  -0.81
|   |   |   |   |   |   |   |   |   |   |   |   |   |   |   |   |   |   |--- class: 1.0|   |   |   |   |   |   |   |   |   |   |   |   |   |   |   |   |--- class_1  >  0.03
|   |   |   |   |   |   |   |   |   |   |   |   |   |   |   |   |   |--- class: 1.0|   |   |   |   |   |   |   |   |   |   |   |   |   |--- 15  >  0.89
|   |   |   |   |   |   |   |   |   |   |   |   |   |   |--- class: 1.0|   |   |   |   |   |   |   |   |   |   |   |   |--- 12  >  -0.68
|   |   |   |   |   |   |   |   |   |   |   |   |   |--- 12  <= 0.50
|   |   |   |   |   |   |   |   |   |   |   |   |   |   |--- 11  <= 1.21
|   |   |   |   |   |   |   |   |   |   |   |   |   |   |   |--- 12  <= -0.07
|   |   |   |   |   |   |   |   |   |   |   |   |   |   |   |   |--- 6  <= -0.67
|   |   |   |   |   |   |   |   |   |   |   |   |   |   |   |   |   |--- class: 0.0|   |   |   |   |   |   |   |   |   |   |   |   |   |   |   |   |--- 6  >  -0.67
|   |   |   |   |   |   |   |   |   |   |   |   |   |   |   |   |   |--- 2_entrepreneur  <= 2_entrepreneur .52_entrepreneur 
|   |   |   |   |   |   |   |   |   |   |   |   |   |   |   |   |   |   |--- 12  <= -0.14
|   |   |   |   |   |   |   |   |   |   |   |   |   |   |   |   |   |   |   |--- class: 1.0|   |   |   |   |   |   |   |   |   |   |   |   |   |   |   |   |   |   |--- 12  >  -0.14
|   |   |   |   |   |   |   |   |   |   |   |   |   |   |   |   |   |   |   |--- 6  <= 0.41
|   |   |   |   |   |   |   |   |   |   |   |   |   |   |   |   |   |   |   |   |--- class: 0.0|   |   |   |   |   |   |   |   |   |   |   |   |   |   |   |   |   |   |   |--- 6  >  0.41
|   |   |   |   |   |   |   |   |   |   |   |   |   |   |   |   |   |   |   |   |--- class: 1.0|   |   |   |   |   |   |   |   |   |   |   |   |   |   |   |   |   |--- 2_entrepreneur  >  2_entrepreneur .52_entrepreneur 
|   |   |   |   |   |   |   |   |   |   |   |   |   |   |   |   |   |   |--- class: 1.0|   |   |   |   |   |   |   |   |   |   |   |   |   |   |   |--- 12  >  -0.07
|   |   |   |   |   |   |   |   |   |   |   |   |   |   |   |   |--- 6  <= 0.62
|   |   |   |   |   |   |   |   |   |   |   |   |   |   |   |   |   |--- 6  <= 0.45
|   |   |   |   |   |   |   |   |   |   |   |   |   |   |   |   |   |   |--- 6  <= 0.00
|   |   |   |   |   |   |   |   |   |   |   |   |   |   |   |   |   |   |   |--- 6  <= -0.23
|   |   |   |   |   |   |   |   |   |   |   |   |   |   |   |   |   |   |   |   |--- 9_unknown  <= 0.50
|   |   |   |   |   |   |   |   |   |   |   |   |   |   |   |   |   |   |   |   |   |--- 12  <= 0.14
|   |   |   |   |   |   |   |   |   |   |   |   |   |   |   |   |   |   |   |   |   |   |--- class: 0.0|   |   |   |   |   |   |   |   |   |   |   |   |   |   |   |   |   |   |   |   |   |--- 12  >  0.14
|   |   |   |   |   |   |   |   |   |   |   |   |   |   |   |   |   |   |   |   |   |   |--- class: 1.0|   |   |   |   |   |   |   |   |   |   |   |   |   |   |   |   |   |   |   |   |--- 9_unknown  >  0.50
|   |   |   |   |   |   |   |   |   |   |   |   |   |   |   |   |   |   |   |   |   |--- class: 1.0|   |   |   |   |   |   |   |   |   |   |   |   |   |   |   |   |   |   |   |--- 6  >  -0.23
|   |   |   |   |   |   |   |   |   |   |   |   |   |   |   |   |   |   |   |   |--- class: 0.0|   |   |   |   |   |   |   |   |   |   |   |   |   |   |   |   |   |   |--- 6  >  0.00
|   |   |   |   |   |   |   |   |   |   |   |   |   |   |   |   |   |   |   |--- class: 1.0|   |   |   |   |   |   |   |   |   |   |   |   |   |   |   |   |   |--- 6  >  0.45
|   |   |   |   |   |   |   |   |   |   |   |   |   |   |   |   |   |   |--- class: 0.0|   |   |   |   |   |   |   |   |   |   |   |   |   |   |   |   |--- 6  >  0.62
|   |   |   |   |   |   |   |   |   |   |   |   |   |   |   |   |   |--- 2_student  <= 0.50
|   |   |   |   |   |   |   |   |   |   |   |   |   |   |   |   |   |   |--- 10  <= -0.28
|   |   |   |   |   |   |   |   |   |   |   |   |   |   |   |   |   |   |   |--- class: 0.0|   |   |   |   |   |   |   |   |   |   |   |   |   |   |   |   |   |   |--- 10  >  -0.28
|   |   |   |   |   |   |   |   |   |   |   |   |   |   |   |   |   |   |   |--- class: 1.0|   |   |   |   |   |   |   |   |   |   |   |   |   |   |   |   |   |--- 2_student  >  0.50
|   |   |   |   |   |   |   |   |   |   |   |   |   |   |   |   |   |   |--- class: 0.0|   |   |   |   |   |   |   |   |   |   |   |   |   |   |--- 11  >  1.21
|   |   |   |   |   |   |   |   |   |   |   |   |   |   |   |--- 2_entrepreneur  <= 2_entrepreneur .52_entrepreneur 
|   |   |   |   |   |   |   |   |   |   |   |   |   |   |   |   |--- 3_single  <= 0.50
|   |   |   |   |   |   |   |   |   |   |   |   |   |   |   |   |   |--- class: 0.0|   |   |   |   |   |   |   |   |   |   |   |   |   |   |   |   |--- 3_single  >  0.50
|   |   |   |   |   |   |   |   |   |   |   |   |   |   |   |   |   |--- class_1  <= -0.11
|   |   |   |   |   |   |   |   |   |   |   |   |   |   |   |   |   |   |--- 4_tertiary  <= 0.50
|   |   |   |   |   |   |   |   |   |   |   |   |   |   |   |   |   |   |   |--- class: 0.0|   |   |   |   |   |   |   |   |   |   |   |   |   |   |   |   |   |   |--- 4_tertiary  >  0.50
|   |   |   |   |   |   |   |   |   |   |   |   |   |   |   |   |   |   |   |--- class: 1.0|   |   |   |   |   |   |   |   |   |   |   |   |   |   |   |   |   |--- class_1  >  -0.11
|   |   |   |   |   |   |   |   |   |   |   |   |   |   |   |   |   |   |--- class: 0.0|   |   |   |   |   |   |   |   |   |   |   |   |   |   |   |--- 2_entrepreneur  >  2_entrepreneur .52_entrepreneur 
|   |   |   |   |   |   |   |   |   |   |   |   |   |   |   |   |--- 12  <= -0.23
|   |   |   |   |   |   |   |   |   |   |   |   |   |   |   |   |   |--- class: 1.0|   |   |   |   |   |   |   |   |   |   |   |   |   |   |   |   |--- 12  >  -0.23
|   |   |   |   |   |   |   |   |   |   |   |   |   |   |   |   |   |--- class: 0.0|   |   |   |   |   |   |   |   |   |   |   |   |   |--- 12  >  0.50
|   |   |   |   |   |   |   |   |   |   |   |   |   |   |--- 6  <= 0.65
|   |   |   |   |   |   |   |   |   |   |   |   |   |   |   |--- 2_unemployed  <= 0.50
|   |   |   |   |   |   |   |   |   |   |   |   |   |   |   |   |--- class: 1.0|   |   |   |   |   |   |   |   |   |   |   |   |   |   |   |--- 2_unemployed  >  0.50
|   |   |   |   |   |   |   |   |   |   |   |   |   |   |   |   |--- class: 0.0|   |   |   |   |   |   |   |   |   |   |   |   |   |   |--- 6  >  0.65
|   |   |   |   |   |   |   |   |   |   |   |   |   |   |   |--- class: 0.0|   |   |   |   |   |   |   |   |   |   |--- 4_unknown  >  0.50
|   |   |   |   |   |   |   |   |   |   |   |--- 15  <= -0.11
|   |   |   |   |   |   |   |   |   |   |   |   |--- 10  <= -0.23
|   |   |   |   |   |   |   |   |   |   |   |   |   |--- class: 0.0|   |   |   |   |   |   |   |   |   |   |   |   |--- 10  >  -0.23
|   |   |   |   |   |   |   |   |   |   |   |   |   |--- 6  <= 0.90
|   |   |   |   |   |   |   |   |   |   |   |   |   |   |--- 14  <= -0.02
|   |   |   |   |   |   |   |   |   |   |   |   |   |   |   |--- 3_single  <= 0.50
|   |   |   |   |   |   |   |   |   |   |   |   |   |   |   |   |--- class: 1.0|   |   |   |   |   |   |   |   |   |   |   |   |   |   |   |--- 3_single  >  0.50
|   |   |   |   |   |   |   |   |   |   |   |   |   |   |   |   |--- class: 0.0|   |   |   |   |   |   |   |   |   |   |   |   |   |   |--- 14  >  -0.02
|   |   |   |   |   |   |   |   |   |   |   |   |   |   |   |--- class: 1.0|   |   |   |   |   |   |   |   |   |   |   |   |   |--- 6  >  0.90
|   |   |   |   |   |   |   |   |   |   |   |   |   |   |--- class: 0.0|   |   |   |   |   |   |   |   |   |   |   |--- 15  >  -0.11
|   |   |   |   |   |   |   |   |   |   |   |   |--- 7_yes  <= 0.50
|   |   |   |   |   |   |   |   |   |   |   |   |   |--- 11  <= 0.31
|   |   |   |   |   |   |   |   |   |   |   |   |   |   |--- 14  <= -0.70
|   |   |   |   |   |   |   |   |   |   |   |   |   |   |   |--- class_1  <= -0.07
|   |   |   |   |   |   |   |   |   |   |   |   |   |   |   |   |--- 12  <= -0.65
|   |   |   |   |   |   |   |   |   |   |   |   |   |   |   |   |   |--- class: 0.0|   |   |   |   |   |   |   |   |   |   |   |   |   |   |   |   |--- 12  >  -0.65
|   |   |   |   |   |   |   |   |   |   |   |   |   |   |   |   |   |--- class: 1.0|   |   |   |   |   |   |   |   |   |   |   |   |   |   |   |--- class_1  >  -0.07
|   |   |   |   |   |   |   |   |   |   |   |   |   |   |   |   |--- class: 0.0|   |   |   |   |   |   |   |   |   |   |   |   |   |   |--- 14  >  -0.70
|   |   |   |   |   |   |   |   |   |   |   |   |   |   |   |--- class: 1.0|   |   |   |   |   |   |   |   |   |   |   |   |   |--- 11  >  0.31
|   |   |   |   |   |   |   |   |   |   |   |   |   |   |--- class: 1.0|   |   |   |   |   |   |   |   |   |   |   |   |--- 7_yes  >  0.50
|   |   |   |   |   |   |   |   |   |   |   |   |   |--- class: 1.0|   |   |   |   |   |   |   |   |   |--- 12  >  0.58
|   |   |   |   |   |   |   |   |   |   |--- 15  <= -0.31
|   |   |   |   |   |   |   |   |   |   |   |--- 4_unknown  <= 0.50
|   |   |   |   |   |   |   |   |   |   |   |   |--- 11  <= 0.24
|   |   |   |   |   |   |   |   |   |   |   |   |   |--- 6  <= 0.02
|   |   |   |   |   |   |   |   |   |   |   |   |   |   |--- class: 0.0|   |   |   |   |   |   |   |   |   |   |   |   |   |--- 6  >  0.02
|   |   |   |   |   |   |   |   |   |   |   |   |   |   |--- 6  <= 0.49
|   |   |   |   |   |   |   |   |   |   |   |   |   |   |   |--- class: 1.0|   |   |   |   |   |   |   |   |   |   |   |   |   |   |--- 6  >  0.49
|   |   |   |   |   |   |   |   |   |   |   |   |   |   |   |--- 13  <= 0.47
|   |   |   |   |   |   |   |   |   |   |   |   |   |   |   |   |--- class: 0.0|   |   |   |   |   |   |   |   |   |   |   |   |   |   |   |--- 13  >  0.47
|   |   |   |   |   |   |   |   |   |   |   |   |   |   |   |   |--- class: 1.0|   |   |   |   |   |   |   |   |   |   |   |   |--- 11  >  0.24
|   |   |   |   |   |   |   |   |   |   |   |   |   |--- 10  <= -0.15
|   |   |   |   |   |   |   |   |   |   |   |   |   |   |--- class_1  <= -0.25
|   |   |   |   |   |   |   |   |   |   |   |   |   |   |   |--- class: 1.0|   |   |   |   |   |   |   |   |   |   |   |   |   |   |--- class_1  >  -0.25
|   |   |   |   |   |   |   |   |   |   |   |   |   |   |   |--- class: 0.0|   |   |   |   |   |   |   |   |   |   |   |   |   |--- 10  >  -0.15
|   |   |   |   |   |   |   |   |   |   |   |   |   |   |--- class: 0.0|   |   |   |   |   |   |   |   |   |   |   |--- 4_unknown  >  0.50
|   |   |   |   |   |   |   |   |   |   |   |   |--- 14  <= 1.06
|   |   |   |   |   |   |   |   |   |   |   |   |   |--- class: 1.0|   |   |   |   |   |   |   |   |   |   |   |   |--- 14  >  1.06
|   |   |   |   |   |   |   |   |   |   |   |   |   |--- 6  <= -0.54
|   |   |   |   |   |   |   |   |   |   |   |   |   |   |--- class: 0.0|   |   |   |   |   |   |   |   |   |   |   |   |   |--- 6  >  -0.54
|   |   |   |   |   |   |   |   |   |   |   |   |   |   |--- class: 1.0|   |   |   |   |   |   |   |   |   |   |--- 15  >  -0.31
|   |   |   |   |   |   |   |   |   |   |   |--- class_1  <= 0.07
|   |   |   |   |   |   |   |   |   |   |   |   |--- 15  <= 1.22
|   |   |   |   |   |   |   |   |   |   |   |   |   |--- class_1  <= -0.21
|   |   |   |   |   |   |   |   |   |   |   |   |   |   |--- 11  <= -1.22
|   |   |   |   |   |   |   |   |   |   |   |   |   |   |   |--- class: 0.0|   |   |   |   |   |   |   |   |   |   |   |   |   |   |--- 11  >  -1.22
|   |   |   |   |   |   |   |   |   |   |   |   |   |   |   |--- class: 1.0|   |   |   |   |   |   |   |   |   |   |   |   |   |--- class_1  >  -0.21
|   |   |   |   |   |   |   |   |   |   |   |   |   |   |--- class: 1.0|   |   |   |   |   |   |   |   |   |   |   |   |--- 15  >  1.22
|   |   |   |   |   |   |   |   |   |   |   |   |   |--- 6  <= 0.06
|   |   |   |   |   |   |   |   |   |   |   |   |   |   |--- class: 1.0|   |   |   |   |   |   |   |   |   |   |   |   |   |--- 6  >  0.06
|   |   |   |   |   |   |   |   |   |   |   |   |   |   |--- 6  <= 0.38
|   |   |   |   |   |   |   |   |   |   |   |   |   |   |   |--- class: 0.0|   |   |   |   |   |   |   |   |   |   |   |   |   |   |--- 6  >  0.38
|   |   |   |   |   |   |   |   |   |   |   |   |   |   |   |--- class: 1.0|   |   |   |   |   |   |   |   |   |   |   |--- class_1  >  0.07
|   |   |   |   |   |   |   |   |   |   |   |   |--- class: 0.0|   |   |   |   |   |   |   |   |--- class_1  >  0.19
|   |   |   |   |   |   |   |   |   |--- 14  <= 0.18
|   |   |   |   |   |   |   |   |   |   |--- 2_retired  <= 0.50
|   |   |   |   |   |   |   |   |   |   |   |--- 13  <= 1.03
|   |   |   |   |   |   |   |   |   |   |   |   |--- 4_unknown  <= 0.50
|   |   |   |   |   |   |   |   |   |   |   |   |   |--- 15  <= -0.00
|   |   |   |   |   |   |   |   |   |   |   |   |   |   |--- class: 0.0|   |   |   |   |   |   |   |   |   |   |   |   |   |--- 15  >  -0.00
|   |   |   |   |   |   |   |   |   |   |   |   |   |   |--- 9_unknown  <= 0.50
|   |   |   |   |   |   |   |   |   |   |   |   |   |   |   |--- class: 0.0|   |   |   |   |   |   |   |   |   |   |   |   |   |   |--- 9_unknown  >  0.50
|   |   |   |   |   |   |   |   |   |   |   |   |   |   |   |--- 13  <= -0.43
|   |   |   |   |   |   |   |   |   |   |   |   |   |   |   |   |--- class: 1.0|   |   |   |   |   |   |   |   |   |   |   |   |   |   |   |--- 13  >  -0.43
|   |   |   |   |   |   |   |   |   |   |   |   |   |   |   |   |--- 15  <= 0.60
|   |   |   |   |   |   |   |   |   |   |   |   |   |   |   |   |   |--- class: 1.0|   |   |   |   |   |   |   |   |   |   |   |   |   |   |   |   |--- 15  >  0.60
|   |   |   |   |   |   |   |   |   |   |   |   |   |   |   |   |   |--- class: 0.0|   |   |   |   |   |   |   |   |   |   |   |   |--- 4_unknown  >  0.50
|   |   |   |   |   |   |   |   |   |   |   |   |   |--- class: 0.0|   |   |   |   |   |   |   |   |   |   |   |--- 13  >  1.03
|   |   |   |   |   |   |   |   |   |   |   |   |--- 12  <= -0.02
|   |   |   |   |   |   |   |   |   |   |   |   |   |--- class: 0.0|   |   |   |   |   |   |   |   |   |   |   |   |--- 12  >  -0.02
|   |   |   |   |   |   |   |   |   |   |   |   |   |--- class: 1.0|   |   |   |   |   |   |   |   |   |   |--- 2_retired  >  0.50
|   |   |   |   |   |   |   |   |   |   |   |--- 15  <= 0.16
|   |   |   |   |   |   |   |   |   |   |   |   |--- 10  <= -0.17
|   |   |   |   |   |   |   |   |   |   |   |   |   |--- class: 1.0|   |   |   |   |   |   |   |   |   |   |   |   |--- 10  >  -0.17
|   |   |   |   |   |   |   |   |   |   |   |   |   |--- class: 0.0|   |   |   |   |   |   |   |   |   |   |   |--- 15  >  0.16
|   |   |   |   |   |   |   |   |   |   |   |   |--- 10  <= 0.90
|   |   |   |   |   |   |   |   |   |   |   |   |   |--- class: 1.0|   |   |   |   |   |   |   |   |   |   |   |   |--- 10  >  0.90
|   |   |   |   |   |   |   |   |   |   |   |   |   |--- class: 0.0|   |   |   |   |   |   |   |   |   |--- 14  >  0.18
|   |   |   |   |   |   |   |   |   |   |--- 15  <= 0.54
|   |   |   |   |   |   |   |   |   |   |   |--- 12  <= -1.05
|   |   |   |   |   |   |   |   |   |   |   |   |--- class: 0.0|   |   |   |   |   |   |   |   |   |   |   |--- 12  >  -1.05
|   |   |   |   |   |   |   |   |   |   |   |   |--- 12  <= 0.20
|   |   |   |   |   |   |   |   |   |   |   |   |   |--- 13  <= 0.16
|   |   |   |   |   |   |   |   |   |   |   |   |   |   |--- 13  <= 0.08
|   |   |   |   |   |   |   |   |   |   |   |   |   |   |   |--- 9_unknown  <= 0.50
|   |   |   |   |   |   |   |   |   |   |   |   |   |   |   |   |--- 4_unknown  <= 0.50
|   |   |   |   |   |   |   |   |   |   |   |   |   |   |   |   |   |--- 12  <= 0.08
|   |   |   |   |   |   |   |   |   |   |   |   |   |   |   |   |   |   |--- class: 1.0|   |   |   |   |   |   |   |   |   |   |   |   |   |   |   |   |   |--- 12  >  0.08
|   |   |   |   |   |   |   |   |   |   |   |   |   |   |   |   |   |   |--- class: 0.0|   |   |   |   |   |   |   |   |   |   |   |   |   |   |   |   |--- 4_unknown  >  0.50
|   |   |   |   |   |   |   |   |   |   |   |   |   |   |   |   |   |--- 13  <= -0.52
|   |   |   |   |   |   |   |   |   |   |   |   |   |   |   |   |   |   |--- 14  <= 0.36
|   |   |   |   |   |   |   |   |   |   |   |   |   |   |   |   |   |   |   |--- class: 1.0|   |   |   |   |   |   |   |   |   |   |   |   |   |   |   |   |   |   |--- 14  >  0.36
|   |   |   |   |   |   |   |   |   |   |   |   |   |   |   |   |   |   |   |--- class: 0.0|   |   |   |   |   |   |   |   |   |   |   |   |   |   |   |   |   |--- 13  >  -0.52
|   |   |   |   |   |   |   |   |   |   |   |   |   |   |   |   |   |   |--- class: 1.0|   |   |   |   |   |   |   |   |   |   |   |   |   |   |   |--- 9_unknown  >  0.50
|   |   |   |   |   |   |   |   |   |   |   |   |   |   |   |   |--- class: 1.0|   |   |   |   |   |   |   |   |   |   |   |   |   |   |--- 13  >  0.08
|   |   |   |   |   |   |   |   |   |   |   |   |   |   |   |--- class: 0.0|   |   |   |   |   |   |   |   |   |   |   |   |   |--- 13  >  0.16
|   |   |   |   |   |   |   |   |   |   |   |   |   |   |--- 10  <= -0.27
|   |   |   |   |   |   |   |   |   |   |   |   |   |   |   |--- class: 0.0|   |   |   |   |   |   |   |   |   |   |   |   |   |   |--- 10  >  -0.27
|   |   |   |   |   |   |   |   |   |   |   |   |   |   |   |--- class: 1.0|   |   |   |   |   |   |   |   |   |   |   |   |--- 12  >  0.20
|   |   |   |   |   |   |   |   |   |   |   |   |   |--- 10  <= -0.16
|   |   |   |   |   |   |   |   |   |   |   |   |   |   |--- class: 1.0|   |   |   |   |   |   |   |   |   |   |   |   |   |--- 10  >  -0.16
|   |   |   |   |   |   |   |   |   |   |   |   |   |   |--- 15  <= -0.20
|   |   |   |   |   |   |   |   |   |   |   |   |   |   |   |--- class: 0.0|   |   |   |   |   |   |   |   |   |   |   |   |   |   |--- 15  >  -0.20
|   |   |   |   |   |   |   |   |   |   |   |   |   |   |   |--- 9_unknown  <= 0.50
|   |   |   |   |   |   |   |   |   |   |   |   |   |   |   |   |--- 10  <= 0.92
|   |   |   |   |   |   |   |   |   |   |   |   |   |   |   |   |   |--- class: 1.0|   |   |   |   |   |   |   |   |   |   |   |   |   |   |   |   |--- 10  >  0.92
|   |   |   |   |   |   |   |   |   |   |   |   |   |   |   |   |   |--- class: 0.0|   |   |   |   |   |   |   |   |   |   |   |   |   |   |   |--- 9_unknown  >  0.50
|   |   |   |   |   |   |   |   |   |   |   |   |   |   |   |   |--- class: 0.0|   |   |   |   |   |   |   |   |   |   |--- 15  >  0.54
|   |   |   |   |   |   |   |   |   |   |   |--- 11  <= -1.28
|   |   |   |   |   |   |   |   |   |   |   |   |--- class: 0.0|   |   |   |   |   |   |   |   |   |   |   |--- 11  >  -1.28
|   |   |   |   |   |   |   |   |   |   |   |   |--- 6  <= -0.63
|   |   |   |   |   |   |   |   |   |   |   |   |   |--- 10  <= 0.37
|   |   |   |   |   |   |   |   |   |   |   |   |   |   |--- class: 1.0|   |   |   |   |   |   |   |   |   |   |   |   |   |--- 10  >  0.37
|   |   |   |   |   |   |   |   |   |   |   |   |   |   |--- class: 0.0|   |   |   |   |   |   |   |   |   |   |   |   |--- 6  >  -0.63
|   |   |   |   |   |   |   |   |   |   |   |   |   |--- class: 1.0|   |   |   |   |   |   |   |--- 2_self-employed  >  0.50
|   |   |   |   |   |   |   |   |--- 13  <= -0.64
|   |   |   |   |   |   |   |   |   |--- 14  <= -0.22
|   |   |   |   |   |   |   |   |   |   |--- class: 0.0|   |   |   |   |   |   |   |   |   |--- 14  >  -0.22
|   |   |   |   |   |   |   |   |   |   |--- class: 1.0|   |   |   |   |   |   |   |   |--- 13  >  -0.64
|   |   |   |   |   |   |   |   |   |--- class: 0.0|   |   |   |   |--- 16_other  >  0.50
|   |   |   |   |   |--- 2_unemployed  <= 0.50
|   |   |   |   |   |   |--- 14  <= 0.15
|   |   |   |   |   |   |   |--- class: 0.0|   |   |   |   |   |   |--- 14  >  0.15
|   |   |   |   |   |   |   |--- 16_success  <= 0.50
|   |   |   |   |   |   |   |   |--- 14  <= 0.17
|   |   |   |   |   |   |   |   |   |--- class: 1.0|   |   |   |   |   |   |   |   |--- 14  >  0.17
|   |   |   |   |   |   |   |   |   |--- 5_yes  <= 0.50
|   |   |   |   |   |   |   |   |   |   |--- 3_single  <= 0.50
|   |   |   |   |   |   |   |   |   |   |   |--- class: 0.0|   |   |   |   |   |   |   |   |   |   |--- 3_single  >  0.50
|   |   |   |   |   |   |   |   |   |   |   |--- 4_unknown  <= 0.50
|   |   |   |   |   |   |   |   |   |   |   |   |--- 14  <= 1.63
|   |   |   |   |   |   |   |   |   |   |   |   |   |--- 12  <= -0.02
|   |   |   |   |   |   |   |   |   |   |   |   |   |   |--- class: 0.0|   |   |   |   |   |   |   |   |   |   |   |   |   |--- 12  >  -0.02
|   |   |   |   |   |   |   |   |   |   |   |   |   |   |--- 10  <= -0.26
|   |   |   |   |   |   |   |   |   |   |   |   |   |   |   |--- class: 1.0|   |   |   |   |   |   |   |   |   |   |   |   |   |   |--- 10  >  -0.26
|   |   |   |   |   |   |   |   |   |   |   |   |   |   |   |--- 11  <= -1.66
|   |   |   |   |   |   |   |   |   |   |   |   |   |   |   |   |--- class: 1.0|   |   |   |   |   |   |   |   |   |   |   |   |   |   |   |--- 11  >  -1.66
|   |   |   |   |   |   |   |   |   |   |   |   |   |   |   |   |--- 2_retired  <= 0.50
|   |   |   |   |   |   |   |   |   |   |   |   |   |   |   |   |   |--- 2_entrepreneur  <= 2_entrepreneur .52_entrepreneur 
|   |   |   |   |   |   |   |   |   |   |   |   |   |   |   |   |   |   |--- class: 0.0|   |   |   |   |   |   |   |   |   |   |   |   |   |   |   |   |   |--- 2_entrepreneur  >  2_entrepreneur .52_entrepreneur 
|   |   |   |   |   |   |   |   |   |   |   |   |   |   |   |   |   |   |--- 10  <= 0.77
|   |   |   |   |   |   |   |   |   |   |   |   |   |   |   |   |   |   |   |--- class: 0.0|   |   |   |   |   |   |   |   |   |   |   |   |   |   |   |   |   |   |--- 10  >  0.77
|   |   |   |   |   |   |   |   |   |   |   |   |   |   |   |   |   |   |   |--- 11  <= 0.39
|   |   |   |   |   |   |   |   |   |   |   |   |   |   |   |   |   |   |   |   |--- class: 0.0|   |   |   |   |   |   |   |   |   |   |   |   |   |   |   |   |   |   |   |--- 11  >  0.39
|   |   |   |   |   |   |   |   |   |   |   |   |   |   |   |   |   |   |   |   |--- class: 1.0|   |   |   |   |   |   |   |   |   |   |   |   |   |   |   |   |--- 2_retired  >  0.50
|   |   |   |   |   |   |   |   |   |   |   |   |   |   |   |   |   |--- class: 0.0|   |   |   |   |   |   |   |   |   |   |   |   |--- 14  >  1.63
|   |   |   |   |   |   |   |   |   |   |   |   |   |--- 10  <= 1.38
|   |   |   |   |   |   |   |   |   |   |   |   |   |   |--- class: 1.0|   |   |   |   |   |   |   |   |   |   |   |   |   |--- 10  >  1.38
|   |   |   |   |   |   |   |   |   |   |   |   |   |   |--- class: 0.0|   |   |   |   |   |   |   |   |   |   |   |--- 4_unknown  >  0.50
|   |   |   |   |   |   |   |   |   |   |   |   |--- 11  <= 0.49
|   |   |   |   |   |   |   |   |   |   |   |   |   |--- class: 0.0|   |   |   |   |   |   |   |   |   |   |   |   |--- 11  >  0.49
|   |   |   |   |   |   |   |   |   |   |   |   |   |--- 11  <= 1.21
|   |   |   |   |   |   |   |   |   |   |   |   |   |   |--- 10  <= 0.93
|   |   |   |   |   |   |   |   |   |   |   |   |   |   |   |--- class: 1.0|   |   |   |   |   |   |   |   |   |   |   |   |   |   |--- 10  >  0.93
|   |   |   |   |   |   |   |   |   |   |   |   |   |   |   |--- 14  <= 1.64
|   |   |   |   |   |   |   |   |   |   |   |   |   |   |   |   |--- class: 0.0|   |   |   |   |   |   |   |   |   |   |   |   |   |   |   |--- 14  >  1.64
|   |   |   |   |   |   |   |   |   |   |   |   |   |   |   |   |--- class: 1.0|   |   |   |   |   |   |   |   |   |   |   |   |   |--- 11  >  1.21
|   |   |   |   |   |   |   |   |   |   |   |   |   |   |--- 10  <= 0.46
|   |   |   |   |   |   |   |   |   |   |   |   |   |   |   |--- class: 1.0|   |   |   |   |   |   |   |   |   |   |   |   |   |   |--- 10  >  0.46
|   |   |   |   |   |   |   |   |   |   |   |   |   |   |   |--- class: 0.0|   |   |   |   |   |   |   |   |   |--- 5_yes  >  0.50
|   |   |   |   |   |   |   |   |   |   |--- class: 0.0|   |   |   |   |   |   |   |--- 16_success  >  0.50
|   |   |   |   |   |   |   |   |--- class: 1.0|   |   |   |   |   |--- 2_unemployed  >  0.50
|   |   |   |   |   |   |--- 10  <= 0.62
|   |   |   |   |   |   |   |--- 4_unknown  <= 0.50
|   |   |   |   |   |   |   |   |--- class_1  <= 1.09
|   |   |   |   |   |   |   |   |   |--- class: 0.0|   |   |   |   |   |   |   |   |--- class_1  >  1.09
|   |   |   |   |   |   |   |   |   |--- 12  <= 0.26
|   |   |   |   |   |   |   |   |   |   |--- class: 0.0|   |   |   |   |   |   |   |   |   |--- 12  >  0.26
|   |   |   |   |   |   |   |   |   |   |--- class: 1.0|   |   |   |   |   |   |   |--- 4_unknown  >  0.50
|   |   |   |   |   |   |   |   |--- 6  <= 1.70
|   |   |   |   |   |   |   |   |   |--- 11  <= -1.58
|   |   |   |   |   |   |   |   |   |   |--- class: 1.0|   |   |   |   |   |   |   |   |   |--- 11  >  -1.58
|   |   |   |   |   |   |   |   |   |   |--- 15  <= -0.14
|   |   |   |   |   |   |   |   |   |   |   |--- class: 0.0|   |   |   |   |   |   |   |   |   |   |--- 15  >  -0.14
|   |   |   |   |   |   |   |   |   |   |   |--- class_1  <= 0.48
|   |   |   |   |   |   |   |   |   |   |   |   |--- class: 1.0|   |   |   |   |   |   |   |   |   |   |   |--- class_1  >  0.48
|   |   |   |   |   |   |   |   |   |   |   |   |--- class: 0.0|   |   |   |   |   |   |   |   |--- 6  >  1.70
|   |   |   |   |   |   |   |   |   |--- 11  <= -0.63
|   |   |   |   |   |   |   |   |   |   |--- class: 0.0|   |   |   |   |   |   |   |   |   |--- 11  >  -0.63
|   |   |   |   |   |   |   |   |   |   |--- class: 1.0|   |   |   |   |   |   |--- 10  >  0.62
|   |   |   |   |   |   |   |--- class_1  <= 0.24
|   |   |   |   |   |   |   |   |--- class: 1.0|   |   |   |   |   |   |   |--- class_1  >  0.24
|   |   |   |   |   |   |   |   |--- class: 0.0|   |   |   |--- 10  >  2.34
|   |   |   |   |--- 11  <= 0.58
|   |   |   |   |   |--- class: 1.0|   |   |   |   |--- 11  >  0.58
|   |   |   |   |   |--- class: 0.0|   |--- 9_telephone  >  0.50
|   |   |--- 2_unknown  <= 0.50
|   |   |   |--- 1  <= 0.50
|   |   |   |   |--- 11  <= 1.86
|   |   |   |   |   |--- 4_unknown  <= 0.50
|   |   |   |   |   |   |--- 11  <= -1.09
|   |   |   |   |   |   |   |--- class: 0.0|   |   |   |   |   |   |--- 11  >  -1.09
|   |   |   |   |   |   |   |--- 6  <= -1.79
|   |   |   |   |   |   |   |   |--- class: 0.0|   |   |   |   |   |   |   |--- 6  >  -1.79
|   |   |   |   |   |   |   |   |--- 2_housemaid  <= 0.50
|   |   |   |   |   |   |   |   |   |--- 13  <= -0.95
|   |   |   |   |   |   |   |   |   |   |--- class: 0.0|   |   |   |   |   |   |   |   |   |--- 13  >  -0.95
|   |   |   |   |   |   |   |   |   |   |--- 6  <= -0.46
|   |   |   |   |   |   |   |   |   |   |   |--- 2_entrepreneur  <= 2_entrepreneur .52_entrepreneur 
|   |   |   |   |   |   |   |   |   |   |   |   |--- class: 1.0|   |   |   |   |   |   |   |   |   |   |   |--- 2_entrepreneur  >  2_entrepreneur .52_entrepreneur 
|   |   |   |   |   |   |   |   |   |   |   |   |--- class: 0.0|   |   |   |   |   |   |   |   |   |   |--- 6  >  -0.46
|   |   |   |   |   |   |   |   |   |   |   |--- class: 1.0|   |   |   |   |   |   |   |   |--- 2_housemaid  >  0.50
|   |   |   |   |   |   |   |   |   |--- class: 0.0|   |   |   |   |   |--- 4_unknown  >  0.50
|   |   |   |   |   |   |--- class: 0.0|   |   |   |   |--- 11  >  1.86
|   |   |   |   |   |--- class: 1.0|   |   |   |--- 1  >  0.50
|   |   |   |   |--- 4_unknown  <= 0.50
|   |   |   |   |   |--- class_1  <= 0.72
|   |   |   |   |   |   |--- 11  <= -1.68
|   |   |   |   |   |   |   |--- 2_entrepreneur  <= 2_entrepreneur .52_entrepreneur 
|   |   |   |   |   |   |   |   |--- 12  <= 0.33
|   |   |   |   |   |   |   |   |   |--- 11  <= -1.81
|   |   |   |   |   |   |   |   |   |   |--- 4_tertiary  <= 0.50
|   |   |   |   |   |   |   |   |   |   |   |--- class: 1.0|   |   |   |   |   |   |   |   |   |   |--- 4_tertiary  >  0.50
|   |   |   |   |   |   |   |   |   |   |   |--- class: 0.0|   |   |   |   |   |   |   |   |   |--- 11  >  -1.81
|   |   |   |   |   |   |   |   |   |   |--- class: 1.0|   |   |   |   |   |   |   |   |--- 12  >  0.33
|   |   |   |   |   |   |   |   |   |--- class: 1.0|   |   |   |   |   |   |   |--- 2_entrepreneur  >  2_entrepreneur .52_entrepreneur 
|   |   |   |   |   |   |   |   |--- class: 0.0|   |   |   |   |   |   |--- 11  >  -1.68
|   |   |   |   |   |   |   |--- 5_yes  <= 0.50
|   |   |   |   |   |   |   |   |--- class_1  <= 0.65
|   |   |   |   |   |   |   |   |   |--- 11  <= -0.49
|   |   |   |   |   |   |   |   |   |   |--- 11  <= -1.11 
|   |   |   |   |   |   |   |   |   |   |   |--- 2_entrepreneur  <= 2_entrepreneur .52_entrepreneur 
|   |   |   |   |   |   |   |   |   |   |   |   |--- 15  <= 1.21
|   |   |   |   |   |   |   |   |   |   |   |   |   |--- class: 0.0|   |   |   |   |   |   |   |   |   |   |   |   |--- 15  >  1.21
|   |   |   |   |   |   |   |   |   |   |   |   |   |--- class: 1.0|   |   |   |   |   |   |   |   |   |   |   |--- 2_entrepreneur  >  2_entrepreneur .52_entrepreneur 
|   |   |   |   |   |   |   |   |   |   |   |   |--- class: 0.0|   |   |   |   |   |   |   |   |   |   |--- 11  >  -1.11 
|   |   |   |   |   |   |   |   |   |   |   |--- 2_retired  <= 0.50
|   |   |   |   |   |   |   |   |   |   |   |   |--- class: 1.0|   |   |   |   |   |   |   |   |   |   |   |--- 2_retired  >  0.50
|   |   |   |   |   |   |   |   |   |   |   |   |--- 14  <= -0.38
|   |   |   |   |   |   |   |   |   |   |   |   |   |--- class: 0.0|   |   |   |   |   |   |   |   |   |   |   |   |--- 14  >  -0.38
|   |   |   |   |   |   |   |   |   |   |   |   |   |--- class: 1.0|   |   |   |   |   |   |   |   |   |--- 11  >  -0.49
|   |   |   |   |   |   |   |   |   |   |--- 13  <= -0.54
|   |   |   |   |   |   |   |   |   |   |   |--- 2_management  <= 0.50
|   |   |   |   |   |   |   |   |   |   |   |   |--- 13  <= -0.73
|   |   |   |   |   |   |   |   |   |   |   |   |   |--- 4_tertiary  <= 0.50
|   |   |   |   |   |   |   |   |   |   |   |   |   |   |--- 14  <= -0.25
|   |   |   |   |   |   |   |   |   |   |   |   |   |   |   |--- class: 0.0|   |   |   |   |   |   |   |   |   |   |   |   |   |   |--- 14  >  -0.25
|   |   |   |   |   |   |   |   |   |   |   |   |   |   |   |--- class: 1.0|   |   |   |   |   |   |   |   |   |   |   |   |   |--- 4_tertiary  >  0.50
|   |   |   |   |   |   |   |   |   |   |   |   |   |   |--- 2_retired  <= 0.50
|   |   |   |   |   |   |   |   |   |   |   |   |   |   |   |--- class: 0.0|   |   |   |   |   |   |   |   |   |   |   |   |   |   |--- 2_retired  >  0.50
|   |   |   |   |   |   |   |   |   |   |   |   |   |   |   |--- 10  <= -0.19
|   |   |   |   |   |   |   |   |   |   |   |   |   |   |   |   |--- class: 0.0|   |   |   |   |   |   |   |   |   |   |   |   |   |   |   |--- 10  >  -0.19
|   |   |   |   |   |   |   |   |   |   |   |   |   |   |   |   |--- class: 1.0|   |   |   |   |   |   |   |   |   |   |   |   |--- 13  >  -0.73
|   |   |   |   |   |   |   |   |   |   |   |   |   |--- class: 0.0|   |   |   |   |   |   |   |   |   |   |   |--- 2_management  >  0.50
|   |   |   |   |   |   |   |   |   |   |   |   |--- class: 1.0|   |   |   |   |   |   |   |   |   |   |--- 13  >  -0.54
|   |   |   |   |   |   |   |   |   |   |   |--- 14  <= -0.40
|   |   |   |   |   |   |   |   |   |   |   |   |--- class: 0.0|   |   |   |   |   |   |   |   |   |   |   |--- 14  >  -0.40
|   |   |   |   |   |   |   |   |   |   |   |   |--- 2_services  <= 0.2_services 0
|   |   |   |   |   |   |   |   |   |   |   |   |   |--- 11  <= -0.15
|   |   |   |   |   |   |   |   |   |   |   |   |   |   |--- 10  <= 0.55
|   |   |   |   |   |   |   |   |   |   |   |   |   |   |   |--- class: 0.0|   |   |   |   |   |   |   |   |   |   |   |   |   |   |--- 10  >  0.55
|   |   |   |   |   |   |   |   |   |   |   |   |   |   |   |--- class: 1.0|   |   |   |   |   |   |   |   |   |   |   |   |   |--- 11  >  -0.15
|   |   |   |   |   |   |   |   |   |   |   |   |   |   |--- 10  <= -0.35
|   |   |   |   |   |   |   |   |   |   |   |   |   |   |   |--- 2_unemployed  <= 0.50
|   |   |   |   |   |   |   |   |   |   |   |   |   |   |   |   |--- 14  <= -0.11
|   |   |   |   |   |   |   |   |   |   |   |   |   |   |   |   |   |--- class: 1.0|   |   |   |   |   |   |   |   |   |   |   |   |   |   |   |   |--- 14  >  -0.11
|   |   |   |   |   |   |   |   |   |   |   |   |   |   |   |   |   |--- class: 0.0|   |   |   |   |   |   |   |   |   |   |   |   |   |   |   |--- 2_unemployed  >  0.50
|   |   |   |   |   |   |   |   |   |   |   |   |   |   |   |   |--- 16_other  <= 0.50
|   |   |   |   |   |   |   |   |   |   |   |   |   |   |   |   |   |--- class: 1.0|   |   |   |   |   |   |   |   |   |   |   |   |   |   |   |   |--- 16_other  >  0.50
|   |   |   |   |   |   |   |   |   |   |   |   |   |   |   |   |   |--- class: 0.0|   |   |   |   |   |   |   |   |   |   |   |   |   |   |--- 10  >  -0.35
|   |   |   |   |   |   |   |   |   |   |   |   |   |   |   |--- class: 1.0|   |   |   |   |   |   |   |   |   |   |   |   |--- 2_services  >  0.2_services 0
|   |   |   |   |   |   |   |   |   |   |   |   |   |--- class: 0.0|   |   |   |   |   |   |   |   |--- class_1  >  0.65
|   |   |   |   |   |   |   |   |   |--- class: 1.0|   |   |   |   |   |   |   |--- 5_yes  >  0.50
|   |   |   |   |   |   |   |   |--- 14  <= 0.71
|   |   |   |   |   |   |   |   |   |--- class: 0.0|   |   |   |   |   |   |   |   |--- 14  >  0.71
|   |   |   |   |   |   |   |   |   |--- class: 1.0|   |   |   |   |   |--- class_1  >  0.72
|   |   |   |   |   |   |--- 2_entrepreneur  <= 2_entrepreneur .52_entrepreneur 
|   |   |   |   |   |   |   |--- 11  <= 2.39
|   |   |   |   |   |   |   |   |--- 5_yes  <= 0.50
|   |   |   |   |   |   |   |   |   |--- 13  <= -0.14
|   |   |   |   |   |   |   |   |   |   |--- class: 0.0|   |   |   |   |   |   |   |   |   |--- 13  >  -0.14
|   |   |   |   |   |   |   |   |   |   |--- 3_single  <= 0.50
|   |   |   |   |   |   |   |   |   |   |   |--- class: 0.0|   |   |   |   |   |   |   |   |   |   |--- 3_single  >  0.50
|   |   |   |   |   |   |   |   |   |   |   |--- 15  <= -0.24
|   |   |   |   |   |   |   |   |   |   |   |   |--- 13  <= 0.84
|   |   |   |   |   |   |   |   |   |   |   |   |   |--- class: 0.0|   |   |   |   |   |   |   |   |   |   |   |   |--- 13  >  0.84
|   |   |   |   |   |   |   |   |   |   |   |   |   |--- 7_yes  <= 0.50
|   |   |   |   |   |   |   |   |   |   |   |   |   |   |--- class: 1.0|   |   |   |   |   |   |   |   |   |   |   |   |   |--- 7_yes  >  0.50
|   |   |   |   |   |   |   |   |   |   |   |   |   |   |--- class: 0.0|   |   |   |   |   |   |   |   |   |   |   |--- 15  >  -0.24
|   |   |   |   |   |   |   |   |   |   |   |   |--- class: 1.0|   |   |   |   |   |   |   |   |--- 5_yes  >  0.50
|   |   |   |   |   |   |   |   |   |--- class_1  <= 2.01
|   |   |   |   |   |   |   |   |   |   |--- class: 0.0|   |   |   |   |   |   |   |   |   |--- class_1  >  2.01
|   |   |   |   |   |   |   |   |   |   |--- class: 1.0|   |   |   |   |   |   |   |--- 11  >  2.39
|   |   |   |   |   |   |   |   |--- class: 1.0|   |   |   |   |   |   |--- 2_entrepreneur  >  2_entrepreneur .52_entrepreneur 
|   |   |   |   |   |   |   |--- 6  <= -0.72
|   |   |   |   |   |   |   |   |--- class: 1.0|   |   |   |   |   |   |   |--- 6  >  -0.72
|   |   |   |   |   |   |   |   |--- 14  <= 0.01
|   |   |   |   |   |   |   |   |   |--- class: 0.0|   |   |   |   |   |   |   |   |--- 14  >  0.01
|   |   |   |   |   |   |   |   |   |--- class: 1.0|   |   |   |   |--- 4_unknown  >  0.50
|   |   |   |   |   |--- 14  <= 0.09
|   |   |   |   |   |   |--- 11  <= 1.38
|   |   |   |   |   |   |   |--- 2_retired  <= 0.50
|   |   |   |   |   |   |   |   |--- class_1  <= -0.21
|   |   |   |   |   |   |   |   |   |--- 12  <= -0.65
|   |   |   |   |   |   |   |   |   |   |--- class: 1.0|   |   |   |   |   |   |   |   |   |--- 12  >  -0.65
|   |   |   |   |   |   |   |   |   |   |--- 11  <= 0.02
|   |   |   |   |   |   |   |   |   |   |   |--- class: 0.0|   |   |   |   |   |   |   |   |   |   |--- 11  >  0.02
|   |   |   |   |   |   |   |   |   |   |   |--- class: 1.0|   |   |   |   |   |   |   |   |--- class_1  >  -0.21
|   |   |   |   |   |   |   |   |   |--- 14  <= -0.24
|   |   |   |   |   |   |   |   |   |   |--- class_1  <= 2.02
|   |   |   |   |   |   |   |   |   |   |   |--- 4_secondary  <= 0.50
|   |   |   |   |   |   |   |   |   |   |   |   |--- 16_other  <= 0.50
|   |   |   |   |   |   |   |   |   |   |   |   |   |--- 13  <= 1.88
|   |   |   |   |   |   |   |   |   |   |   |   |   |   |--- class: 1.0|   |   |   |   |   |   |   |   |   |   |   |   |   |--- 13  >  1.88
|   |   |   |   |   |   |   |   |   |   |   |   |   |   |--- class: 0.0|   |   |   |   |   |   |   |   |   |   |   |   |--- 16_other  >  0.50
|   |   |   |   |   |   |   |   |   |   |   |   |   |--- class: 0.0|   |   |   |   |   |   |   |   |   |   |   |--- 4_secondary  >  0.50
|   |   |   |   |   |   |   |   |   |   |   |   |--- class: 1.0|   |   |   |   |   |   |   |   |   |   |--- class_1  >  2.02
|   |   |   |   |   |   |   |   |   |   |   |--- class: 0.0|   |   |   |   |   |   |   |   |   |--- 14  >  -0.24
|   |   |   |   |   |   |   |   |   |   |--- class: 0.0|   |   |   |   |   |   |   |--- 2_retired  >  0.50
|   |   |   |   |   |   |   |   |--- 4_secondary  <= 0.50
|   |   |   |   |   |   |   |   |   |--- 14  <= -0.48
|   |   |   |   |   |   |   |   |   |   |--- 12  <= 0.03
|   |   |   |   |   |   |   |   |   |   |   |--- class: 1.0|   |   |   |   |   |   |   |   |   |   |--- 12  >  0.03
|   |   |   |   |   |   |   |   |   |   |   |--- class: 0.0|   |   |   |   |   |   |   |   |   |--- 14  >  -0.48
|   |   |   |   |   |   |   |   |   |   |--- class: 0.0|   |   |   |   |   |   |   |   |--- 4_secondary  >  0.50
|   |   |   |   |   |   |   |   |   |--- class: 0.0|   |   |   |   |   |   |--- 11  >  1.38
|   |   |   |   |   |   |   |--- class: 1.0|   |   |   |   |   |--- 14  >  0.09
|   |   |   |   |   |   |--- 12  <= 1.05
|   |   |   |   |   |   |   |--- 14  <= 1.07
|   |   |   |   |   |   |   |   |--- class: 1.0|   |   |   |   |   |   |   |--- 14  >  1.07
|   |   |   |   |   |   |   |   |--- 2_entrepreneur  <= 2_entrepreneur .52_entrepreneur 
|   |   |   |   |   |   |   |   |   |--- 3_single  <= 0.50
|   |   |   |   |   |   |   |   |   |   |--- class: 1.0|   |   |   |   |   |   |   |   |   |--- 3_single  >  0.50
|   |   |   |   |   |   |   |   |   |   |--- 10  <= -0.27
|   |   |   |   |   |   |   |   |   |   |   |--- class: 0.0|   |   |   |   |   |   |   |   |   |   |--- 10  >  -0.27
|   |   |   |   |   |   |   |   |   |   |   |--- class: 1.0|   |   |   |   |   |   |   |   |--- 2_entrepreneur  >  2_entrepreneur .52_entrepreneur 
|   |   |   |   |   |   |   |   |   |--- class: 1.0|   |   |   |   |   |   |--- 12  >  1.05
|   |   |   |   |   |   |   |--- class: 0.0|   |   |--- 2_unknown  >  0.50
|   |   |   |--- class: 0.0|--- 8_yes  >  0.50
|   |--- 10  <= -0.39
|   |   |--- 7_yes  <= 0.50
|   |   |   |--- 2_unknown  <= 0.50
|   |   |   |   |--- 2_retired  <= 0.50
|   |   |   |   |   |--- 2_self-employed  <= 0.50
|   |   |   |   |   |   |--- 14  <= 0.32
|   |   |   |   |   |   |   |--- 16_other  <= 0.50
|   |   |   |   |   |   |   |   |--- 11  <= 0.02
|   |   |   |   |   |   |   |   |   |--- 6  <= -0.56
|   |   |   |   |   |   |   |   |   |   |--- 11  <= -0.04
|   |   |   |   |   |   |   |   |   |   |   |--- 12  <= 0.79
|   |   |   |   |   |   |   |   |   |   |   |   |--- 10  <= -0.44
|   |   |   |   |   |   |   |   |   |   |   |   |   |--- 13  <= -0.02
|   |   |   |   |   |   |   |   |   |   |   |   |   |   |--- 4_unknown  <= 0.50
|   |   |   |   |   |   |   |   |   |   |   |   |   |   |   |--- class: 0.0|   |   |   |   |   |   |   |   |   |   |   |   |   |   |--- 4_unknown  >  0.50
|   |   |   |   |   |   |   |   |   |   |   |   |   |   |   |--- 6  <= -0.97
|   |   |   |   |   |   |   |   |   |   |   |   |   |   |   |   |--- class: 1.0|   |   |   |   |   |   |   |   |   |   |   |   |   |   |   |--- 6  >  -0.97
|   |   |   |   |   |   |   |   |   |   |   |   |   |   |   |   |--- class: 0.0|   |   |   |   |   |   |   |   |   |   |   |   |   |--- 13  >  -0.02
|   |   |   |   |   |   |   |   |   |   |   |   |   |   |--- class: 0.0|   |   |   |   |   |   |   |   |   |   |   |   |--- 10  >  -0.44
|   |   |   |   |   |   |   |   |   |   |   |   |   |--- class: 1.0|   |   |   |   |   |   |   |   |   |   |   |--- 12  >  0.79
|   |   |   |   |   |   |   |   |   |   |   |   |--- class: 0.0|   |   |   |   |   |   |   |   |   |   |--- 11  >  -0.04
|   |   |   |   |   |   |   |   |   |   |   |--- class: 1.0|   |   |   |   |   |   |   |   |   |--- 6  >  -0.56
|   |   |   |   |   |   |   |   |   |   |--- 4_unknown  <= 0.50
|   |   |   |   |   |   |   |   |   |   |   |--- 11  <= -0.60
|   |   |   |   |   |   |   |   |   |   |   |   |--- 16_success  <= 0.50
|   |   |   |   |   |   |   |   |   |   |   |   |   |--- 3_single  <= 0.50
|   |   |   |   |   |   |   |   |   |   |   |   |   |   |--- 4_secondary  <= 0.50
|   |   |   |   |   |   |   |   |   |   |   |   |   |   |   |--- class: 0.0|   |   |   |   |   |   |   |   |   |   |   |   |   |   |--- 4_secondary  >  0.50
|   |   |   |   |   |   |   |   |   |   |   |   |   |   |   |--- 2_unemployed  <= 0.50
|   |   |   |   |   |   |   |   |   |   |   |   |   |   |   |   |--- class: 0.0|   |   |   |   |   |   |   |   |   |   |   |   |   |   |   |--- 2_unemployed  >  0.50
|   |   |   |   |   |   |   |   |   |   |   |   |   |   |   |   |--- class: 1.0|   |   |   |   |   |   |   |   |   |   |   |   |   |--- 3_single  >  0.50
|   |   |   |   |   |   |   |   |   |   |   |   |   |   |--- 2_unemployed  <= 0.50
|   |   |   |   |   |   |   |   |   |   |   |   |   |   |   |--- 10  <= -0.43
|   |   |   |   |   |   |   |   |   |   |   |   |   |   |   |   |--- 2_entrepreneur  <= 2_entrepreneur .52_entrepreneur 
|   |   |   |   |   |   |   |   |   |   |   |   |   |   |   |   |   |--- 9_telephone  <= 0.50
|   |   |   |   |   |   |   |   |   |   |   |   |   |   |   |   |   |   |--- 14  <= -0.48
|   |   |   |   |   |   |   |   |   |   |   |   |   |   |   |   |   |   |   |--- 6  <= 0.39
|   |   |   |   |   |   |   |   |   |   |   |   |   |   |   |   |   |   |   |   |--- class: 1.0|   |   |   |   |   |   |   |   |   |   |   |   |   |   |   |   |   |   |   |--- 6  >  0.39
|   |   |   |   |   |   |   |   |   |   |   |   |   |   |   |   |   |   |   |   |--- class: 0.0|   |   |   |   |   |   |   |   |   |   |   |   |   |   |   |   |   |   |--- 14  >  -0.48
|   |   |   |   |   |   |   |   |   |   |   |   |   |   |   |   |   |   |   |--- class: 0.0|   |   |   |   |   |   |   |   |   |   |   |   |   |   |   |   |   |--- 9_telephone  >  0.50
|   |   |   |   |   |   |   |   |   |   |   |   |   |   |   |   |   |   |--- class: 1.0|   |   |   |   |   |   |   |   |   |   |   |   |   |   |   |   |--- 2_entrepreneur  >  2_entrepreneur .52_entrepreneur 
|   |   |   |   |   |   |   |   |   |   |   |   |   |   |   |   |   |--- class: 0.0|   |   |   |   |   |   |   |   |   |   |   |   |   |   |   |--- 10  >  -0.43
|   |   |   |   |   |   |   |   |   |   |   |   |   |   |   |   |--- class_1  <= 0.70
|   |   |   |   |   |   |   |   |   |   |   |   |   |   |   |   |   |--- class: 0.0|   |   |   |   |   |   |   |   |   |   |   |   |   |   |   |   |--- class_1  >  0.70
|   |   |   |   |   |   |   |   |   |   |   |   |   |   |   |   |   |--- class: 1.0|   |   |   |   |   |   |   |   |   |   |   |   |   |   |--- 2_unemployed  >  0.50
|   |   |   |   |   |   |   |   |   |   |   |   |   |   |   |--- class: 1.0|   |   |   |   |   |   |   |   |   |   |   |   |--- 16_success  >  0.50
|   |   |   |   |   |   |   |   |   |   |   |   |   |--- class: 1.0|   |   |   |   |   |   |   |   |   |   |   |--- 11  >  -0.60
|   |   |   |   |   |   |   |   |   |   |   |   |--- 12  <= 2.06
|   |   |   |   |   |   |   |   |   |   |   |   |   |--- class: 0.0|   |   |   |   |   |   |   |   |   |   |   |   |--- 12  >  2.06
|   |   |   |   |   |   |   |   |   |   |   |   |   |--- class: 1.0|   |   |   |   |   |   |   |   |   |   |--- 4_unknown  >  0.50
|   |   |   |   |   |   |   |   |   |   |   |--- 6  <= -0.00
|   |   |   |   |   |   |   |   |   |   |   |   |--- 6  <= -0.19
|   |   |   |   |   |   |   |   |   |   |   |   |   |--- class: 1.0|   |   |   |   |   |   |   |   |   |   |   |   |--- 6  >  -0.19
|   |   |   |   |   |   |   |   |   |   |   |   |   |--- 14  <= -0.20
|   |   |   |   |   |   |   |   |   |   |   |   |   |   |--- 15  <= -0.01
|   |   |   |   |   |   |   |   |   |   |   |   |   |   |   |--- class: 0.0|   |   |   |   |   |   |   |   |   |   |   |   |   |   |--- 15  >  -0.01
|   |   |   |   |   |   |   |   |   |   |   |   |   |   |   |--- class: 1.0|   |   |   |   |   |   |   |   |   |   |   |   |   |--- 14  >  -0.20
|   |   |   |   |   |   |   |   |   |   |   |   |   |   |--- class: 0.0|   |   |   |   |   |   |   |   |   |   |   |--- 6  >  -0.00
|   |   |   |   |   |   |   |   |   |   |   |   |--- class: 1.0|   |   |   |   |   |   |   |   |--- 11  >  0.02
|   |   |   |   |   |   |   |   |   |--- 15  <= -0.19
|   |   |   |   |   |   |   |   |   |   |--- 16_unknown  <= 0.50
|   |   |   |   |   |   |   |   |   |   |   |--- 11  <= 1.50
|   |   |   |   |   |   |   |   |   |   |   |   |--- 1  <= 0.50
|   |   |   |   |   |   |   |   |   |   |   |   |   |--- class: 0.0|   |   |   |   |   |   |   |   |   |   |   |   |--- 1  >  0.50
|   |   |   |   |   |   |   |   |   |   |   |   |   |--- 15  <= -0.27
|   |   |   |   |   |   |   |   |   |   |   |   |   |   |--- 15  <= -0.15 
|   |   |   |   |   |   |   |   |   |   |   |   |   |   |   |--- 4_unknown  <= 0.50
|   |   |   |   |   |   |   |   |   |   |   |   |   |   |   |   |--- 3_single  <= 0.50
|   |   |   |   |   |   |   |   |   |   |   |   |   |   |   |   |   |--- class: 0.0|   |   |   |   |   |   |   |   |   |   |   |   |   |   |   |   |--- 3_single  >  0.50
|   |   |   |   |   |   |   |   |   |   |   |   |   |   |   |   |   |--- 12  <= 1.36
|   |   |   |   |   |   |   |   |   |   |   |   |   |   |   |   |   |   |--- 13  <= -0.63
|   |   |   |   |   |   |   |   |   |   |   |   |   |   |   |   |   |   |   |--- class: 0.0|   |   |   |   |   |   |   |   |   |   |   |   |   |   |   |   |   |   |--- 13  >  -0.63
|   |   |   |   |   |   |   |   |   |   |   |   |   |   |   |   |   |   |   |--- 12  <= -1.80
|   |   |   |   |   |   |   |   |   |   |   |   |   |   |   |   |   |   |   |   |--- class: 0.0|   |   |   |   |   |   |   |   |   |   |   |   |   |   |   |   |   |   |   |--- 12  >  -1.80
|   |   |   |   |   |   |   |   |   |   |   |   |   |   |   |   |   |   |   |   |--- 12  <= -0.61
|   |   |   |   |   |   |   |   |   |   |   |   |   |   |   |   |   |   |   |   |   |--- class: 1.0|   |   |   |   |   |   |   |   |   |   |   |   |   |   |   |   |   |   |   |   |--- 12  >  -0.61
|   |   |   |   |   |   |   |   |   |   |   |   |   |   |   |   |   |   |   |   |   |--- class: 0.0|   |   |   |   |   |   |   |   |   |   |   |   |   |   |   |   |   |--- 12  >  1.36
|   |   |   |   |   |   |   |   |   |   |   |   |   |   |   |   |   |   |--- class: 1.0|   |   |   |   |   |   |   |   |   |   |   |   |   |   |   |--- 4_unknown  >  0.50
|   |   |   |   |   |   |   |   |   |   |   |   |   |   |   |   |--- class: 1.0|   |   |   |   |   |   |   |   |   |   |   |   |   |   |--- 15  >  -0.15 
|   |   |   |   |   |   |   |   |   |   |   |   |   |   |   |--- class: 1.0|   |   |   |   |   |   |   |   |   |   |   |   |   |--- 15  >  -0.27
|   |   |   |   |   |   |   |   |   |   |   |   |   |   |--- class: 0.0|   |   |   |   |   |   |   |   |   |   |   |--- 11  >  1.50
|   |   |   |   |   |   |   |   |   |   |   |   |--- class: 0.0|   |   |   |   |   |   |   |   |   |   |--- 16_unknown  >  0.50
|   |   |   |   |   |   |   |   |   |   |   |--- class: 1.0|   |   |   |   |   |   |   |   |   |--- 15  >  -0.19
|   |   |   |   |   |   |   |   |   |   |--- 4_tertiary  <= 0.50
|   |   |   |   |   |   |   |   |   |   |   |--- 10  <= -0.43
|   |   |   |   |   |   |   |   |   |   |   |   |--- 11  <= 0.51
|   |   |   |   |   |   |   |   |   |   |   |   |   |--- 2_technician  <= 0.50
|   |   |   |   |   |   |   |   |   |   |   |   |   |   |--- 6  <= 0.99
|   |   |   |   |   |   |   |   |   |   |   |   |   |   |   |--- class: 1.0|   |   |   |   |   |   |   |   |   |   |   |   |   |   |--- 6  >  0.99
|   |   |   |   |   |   |   |   |   |   |   |   |   |   |   |--- class: 0.0|   |   |   |   |   |   |   |   |   |   |   |   |   |--- 2_technician  >  0.50
|   |   |   |   |   |   |   |   |   |   |   |   |   |   |--- class: 0.0|   |   |   |   |   |   |   |   |   |   |   |   |--- 11  >  0.51
|   |   |   |   |   |   |   |   |   |   |   |   |   |--- class: 1.0|   |   |   |   |   |   |   |   |   |   |   |--- 10  >  -0.43
|   |   |   |   |   |   |   |   |   |   |   |   |--- class: 1.0|   |   |   |   |   |   |   |   |   |   |--- 4_tertiary  >  0.50
|   |   |   |   |   |   |   |   |   |   |   |--- class_1  <= 0.84
|   |   |   |   |   |   |   |   |   |   |   |   |--- class_1  <= 0.14
|   |   |   |   |   |   |   |   |   |   |   |   |   |--- 1  <= 0.50
|   |   |   |   |   |   |   |   |   |   |   |   |   |   |--- class: 0.0|   |   |   |   |   |   |   |   |   |   |   |   |   |--- 1  >  0.50
|   |   |   |   |   |   |   |   |   |   |   |   |   |   |--- 15  <= 0.75
|   |   |   |   |   |   |   |   |   |   |   |   |   |   |   |--- 14  <= 0.15
|   |   |   |   |   |   |   |   |   |   |   |   |   |   |   |   |--- class: 0.0|   |   |   |   |   |   |   |   |   |   |   |   |   |   |   |--- 14  >  0.15
|   |   |   |   |   |   |   |   |   |   |   |   |   |   |   |   |--- class: 1.0|   |   |   |   |   |   |   |   |   |   |   |   |   |   |--- 15  >  0.75
|   |   |   |   |   |   |   |   |   |   |   |   |   |   |   |--- class: 1.0|   |   |   |   |   |   |   |   |   |   |   |   |--- class_1  >  0.14
|   |   |   |   |   |   |   |   |   |   |   |   |   |--- class: 1.0|   |   |   |   |   |   |   |   |   |   |   |--- class_1  >  0.84
|   |   |   |   |   |   |   |   |   |   |   |   |--- class: 0.0|   |   |   |   |   |   |   |--- 16_other  >  0.50
|   |   |   |   |   |   |   |   |--- class_1  <= 0.34
|   |   |   |   |   |   |   |   |   |--- 9_telephone  <= 0.50
|   |   |   |   |   |   |   |   |   |   |--- 2_entrepreneur  <= 2_entrepreneur .52_entrepreneur 
|   |   |   |   |   |   |   |   |   |   |   |--- 6  <= 0.40
|   |   |   |   |   |   |   |   |   |   |   |   |--- 15  <= 0.75
|   |   |   |   |   |   |   |   |   |   |   |   |   |--- class: 0.0|   |   |   |   |   |   |   |   |   |   |   |   |--- 15  >  0.75
|   |   |   |   |   |   |   |   |   |   |   |   |   |--- 11  <= 0.34
|   |   |   |   |   |   |   |   |   |   |   |   |   |   |--- class: 0.0|   |   |   |   |   |   |   |   |   |   |   |   |   |--- 11  >  0.34
|   |   |   |   |   |   |   |   |   |   |   |   |   |   |--- class: 1.0|   |   |   |   |   |   |   |   |   |   |   |--- 6  >  0.40
|   |   |   |   |   |   |   |   |   |   |   |   |--- 4_tertiary  <= 0.50
|   |   |   |   |   |   |   |   |   |   |   |   |   |--- 2_student  <= 0.50
|   |   |   |   |   |   |   |   |   |   |   |   |   |   |--- 14  <= -0.14
|   |   |   |   |   |   |   |   |   |   |   |   |   |   |   |--- class: 1.0|   |   |   |   |   |   |   |   |   |   |   |   |   |   |--- 14  >  -0.14
|   |   |   |   |   |   |   |   |   |   |   |   |   |   |   |--- class: 0.0|   |   |   |   |   |   |   |   |   |   |   |   |   |--- 2_student  >  0.50
|   |   |   |   |   |   |   |   |   |   |   |   |   |   |--- class: 1.0|   |   |   |   |   |   |   |   |   |   |   |   |--- 4_tertiary  >  0.50
|   |   |   |   |   |   |   |   |   |   |   |   |   |--- 11  <= 0.68
|   |   |   |   |   |   |   |   |   |   |   |   |   |   |--- class: 0.0|   |   |   |   |   |   |   |   |   |   |   |   |   |--- 11  >  0.68
|   |   |   |   |   |   |   |   |   |   |   |   |   |   |--- class_1  <= -0.13
|   |   |   |   |   |   |   |   |   |   |   |   |   |   |   |--- class: 0.0|   |   |   |   |   |   |   |   |   |   |   |   |   |   |--- class_1  >  -0.13
|   |   |   |   |   |   |   |   |   |   |   |   |   |   |   |--- class: 1.0|   |   |   |   |   |   |   |   |   |   |--- 2_entrepreneur  >  2_entrepreneur .52_entrepreneur 
|   |   |   |   |   |   |   |   |   |   |   |--- class: 0.0|   |   |   |   |   |   |   |   |   |--- 9_telephone  >  0.50
|   |   |   |   |   |   |   |   |   |   |--- 15  <= 0.36
|   |   |   |   |   |   |   |   |   |   |   |--- 14  <= -0.46
|   |   |   |   |   |   |   |   |   |   |   |   |--- class: 0.0|   |   |   |   |   |   |   |   |   |   |   |--- 14  >  -0.46
|   |   |   |   |   |   |   |   |   |   |   |   |--- class: 1.0|   |   |   |   |   |   |   |   |   |   |--- 15  >  0.36
|   |   |   |   |   |   |   |   |   |   |   |--- class: 0.0|   |   |   |   |   |   |   |   |--- class_1  >  0.34
|   |   |   |   |   |   |   |   |   |--- class: 0.0|   |   |   |   |   |   |--- 14  >  0.32
|   |   |   |   |   |   |   |--- 3_single  <= 0.50
|   |   |   |   |   |   |   |   |--- 13  <= 0.10
|   |   |   |   |   |   |   |   |   |--- 2_student  <= 0.50
|   |   |   |   |   |   |   |   |   |   |--- 12  <= -0.40
|   |   |   |   |   |   |   |   |   |   |   |--- 4_unknown  <= 0.50
|   |   |   |   |   |   |   |   |   |   |   |   |--- class: 0.0|   |   |   |   |   |   |   |   |   |   |   |--- 4_unknown  >  0.50
|   |   |   |   |   |   |   |   |   |   |   |   |--- class: 1.0|   |   |   |   |   |   |   |   |   |   |--- 12  >  -0.40
|   |   |   |   |   |   |   |   |   |   |   |--- 1  <= 0.50
|   |   |   |   |   |   |   |   |   |   |   |   |--- class: 0.0|   |   |   |   |   |   |   |   |   |   |   |--- 1  >  0.50
|   |   |   |   |   |   |   |   |   |   |   |   |--- 11  <= -0.14
|   |   |   |   |   |   |   |   |   |   |   |   |   |--- class: 1.0|   |   |   |   |   |   |   |   |   |   |   |   |--- 11  >  -0.14
|   |   |   |   |   |   |   |   |   |   |   |   |   |--- 4_tertiary  <= 0.50
|   |   |   |   |   |   |   |   |   |   |   |   |   |   |--- 6  <= -0.33
|   |   |   |   |   |   |   |   |   |   |   |   |   |   |   |--- class: 1.0|   |   |   |   |   |   |   |   |   |   |   |   |   |   |--- 6  >  -0.33
|   |   |   |   |   |   |   |   |   |   |   |   |   |   |   |--- class: 0.0|   |   |   |   |   |   |   |   |   |   |   |   |   |--- 4_tertiary  >  0.50
|   |   |   |   |   |   |   |   |   |   |   |   |   |   |--- 11  <= 0.23
|   |   |   |   |   |   |   |   |   |   |   |   |   |   |   |--- class: 0.0|   |   |   |   |   |   |   |   |   |   |   |   |   |   |--- 11  >  0.23
|   |   |   |   |   |   |   |   |   |   |   |   |   |   |   |--- class: 1.0|   |   |   |   |   |   |   |   |   |--- 2_student  >  0.50
|   |   |   |   |   |   |   |   |   |   |--- class: 0.0|   |   |   |   |   |   |   |   |--- 13  >  0.10
|   |   |   |   |   |   |   |   |   |--- 11  <= 0.54
|   |   |   |   |   |   |   |   |   |   |--- class_1  <= -0.13
|   |   |   |   |   |   |   |   |   |   |   |--- class: 0.0|   |   |   |   |   |   |   |   |   |   |--- class_1  >  -0.13
|   |   |   |   |   |   |   |   |   |   |   |--- 15  <= -0.38
|   |   |   |   |   |   |   |   |   |   |   |   |--- 2_entrepreneur  <= 2_entrepreneur .52_entrepreneur 
|   |   |   |   |   |   |   |   |   |   |   |   |   |--- class: 1.0|   |   |   |   |   |   |   |   |   |   |   |   |--- 2_entrepreneur  >  2_entrepreneur .52_entrepreneur 
|   |   |   |   |   |   |   |   |   |   |   |   |   |--- 11  <= -0.25
|   |   |   |   |   |   |   |   |   |   |   |   |   |   |--- class: 1.0|   |   |   |   |   |   |   |   |   |   |   |   |   |--- 11  >  -0.25
|   |   |   |   |   |   |   |   |   |   |   |   |   |   |--- class: 0.0|   |   |   |   |   |   |   |   |   |   |   |--- 15  >  -0.38
|   |   |   |   |   |   |   |   |   |   |   |   |--- 2_unemployed  <= 0.50
|   |   |   |   |   |   |   |   |   |   |   |   |   |--- 12  <= 0.18
|   |   |   |   |   |   |   |   |   |   |   |   |   |   |--- class: 0.0|   |   |   |   |   |   |   |   |   |   |   |   |   |--- 12  >  0.18
|   |   |   |   |   |   |   |   |   |   |   |   |   |   |--- class: 1.0|   |   |   |   |   |   |   |   |   |   |   |   |--- 2_unemployed  >  0.50
|   |   |   |   |   |   |   |   |   |   |   |   |   |--- class: 0.0|   |   |   |   |   |   |   |   |   |--- 11  >  0.54
|   |   |   |   |   |   |   |   |   |   |--- class: 1.0|   |   |   |   |   |   |   |--- 3_single  >  0.50
|   |   |   |   |   |   |   |   |--- 9_unknown  <= 0.50
|   |   |   |   |   |   |   |   |   |--- 14  <= 0.53
|   |   |   |   |   |   |   |   |   |   |--- 6  <= 0.76
|   |   |   |   |   |   |   |   |   |   |   |--- class: 1.0|   |   |   |   |   |   |   |   |   |   |--- 6  >  0.76
|   |   |   |   |   |   |   |   |   |   |   |--- 6  <= 0.86
|   |   |   |   |   |   |   |   |   |   |   |   |--- class: 0.0|   |   |   |   |   |   |   |   |   |   |   |--- 6  >  0.86
|   |   |   |   |   |   |   |   |   |   |   |   |--- class: 1.0|   |   |   |   |   |   |   |   |   |--- 14  >  0.53
|   |   |   |   |   |   |   |   |   |   |--- 9_telephone  <= 0.50
|   |   |   |   |   |   |   |   |   |   |   |--- 15  <= -0.10
|   |   |   |   |   |   |   |   |   |   |   |   |--- 6  <= 0.03
|   |   |   |   |   |   |   |   |   |   |   |   |   |--- 2_management  <= 0.50
|   |   |   |   |   |   |   |   |   |   |   |   |   |   |--- 13  <= 0.53
|   |   |   |   |   |   |   |   |   |   |   |   |   |   |   |--- 2_housemaid  <= 0.50
|   |   |   |   |   |   |   |   |   |   |   |   |   |   |   |   |--- 16_other  <= 0.50
|   |   |   |   |   |   |   |   |   |   |   |   |   |   |   |   |   |--- 14  <= 0.83
|   |   |   |   |   |   |   |   |   |   |   |   |   |   |   |   |   |   |--- 2_services  <= 0.2_services 0
|   |   |   |   |   |   |   |   |   |   |   |   |   |   |   |   |   |   |   |--- class: 0.0|   |   |   |   |   |   |   |   |   |   |   |   |   |   |   |   |   |   |--- 2_services  >  0.2_services 0
|   |   |   |   |   |   |   |   |   |   |   |   |   |   |   |   |   |   |   |--- class: 1.0|   |   |   |   |   |   |   |   |   |   |   |   |   |   |   |   |   |--- 14  >  0.83
|   |   |   |   |   |   |   |   |   |   |   |   |   |   |   |   |   |   |--- class: 0.0|   |   |   |   |   |   |   |   |   |   |   |   |   |   |   |   |--- 16_other  >  0.50
|   |   |   |   |   |   |   |   |   |   |   |   |   |   |   |   |   |--- class: 0.0|   |   |   |   |   |   |   |   |   |   |   |   |   |   |   |--- 2_housemaid  >  0.50
|   |   |   |   |   |   |   |   |   |   |   |   |   |   |   |   |--- class: 1.0|   |   |   |   |   |   |   |   |   |   |   |   |   |   |--- 13  >  0.53
|   |   |   |   |   |   |   |   |   |   |   |   |   |   |   |--- class: 1.0|   |   |   |   |   |   |   |   |   |   |   |   |   |--- 2_management  >  0.50
|   |   |   |   |   |   |   |   |   |   |   |   |   |   |--- class: 0.0|   |   |   |   |   |   |   |   |   |   |   |   |--- 6  >  0.03
|   |   |   |   |   |   |   |   |   |   |   |   |   |--- class: 0.0|   |   |   |   |   |   |   |   |   |   |   |--- 15  >  -0.10
|   |   |   |   |   |   |   |   |   |   |   |   |--- 2_technician  <= 0.50
|   |   |   |   |   |   |   |   |   |   |   |   |   |--- 12  <= 0.05
|   |   |   |   |   |   |   |   |   |   |   |   |   |   |--- 13  <= -0.34
|   |   |   |   |   |   |   |   |   |   |   |   |   |   |   |--- 11  <= 1.41
|   |   |   |   |   |   |   |   |   |   |   |   |   |   |   |   |--- 11  <= 0.56
|   |   |   |   |   |   |   |   |   |   |   |   |   |   |   |   |   |--- class: 1.0|   |   |   |   |   |   |   |   |   |   |   |   |   |   |   |   |--- 11  >  0.56
|   |   |   |   |   |   |   |   |   |   |   |   |   |   |   |   |   |--- class: 0.0|   |   |   |   |   |   |   |   |   |   |   |   |   |   |   |--- 11  >  1.41
|   |   |   |   |   |   |   |   |   |   |   |   |   |   |   |   |--- class: 1.0|   |   |   |   |   |   |   |   |   |   |   |   |   |   |--- 13  >  -0.34
|   |   |   |   |   |   |   |   |   |   |   |   |   |   |   |--- class: 1.0|   |   |   |   |   |   |   |   |   |   |   |   |   |--- 12  >  0.05
|   |   |   |   |   |   |   |   |   |   |   |   |   |   |--- class_1  <= 0.75
|   |   |   |   |   |   |   |   |   |   |   |   |   |   |   |--- 4_unknown  <= 0.50
|   |   |   |   |   |   |   |   |   |   |   |   |   |   |   |   |--- 15  <= 0.61
|   |   |   |   |   |   |   |   |   |   |   |   |   |   |   |   |   |--- 2_entrepreneur  <= 2_entrepreneur .52_entrepreneur 
|   |   |   |   |   |   |   |   |   |   |   |   |   |   |   |   |   |   |--- class: 0.0|   |   |   |   |   |   |   |   |   |   |   |   |   |   |   |   |   |--- 2_entrepreneur  >  2_entrepreneur .52_entrepreneur 
|   |   |   |   |   |   |   |   |   |   |   |   |   |   |   |   |   |   |--- class: 1.0|   |   |   |   |   |   |   |   |   |   |   |   |   |   |   |   |--- 15  >  0.61
|   |   |   |   |   |   |   |   |   |   |   |   |   |   |   |   |   |--- class: 0.0|   |   |   |   |   |   |   |   |   |   |   |   |   |   |   |--- 4_unknown  >  0.50
|   |   |   |   |   |   |   |   |   |   |   |   |   |   |   |   |--- class: 1.0|   |   |   |   |   |   |   |   |   |   |   |   |   |   |--- class_1  >  0.75
|   |   |   |   |   |   |   |   |   |   |   |   |   |   |   |--- class: 1.0|   |   |   |   |   |   |   |   |   |   |   |   |--- 2_technician  >  0.50
|   |   |   |   |   |   |   |   |   |   |   |   |   |--- class: 0.0|   |   |   |   |   |   |   |   |   |   |--- 9_telephone  >  0.50
|   |   |   |   |   |   |   |   |   |   |   |--- 4_tertiary  <= 0.50
|   |   |   |   |   |   |   |   |   |   |   |   |--- 6  <= -1.05
|   |   |   |   |   |   |   |   |   |   |   |   |   |--- class: 1.0|   |   |   |   |   |   |   |   |   |   |   |   |--- 6  >  -1.05
|   |   |   |   |   |   |   |   |   |   |   |   |   |--- 12  <= -0.48
|   |   |   |   |   |   |   |   |   |   |   |   |   |   |--- class: 1.0|   |   |   |   |   |   |   |   |   |   |   |   |   |--- 12  >  -0.48
|   |   |   |   |   |   |   |   |   |   |   |   |   |   |--- class: 0.0|   |   |   |   |   |   |   |   |   |   |   |--- 4_tertiary  >  0.50
|   |   |   |   |   |   |   |   |   |   |   |   |--- 11  <= 1.29
|   |   |   |   |   |   |   |   |   |   |   |   |   |--- class: 1.0|   |   |   |   |   |   |   |   |   |   |   |   |--- 11  >  1.29
|   |   |   |   |   |   |   |   |   |   |   |   |   |--- class: 0.0|   |   |   |   |   |   |   |   |--- 9_unknown  >  0.50
|   |   |   |   |   |   |   |   |   |--- class: 1.0|   |   |   |   |   |--- 2_self-employed  >  0.50
|   |   |   |   |   |   |--- 15  <= 0.15
|   |   |   |   |   |   |   |--- class: 0.0|   |   |   |   |   |   |--- 15  >  0.15
|   |   |   |   |   |   |   |--- 14  <= 0.14 
|   |   |   |   |   |   |   |   |--- 9_telephone  <= 0.50
|   |   |   |   |   |   |   |   |   |--- class: 0.0|   |   |   |   |   |   |   |   |--- 9_telephone  >  0.50
|   |   |   |   |   |   |   |   |   |--- 4_unknown  <= 0.50
|   |   |   |   |   |   |   |   |   |   |--- class: 0.0|   |   |   |   |   |   |   |   |   |--- 4_unknown  >  0.50
|   |   |   |   |   |   |   |   |   |   |--- class: 1.0|   |   |   |   |   |   |   |--- 14  >  0.14 
|   |   |   |   |   |   |   |   |--- 12  <= 0.04
|   |   |   |   |   |   |   |   |   |--- class: 1.0|   |   |   |   |   |   |   |   |--- 12  >  0.04
|   |   |   |   |   |   |   |   |   |--- 11  <= -0.66
|   |   |   |   |   |   |   |   |   |   |--- class: 1.0|   |   |   |   |   |   |   |   |   |--- 11  >  -0.66
|   |   |   |   |   |   |   |   |   |   |--- class: 0.0|   |   |   |   |--- 2_retired  >  0.50
|   |   |   |   |   |--- 16_other  <= 0.50
|   |   |   |   |   |   |--- 4_unknown  <= 0.50
|   |   |   |   |   |   |   |--- 13  <= 0.56
|   |   |   |   |   |   |   |   |--- 16_success  <= 0.50
|   |   |   |   |   |   |   |   |   |--- 1  <= 0.50
|   |   |   |   |   |   |   |   |   |   |--- class: 0.0|   |   |   |   |   |   |   |   |   |--- 1  >  0.50
|   |   |   |   |   |   |   |   |   |   |--- 4_tertiary  <= 0.50
|   |   |   |   |   |   |   |   |   |   |   |--- 14  <= -0.08
|   |   |   |   |   |   |   |   |   |   |   |   |--- 12  <= 0.25
|   |   |   |   |   |   |   |   |   |   |   |   |   |--- class: 0.0|   |   |   |   |   |   |   |   |   |   |   |   |--- 12  >  0.25
|   |   |   |   |   |   |   |   |   |   |   |   |   |--- 12  <= 0.58
|   |   |   |   |   |   |   |   |   |   |   |   |   |   |--- class: 1.0|   |   |   |   |   |   |   |   |   |   |   |   |   |--- 12  >  0.58
|   |   |   |   |   |   |   |   |   |   |   |   |   |   |--- class: 0.0|   |   |   |   |   |   |   |   |   |   |   |--- 14  >  -0.08
|   |   |   |   |   |   |   |   |   |   |   |   |--- 3_single  <= 0.50
|   |   |   |   |   |   |   |   |   |   |   |   |   |--- 15  <= -0.09
|   |   |   |   |   |   |   |   |   |   |   |   |   |   |--- class: 1.0|   |   |   |   |   |   |   |   |   |   |   |   |   |--- 15  >  -0.09
|   |   |   |   |   |   |   |   |   |   |   |   |   |   |--- class: 0.0|   |   |   |   |   |   |   |   |   |   |   |   |--- 3_single  >  0.50
|   |   |   |   |   |   |   |   |   |   |   |   |   |--- 11  <= 0.68
|   |   |   |   |   |   |   |   |   |   |   |   |   |   |--- class: 1.0|   |   |   |   |   |   |   |   |   |   |   |   |   |--- 11  >  0.68
|   |   |   |   |   |   |   |   |   |   |   |   |   |   |--- class: 0.0|   |   |   |   |   |   |   |   |   |   |--- 4_tertiary  >  0.50
|   |   |   |   |   |   |   |   |   |   |   |--- 12  <= -0.50
|   |   |   |   |   |   |   |   |   |   |   |   |--- class: 0.0|   |   |   |   |   |   |   |   |   |   |   |--- 12  >  -0.50
|   |   |   |   |   |   |   |   |   |   |   |   |--- 12  <= 0.08
|   |   |   |   |   |   |   |   |   |   |   |   |   |--- class_1  <= 0.65
|   |   |   |   |   |   |   |   |   |   |   |   |   |   |--- class: 1.0|   |   |   |   |   |   |   |   |   |   |   |   |   |--- class_1  >  0.65
|   |   |   |   |   |   |   |   |   |   |   |   |   |   |--- class: 0.0|   |   |   |   |   |   |   |   |   |   |   |   |--- 12  >  0.08
|   |   |   |   |   |   |   |   |   |   |   |   |   |--- 15  <= -0.19
|   |   |   |   |   |   |   |   |   |   |   |   |   |   |--- class: 0.0|   |   |   |   |   |   |   |   |   |   |   |   |   |--- 15  >  -0.19
|   |   |   |   |   |   |   |   |   |   |   |   |   |   |--- 10  <= -0.42
|   |   |   |   |   |   |   |   |   |   |   |   |   |   |   |--- class: 1.0|   |   |   |   |   |   |   |   |   |   |   |   |   |   |--- 10  >  -0.42
|   |   |   |   |   |   |   |   |   |   |   |   |   |   |   |--- class: 0.0|   |   |   |   |   |   |   |   |--- 16_success  >  0.50
|   |   |   |   |   |   |   |   |   |--- class: 1.0|   |   |   |   |   |   |   |--- 13  >  0.56
|   |   |   |   |   |   |   |   |--- 16_success  <= 0.50
|   |   |   |   |   |   |   |   |   |--- class_1  <= 0.22
|   |   |   |   |   |   |   |   |   |   |--- class: 1.0|   |   |   |   |   |   |   |   |   |--- class_1  >  0.22
|   |   |   |   |   |   |   |   |   |   |--- 6  <= 0.58
|   |   |   |   |   |   |   |   |   |   |   |--- class: 1.0|   |   |   |   |   |   |   |   |   |   |--- 6  >  0.58
|   |   |   |   |   |   |   |   |   |   |   |--- class: 0.0|   |   |   |   |   |   |   |   |--- 16_success  >  0.50
|   |   |   |   |   |   |   |   |   |--- class: 0.0|   |   |   |   |   |   |--- 4_unknown  >  0.50
|   |   |   |   |   |   |   |--- 14  <= -0.68
|   |   |   |   |   |   |   |   |--- class: 0.0|   |   |   |   |   |   |   |--- 14  >  -0.68
|   |   |   |   |   |   |   |   |--- class: 1.0|   |   |   |   |   |--- 16_other  >  0.50
|   |   |   |   |   |   |--- 15  <= -0.11
|   |   |   |   |   |   |   |--- 12  <= 0.90
|   |   |   |   |   |   |   |   |--- class: 0.0|   |   |   |   |   |   |   |--- 12  >  0.90
|   |   |   |   |   |   |   |   |--- 16_success  <= 0.50
|   |   |   |   |   |   |   |   |   |--- class: 0.0|   |   |   |   |   |   |   |   |--- 16_success  >  0.50
|   |   |   |   |   |   |   |   |   |--- class: 1.0|   |   |   |   |   |   |--- 15  >  -0.11
|   |   |   |   |   |   |   |--- 6  <= 0.97
|   |   |   |   |   |   |   |   |--- 6  <= -0.08
|   |   |   |   |   |   |   |   |   |--- 3_single  <= 0.50
|   |   |   |   |   |   |   |   |   |   |--- class: 0.0|   |   |   |   |   |   |   |   |   |--- 3_single  >  0.50
|   |   |   |   |   |   |   |   |   |   |--- 14  <= 0.46
|   |   |   |   |   |   |   |   |   |   |   |--- class: 0.0|   |   |   |   |   |   |   |   |   |   |--- 14  >  0.46
|   |   |   |   |   |   |   |   |   |   |   |--- class: 1.0|   |   |   |   |   |   |   |   |--- 6  >  -0.08
|   |   |   |   |   |   |   |   |   |--- class: 1.0|   |   |   |   |   |   |   |--- 6  >  0.97
|   |   |   |   |   |   |   |   |--- class: 0.0|   |   |   |--- 2_unknown  >  0.50
|   |   |   |   |--- class: 0.0|   |   |--- 7_yes  >  0.50
|   |   |   |--- class: 0.0|   |--- 10  >  -0.39
|   |   |--- 1  <= 0.50
|   |   |   |--- 6  <= -0.73
|   |   |   |   |--- 11  <= -0.75
|   |   |   |   |   |--- 5_yes  <= 0.50
|   |   |   |   |   |   |--- 13  <= -0.44
|   |   |   |   |   |   |   |--- class: 1.0|   |   |   |   |   |   |--- 13  >  -0.44
|   |   |   |   |   |   |   |--- 12  <= 0.40
|   |   |   |   |   |   |   |   |--- class: 0.0|   |   |   |   |   |   |   |--- 12  >  0.40
|   |   |   |   |   |   |   |   |--- class: 1.0|   |   |   |   |   |--- 5_yes  >  0.50
|   |   |   |   |   |   |--- class: 0.0|   |   |   |   |--- 11  >  -0.75
|   |   |   |   |   |--- 10  <= 0.15
|   |   |   |   |   |   |--- class: 0.0|   |   |   |   |   |--- 10  >  0.15
|   |   |   |   |   |   |--- 6  <= -1.81
|   |   |   |   |   |   |   |--- class: 1.0|   |   |   |   |   |   |--- 6  >  -1.81
|   |   |   |   |   |   |   |--- 14  <= -0.39
|   |   |   |   |   |   |   |   |--- 12  <= 0.23
|   |   |   |   |   |   |   |   |   |--- class: 1.0|   |   |   |   |   |   |   |   |--- 12  >  0.23
|   |   |   |   |   |   |   |   |   |--- class: 0.0|   |   |   |   |   |   |   |--- 14  >  -0.39
|   |   |   |   |   |   |   |   |--- class: 0.0|   |   |   |--- 6  >  -0.73
|   |   |   |   |--- 2_unemployed  <= 0.50
|   |   |   |   |   |--- 11  <= 0.46
|   |   |   |   |   |   |--- 14  <= -0.50
|   |   |   |   |   |   |   |--- 15  <= 0.02
|   |   |   |   |   |   |   |   |--- class: 0.0|   |   |   |   |   |   |   |--- 15  >  0.02
|   |   |   |   |   |   |   |   |--- 6  <= 0.78
|   |   |   |   |   |   |   |   |   |--- 3_single  <= 0.50
|   |   |   |   |   |   |   |   |   |   |--- class: 0.0|   |   |   |   |   |   |   |   |   |--- 3_single  >  0.50
|   |   |   |   |   |   |   |   |   |   |--- class: 1.0|   |   |   |   |   |   |   |   |--- 6  >  0.78
|   |   |   |   |   |   |   |   |   |--- class: 0.0|   |   |   |   |   |   |--- 14  >  -0.50
|   |   |   |   |   |   |   |--- 2_technician  <= 0.50
|   |   |   |   |   |   |   |   |--- 12  <= 0.91
|   |   |   |   |   |   |   |   |   |--- 15  <= 0.96
|   |   |   |   |   |   |   |   |   |   |--- 6  <= 1.19
|   |   |   |   |   |   |   |   |   |   |   |--- 10  <= 0.92
|   |   |   |   |   |   |   |   |   |   |   |   |--- 5_yes  <= 0.50
|   |   |   |   |   |   |   |   |   |   |   |   |   |--- class_1  <= 0.50
|   |   |   |   |   |   |   |   |   |   |   |   |   |   |--- 3_single  <= 0.50
|   |   |   |   |   |   |   |   |   |   |   |   |   |   |   |--- 14  <= 0.67
|   |   |   |   |   |   |   |   |   |   |   |   |   |   |   |   |--- 16_other  <= 0.50
|   |   |   |   |   |   |   |   |   |   |   |   |   |   |   |   |   |--- class: 1.0|   |   |   |   |   |   |   |   |   |   |   |   |   |   |   |   |--- 16_other  >  0.50
|   |   |   |   |   |   |   |   |   |   |   |   |   |   |   |   |   |--- class: 0.0|   |   |   |   |   |   |   |   |   |   |   |   |   |   |   |--- 14  >  0.67
|   |   |   |   |   |   |   |   |   |   |   |   |   |   |   |   |--- class: 0.0|   |   |   |   |   |   |   |   |   |   |   |   |   |   |--- 3_single  >  0.50
|   |   |   |   |   |   |   |   |   |   |   |   |   |   |   |--- 2_student  <= 0.50
|   |   |   |   |   |   |   |   |   |   |   |   |   |   |   |   |--- 14  <= 0.41
|   |   |   |   |   |   |   |   |   |   |   |   |   |   |   |   |   |--- 12  <= -0.99
|   |   |   |   |   |   |   |   |   |   |   |   |   |   |   |   |   |   |--- class: 1.0|   |   |   |   |   |   |   |   |   |   |   |   |   |   |   |   |   |--- 12  >  -0.99
|   |   |   |   |   |   |   |   |   |   |   |   |   |   |   |   |   |   |--- class: 0.0|   |   |   |   |   |   |   |   |   |   |   |   |   |   |   |   |--- 14  >  0.41
|   |   |   |   |   |   |   |   |   |   |   |   |   |   |   |   |   |--- class: 1.0|   |   |   |   |   |   |   |   |   |   |   |   |   |   |   |--- 2_student  >  0.50
|   |   |   |   |   |   |   |   |   |   |   |   |   |   |   |   |--- class: 1.0|   |   |   |   |   |   |   |   |   |   |   |   |   |--- class_1  >  0.50
|   |   |   |   |   |   |   |   |   |   |   |   |   |   |--- class: 0.0|   |   |   |   |   |   |   |   |   |   |   |   |--- 5_yes  >  0.50
|   |   |   |   |   |   |   |   |   |   |   |   |   |--- class: 0.0|   |   |   |   |   |   |   |   |   |   |   |--- 10  >  0.92
|   |   |   |   |   |   |   |   |   |   |   |   |--- class: 1.0|   |   |   |   |   |   |   |   |   |   |--- 6  >  1.19
|   |   |   |   |   |   |   |   |   |   |   |--- 14  <= 0.13
|   |   |   |   |   |   |   |   |   |   |   |   |--- 10  <= 1.19
|   |   |   |   |   |   |   |   |   |   |   |   |   |--- 2_retired  <= 0.50
|   |   |   |   |   |   |   |   |   |   |   |   |   |   |--- class: 0.0|   |   |   |   |   |   |   |   |   |   |   |   |   |--- 2_retired  >  0.50
|   |   |   |   |   |   |   |   |   |   |   |   |   |   |--- class: 1.0|   |   |   |   |   |   |   |   |   |   |   |   |--- 10  >  1.19
|   |   |   |   |   |   |   |   |   |   |   |   |   |--- class: 1.0|   |   |   |   |   |   |   |   |   |   |   |--- 14  >  0.13
|   |   |   |   |   |   |   |   |   |   |   |   |--- class: 0.0|   |   |   |   |   |   |   |   |   |--- 15  >  0.96
|   |   |   |   |   |   |   |   |   |   |--- class_1  <= 0.96
|   |   |   |   |   |   |   |   |   |   |   |--- 14  <= 0.35
|   |   |   |   |   |   |   |   |   |   |   |   |--- 2_unknown  <= 0.50
|   |   |   |   |   |   |   |   |   |   |   |   |   |--- class: 1.0|   |   |   |   |   |   |   |   |   |   |   |   |--- 2_unknown  >  0.50
|   |   |   |   |   |   |   |   |   |   |   |   |   |--- class: 0.0|   |   |   |   |   |   |   |   |   |   |   |--- 14  >  0.35
|   |   |   |   |   |   |   |   |   |   |   |   |--- class: 1.0|   |   |   |   |   |   |   |   |   |   |--- class_1  >  0.96
|   |   |   |   |   |   |   |   |   |   |   |--- class: 0.0|   |   |   |   |   |   |   |   |--- 12  >  0.91
|   |   |   |   |   |   |   |   |   |--- 4_secondary  <= 0.50
|   |   |   |   |   |   |   |   |   |   |--- 11  <= -0.70
|   |   |   |   |   |   |   |   |   |   |   |--- 14  <= 0.40
|   |   |   |   |   |   |   |   |   |   |   |   |--- class: 1.0|   |   |   |   |   |   |   |   |   |   |   |--- 14  >  0.40
|   |   |   |   |   |   |   |   |   |   |   |   |--- class: 0.0|   |   |   |   |   |   |   |   |   |   |--- 11  >  -0.70
|   |   |   |   |   |   |   |   |   |   |   |--- class: 1.0|   |   |   |   |   |   |   |   |   |--- 4_secondary  >  0.50
|   |   |   |   |   |   |   |   |   |   |--- class: 1.0|   |   |   |   |   |   |   |--- 2_technician  >  0.50
|   |   |   |   |   |   |   |   |--- class: 0.0|   |   |   |   |   |--- 11  >  0.46
|   |   |   |   |   |   |--- 14  <= -0.01
|   |   |   |   |   |   |   |--- 6  <= 0.15
|   |   |   |   |   |   |   |   |--- class: 1.0|   |   |   |   |   |   |   |--- 6  >  0.15
|   |   |   |   |   |   |   |   |--- 16_success  <= 0.50
|   |   |   |   |   |   |   |   |   |--- 7_yes  <= 0.50
|   |   |   |   |   |   |   |   |   |   |--- 15  <= 0.31
|   |   |   |   |   |   |   |   |   |   |   |--- class: 0.0|   |   |   |   |   |   |   |   |   |   |--- 15  >  0.31
|   |   |   |   |   |   |   |   |   |   |   |--- class: 1.0|   |   |   |   |   |   |   |   |   |--- 7_yes  >  0.50
|   |   |   |   |   |   |   |   |   |   |--- class: 0.0|   |   |   |   |   |   |   |   |--- 16_success  >  0.50
|   |   |   |   |   |   |   |   |   |--- class: 0.0|   |   |   |   |   |   |--- 14  >  -0.01
|   |   |   |   |   |   |   |--- 16_unknown  <= 0.50
|   |   |   |   |   |   |   |   |--- 14  <= 0.14 
|   |   |   |   |   |   |   |   |   |--- class: 1.0|   |   |   |   |   |   |   |   |--- 14  >  0.14 
|   |   |   |   |   |   |   |   |   |--- 15  <= 0.95
|   |   |   |   |   |   |   |   |   |   |--- 6  <= -0.19
|   |   |   |   |   |   |   |   |   |   |   |--- class: 0.0|   |   |   |   |   |   |   |   |   |   |--- 6  >  -0.19
|   |   |   |   |   |   |   |   |   |   |   |--- class: 1.0|   |   |   |   |   |   |   |   |   |--- 15  >  0.95
|   |   |   |   |   |   |   |   |   |   |--- class: 0.0|   |   |   |   |   |   |   |--- 16_unknown  >  0.50
|   |   |   |   |   |   |   |   |--- class: 1.0|   |   |   |   |--- 2_unemployed  >  0.50
|   |   |   |   |   |--- 4_secondary  <= 0.50
|   |   |   |   |   |   |--- 16_success  <= 0.50
|   |   |   |   |   |   |   |--- 14  <= -0.10
|   |   |   |   |   |   |   |   |--- 13  <= 0.06
|   |   |   |   |   |   |   |   |   |--- class: 0.0|   |   |   |   |   |   |   |   |--- 13  >  0.06
|   |   |   |   |   |   |   |   |   |--- 14  <= -0.67
|   |   |   |   |   |   |   |   |   |   |--- 12  <= -0.11
|   |   |   |   |   |   |   |   |   |   |   |--- class: 0.0|   |   |   |   |   |   |   |   |   |   |--- 12  >  -0.11
|   |   |   |   |   |   |   |   |   |   |   |--- 10  <= -0.21
|   |   |   |   |   |   |   |   |   |   |   |   |--- class: 0.0|   |   |   |   |   |   |   |   |   |   |   |--- 10  >  -0.21
|   |   |   |   |   |   |   |   |   |   |   |   |--- class: 1.0|   |   |   |   |   |   |   |   |   |--- 14  >  -0.67
|   |   |   |   |   |   |   |   |   |   |--- class: 0.0|   |   |   |   |   |   |   |--- 14  >  -0.10
|   |   |   |   |   |   |   |   |--- 14  <= 1.10
|   |   |   |   |   |   |   |   |   |--- class: 1.0|   |   |   |   |   |   |   |   |--- 14  >  1.10
|   |   |   |   |   |   |   |   |   |--- 9_telephone  <= 0.50
|   |   |   |   |   |   |   |   |   |   |--- class: 0.0|   |   |   |   |   |   |   |   |   |--- 9_telephone  >  0.50
|   |   |   |   |   |   |   |   |   |   |--- class: 1.0|   |   |   |   |   |   |--- 16_success  >  0.50
|   |   |   |   |   |   |   |--- class: 1.0|   |   |   |   |   |--- 4_secondary  >  0.50
|   |   |   |   |   |   |--- 14  <= -0.31
|   |   |   |   |   |   |   |--- class: 0.0|   |   |   |   |   |   |--- 14  >  -0.31
|   |   |   |   |   |   |   |--- class: 1.0|   |   |--- 1  >  0.50
|   |   |   |--- 16_other  <= 0.50
|   |   |   |   |--- 2_self-employed  <= 0.50
|   |   |   |   |   |--- 2_unemployed  <= 0.50
|   |   |   |   |   |   |--- 4_tertiary  <= 0.50
|   |   |   |   |   |   |   |--- 13  <= -0.77
|   |   |   |   |   |   |   |   |--- 6  <= 0.21
