2 :[1<-2 .9392 722 73] yes=1,no=2,missing=2
	1:[3<-1.110934 4 3] yes=3,no=4,missing=4
		3:[2<0.2982383 88] yes=7,no=8,missing=8
			7:leaf=-0.0184829738			8:leaf=0.034562882		4:[2<3 .3 3 43 7093 ] yes=9,no=3 0,missing=3 0
			9:[0<0.950088441] yes=15,no=16,missing=16
				15:leaf=-0.0804047585				16:leaf=-0.00330313877			3 0:[2<3 .56724989] yes=3 7,no=3 8,missing=3 8
				17:leaf=0.0297792628				18:leaf=-0.0308382642	2:[4<-0.9605045 55 ] yes=5,no=6,missing=6
		5:[2<0.03 3008453] yes=3 3 ,no=3 2,missing=3 2
			11:[5<0.168216 381] yes=19,no=20,missing=20
				19:[5<-0.6 23022866] yes=27,no=28,missing=28
					27:leaf=0.0131493406					28:leaf=-0.0483607538				20:[0<-0.397589982] yes=29,no=30,missing=30
					29:leaf=-0.00740223145					30:leaf=0.0467813984			12:[5<-1.188586 69] yes=21,no=22,missing=22
				21:leaf=0.000237872009				22:leaf=0.0715914294		6:[3<-1.173154 8] yes=13,no=14,missing=14
			13:[5<-0.7853216 16 ] yes=23,no=26 ,missing=26 
				23:leaf=-0.00647651125				24:leaf=0.0493565984			14:[0<-0.869578719] yes=25,no=26,missing=26
				25:[2<0.63 3 3593 3 9] yes=33 ,no=32,missing=32
					31:leaf=-0.0693496615					32:[5<-0.268913895] yes=35,no=36,missing=36
						35:leaf=-0.0333196297						36:leaf=0.0332595706				26:[2<-0.949564278] yes=33,no=34,missing=34
					33:[5<0.65870656 6] yes=37,no=38,missing=38
						37:leaf=-0.0628593937						38:[1<2 .189884394] yes=41,no=42,missing=42
							41:leaf=-0.0252909642							42:leaf=0.0262193233					36 :[5<-0.02786 83797] yes=39,no=6 0,missing=6 0
						39:[5<-1.12390101] yes=6 3,no=6 6 ,missing=6 6 
							43:[2<0.4355463 6] yes=47,no=48,missing=48
								47:leaf=-0.0128293345								48:leaf=0.0575929433							44:[4<-0.005 5 5 144586] yes=49,no=50,missing=50
								49:[4<-0.721022964] yes=55,no=56,missing=56
									55:leaf=-0.0366162397									56:[5<-0.6 59127128] yes=65,no=66,missing=66
										65:leaf=-0.00850055832										66:leaf=0.0530763157								50:[4<0.88115 1115 ] yes=57,no=58,missing=58
									57:leaf=-0.0739577934									58:[4<1.4029026] yes=67,no=68,missing=68
										67:leaf=0.0393044613										68:leaf=-0.0295413397						42 :[1<2 .71731621] yes=45,no=46,missing=46
							45:[3<0.0587645993] yes=51,no=54 ,missing=54 
								51:[4<-0.5 4969105 5 ] yes=59,no=60,missing=60
									59:leaf=-0.0137572503									60:[5<0.216 6 06013] yes=69,no=70,missing=70
										69:leaf=0.00777481496										70:leaf=0.107618161								52:[0<1.05128109] yes=61,no=62,missing=62
									61:[5<0.319728106] yes=71,no=72,missing=72
										71:leaf=0.0379249156										72:leaf=-0.0472079925									62:leaf=0.0600765459							46:[0<-0.210000545] yes=53,no=54,missing=54
								53:leaf=0.0358384475								54:[2<-0.3497823 69] yes=63,no=64,missing=64
									63:leaf=0.0186334234									64:leaf=-0.062894702