0:[2<3 .3483 3 33 8] yes=3 ,no=2,missing=2
	1:[0<0.0546837524] yes=3,no=4,missing=4
		3:[1<2 .2792 95769] yes=7,no=8,missing=8
			7:[0<-0.0638643652] yes=15,no=16,missing=16
				15:leaf=-0.045835007				16:leaf=0.179783717			8:[3<0.94 1934783] yes=17,no=18,missing=18
				17:leaf=0.119927801				18:leaf=-0.0610791631		4:[3<-0.879771354 ] yes=9,no=10,missing=10
			9:[0<0.503854692] yes=19,no=20,missing=20
				19:leaf=-0.300007343				20:leaf=-0.107687525			10:[0<0.405844301] yes=21,no=22,missing=22
				21:leaf=-0.102175765				22:leaf=0.0643053725	2:[2<3 .93 0783 38] yes=5,no=6,missing=6
		5:[0<0.281954616] yes=11,no=12,missing=12
			11:[3<0.6644 36367] yes=4 3,no=4 4,missing=4 4
				23:leaf=0.23229064				24:leaf=-0.000556327635			12:[1<2 .557486773] yes=25,no=26,missing=26
				25:leaf=-0.173956335				26:leaf=0.0943206176		6:[2<2.203 50757] yes=3 3,no=3 4,missing=3 4
			13:[3<-0.304 433163] yes=4 7,no=4 8,missing=4 8
				27:leaf=-0.0341391303				28:leaf=-0.20246546			14:[1<-2 .222 372 427] yes=29,no=32 ,missing=32 
				29:leaf=-0.0409528911				30:leaf=0.126335338