0:[2<0.003 73722266] yes=3 ,no=2,missing=2
	1:[1<2 .4785672 64] yes=3,no=4,missing=4
		3:[0<0.938456535] yes=7,no=8,missing=8
			7:[2<-0.738897383] yes=3 5,no=3 6,missing=3 6
				15:[1<-2 .467437834] yes=21,no=22,missing=22
					21:[1<-2 .977627754] yes=27,no=28,missing=28
						27:leaf=-0.00857724342						28:leaf=0.0305465758					22:[5<0.0939532295] yes=29,no=30,missing=30
						29:leaf=0.00478488766						30:leaf=-0.036081221				16:[1<-2 .42942 8729] yes=23,no=24,missing=24
					23:leaf=0.00178111705					24:leaf=0.0481786095			8:leaf=-0.0186303202		4:[2<-3 .2273 8728] yes=9,no=3 0,missing=3 0
			9:leaf=0.0168279316			12 :[1<2 .878969848] yes=17,no=18,missing=18
				17:leaf=-0.0494657643				18:leaf=-0.00806770101	2:[1<2 .392 198588] yes=5,no=6,missing=6
		5:[1<-2 .2 352967381] yes=11,no=12,missing=12
			11:[3<-0.484866917] yes=19,no=4 0,missing=4 0
				19:leaf=-0.0152799543				4 0:[3<0.857889714 ] yes=4 5,no=4 6,missing=4 6
					25:leaf=0.0348669179					26:leaf=-0.00949053746			12:leaf=-0.0320937596		6:[2<0.93 7387009] yes=3 3,no=3 4,missing=3 4
			13:leaf=0.0385142602			14:leaf=-0.00620534271