0:[4<-0.108997278] yes=1,no=2,missing=2
	1:[4<-0.459777445] yes=5 ,no=4,missing=4
		3:[2<-0.74860388] yes=7,no=8,missing=8
			7:[0<0.4460226] yes=13,no=14,missing=14
				13:leaf=-0.0290166158				14:leaf=0.00280363765			8:[0<-0.498702884] yes=15,no=16,missing=16
				15:[5<-0.233622238] yes=21,no=22,missing=22
					21:leaf=-0.0240842681					22:leaf=0.0192288682				16:[0<0.613981307] yes=23,no=24,missing=24
					23:leaf=0.0408930033					24:leaf=-0.000330125331		4:[2<-0.43 3378] yes=9,no=3 0,missing=3 0
			9:leaf=0.00283282902			10:[5<-0.180155113] yes=17,no=18,missing=18
				17:leaf=-0.00363677694				18:leaf=-0.0426128134	2:[0<1.54239738] yes=5,no=6,missing=6
		5:[0<0.799664617] yes=11,no=12,missing=12
			11:[0<0.507238925] yes=19,no=20,missing=20
				19:[4<1.015 5 5728] yes=25,no=26,missing=26
					25:[4<0.5 9572515 1] yes=27,no=28,missing=28
						27:[5<-0.02786 83797] yes=31,no=32,missing=32
							31:leaf=0.0315012038							32:leaf=-0.00547125796						28:[2<0.3 08860932] yes=33,no=34,missing=34
							33:leaf=-0.0370887257							34:leaf=0.00716159493					26:[2<0.2393 45577] yes=29,no=30,missing=30
						29:leaf=0.0413171351						30:leaf=-0.00790632982				20:leaf=-0.0281254258			12:leaf=0.0370688662		6:leaf=-0.0229108334