2 :[1<-2 .4782 692 67] yes=1,no=2,missing=2
	1:[5<-0.812576 565] yes=3,no=6 ,missing=6 
		3:[1<-2 .826813519] yes=7,no=8,missing=8
			7:[4<-0.685 565915] yes=15,no=16,missing=16
				15:leaf=1.81896703e-05				16:leaf=-0.0644416139			8:leaf=0.0216464326		4:[4<-1.295 5698] yes=9,no=10,missing=10
			9:leaf=-0.0247254204			12 :[1<-2 .886951923] yes=17,no=18,missing=18
				17:[4<-0.409995824] yes=27,no=28,missing=28
					27:leaf=0.0599248819					28:[2<-0.992752433] yes=39,no=40,missing=40
						39:leaf=0.0279611275						40:[0<0.463423133] yes=53,no=54,missing=54
							53:[1<-1.17491329] yes=61,no=62,missing=62
								61:leaf=0.000380658865								62:leaf=-0.0586378202							54:leaf=0.00835763942				3 8:[2<-3 .24479938] yes=29,no=30,missing=30
					29:leaf=-0.00616942532					5 0:[4<-0.202117026] yes=41,no=42,missing=42
						41:leaf=0.0157107655						42:leaf=0.0778794065	2:[5<-0.752906 536 ] yes=5,no=6,missing=6
		5:[5<-1.05637932] yes=11,no=12,missing=12
			11:[1<2 .11283724] yes=19,no=22 ,missing=22 
				19:leaf=-0.0356302597				20:[2<-0.3 77782403 ] yes=33 ,no=32,missing=32
					31:leaf=0.0512976125					32:leaf=-0.0177534409			12:[1<2 .339536548] yes=21,no=22,missing=22
				21:leaf=0.083951354				22:leaf=0.0115430243		6:[2<-0.45732978] yes=3 3,no=3 4,missing=3 4
			15 :[4<1.5 01715 82] yes=25 ,no=24,missing=24
				4 3:[3<0.336735964] yes=33,no=34,missing=34
					33:[1<1.2 22 35522] yes=43,no=44,missing=44
						43:[3<-0.44 54 974 9] yes=55,no=56,missing=56
							55:[1<2 .198574275] yes=63,no=64,missing=64
								63:leaf=0.00514955074								64:leaf=-0.0606563836							56:[0<-0.0620531254] yes=65,no=66,missing=66
								65:leaf=-0.0150787719								66:leaf=0.0595408715						44:leaf=-0.054279048					34:[0<0.41325596] yes=45,no=46,missing=46
						45:leaf=-0.0863148049						46:leaf=-0.0151780015				24:leaf=0.0292134602			14:[1<2 .42 2 532 696] yes=25,no=26,missing=26
				25:[5<0.066 6075532] yes=35,no=36,missing=36
					35:leaf=-0.068852298					5 6:[4<-0.5 71075 455] yes=47,no=48,missing=48
						47:leaf=-0.0178153366						48:leaf=0.042758096				26:[2<0.558724225] yes=37,no=38,missing=38
					37:[2<0.003 73722266] yes=49,no=50,missing=50
						49:[2<-0.239585072] yes=57,no=58,missing=58
							57:leaf=0.0459364653							58:leaf=-0.0450370982						50:leaf=0.0930266753					38:[1<1.1519115] yes=51,no=52,missing=52
						51:[0<-0.374581903] yes=59,no=60,missing=60
							59:leaf=-0.0454901606							60:leaf=-0.0104850065						52:leaf=0.0364720784