0:[3<0.410598516] yes=1,no=4 ,missing=4 
	1:[3<-0.107889757] yes=3,no=4,missing=4
		3:[0<-0.374581903] yes=7,no=8,missing=8
			7:[0<1 .17071331] yes=15,no=16,missing=16
				15:[3<-0.469679864 ] yes=4 7,no=4 8,missing=4 8
					27:leaf=0.00388580305					28:leaf=-0.0259659719				16:leaf=0.0472775884			8:[2<-3 .33 383 3 9] yes=3 7,no=3 8,missing=3 8
				17:leaf=-0.0428420976				18:[4<-0.95 9474285] yes=29,no=5 0,missing=5 0
					29:leaf=0.0269673448					32 :[1<2 .392 198588] yes=35,no=36,missing=36
						35:[1<-2 .287391424] yes=39,no=42 ,missing=42 
							39:[0<0.463423133] yes=41,no=42,missing=42
								41:leaf=-0.0214380063								42:leaf=0.0207296293							40:leaf=-0.0504674017						36:leaf=0.0192035027		4:[0<-0.498702884] yes=9,no=10,missing=10
			9:[3<0.161943406] yes=19,no=4 0,missing=4 0
				19:leaf=-0.0291767865				20:leaf=0.0148356147			10:[3<0.4 1645771] yes=4 1,no=4 4 ,missing=4 4 
				21:leaf=0.055716157				22:leaf=0.00901731104	2:[0<0.303800493] yes=5,no=6,missing=6
		5:[1<-1.17491329] yes=11,no=12,missing=12
			11:leaf=0.0147817023			12:[5<-0.233622238] yes=23,no=26 ,missing=26 
				23:[0<-0.374581903] yes=31,no=32,missing=32
					31:leaf=-0.0557226837					32:leaf=-0.00678107049				24:[2<-0.395228982] yes=33,no=34,missing=34
					33:leaf=-0.0395490974					34:[1<2 .339536548] yes=37,no=38,missing=38
						37:leaf=-0.00417127088						38:leaf=0.0353122279		6:[4<0.75 209101] yes=15 ,no=14,missing=14
			13:[1<2 .422378719] yes=25,no=26,missing=26
				25:leaf=0.0424547419				26:leaf=0.00563914981			14:leaf=-0.0221814327