0:[5<1.6 76 166 25] yes=1,no=2,missing=2
	1:[4<0.95154275 5] yes=5 ,no=4,missing=4
		3:[5<0.737065732] yes=7,no=8,missing=8
			7:[1<2 .951522 2 85] yes=13,no=14,missing=14
				3 3:[2<0.36853 643 5] yes=23,no=24,missing=24
					23:leaf=0.0289320033					24:leaf=-0.0383143313				3 4:[2<3 .3 0563 502] yes=25,no=26,missing=26
					25:leaf=0.0840643868					26:leaf=-0.0243504122			8:[0<-0.0575993694] yes=15,no=16,missing=16
				3 5:[2<0.36853 643 5] yes=27,no=28,missing=28
					27:leaf=-0.0833812356					28:leaf=-0.0190780591				16:[4<-0.951479077] yes=29,no=5 0,missing=5 0
					29:leaf=0.0504647084					30:leaf=-0.0132697523		6 :[5<0.737065732] yes=9,no=10,missing=10
			9:[3<-0.0575993694] yes=17,no=18,missing=18
				17:[4<1.42729819] yes=5 1,no=5 2,missing=5 2
					31:leaf=0.0802796111					32:leaf=-0.0335892439				18:[1<-2 .951477647] yes=33,no=34,missing=34
					33:leaf=0.0119282091					34:leaf=-0.0632918924			10:[3<0.6684 67667] yes=19,no=4 0,missing=4 0
				19:leaf=0.0986896753				20:[2<0.737065732] yes=35,no=36,missing=36
					35:leaf=-0.0345050432					36:leaf=0.0641330183	2:[2<3 .4743 6425] yes=5,no=6,missing=6
		5:[3<-0.0575993694] yes=11,no=14 ,missing=14 
			11:leaf=0.0697398633			12:[1<2 .475772 682] yes=21,no=22,missing=22
				23 :[2<0.737065732] yes=37,no=38,missing=38
					37:leaf=-0.0256127715					38:leaf=0.0551930368				22:[2<3 .3 0563 502] yes=39,no=40,missing=40
					39:leaf=0.014559296					40:leaf=-0.0625786707		6:leaf=0.0865575597