|--- 5  <= -0.32
|   |--- 3  <= 1.10
|   |   |--- 6  <= -0.46
|   |   |   |--- 9_ISLAND  <= 9_ISLAND .59_ISLAND 
|   |   |   |   |--- 8  <= -1.24
|   |   |   |   |   |--- 4  <= 0.90
|   |   |   |   |   |   |--- class: 0.0|   |   |   |   |   |--- 4  >  0.90
|   |   |   |   |   |   |--- 2  <= 0.99
|   |   |   |   |   |   |   |--- 7  <= -1.23
|   |   |   |   |   |   |   |   |--- class: 0.0|   |   |   |   |   |   |   |--- 7  >  -1.23
|   |   |   |   |   |   |   |   |--- class: 1.0|   |   |   |   |   |   |--- 2  >  0.99
|   |   |   |   |   |   |   |--- class: 0.0|   |   |   |   |--- 8  >  -1.24
|   |   |   |   |   |--- class_0  <= -0.46
|   |   |   |   |   |   |--- 6  <= -1.04
|   |   |   |   |   |   |   |--- 5  <= -1.06
|   |   |   |   |   |   |   |   |--- 4  <= 1.4 2
|   |   |   |   |   |   |   |   |   |--- class: 0.0|   |   |   |   |   |   |   |   |--- 4  >  1.4 2
|   |   |   |   |   |   |   |   |   |--- class: 1.0|   |   |   |   |   |   |   |--- 5  >  -1.06
|   |   |   |   |   |   |   |   |--- class: 0.0|   |   |   |   |   |   |--- 6  >  -1.04
|   |   |   |   |   |   |   |--- class: 0.0|   |   |   |   |   |--- class_0  >  -0.46
|   |   |   |   |   |   |--- class_0  <= -0.23
|   |   |   |   |   |   |   |--- 3  <= -0.66
|   |   |   |   |   |   |   |   |--- 5  <= -0.5 1
|   |   |   |   |   |   |   |   |   |--- 8  <= -0.92
|   |   |   |   |   |   |   |   |   |   |--- class_0  <= -0.42
|   |   |   |   |   |   |   |   |   |   |   |--- 2  <= 0.62
|   |   |   |   |   |   |   |   |   |   |   |   |--- class: 1.0|   |   |   |   |   |   |   |   |   |   |   |--- 2  >  0.62
|   |   |   |   |   |   |   |   |   |   |   |   |--- class: 0.0|   |   |   |   |   |   |   |   |   |   |--- class_0  >  -0.42
|   |   |   |   |   |   |   |   |   |   |   |--- class: 1.0|   |   |   |   |   |   |   |   |   |--- 8  >  -0.92
|   |   |   |   |   |   |   |   |   |   |--- class: 1.0|   |   |   |   |   |   |   |   |--- 5  >  -0.5 1
|   |   |   |   |   |   |   |   |   |--- 5  <= -0.56
|   |   |   |   |   |   |   |   |   |   |--- 4  <= 0.70
|   |   |   |   |   |   |   |   |   |   |   |--- class: 0.0|   |   |   |   |   |   |   |   |   |   |--- 4  >  0.70
|   |   |   |   |   |   |   |   |   |   |   |--- 4  <= 1.14
|   |   |   |   |   |   |   |   |   |   |   |   |--- class: 1.0|   |   |   |   |   |   |   |   |   |   |   |--- 4  >  1.14
|   |   |   |   |   |   |   |   |   |   |   |   |--- 2  <= 0.75
|   |   |   |   |   |   |   |   |   |   |   |   |   |--- class: 0.0|   |   |   |   |   |   |   |   |   |   |   |   |--- 2  >  0.75
|   |   |   |   |   |   |   |   |   |   |   |   |   |--- class: 1.0|   |   |   |   |   |   |   |   |   |--- 5  >  -0.56
|   |   |   |   |   |   |   |   |   |   |--- 8  <= -0.59
|   |   |   |   |   |   |   |   |   |   |   |--- class: 1.0|   |   |   |   |   |   |   |   |   |   |--- 8  >  -0.59
|   |   |   |   |   |   |   |   |   |   |   |--- 3  <= -0.81
|   |   |   |   |   |   |   |   |   |   |   |   |--- class: 0.0|   |   |   |   |   |   |   |   |   |   |   |--- 3  >  -0.81
|   |   |   |   |   |   |   |   |   |   |   |   |--- class: 1.0|   |   |   |   |   |   |   |--- 3  >  -0.66
|   |   |   |   |   |   |   |   |--- 3  <= 0.68
|   |   |   |   |   |   |   |   |   |--- 7  <= -0.16
|   |   |   |   |   |   |   |   |   |   |--- class: 0.0|   |   |   |   |   |   |   |   |   |--- 7  >  -0.16
|   |   |   |   |   |   |   |   |   |   |--- class: 1.0|   |   |   |   |   |   |   |   |--- 3  >  0.68
|   |   |   |   |   |   |   |   |   |--- 8  <= -0.63
|   |   |   |   |   |   |   |   |   |   |--- 7  <= -0.7 2
|   |   |   |   |   |   |   |   |   |   |   |--- 2  <= -1.21
|   |   |   |   |   |   |   |   |   |   |   |   |--- class: 0.0|   |   |   |   |   |   |   |   |   |   |   |--- 2  >  -1.21
|   |   |   |   |   |   |   |   |   |   |   |   |--- class: 1.0|   |   |   |   |   |   |   |   |   |   |--- 7  >  -0.7 2
|   |   |   |   |   |   |   |   |   |   |   |--- class: 1.0|   |   |   |   |   |   |   |   |   |--- 8  >  -0.63
|   |   |   |   |   |   |   |   |   |   |--- class: 0.0|   |   |   |   |   |   |--- class_0  >  -0.23
|   |   |   |   |   |   |   |--- class_0  <= 0.06
|   |   |   |   |   |   |   |   |--- 4  <= -0.81
|   |   |   |   |   |   |   |   |   |--- 5  <= -0.82
|   |   |   |   |   |   |   |   |   |   |--- class: 1.0|   |   |   |   |   |   |   |   |   |--- 5  >  -0.82
|   |   |   |   |   |   |   |   |   |   |--- class: 0.0|   |   |   |   |   |   |   |   |--- 4  >  -0.81
|   |   |   |   |   |   |   |   |   |--- 8  <= -0.53
|   |   |   |   |   |   |   |   |   |   |--- 8  <= -0.81
|   |   |   |   |   |   |   |   |   |   |   |--- 4  <= -0.01
|   |   |   |   |   |   |   |   |   |   |   |   |--- 7  <= -0.7 7
|   |   |   |   |   |   |   |   |   |   |   |   |   |--- class: 0.0|   |   |   |   |   |   |   |   |   |   |   |   |--- 7  >  -0.7 7
|   |   |   |   |   |   |   |   |   |   |   |   |   |--- class: 1.0|   |   |   |   |   |   |   |   |   |   |   |--- 4  >  -0.01
|   |   |   |   |   |   |   |   |   |   |   |   |--- class: 1.0|   |   |   |   |   |   |   |   |   |   |--- 8  >  -0.81
|   |   |   |   |   |   |   |   |   |   |   |--- class_0  <= -0.05
|   |   |   |   |   |   |   |   |   |   |   |   |--- class: 1.0|   |   |   |   |   |   |   |   |   |   |   |--- class_0  >  -0.05
|   |   |   |   |   |   |   |   |   |   |   |   |--- 3  <= 0.09
|   |   |   |   |   |   |   |   |   |   |   |   |   |--- 5  <= -0.68
|   |   |   |   |   |   |   |   |   |   |   |   |   |   |--- class: 0.0|   |   |   |   |   |   |   |   |   |   |   |   |   |--- 5  >  -0.68
|   |   |   |   |   |   |   |   |   |   |   |   |   |   |--- class: 1.0|   |   |   |   |   |   |   |   |   |   |   |   |--- 3  >  0.09
|   |   |   |   |   |   |   |   |   |   |   |   |   |--- class: 0.0|   |   |   |   |   |   |   |   |   |--- 8  >  -0.53
|   |   |   |   |   |   |   |   |   |   |--- class: 1.0|   |   |   |   |   |   |   |--- class_0  >  0.06
|   |   |   |   |   |   |   |   |--- class: 1.0|   |   |   |--- 9_ISLAND  >  9_ISLAND .59_ISLAND 
|   |   |   |   |--- class_0  <= 0.79
|   |   |   |   |   |--- class: 0.0|   |   |   |   |--- class_0  >  0.79
|   |   |   |   |   |--- 6  <= -0.6 0
|   |   |   |   |   |   |--- class: 0.0|   |   |   |   |   |--- 6  >  -0.6 0
|   |   |   |   |   |   |--- 3  <= 0.20
|   |   |   |   |   |   |   |--- 6  <= -0.72
|   |   |   |   |   |   |   |   |--- class: 1.0|   |   |   |   |   |   |   |--- 6  >  -0.72
|   |   |   |   |   |   |   |   |--- class_0  <= 1.43
|   |   |   |   |   |   |   |   |   |--- class: 1.0|   |   |   |   |   |   |   |   |--- class_0  >  1.43
|   |   |   |   |   |   |   |   |   |--- class: 0.0|   |   |   |   |   |   |--- 3  >  0.20
|   |   |   |   |   |   |   |--- class: 0.0|   |   |--- 6  >  -0.46
|   |   |   |--- 7  <= -0.48
|   |   |   |   |--- 7  <= -0.47 
|   |   |   |   |   |--- 2  <= 0.61
|   |   |   |   |   |   |--- 7  <= -0.86
|   |   |   |   |   |   |   |--- class: 0.0|   |   |   |   |   |   |--- 7  >  -0.86
|   |   |   |   |   |   |   |--- 2  <= 0.2 3
|   |   |   |   |   |   |   |   |--- 9_ISLAND  <= 9_ISLAND .59_ISLAND 
|   |   |   |   |   |   |   |   |   |--- 3  <= 0.80
|   |   |   |   |   |   |   |   |   |   |--- 8  <= -0.24
|   |   |   |   |   |   |   |   |   |   |   |--- class: 0.0|   |   |   |   |   |   |   |   |   |   |--- 8  >  -0.24
|   |   |   |   |   |   |   |   |   |   |   |--- class: 1.0|   |   |   |   |   |   |   |   |   |--- 3  >  0.80
|   |   |   |   |   |   |   |   |   |   |--- 7  <= -0.51
|   |   |   |   |   |   |   |   |   |   |   |--- 6  <= -0.43
|   |   |   |   |   |   |   |   |   |   |   |   |--- class: 0.0|   |   |   |   |   |   |   |   |   |   |   |--- 6  >  -0.43
|   |   |   |   |   |   |   |   |   |   |   |   |--- 3  <= 1.01
|   |   |   |   |   |   |   |   |   |   |   |   |   |--- class: 1.0|   |   |   |   |   |   |   |   |   |   |   |   |--- 3  >  1.01
|   |   |   |   |   |   |   |   |   |   |   |   |   |--- 8  <= -0.33
|   |   |   |   |   |   |   |   |   |   |   |   |   |   |--- class: 1.0|   |   |   |   |   |   |   |   |   |   |   |   |   |--- 8  >  -0.33
|   |   |   |   |   |   |   |   |   |   |   |   |   |   |--- class: 0.0|   |   |   |   |   |   |   |   |   |   |--- 7  >  -0.51
|   |   |   |   |   |   |   |   |   |   |   |--- 6  <= -0.33
|   |   |   |   |   |   |   |   |   |   |   |   |--- class: 1.0|   |   |   |   |   |   |   |   |   |   |   |--- 6  >  -0.33
|   |   |   |   |   |   |   |   |   |   |   |   |--- class: 0.0|   |   |   |   |   |   |   |   |--- 9_ISLAND  >  9_ISLAND .59_ISLAND 
|   |   |   |   |   |   |   |   |   |--- class: 0.0|   |   |   |   |   |   |   |--- 2  >  0.2 3
|   |   |   |   |   |   |   |   |--- class: 1.0|   |   |   |   |   |--- 2  >  0.61
|   |   |   |   |   |   |--- 8  <= -0.66
|   |   |   |   |   |   |   |--- class: 1.0|   |   |   |   |   |   |--- 8  >  -0.66
|   |   |   |   |   |   |   |--- 3  <= -0.79
|   |   |   |   |   |   |   |   |--- 2  <= 0.83
|   |   |   |   |   |   |   |   |   |--- class_0  <= -0.49
|   |   |   |   |   |   |   |   |   |   |--- class: 0.0|   |   |   |   |   |   |   |   |   |--- class_0  >  -0.49
|   |   |   |   |   |   |   |   |   |   |--- class: 1.0|   |   |   |   |   |   |   |   |--- 2  >  0.83
|   |   |   |   |   |   |   |   |   |--- 7  <= -0.52
|   |   |   |   |   |   |   |   |   |   |--- class_0  <= -0.10
|   |   |   |   |   |   |   |   |   |   |   |--- class: 0.0|   |   |   |   |   |   |   |   |   |   |--- class_0  >  -0.10
|   |   |   |   |   |   |   |   |   |   |   |--- class: 1.0|   |   |   |   |   |   |   |   |   |--- 7  >  -0.52
|   |   |   |   |   |   |   |   |   |   |--- class: 1.0|   |   |   |   |   |   |   |--- 3  >  -0.79
|   |   |   |   |   |   |   |   |--- class: 0.0|   |   |   |   |--- 7  >  -0.47 
|   |   |   |   |   |--- class_0  <= -0.50
|   |   |   |   |   |   |--- class: 0.0|   |   |   |   |   |--- class_0  >  -0.50
|   |   |   |   |   |   |--- class: 1.0|   |   |   |--- 7  >  -0.48
|   |   |   |   |--- 5  <= -0.51
|   |   |   |   |   |--- class_0  <= -0.52
|   |   |   |   |   |   |--- class: 0.0|   |   |   |   |   |--- class_0  >  -0.52
|   |   |   |   |   |   |--- 8  <= -0.54
|   |   |   |   |   |   |   |--- class: 1.0|   |   |   |   |   |   |--- 8  >  -0.54
|   |   |   |   |   |   |   |--- 3  <= -0.73
|   |   |   |   |   |   |   |   |--- class: 0.0|   |   |   |   |   |   |   |--- 3  >  -0.73
|   |   |   |   |   |   |   |   |--- class: 1.0|   |   |   |   |--- 5  >  -0.51
|   |   |   |   |   |--- class_0  <= -0.46
|   |   |   |   |   |   |--- 8  <= 0.05
|   |   |   |   |   |   |   |--- 3  <= -0.77
|   |   |   |   |   |   |   |   |--- 7  <= -0.31
|   |   |   |   |   |   |   |   |   |--- 8  <= -0.36
|   |   |   |   |   |   |   |   |   |   |--- class: 1.0|   |   |   |   |   |   |   |   |   |--- 8  >  -0.36
|   |   |   |   |   |   |   |   |   |   |--- class: 0.0|   |   |   |   |   |   |   |   |--- 7  >  -0.31
|   |   |   |   |   |   |   |   |   |--- class: 0.0|   |   |   |   |   |   |   |--- 3  >  -0.77
|   |   |   |   |   |   |   |   |--- class: 0.0|   |   |   |   |   |   |--- 8  >  0.05
|   |   |   |   |   |   |   |--- 6  <= 0.10
|   |   |   |   |   |   |   |   |--- class: 1.0|   |   |   |   |   |   |   |--- 6  >  0.10
|   |   |   |   |   |   |   |   |--- class: 0.0|   |   |   |   |   |--- class_0  >  -0.46
|   |   |   |   |   |   |--- 2  <= 0.75
|   |   |   |   |   |   |   |--- 6  <= -0.33
|   |   |   |   |   |   |   |   |--- class: 1.0|   |   |   |   |   |   |   |--- 6  >  -0.33
|   |   |   |   |   |   |   |   |--- 7  <= 0.07 
|   |   |   |   |   |   |   |   |   |--- 3  <= -0.3 7
|   |   |   |   |   |   |   |   |   |   |--- class: 1.0|   |   |   |   |   |   |   |   |   |--- 3  >  -0.3 7
|   |   |   |   |   |   |   |   |   |   |--- 5  <= -0.38
|   |   |   |   |   |   |   |   |   |   |   |--- class: 1.0|   |   |   |   |   |   |   |   |   |   |--- 5  >  -0.38
|   |   |   |   |   |   |   |   |   |   |   |--- class: 0.0|   |   |   |   |   |   |   |   |--- 7  >  0.07 
|   |   |   |   |   |   |   |   |   |--- class: 0.0|   |   |   |   |   |   |--- 2  >  0.75
|   |   |   |   |   |   |   |--- 1  <= 0.50
|   |   |   |   |   |   |   |   |--- 4  <= 0.31
|   |   |   |   |   |   |   |   |   |--- 6  <= -0.34
|   |   |   |   |   |   |   |   |   |   |--- class: 0.0|   |   |   |   |   |   |   |   |   |--- 6  >  -0.34
|   |   |   |   |   |   |   |   |   |   |--- class_0  <= -0.33
|   |   |   |   |   |   |   |   |   |   |   |--- class: 0.0|   |   |   |   |   |   |   |   |   |   |--- class_0  >  -0.33
|   |   |   |   |   |   |   |   |   |   |   |--- class: 1.0|   |   |   |   |   |   |   |   |--- 4  >  0.31
|   |   |   |   |   |   |   |   |   |--- class: 1.0|   |   |   |   |   |   |   |--- 1  >  0.50
|   |   |   |   |   |   |   |   |--- class: 0.0|   |--- 3  >  1.10
|   |   |--- 9_ISLAND  <= 9_ISLAND .59_ISLAND 
|   |   |   |--- 7  <= -0.46
|   |   |   |   |--- class_0  <= -0.20
|   |   |   |   |   |--- class: 0.0|   |   |   |   |--- class_0  >  -0.20
|   |   |   |   |   |--- 2  <= -1.28
|   |   |   |   |   |   |--- class: 1.0|   |   |   |   |   |--- 2  >  -1.28
|   |   |   |   |   |   |--- class: 0.0|   |   |   |--- 7  >  -0.46
|   |   |   |   |--- 2  <= -1.87
|   |   |   |   |   |--- class: 0.0|   |   |   |   |--- 2  >  -1.87
|   |   |   |   |   |--- class: 1.0|   |   |--- 9_ISLAND  >  9_ISLAND .59_ISLAND 
|   |   |   |--- 5  <= -0.58
|   |   |   |   |--- class: 0.0|   |   |   |--- 5  >  -0.58
|   |   |   |   |--- class_0  <= 0.96
|   |   |   |   |   |--- class: 0.0|   |   |   |   |--- class_0  >  0.96
|   |   |   |   |   |--- 3  <= 1.20
|   |   |   |   |   |   |--- class: 1.0|   |   |   |   |   |--- 3  >  1.20
|   |   |   |   |   |   |--- class: 0.0|--- 5  >  -0.32
|   |--- class_0  <= -0.45
|   |   |--- 9_ISLAND  <= 9_ISLAND .59_ISLAND 
|   |   |   |--- 5  <= -0.31
|   |   |   |   |--- class: 1.0|   |   |   |--- 5  >  -0.31
|   |   |   |   |--- class_0  <= -1.51
|   |   |   |   |   |--- class: 1.0|   |   |   |   |--- class_0  >  -1.51
|   |   |   |   |   |--- 2  <= 0.59
|   |   |   |   |   |   |--- class: 0.0|   |   |   |   |   |--- 2  >  0.59
|   |   |   |   |   |   |--- class_0  <= -0.47
|   |   |   |   |   |   |   |--- 8  <= 1.44
|   |   |   |   |   |   |   |   |--- 2  <= 0.61
|   |   |   |   |   |   |   |   |   |--- 3  <= -0.73
|   |   |   |   |   |   |   |   |   |   |--- class: 1.0|   |   |   |   |   |   |   |   |   |--- 3  >  -0.73
|   |   |   |   |   |   |   |   |   |   |--- class: 0.0|   |   |   |   |   |   |   |   |--- 2  >  0.61
|   |   |   |   |   |   |   |   |   |--- 4  <= 0.39
|   |   |   |   |   |   |   |   |   |   |--- 6  <= 0.12
|   |   |   |   |   |   |   |   |   |   |   |--- 3  <= -1.16
|   |   |   |   |   |   |   |   |   |   |   |   |--- 5  <= -0.23
|   |   |   |   |   |   |   |   |   |   |   |   |   |--- class: 1.0|   |   |   |   |   |   |   |   |   |   |   |   |--- 5  >  -0.23
|   |   |   |   |   |   |   |   |   |   |   |   |   |--- class: 0.0|   |   |   |   |   |   |   |   |   |   |   |--- 3  >  -1.16
|   |   |   |   |   |   |   |   |   |   |   |   |--- class: 0.0|   |   |   |   |   |   |   |   |   |   |--- 6  >  0.12
|   |   |   |   |   |   |   |   |   |   |   |--- class: 0.0|   |   |   |   |   |   |   |   |   |--- 4  >  0.39
|   |   |   |   |   |   |   |   |   |   |--- class_0  <= -0.63
|   |   |   |   |   |   |   |   |   |   |   |--- 7  <= 1.17 
|   |   |   |   |   |   |   |   |   |   |   |   |--- 5  <= -0.05 
|   |   |   |   |   |   |   |   |   |   |   |   |   |--- 3  <= -0.80
|   |   |   |   |   |   |   |   |   |   |   |   |   |   |--- class: 1.0|   |   |   |   |   |   |   |   |   |   |   |   |   |--- 3  >  -0.80
|   |   |   |   |   |   |   |   |   |   |   |   |   |   |--- 3  <= -0.77
|   |   |   |   |   |   |   |   |   |   |   |   |   |   |   |--- class: 0.0|   |   |   |   |   |   |   |   |   |   |   |   |   |   |--- 3  >  -0.77
|   |   |   |   |   |   |   |   |   |   |   |   |   |   |   |--- class: 1.0|   |   |   |   |   |   |   |   |   |   |   |   |--- 5  >  -0.05 
|   |   |   |   |   |   |   |   |   |   |   |   |   |--- class: 0.0|   |   |   |   |   |   |   |   |   |   |   |--- 7  >  1.17 
|   |   |   |   |   |   |   |   |   |   |   |   |--- 8  <= 0.67
|   |   |   |   |   |   |   |   |   |   |   |   |   |--- class: 0.0|   |   |   |   |   |   |   |   |   |   |   |   |--- 8  >  0.67
|   |   |   |   |   |   |   |   |   |   |   |   |   |--- class: 1.0|   |   |   |   |   |   |   |   |   |   |--- class_0  >  -0.63
|   |   |   |   |   |   |   |   |   |   |   |--- 4  <= 0.70
|   |   |   |   |   |   |   |   |   |   |   |   |--- class: 0.0|   |   |   |   |   |   |   |   |   |   |   |--- 4  >  0.70
|   |   |   |   |   |   |   |   |   |   |   |   |--- 4  <= 1.02
|   |   |   |   |   |   |   |   |   |   |   |   |   |--- class: 1.0|   |   |   |   |   |   |   |   |   |   |   |   |--- 4  >  1.02
|   |   |   |   |   |   |   |   |   |   |   |   |   |--- class: 0.0|   |   |   |   |   |   |   |--- 8  >  1.44
|   |   |   |   |   |   |   |   |--- class: 0.0|   |   |   |   |   |   |--- class_0  >  -0.47
|   |   |   |   |   |   |   |--- 5  <= -0.10
|   |   |   |   |   |   |   |   |--- class: 1.0|   |   |   |   |   |   |   |--- 5  >  -0.10
|   |   |   |   |   |   |   |   |--- 8  <= 0.85
|   |   |   |   |   |   |   |   |   |--- class: 0.0|   |   |   |   |   |   |   |   |--- 8  >  0.85
|   |   |   |   |   |   |   |   |   |--- class: 1.0|   |   |--- 9_ISLAND  >  9_ISLAND .59_ISLAND 
|   |   |   |--- class: 0.0|   |--- class_0  >  -0.45
|   |   |--- 4  <= -0.4 5
|   |   |   |--- 2  <= 0.28
|   |   |   |   |--- class_0  <= 0.63
|   |   |   |   |   |--- 6  <= 0.96
|   |   |   |   |   |   |--- 3  <= -0.23 
|   |   |   |   |   |   |   |--- class: 1.0|   |   |   |   |   |   |--- 3  >  -0.23 
|   |   |   |   |   |   |   |--- 9_NEAR OCEAN  <= 0.50
|   |   |   |   |   |   |   |   |--- 3  <= 0.3 3 
|   |   |   |   |   |   |   |   |   |--- 9_ISLAND  <= 9_ISLAND .59_ISLAND 
|   |   |   |   |   |   |   |   |   |   |--- 1  <= 0.50
|   |   |   |   |   |   |   |   |   |   |   |--- class: 1.0|   |   |   |   |   |   |   |   |   |   |--- 1  >  0.50
|   |   |   |   |   |   |   |   |   |   |   |--- class: 0.0|   |   |   |   |   |   |   |   |   |--- 9_ISLAND  >  9_ISLAND .59_ISLAND 
|   |   |   |   |   |   |   |   |   |   |--- class: 0.0|   |   |   |   |   |   |   |   |--- 3  >  0.3 3 
|   |   |   |   |   |   |   |   |   |--- 6  <= -0.46
|   |   |   |   |   |   |   |   |   |   |--- class: 1.0|   |   |   |   |   |   |   |   |   |--- 6  >  -0.46
|   |   |   |   |   |   |   |   |   |   |--- 7  <= 1.12
|   |   |   |   |   |   |   |   |   |   |   |--- 4  <= -1.74 
|   |   |   |   |   |   |   |   |   |   |   |   |--- 9_ISLAND  <= 9_ISLAND .59_ISLAND 
|   |   |   |   |   |   |   |   |   |   |   |   |   |--- class: 1.0|   |   |   |   |   |   |   |   |   |   |   |   |--- 9_ISLAND  >  9_ISLAND .59_ISLAND 
|   |   |   |   |   |   |   |   |   |   |   |   |   |--- class: 0.0|   |   |   |   |   |   |   |   |   |   |   |--- 4  >  -1.74 
|   |   |   |   |   |   |   |   |   |   |   |   |--- 5  <= -0.23
|   |   |   |   |   |   |   |   |   |   |   |   |   |--- 3  <= 1.07
|   |   |   |   |   |   |   |   |   |   |   |   |   |   |--- class: 1.0|   |   |   |   |   |   |   |   |   |   |   |   |   |--- 3  >  1.07
|   |   |   |   |   |   |   |   |   |   |   |   |   |   |--- class: 0.0|   |   |   |   |   |   |   |   |   |   |   |   |--- 5  >  -0.23
|   |   |   |   |   |   |   |   |   |   |   |   |   |--- 2  <= -1.2 8
|   |   |   |   |   |   |   |   |   |   |   |   |   |   |--- 2  <= -1.53
|   |   |   |   |   |   |   |   |   |   |   |   |   |   |   |--- class: 0.0|   |   |   |   |   |   |   |   |   |   |   |   |   |   |--- 2  >  -1.53
|   |   |   |   |   |   |   |   |   |   |   |   |   |   |   |--- class: 1.0|   |   |   |   |   |   |   |   |   |   |   |   |   |--- 2  >  -1.2 8
|   |   |   |   |   |   |   |   |   |   |   |   |   |   |--- class: 0.0|   |   |   |   |   |   |   |   |   |   |--- 7  >  1.12
|   |   |   |   |   |   |   |   |   |   |   |--- class: 1.0|   |   |   |   |   |   |   |--- 9_NEAR OCEAN  >  0.50
|   |   |   |   |   |   |   |   |--- 8  <= 0.47
|   |   |   |   |   |   |   |   |   |--- class: 1.0|   |   |   |   |   |   |   |   |--- 8  >  0.47
|   |   |   |   |   |   |   |   |   |--- class: 0.0|   |   |   |   |   |--- 6  >  0.96
|   |   |   |   |   |   |--- 2  <= -1.11
|   |   |   |   |   |   |   |--- 4  <= -2.00
|   |   |   |   |   |   |   |   |--- class: 0.0|   |   |   |   |   |   |   |--- 4  >  -2.00
|   |   |   |   |   |   |   |   |--- class: 1.0|   |   |   |   |   |   |--- 2  >  -1.11
|   |   |   |   |   |   |   |--- class_0  <= -0.07
|   |   |   |   |   |   |   |   |--- class: 0.0|   |   |   |   |   |   |   |--- class_0  >  -0.07
|   |   |   |   |   |   |   |   |--- 3  <= 0.73
|   |   |   |   |   |   |   |   |   |--- class: 1.0|   |   |   |   |   |   |   |   |--- 3  >  0.73
|   |   |   |   |   |   |   |   |   |--- class: 0.0|   |   |   |   |--- class_0  >  0.63
|   |   |   |   |   |--- 3  <= 1.06
|   |   |   |   |   |   |--- 9_ISLAND  <= 9_ISLAND .59_ISLAND 
|   |   |   |   |   |   |   |--- class: 1.0|   |   |   |   |   |   |--- 9_ISLAND  >  9_ISLAND .59_ISLAND 
|   |   |   |   |   |   |   |--- 7  <= 0.30
|   |   |   |   |   |   |   |   |--- class: 1.0|   |   |   |   |   |   |   |--- 7  >  0.30
|   |   |   |   |   |   |   |   |--- 7  <= 1.61
|   |   |   |   |   |   |   |   |   |--- 8  <= 0.18
|   |   |   |   |   |   |   |   |   |   |--- class: 1.0|   |   |   |   |   |   |   |   |   |--- 8  >  0.18
|   |   |   |   |   |   |   |   |   |   |--- class_0  <= 1.19
|   |   |   |   |   |   |   |   |   |   |   |--- class_0  <= 0.79
|   |   |   |   |   |   |   |   |   |   |   |   |--- class: 0.0|   |   |   |   |   |   |   |   |   |   |   |--- class_0  >  0.79
|   |   |   |   |   |   |   |   |   |   |   |   |--- class: 1.0|   |   |   |   |   |   |   |   |   |   |--- class_0  >  1.19
|   |   |   |   |   |   |   |   |   |   |   |--- class: 0.0|   |   |   |   |   |   |   |   |--- 7  >  1.61
|   |   |   |   |   |   |   |   |   |--- class: 1.0|   |   |   |   |   |--- 3  >  1.06
|   |   |   |   |   |   |--- 3  <= 1.13
|   |   |   |   |   |   |   |--- 5  <= 1.05
|   |   |   |   |   |   |   |   |--- class: 0.0|   |   |   |   |   |   |   |--- 5  >  1.05
|   |   |   |   |   |   |   |   |--- class: 1.0|   |   |   |   |   |   |--- 3  >  1.13
|   |   |   |   |   |   |   |--- 3  <= 1.33
|   |   |   |   |   |   |   |   |--- class: 1.0|   |   |   |   |   |   |   |--- 3  >  1.33
|   |   |   |   |   |   |   |   |--- 4  <= -1.12
|   |   |   |   |   |   |   |   |   |--- class: 1.0|   |   |   |   |   |   |   |   |--- 4  >  -1.12
|   |   |   |   |   |   |   |   |   |--- class: 0.0|   |   |   |--- 2  >  0.28
|   |   |   |   |--- 9_ISLAND  <= 9_ISLAND .59_ISLAND 
|   |   |   |   |   |--- 3  <= -0.77
|   |   |   |   |   |   |--- 5  <= -0.30
|   |   |   |   |   |   |   |--- class: 0.0|   |   |   |   |   |   |--- 5  >  -0.30
|   |   |   |   |   |   |   |--- 1  <= 0.50
|   |   |   |   |   |   |   |   |--- 8  <= -0.29
|   |   |   |   |   |   |   |   |   |--- 5  <= -0.16
|   |   |   |   |   |   |   |   |   |   |--- 5  <= -0.19
|   |   |   |   |   |   |   |   |   |   |   |--- class: 1.0|   |   |   |   |   |   |   |   |   |   |--- 5  >  -0.19
|   |   |   |   |   |   |   |   |   |   |   |--- class: 0.0|   |   |   |   |   |   |   |   |   |--- 5  >  -0.16
|   |   |   |   |   |   |   |   |   |   |--- class: 1.0|   |   |   |   |   |   |   |   |--- 8  >  -0.29
|   |   |   |   |   |   |   |   |   |--- class: 1.0|   |   |   |   |   |   |   |--- 1  >  0.50
|   |   |   |   |   |   |   |   |--- 5  <= 0.86
|   |   |   |   |   |   |   |   |   |--- 4  <= -1.28
|   |   |   |   |   |   |   |   |   |   |--- class: 0.0|   |   |   |   |   |   |   |   |   |--- 4  >  -1.28
|   |   |   |   |   |   |   |   |   |   |--- 7  <= 0.07 
|   |   |   |   |   |   |   |   |   |   |   |--- class: 1.0|   |   |   |   |   |   |   |   |   |   |--- 7  >  0.07 
|   |   |   |   |   |   |   |   |   |   |   |--- 6  <= 0.53
|   |   |   |   |   |   |   |   |   |   |   |   |--- class: 1.0|   |   |   |   |   |   |   |   |   |   |   |--- 6  >  0.53
|   |   |   |   |   |   |   |   |   |   |   |   |--- 4  <= -1.20
|   |   |   |   |   |   |   |   |   |   |   |   |   |--- class: 1.0|   |   |   |   |   |   |   |   |   |   |   |   |--- 4  >  -1.20
|   |   |   |   |   |   |   |   |   |   |   |   |   |--- class: 0.0|   |   |   |   |   |   |   |   |--- 5  >  0.86
|   |   |   |   |   |   |   |   |   |--- class: 1.0|   |   |   |   |   |--- 3  >  -0.77
|   |   |   |   |   |   |--- class_0  <= 0.03
|   |   |   |   |   |   |   |--- 2  <= 0.50
|   |   |   |   |   |   |   |   |--- class: 1.0|   |   |   |   |   |   |   |--- 2  >  0.50
|   |   |   |   |   |   |   |   |--- 8  <= 1.75
|   |   |   |   |   |   |   |   |   |--- 8  <= 0.27
|   |   |   |   |   |   |   |   |   |   |--- class: 0.0|   |   |   |   |   |   |   |   |   |--- 8  >  0.27
|   |   |   |   |   |   |   |   |   |   |--- class: 1.0|   |   |   |   |   |   |   |   |--- 8  >  1.75
|   |   |   |   |   |   |   |   |   |--- class: 0.0|   |   |   |   |   |   |--- class_0  >  0.03
|   |   |   |   |   |   |   |--- class: 1.0|   |   |   |   |--- 9_ISLAND  >  9_ISLAND .59_ISLAND 
|   |   |   |   |   |--- 2  <= 1.63
|   |   |   |   |   |   |--- class_0  <= 0.66
|   |   |   |   |   |   |   |--- 3  <= -0.16
|   |   |   |   |   |   |   |   |--- class: 0.0|   |   |   |   |   |   |   |--- 3  >  -0.16
|   |   |   |   |   |   |   |   |--- 7  <= 0.38
|   |   |   |   |   |   |   |   |   |--- class: 0.0|   |   |   |   |   |   |   |   |--- 7  >  0.38
|   |   |   |   |   |   |   |   |   |--- class: 1.0|   |   |   |   |   |   |--- class_0  >  0.66
|   |   |   |   |   |   |   |--- 8  <= -0.23
|   |   |   |   |   |   |   |   |--- 6  <= -0.30
|   |   |   |   |   |   |   |   |   |--- 6  <= -0.52
|   |   |   |   |   |   |   |   |   |   |--- 2  <= 1.13
|   |   |   |   |   |   |   |   |   |   |   |--- class: 0.0|   |   |   |   |   |   |   |   |   |   |--- 2  >  1.13
|   |   |   |   |   |   |   |   |   |   |   |--- class: 1.0|   |   |   |   |   |   |   |   |   |--- 6  >  -0.52
|   |   |   |   |   |   |   |   |   |   |--- class: 0.0|   |   |   |   |   |   |   |   |--- 6  >  -0.30
|   |   |   |   |   |   |   |   |   |--- class: 1.0|   |   |   |   |   |   |   |--- 8  >  -0.23
|   |   |   |   |   |   |   |   |--- 8  <= 2.66
|   |   |   |   |   |   |   |   |   |--- 4  <= -1.12
|   |   |   |   |   |   |   |   |   |   |--- class: 1.0|   |   |   |   |   |   |   |   |   |--- 4  >  -1.12
|   |   |   |   |   |   |   |   |   |   |--- class: 0.0|   |   |   |   |   |   |   |   |--- 8  >  2.66
|   |   |   |   |   |   |   |   |   |--- 3  <= -0.70
|   |   |   |   |   |   |   |   |   |   |--- class: 1.0|   |   |   |   |   |   |   |   |   |--- 3  >  -0.70
|   |   |   |   |   |   |   |   |   |   |--- class: 0.0|   |   |   |   |   |--- 2  >  1.63
|   |   |   |   |   |   |--- class: 1.0|   |   |--- 4  >  -0.4 5
|   |   |   |--- 5  <= -0.14
|   |   |   |   |--- class_0  <= 0.04
|   |   |   |   |   |--- 9_ISLAND  <= 9_ISLAND .59_ISLAND 
|   |   |   |   |   |   |--- 2  <= -1.2 3
|   |   |   |   |   |   |   |--- 6  <= -0.27
|   |   |   |   |   |   |   |   |--- class: 1.0|   |   |   |   |   |   |   |--- 6  >  -0.27
|   |   |   |   |   |   |   |   |--- 8  <= -0.11
|   |   |   |   |   |   |   |   |   |--- class: 0.0|   |   |   |   |   |   |   |   |--- 8  >  -0.11
|   |   |   |   |   |   |   |   |   |--- class: 1.0|   |   |   |   |   |   |--- 2  >  -1.2 3
|   |   |   |   |   |   |   |--- 4  <= -0.09
|   |   |   |   |   |   |   |   |--- class_0  <= -0.06
|   |   |   |   |   |   |   |   |   |--- class: 1.0|   |   |   |   |   |   |   |   |--- class_0  >  -0.06
|   |   |   |   |   |   |   |   |   |--- class: 0.0|   |   |   |   |   |   |   |--- 4  >  -0.09
|   |   |   |   |   |   |   |   |--- 2  <= 0.66
|   |   |   |   |   |   |   |   |   |--- class: 1.0|   |   |   |   |   |   |   |   |--- 2  >  0.66
|   |   |   |   |   |   |   |   |   |--- 3  <= -0.82
|   |   |   |   |   |   |   |   |   |   |--- 2  <= 0.69
|   |   |   |   |   |   |   |   |   |   |   |--- class: 0.0|   |   |   |   |   |   |   |   |   |   |--- 2  >  0.69
|   |   |   |   |   |   |   |   |   |   |   |--- 1  <= 0.50
|   |   |   |   |   |   |   |   |   |   |   |   |--- 3  <= -0.84
|   |   |   |   |   |   |   |   |   |   |   |   |   |--- class: 1.0|   |   |   |   |   |   |   |   |   |   |   |   |--- 3  >  -0.84
|   |   |   |   |   |   |   |   |   |   |   |   |   |--- class: 0.0|   |   |   |   |   |   |   |   |   |   |   |--- 1  >  0.50
|   |   |   |   |   |   |   |   |   |   |   |   |--- class: 1.0|   |   |   |   |   |   |   |   |   |--- 3  >  -0.82
|   |   |   |   |   |   |   |   |   |   |--- class: 1.0|   |   |   |   |   |--- 9_ISLAND  >  9_ISLAND .59_ISLAND 
|   |   |   |   |   |   |--- class: 0.0|   |   |   |   |--- class_0  >  0.04
|   |   |   |   |   |--- 6  <= -0.29
|   |   |   |   |   |   |--- class_0  <= 0.55
|   |   |   |   |   |   |   |--- 9_ISLAND  <= 9_ISLAND .59_ISLAND 
|   |   |   |   |   |   |   |   |--- class: 1.0|   |   |   |   |   |   |   |--- 9_ISLAND  >  9_ISLAND .59_ISLAND 
|   |   |   |   |   |   |   |   |--- 8  <= -0.44
|   |   |   |   |   |   |   |   |   |--- 3  <= 0.27
|   |   |   |   |   |   |   |   |   |   |--- class: 1.0|   |   |   |   |   |   |   |   |   |--- 3  >  0.27
|   |   |   |   |   |   |   |   |   |   |--- class: 0.0|   |   |   |   |   |   |   |   |--- 8  >  -0.44
|   |   |   |   |   |   |   |   |   |--- class: 0.0|   |   |   |   |   |   |--- class_0  >  0.55
|   |   |   |   |   |   |   |--- class: 1.0|   |   |   |   |   |--- 6  >  -0.29
|   |   |   |   |   |   |--- class: 1.0|   |   |   |--- 5  >  -0.14
|   |   |   |   |--- 9_ISLAND  <= 9_ISLAND .59_ISLAND 
|   |   |   |   |   |--- 8  <= 1.55
|   |   |   |   |   |   |--- class_0  <= 0.15
|   |   |   |   |   |   |   |--- 7  <= 3.58
|   |   |   |   |   |   |   |   |--- 7  <= -0.07 
|   |   |   |   |   |   |   |   |   |--- 7  <= -0.12
|   |   |   |   |   |   |   |   |   |   |--- class: 1.0|   |   |   |   |   |   |   |   |   |--- 7  >  -0.12
|   |   |   |   |   |   |   |   |   |   |--- 5  <= 0.08
|   |   |   |   |   |   |   |   |   |   |   |--- class: 1.0|   |   |   |   |   |   |   |   |   |   |--- 5  >  0.08
|   |   |   |   |   |   |   |   |   |   |   |--- class: 0.0|   |   |   |   |   |   |   |   |--- 7  >  -0.07 
|   |   |   |   |   |   |   |   |   |--- 2  <= -1.2 6
|   |   |   |   |   |   |   |   |   |   |--- 4  <= 1.24 
|   |   |   |   |   |   |   |   |   |   |   |--- class: 1.0|   |   |   |   |   |   |   |   |   |   |--- 4  >  1.24 
|   |   |   |   |   |   |   |   |   |   |   |--- class: 0.0|   |   |   |   |   |   |   |   |   |--- 2  >  -1.2 6
|   |   |   |   |   |   |   |   |   |   |--- 7  <= 0.07
|   |   |   |   |   |   |   |   |   |   |   |--- 7  <= 0.07
|   |   |   |   |   |   |   |   |   |   |   |   |--- class: 1.0|   |   |   |   |   |   |   |   |   |   |   |--- 7  >  0.07
|   |   |   |   |   |   |   |   |   |   |   |   |--- class: 0.0|   |   |   |   |   |   |   |   |   |   |--- 7  >  0.07
|   |   |   |   |   |   |   |   |   |   |   |--- class: 1.0|   |   |   |   |   |   |   |--- 7  >  3.58
|   |   |   |   |   |   |   |   |--- class: 0.0|   |   |   |   |   |   |--- class_0  >  0.15
|   |   |   |   |   |   |   |--- class: 1.0|   |   |   |   |   |--- 8  >  1.55
|   |   |   |   |   |   |--- 6  <= 1.47
|   |   |   |   |   |   |   |--- 7  <= 1.51
|   |   |   |   |   |   |   |   |--- class: 1.0|   |   |   |   |   |   |   |--- 7  >  1.51
|   |   |   |   |   |   |   |   |--- class: 0.0|   |   |   |   |   |   |--- 6  >  1.47
|   |   |   |   |   |   |   |--- 5  <= 1.14
|   |   |   |   |   |   |   |   |--- 4  <= -0.25
|   |   |   |   |   |   |   |   |   |--- class: 1.0|   |   |   |   |   |   |   |   |--- 4  >  -0.25
|   |   |   |   |   |   |   |   |   |--- class: 0.0|   |   |   |   |   |   |   |--- 5  >  1.14
|   |   |   |   |   |   |   |   |--- class: 1.0|   |   |   |   |--- 9_ISLAND  >  9_ISLAND .59_ISLAND 
|   |   |   |   |   |--- 2  <= 0.76
|   |   |   |   |   |   |--- 4  <= 1.02
|   |   |   |   |   |   |   |--- class_0  <= 0.37
|   |   |   |   |   |   |   |   |--- 7  <= -0.24
|   |   |   |   |   |   |   |   |   |--- 4  <= 0.4 4 
|   |   |   |   |   |   |   |   |   |   |--- class: 1.0|   |   |   |   |   |   |   |   |   |--- 4  >  0.4 4 
|   |   |   |   |   |   |   |   |   |   |--- class: 0.0|   |   |   |   |   |   |   |   |--- 7  >  -0.24
|   |   |   |   |   |   |   |   |   |--- class: 0.0|   |   |   |   |   |   |   |--- class_0  >  0.37
|   |   |   |   |   |   |   |   |--- 2  <= 0.35
|   |   |   |   |   |   |   |   |   |--- 3  <= 1.10
|   |   |   |   |   |   |   |   |   |   |--- class: 0.0|   |   |   |   |   |   |   |   |   |--- 3  >  1.10
|   |   |   |   |   |   |   |   |   |   |--- class_0  <= 0.51
|   |   |   |   |   |   |   |   |   |   |   |--- class: 0.0|   |   |   |   |   |   |   |   |   |   |--- class_0  >  0.51
|   |   |   |   |   |   |   |   |   |   |   |--- class: 1.0|   |   |   |   |   |   |   |   |--- 2  >  0.35
|   |   |   |   |   |   |   |   |   |--- class: 1.0|   |   |   |   |   |   |--- 4  >  1.02
|   |   |   |   |   |   |   |--- class: 1.0|   |   |   |   |   |--- 2  >  0.76
|   |   |   |   |   |   |--- class: 0.0