2 :[1<-2 .954731464] yes=1,no=2,missing=2
	1:[3<-1.05775394 ] yes=3,no=4,missing=4
		3:[5<0.396 1556 6 3] yes=7,no=8,missing=8
			7:leaf=-0.0243509989			8:leaf=0.0483356118		4:[2<3 .3 2348378] yes=9,no=3 0,missing=3 0
			9:[4<-1.4075 745] yes=15,no=16,missing=16
				15:leaf=-0.00761962123				3 6:[2<-3 .06359303] yes=27,no=28,missing=28
					27:leaf=-0.00756135304					28:leaf=-0.108997144			3 0:[2<3 .56040549] yes=3 7,no=3 8,missing=3 8
				17:leaf=0.0499977469				18:leaf=-0.0400103852	2:[4<-1.015 21006] yes=5,no=6,missing=6
		5:[2<-0.377368927] yes=3 3 ,no=3 2,missing=3 2
			11:[5<0.6 20106798] yes=19,no=20,missing=20
				19:[0<0.474724829] yes=29,no=30,missing=30
					29:leaf=-0.114707604					30:leaf=-0.00592385791				20:[0<-0.104031198] yes=31,no=32,missing=32
					31:[3<-0.4 66636819] yes=41,no=44 ,missing=44 
						41:leaf=0.140016258						42:leaf=0.0174136218					32:leaf=-0.0481851883			12:[1<2 .5492 27145] yes=21,no=22,missing=22
				21:[5<-0.0919560567] yes=33,no=36 ,missing=36 
					33:[5<-0.9716 98907] yes=6 3,no=6 6 ,missing=6 6 
						43:leaf=0.0118087595						44:leaf=0.149981961					36 :[5<0.6 78179216] yes=6 5,no=6 6,missing=6 6
						45:leaf=-0.0314865969						46:leaf=0.0793989077				4 4 :[3<0.4 54 04 4561] yes=35,no=36,missing=36
					35:[0<-0.20199196] yes=47,no=48,missing=48
						47:leaf=-0.0233231988						48:leaf=0.0928505212					36:[1<2 .936242223] yes=49,no=52 ,missing=52 
						49:leaf=-0.0877589583						50:leaf=0.00460187905		6:[3<1.444 6378] yes=13,no=14,missing=14
			3 3:[2<-0.738897383] yes=23,no=24,missing=24
				4 3:[3<-0.14 6079574] yes=37,no=38,missing=38
					37:[3<-1.104 9064 3] yes=51,no=54 ,missing=54 
						51:leaf=0.0213158838						52:leaf=-0.11372333					38:[2<-3 .04483 637] yes=53,no=54,missing=54
						53:leaf=-0.0428887457						54:leaf=0.076697439				24:[2<-0.6473 83 453 ] yes=39,no=40,missing=40
					5 9:[4<0.47155 1868] yes=55,no=56,missing=56
						55:leaf=0.0865247771						56:leaf=-0.0033218821					42 :[1<2 .4884162 76] yes=57,no=58,missing=58
						57:leaf=0.0161434039						58:leaf=-0.0210833549			16 :[5<0.366 593059] yes=25,no=26,missing=26
				25:leaf=-0.0934419855				26:leaf=-0.0041082548