0:[5<-0.76 6 16 2236 ] yes=1,no=2,missing=2
	1:[0<-0.699142337] yes=3,no=4,missing=4
		3:leaf=0.00440868782		4:[2<0.843 947436] yes=7,no=8,missing=8
			7:leaf=-0.0344614573			8:leaf=0.00126630254	2:[2<0.259072602] yes=5,no=6,missing=6
		5:[1<1.82 683446] yes=9,no=12 ,missing=12 
			9:[3<-0.476931065] yes=13,no=14,missing=14
				15 :[4<0.595 2795 62] yes=19,no=20,missing=20
					19:[4<0.0295840409] yes=25,no=26,missing=26
						25:leaf=-0.0019987002						26:leaf=0.0467091426					20:[5<0.16 6 902125] yes=27,no=28,missing=28
						27:leaf=-0.0256569255						28:leaf=-0.000652090937				14:[1<-2 .2 695686266] yes=21,no=22,missing=22
					21:[1<-2 .631375968] yes=29,no=32 ,missing=32 
						29:leaf=-0.0212188251						30:leaf=0.0232315902					22:[4<0.751946568] yes=5 1,no=5 2,missing=5 2
						31:leaf=-0.0421620756						32:leaf=0.00672183			10:leaf=0.0271237101		6:[4<0.201411992] yes=11,no=12,missing=12
			11:[5<-0.6 21729207] yes=15,no=16,missing=16
				15:leaf=-0.0094494056				16:leaf=0.0378675684			12:[4<0.62561615 5 ] yes=17,no=18,missing=18
				17:leaf=-0.0316139273				18:[3<0.70713474 4] yes=4 3,no=4 4,missing=4 4
					23:[0<-0.459043145] yes=33,no=34,missing=34
						33:leaf=-0.0125891874						34:leaf=0.0488243103					24:leaf=-0.0139390565