|--- 10  <= -0.44
|   |--- 16_unknown  <= 0.50
|   |   |--- 16_success  <= 0.50
|   |   |   |--- 2_housemaid  <= 0.50
|   |   |   |   |--- 6  <= -1.31
|   |   |   |   |   |--- 4_unknown  <= 0.50
|   |   |   |   |   |   |--- 5_yes  <= 0.50
|   |   |   |   |   |   |   |--- 2_services  <= 0.2_services 0
|   |   |   |   |   |   |   |   |--- class: 0.0|   |   |   |   |   |   |   |--- 2_services  >  0.2_services 0
|   |   |   |   |   |   |   |   |--- class: 1.0|   |   |   |   |   |   |--- 5_yes  >  0.50
|   |   |   |   |   |   |   |--- class: 1.0|   |   |   |   |   |--- 4_unknown  >  0.50
|   |   |   |   |   |   |--- 6  <= -1.61
|   |   |   |   |   |   |   |--- class_1  <= 0.78
|   |   |   |   |   |   |   |   |--- class: 0.0|   |   |   |   |   |   |   |--- class_1  >  0.78
|   |   |   |   |   |   |   |   |--- class: 0.0|   |   |   |   |   |   |--- 6  >  -1.61
|   |   |   |   |   |   |   |--- 13  <= -0.20
|   |   |   |   |   |   |   |   |--- 6  <= -1.50
|   |   |   |   |   |   |   |   |   |--- class: 1.0|   |   |   |   |   |   |   |   |--- 6  >  -1.50
|   |   |   |   |   |   |   |   |   |--- class: 0.0|   |   |   |   |   |   |   |--- 13  >  -0.20
|   |   |   |   |   |   |   |   |--- class: 1.0|   |   |   |   |--- 6  >  -1.31
|   |   |   |   |   |--- 2_self-employed  <= 0.50
|   |   |   |   |   |   |--- 2_technician  <= 0.50
|   |   |   |   |   |   |   |--- 2_services  <= 0.2_services 0
|   |   |   |   |   |   |   |   |--- 14  <= 1.14 
|   |   |   |   |   |   |   |   |   |--- 6  <= -1.08
|   |   |   |   |   |   |   |   |   |   |--- 11  <= -1.16
|   |   |   |   |   |   |   |   |   |   |   |--- class: 0.0|   |   |   |   |   |   |   |   |   |   |--- 11  >  -1.16
|   |   |   |   |   |   |   |   |   |   |   |--- class: 0.0|   |   |   |   |   |   |   |   |   |--- 6  >  -1.08
|   |   |   |   |   |   |   |   |   |   |--- class: 0.0|   |   |   |   |   |   |   |   |--- 14  >  1.14 
|   |   |   |   |   |   |   |   |   |--- 2_unemployed  <= 0.50
|   |   |   |   |   |   |   |   |   |   |--- class: 0.0|   |   |   |   |   |   |   |   |   |--- 2_unemployed  >  0.50
|   |   |   |   |   |   |   |   |   |   |--- 6  <= -0.46
|   |   |   |   |   |   |   |   |   |   |   |--- class: 1.0|   |   |   |   |   |   |   |   |   |   |--- 6  >  -0.46
|   |   |   |   |   |   |   |   |   |   |   |--- class: 0.0|   |   |   |   |   |   |   |--- 2_services  >  0.2_services 0
|   |   |   |   |   |   |   |   |--- class_1  <= 0.97
|   |   |   |   |   |   |   |   |   |--- class: 0.0|   |   |   |   |   |   |   |   |--- class_1  >  0.97
|   |   |   |   |   |   |   |   |   |--- class: 1.0|   |   |   |   |   |   |--- 2_technician  >  0.50
|   |   |   |   |   |   |   |--- 6  <= -0.11
|   |   |   |   |   |   |   |   |--- 8_yes  <= 0.50
|   |   |   |   |   |   |   |   |   |--- class: 1.0|   |   |   |   |   |   |   |   |--- 8_yes  >  0.50
|   |   |   |   |   |   |   |   |   |--- class: 0.0|   |   |   |   |   |   |   |--- 6  >  -0.11
|   |   |   |   |   |   |   |   |--- class: 0.0|   |   |   |   |   |--- 2_self-employed  >  0.50
|   |   |   |   |   |   |--- 4_unknown  <= 0.50
|   |   |   |   |   |   |   |--- 12  <= 1.17
|   |   |   |   |   |   |   |   |--- class: 0.0|   |   |   |   |   |   |   |--- 12  >  1.17
|   |   |   |   |   |   |   |   |--- class: 0.0|   |   |   |   |   |   |--- 4_unknown  >  0.50
|   |   |   |   |   |   |   |--- 15  <= 0.29
|   |   |   |   |   |   |   |   |--- 13  <= 0.17
|   |   |   |   |   |   |   |   |   |--- class: 1.0|   |   |   |   |   |   |   |   |--- 13  >  0.17
|   |   |   |   |   |   |   |   |   |--- class: 1.0|   |   |   |   |   |   |   |--- 15  >  0.29
|   |   |   |   |   |   |   |   |--- class: 0.0|   |   |   |--- 2_housemaid  >  0.50
|   |   |   |   |--- 15  <= 0.13
|   |   |   |   |   |--- 12  <= 0.12
|   |   |   |   |   |   |--- 6  <= -0.45
|   |   |   |   |   |   |   |--- class: 1.0|   |   |   |   |   |   |--- 6  >  -0.45
|   |   |   |   |   |   |   |--- class: 1.0|   |   |   |   |   |--- 12  >  0.12
|   |   |   |   |   |   |--- class: 0.0|   |   |   |   |--- 15  >  0.13
|   |   |   |   |   |--- class_1  <= 0.20
|   |   |   |   |   |   |--- class: 0.0|   |   |   |   |   |--- class_1  >  0.20
|   |   |   |   |   |   |--- class: 0.0|   |   |--- 16_success  >  0.50
|   |   |   |--- 2_entrepreneur  <= 2_entrepreneur .52_entrepreneur 
|   |   |   |   |--- 16_other  <= 0.50
|   |   |   |   |   |--- class: 1.0|   |   |   |   |--- 16_other  >  0.50
|   |   |   |   |   |--- 14  <= 0.04
|   |   |   |   |   |   |--- class: 1.0|   |   |   |   |   |--- 14  >  0.04
|   |   |   |   |   |   |--- class: 0.0|   |   |   |--- 2_entrepreneur  >  2_entrepreneur .52_entrepreneur 
|   |   |   |   |--- class: 0.0|   |--- 16_unknown  >  0.50
|   |   |--- 2_entrepreneur  <= 2_entrepreneur .52_entrepreneur 
|   |   |   |--- class: 1.0|   |   |--- 2_entrepreneur  >  2_entrepreneur .52_entrepreneur 
|   |   |   |--- 4_unknown  <= 0.50
|   |   |   |   |--- class: 0.0|   |   |   |--- 4_unknown  >  0.50
|   |   |   |   |--- class: 1.0|--- 10  >  -0.44
|   |--- 2_entrepreneur  <= 2_entrepreneur .52_entrepreneur 
|   |   |--- 2_management  <= 0.50
|   |   |   |--- 2_unknown  <= 0.50
|   |   |   |   |--- 7_yes  <= 0.50
|   |   |   |   |   |--- 3_single  <= 0.50
|   |   |   |   |   |   |--- 4_secondary  <= 0.50
|   |   |   |   |   |   |   |--- 6  <= 0.62
|   |   |   |   |   |   |   |   |--- 9_unknown  <= 0.50
|   |   |   |   |   |   |   |   |   |--- 6  <= -1.88
|   |   |   |   |   |   |   |   |   |   |--- class: 0.0|   |   |   |   |   |   |   |   |   |--- 6  >  -1.88
|   |   |   |   |   |   |   |   |   |   |--- 4_unknown  <= 0.50
|   |   |   |   |   |   |   |   |   |   |   |--- 16_other  <= 0.50
|   |   |   |   |   |   |   |   |   |   |   |   |--- 12  <= 1.38
|   |   |   |   |   |   |   |   |   |   |   |   |   |--- 2_unemployed  <= 0.50
|   |   |   |   |   |   |   |   |   |   |   |   |   |   |--- class_1  <= 0.56
|   |   |   |   |   |   |   |   |   |   |   |   |   |   |   |--- 6  <= -0.60
|   |   |   |   |   |   |   |   |   |   |   |   |   |   |   |   |--- 2_retired  <= 0.50
|   |   |   |   |   |   |   |   |   |   |   |   |   |   |   |   |   |--- class: 0.0|   |   |   |   |   |   |   |   |   |   |   |   |   |   |   |   |--- 2_retired  >  0.50
|   |   |   |   |   |   |   |   |   |   |   |   |   |   |   |   |   |--- class: 0.0|   |   |   |   |   |   |   |   |   |   |   |   |   |   |   |--- 6  >  -0.60
|   |   |   |   |   |   |   |   |   |   |   |   |   |   |   |   |--- 13  <= 0.61
|   |   |   |   |   |   |   |   |   |   |   |   |   |   |   |   |   |--- 13  <= -0.24
|   |   |   |   |   |   |   |   |   |   |   |   |   |   |   |   |   |   |--- 12  <= -0.55
|   |   |   |   |   |   |   |   |   |   |   |   |   |   |   |   |   |   |   |--- class: 0.0|   |   |   |   |   |   |   |   |   |   |   |   |   |   |   |   |   |   |--- 12  >  -0.55
|   |   |   |   |   |   |   |   |   |   |   |   |   |   |   |   |   |   |   |--- class: 1.0|   |   |   |   |   |   |   |   |   |   |   |   |   |   |   |   |   |--- 13  >  -0.24
|   |   |   |   |   |   |   |   |   |   |   |   |   |   |   |   |   |   |--- class: 0.0|   |   |   |   |   |   |   |   |   |   |   |   |   |   |   |   |--- 13  >  0.61
|   |   |   |   |   |   |   |   |   |   |   |   |   |   |   |   |   |--- class: 1.0|   |   |   |   |   |   |   |   |   |   |   |   |   |   |--- class_1  >  0.56
|   |   |   |   |   |   |   |   |   |   |   |   |   |   |   |--- 6  <= 0.44
|   |   |   |   |   |   |   |   |   |   |   |   |   |   |   |   |--- class: 1.0|   |   |   |   |   |   |   |   |   |   |   |   |   |   |   |--- 6  >  0.44
|   |   |   |   |   |   |   |   |   |   |   |   |   |   |   |   |--- class: 0.0|   |   |   |   |   |   |   |   |   |   |   |   |   |--- 2_unemployed  >  0.50
|   |   |   |   |   |   |   |   |   |   |   |   |   |   |--- class: 1.0|   |   |   |   |   |   |   |   |   |   |   |   |--- 12  >  1.38
|   |   |   |   |   |   |   |   |   |   |   |   |   |--- class: 0.0|   |   |   |   |   |   |   |   |   |   |   |--- 16_other  >  0.50
|   |   |   |   |   |   |   |   |   |   |   |   |--- 15  <= 1.46
|   |   |   |   |   |   |   |   |   |   |   |   |   |--- 6  <= -1.40
|   |   |   |   |   |   |   |   |   |   |   |   |   |   |--- class: 1.0|   |   |   |   |   |   |   |   |   |   |   |   |   |--- 6  >  -1.40
|   |   |   |   |   |   |   |   |   |   |   |   |   |   |--- 10  <= -0.30
|   |   |   |   |   |   |   |   |   |   |   |   |   |   |   |--- class: 0.0|   |   |   |   |   |   |   |   |   |   |   |   |   |   |--- 10  >  -0.30
|   |   |   |   |   |   |   |   |   |   |   |   |   |   |   |--- class: 0.0|   |   |   |   |   |   |   |   |   |   |   |   |--- 15  >  1.46
|   |   |   |   |   |   |   |   |   |   |   |   |   |--- class: 1.0|   |   |   |   |   |   |   |   |   |   |--- 4_unknown  >  0.50
|   |   |   |   |   |   |   |   |   |   |   |--- 14  <= -0.78
|   |   |   |   |   |   |   |   |   |   |   |   |--- class: 0.0|   |   |   |   |   |   |   |   |   |   |   |--- 14  >  -0.78
|   |   |   |   |   |   |   |   |   |   |   |   |--- class_1  <= 1.class_1 
|   |   |   |   |   |   |   |   |   |   |   |   |   |--- 14  <= 0.76
|   |   |   |   |   |   |   |   |   |   |   |   |   |   |--- class: 1.0|   |   |   |   |   |   |   |   |   |   |   |   |   |--- 14  >  0.76
|   |   |   |   |   |   |   |   |   |   |   |   |   |   |--- class: 1.0|   |   |   |   |   |   |   |   |   |   |   |   |--- class_1  >  1.class_1 
|   |   |   |   |   |   |   |   |   |   |   |   |   |--- class: 1.0|   |   |   |   |   |   |   |   |--- 9_unknown  >  0.50
|   |   |   |   |   |   |   |   |   |--- class: 0.0|   |   |   |   |   |   |   |--- 6  >  0.62
|   |   |   |   |   |   |   |   |--- 13  <= 1.25
|   |   |   |   |   |   |   |   |   |--- class: 0.0|   |   |   |   |   |   |   |   |--- 13  >  1.25
|   |   |   |   |   |   |   |   |   |--- class: 0.0|   |   |   |   |   |   |--- 4_secondary  >  0.50
|   |   |   |   |   |   |   |--- 6  <= 2.26
|   |   |   |   |   |   |   |   |--- 1  <= 0.50
|   |   |   |   |   |   |   |   |   |--- 14  <= 1.71
|   |   |   |   |   |   |   |   |   |   |--- 2_student  <= 0.50
|   |   |   |   |   |   |   |   |   |   |   |--- 2_retired  <= 0.50
|   |   |   |   |   |   |   |   |   |   |   |   |--- 11  <= 1.16
|   |   |   |   |   |   |   |   |   |   |   |   |   |--- class: 1.0|   |   |   |   |   |   |   |   |   |   |   |   |--- 11  >  1.16
|   |   |   |   |   |   |   |   |   |   |   |   |   |--- class: 1.0|   |   |   |   |   |   |   |   |   |   |   |--- 2_retired  >  0.50
|   |   |   |   |   |   |   |   |   |   |   |   |--- 10  <= 0.39
|   |   |   |   |   |   |   |   |   |   |   |   |   |--- class: 0.0|   |   |   |   |   |   |   |   |   |   |   |   |--- 10  >  0.39
|   |   |   |   |   |   |   |   |   |   |   |   |   |--- 13  <= -0.82
|   |   |   |   |   |   |   |   |   |   |   |   |   |   |--- class: 1.0|   |   |   |   |   |   |   |   |   |   |   |   |   |--- 13  >  -0.82
|   |   |   |   |   |   |   |   |   |   |   |   |   |   |--- class: 1.0|   |   |   |   |   |   |   |   |   |   |--- 2_student  >  0.50
|   |   |   |   |   |   |   |   |   |   |   |--- 16_other  <= 0.50
|   |   |   |   |   |   |   |   |   |   |   |   |--- class: 1.0|   |   |   |   |   |   |   |   |   |   |   |--- 16_other  >  0.50
|   |   |   |   |   |   |   |   |   |   |   |   |--- class: 0.0|   |   |   |   |   |   |   |   |   |--- 14  >  1.71
|   |   |   |   |   |   |   |   |   |   |--- class: 0.0|   |   |   |   |   |   |   |   |--- 1  >  0.50
|   |   |   |   |   |   |   |   |   |--- 6  <= 1.42
|   |   |   |   |   |   |   |   |   |   |--- 12  <= -2.45
|   |   |   |   |   |   |   |   |   |   |   |--- class: 1.0|   |   |   |   |   |   |   |   |   |   |--- 12  >  -2.45
|   |   |   |   |   |   |   |   |   |   |   |--- 14  <= 2.24
|   |   |   |   |   |   |   |   |   |   |   |   |--- class: 1.0|   |   |   |   |   |   |   |   |   |   |   |--- 14  >  2.24
|   |   |   |   |   |   |   |   |   |   |   |   |--- class: 1.0|   |   |   |   |   |   |   |   |   |--- 6  >  1.42
|   |   |   |   |   |   |   |   |   |   |--- 9_telephone  <= 0.50
|   |   |   |   |   |   |   |   |   |   |   |--- class: 1.0|   |   |   |   |   |   |   |   |   |   |--- 9_telephone  >  0.50
|   |   |   |   |   |   |   |   |   |   |   |--- class: 0.0|   |   |   |   |   |   |   |--- 6  >  2.26
|   |   |   |   |   |   |   |   |--- class: 0.0|   |   |   |   |   |--- 3_single  >  0.50
|   |   |   |   |   |   |--- 6  <= -2.12
|   |   |   |   |   |   |   |--- 13  <= -0.45
|   |   |   |   |   |   |   |   |--- class: 1.0|   |   |   |   |   |   |   |--- 13  >  -0.45
|   |   |   |   |   |   |   |   |--- 13  <= 0.54
|   |   |   |   |   |   |   |   |   |--- class: 0.0|   |   |   |   |   |   |   |   |--- 13  >  0.54
|   |   |   |   |   |   |   |   |   |--- class: 1.0|   |   |   |   |   |   |--- 6  >  -2.12
|   |   |   |   |   |   |   |--- 6  <= 0.46
|   |   |   |   |   |   |   |   |--- 1  <= 0.50
|   |   |   |   |   |   |   |   |   |--- 16_other  <= 0.50
|   |   |   |   |   |   |   |   |   |   |--- 10  <= -0.39
|   |   |   |   |   |   |   |   |   |   |   |--- class: 1.0|   |   |   |   |   |   |   |   |   |   |--- 10  >  -0.39
|   |   |   |   |   |   |   |   |   |   |   |--- 13  <= -1.00
|   |   |   |   |   |   |   |   |   |   |   |   |--- 12  <= 0.26
|   |   |   |   |   |   |   |   |   |   |   |   |   |--- 14  <= -0.57
|   |   |   |   |   |   |   |   |   |   |   |   |   |   |--- class: 1.0|   |   |   |   |   |   |   |   |   |   |   |   |   |--- 14  >  -0.57
|   |   |   |   |   |   |   |   |   |   |   |   |   |   |--- class: 1.0|   |   |   |   |   |   |   |   |   |   |   |   |--- 12  >  0.26
|   |   |   |   |   |   |   |   |   |   |   |   |   |--- class: 0.0|   |   |   |   |   |   |   |   |   |   |   |--- 13  >  -1.00
|   |   |   |   |   |   |   |   |   |   |   |   |--- 11  <= -1.11
|   |   |   |   |   |   |   |   |   |   |   |   |   |--- class: 1.0|   |   |   |   |   |   |   |   |   |   |   |   |--- 11  >  -1.11
|   |   |   |   |   |   |   |   |   |   |   |   |   |--- class: 1.0|   |   |   |   |   |   |   |   |   |--- 16_other  >  0.50
|   |   |   |   |   |   |   |   |   |   |--- 15  <= -0.39
|   |   |   |   |   |   |   |   |   |   |   |--- class: 0.0|   |   |   |   |   |   |   |   |   |   |--- 15  >  -0.39
|   |   |   |   |   |   |   |   |   |   |   |--- 14  <= -0.83
|   |   |   |   |   |   |   |   |   |   |   |   |--- 8_yes  <= 0.50
|   |   |   |   |   |   |   |   |   |   |   |   |   |--- class: 1.0|   |   |   |   |   |   |   |   |   |   |   |   |--- 8_yes  >  0.50
|   |   |   |   |   |   |   |   |   |   |   |   |   |--- class: 0.0|   |   |   |   |   |   |   |   |   |   |   |--- 14  >  -0.83
|   |   |   |   |   |   |   |   |   |   |   |   |--- class: 1.0|   |   |   |   |   |   |   |   |--- 1  >  0.50
|   |   |   |   |   |   |   |   |   |--- 12  <= 2.01
|   |   |   |   |   |   |   |   |   |   |--- 10  <= -0.39
|   |   |   |   |   |   |   |   |   |   |   |--- 10  <= -0.40
|   |   |   |   |   |   |   |   |   |   |   |   |--- class: 1.0|   |   |   |   |   |   |   |   |   |   |   |--- 10  >  -0.40
|   |   |   |   |   |   |   |   |   |   |   |   |--- class: 1.0|   |   |   |   |   |   |   |   |   |   |--- 10  >  -0.39
|   |   |   |   |   |   |   |   |   |   |   |--- class: 1.0|   |   |   |   |   |   |   |   |   |--- 12  >  2.01
|   |   |   |   |   |   |   |   |   |   |--- 14  <= -0.36
|   |   |   |   |   |   |   |   |   |   |   |--- class: 1.0|   |   |   |   |   |   |   |   |   |   |--- 14  >  -0.36
|   |   |   |   |   |   |   |   |   |   |   |--- class: 1.0|   |   |   |   |   |   |   |--- 6  >  0.46
|   |   |   |   |   |   |   |   |--- 2_technician  <= 0.50
|   |   |   |   |   |   |   |   |   |--- 11  <= -1.88
|   |   |   |   |   |   |   |   |   |   |--- 4_unknown  <= 0.50
|   |   |   |   |   |   |   |   |   |   |   |--- class: 0.0|   |   |   |   |   |   |   |   |   |   |--- 4_unknown  >  0.50
|   |   |   |   |   |   |   |   |   |   |   |--- class: 1.0|   |   |   |   |   |   |   |   |   |--- 11  >  -1.88
|   |   |   |   |   |   |   |   |   |   |--- 2_student  <= 0.50
|   |   |   |   |   |   |   |   |   |   |   |--- 6  <= 2.46
|   |   |   |   |   |   |   |   |   |   |   |   |--- 16_other  <= 0.50
|   |   |   |   |   |   |   |   |   |   |   |   |   |--- 14  <= -0.75
|   |   |   |   |   |   |   |   |   |   |   |   |   |   |--- 6  <= 0.77
|   |   |   |   |   |   |   |   |   |   |   |   |   |   |   |--- 6  <= 0.72
|   |   |   |   |   |   |   |   |   |   |   |   |   |   |   |   |--- class: 1.0|   |   |   |   |   |   |   |   |   |   |   |   |   |   |   |--- 6  >  0.72
|   |   |   |   |   |   |   |   |   |   |   |   |   |   |   |   |--- class: 0.0|   |   |   |   |   |   |   |   |   |   |   |   |   |   |--- 6  >  0.77
|   |   |   |   |   |   |   |   |   |   |   |   |   |   |   |--- class: 1.0|   |   |   |   |   |   |   |   |   |   |   |   |   |--- 14  >  -0.75
|   |   |   |   |   |   |   |   |   |   |   |   |   |   |--- 14  <= 1.88
|   |   |   |   |   |   |   |   |   |   |   |   |   |   |   |--- 10  <= -0.38
|   |   |   |   |   |   |   |   |   |   |   |   |   |   |   |   |--- class: 1.0|   |   |   |   |   |   |   |   |   |   |   |   |   |   |   |--- 10  >  -0.38
|   |   |   |   |   |   |   |   |   |   |   |   |   |   |   |   |--- class: 1.0|   |   |   |   |   |   |   |   |   |   |   |   |   |   |--- 14  >  1.88
|   |   |   |   |   |   |   |   |   |   |   |   |   |   |   |--- class: 1.0|   |   |   |   |   |   |   |   |   |   |   |   |--- 16_other  >  0.50
|   |   |   |   |   |   |   |   |   |   |   |   |   |--- 1  <= 0.50
|   |   |   |   |   |   |   |   |   |   |   |   |   |   |--- 16_unknown  <= 0.50
|   |   |   |   |   |   |   |   |   |   |   |   |   |   |   |--- 12  <= 1.00
|   |   |   |   |   |   |   |   |   |   |   |   |   |   |   |   |--- 6  <= 0.88
|   |   |   |   |   |   |   |   |   |   |   |   |   |   |   |   |   |--- class: 0.0|   |   |   |   |   |   |   |   |   |   |   |   |   |   |   |   |--- 6  >  0.88
|   |   |   |   |   |   |   |   |   |   |   |   |   |   |   |   |   |--- class: 0.0|   |   |   |   |   |   |   |   |   |   |   |   |   |   |   |--- 12  >  1.00
|   |   |   |   |   |   |   |   |   |   |   |   |   |   |   |   |--- class: 1.0|   |   |   |   |   |   |   |   |   |   |   |   |   |   |--- 16_unknown  >  0.50
|   |   |   |   |   |   |   |   |   |   |   |   |   |   |   |--- class: 1.0|   |   |   |   |   |   |   |   |   |   |   |   |   |--- 1  >  0.50
|   |   |   |   |   |   |   |   |   |   |   |   |   |   |--- 14  <= 1.39
|   |   |   |   |   |   |   |   |   |   |   |   |   |   |   |--- 6  <= 1.91
|   |   |   |   |   |   |   |   |   |   |   |   |   |   |   |   |--- class: 1.0|   |   |   |   |   |   |   |   |   |   |   |   |   |   |   |--- 6  >  1.91
|   |   |   |   |   |   |   |   |   |   |   |   |   |   |   |   |--- class: 1.0|   |   |   |   |   |   |   |   |   |   |   |   |   |   |--- 14  >  1.39
|   |   |   |   |   |   |   |   |   |   |   |   |   |   |   |--- 6  <= 1.21
|   |   |   |   |   |   |   |   |   |   |   |   |   |   |   |   |--- class: 1.0|   |   |   |   |   |   |   |   |   |   |   |   |   |   |   |--- 6  >  1.21
|   |   |   |   |   |   |   |   |   |   |   |   |   |   |   |   |--- class: 0.0|   |   |   |   |   |   |   |   |   |   |   |--- 6  >  2.46
|   |   |   |   |   |   |   |   |   |   |   |   |--- class: 0.0|   |   |   |   |   |   |   |   |   |   |--- 2_student  >  0.50
|   |   |   |   |   |   |   |   |   |   |   |--- 14  <= 0.80
|   |   |   |   |   |   |   |   |   |   |   |   |--- 4_unknown  <= 0.50
|   |   |   |   |   |   |   |   |   |   |   |   |   |--- 6  <= 0.65
|   |   |   |   |   |   |   |   |   |   |   |   |   |   |--- class: 1.0|   |   |   |   |   |   |   |   |   |   |   |   |   |--- 6  >  0.65
|   |   |   |   |   |   |   |   |   |   |   |   |   |   |--- 15  <= 0.65
|   |   |   |   |   |   |   |   |   |   |   |   |   |   |   |--- class: 0.0|   |   |   |   |   |   |   |   |   |   |   |   |   |   |--- 15  >  0.65
|   |   |   |   |   |   |   |   |   |   |   |   |   |   |   |--- class: 0.0|   |   |   |   |   |   |   |   |   |   |   |   |--- 4_unknown  >  0.50
|   |   |   |   |   |   |   |   |   |   |   |   |   |--- class: 1.0|   |   |   |   |   |   |   |   |   |   |   |--- 14  >  0.80
|   |   |   |   |   |   |   |   |   |   |   |   |--- class: 1.0|   |   |   |   |   |   |   |   |--- 2_technician  >  0.50
|   |   |   |   |   |   |   |   |   |--- class: 0.0|   |   |   |   |--- 7_yes  >  0.50
|   |   |   |   |   |--- 2_self-employed  <= 0.50
|   |   |   |   |   |   |--- 11  <= 0.86
|   |   |   |   |   |   |   |--- 12  <= 1.31
|   |   |   |   |   |   |   |   |--- class: 0.0|   |   |   |   |   |   |   |--- 12  >  1.31
|   |   |   |   |   |   |   |   |--- class: 0.0|   |   |   |   |   |   |--- 11  >  0.86
|   |   |   |   |   |   |   |--- class: 1.0|   |   |   |   |   |--- 2_self-employed  >  0.50
|   |   |   |   |   |   |--- class: 1.0|   |   |   |--- 2_unknown  >  0.50
|   |   |   |   |--- 1  <= 0.50
|   |   |   |   |   |--- 14  <= -0.65
|   |   |   |   |   |   |--- class: 1.0|   |   |   |   |   |--- 14  >  -0.65
|   |   |   |   |   |   |--- class: 0.0|   |   |   |   |--- 1  >  0.50
|   |   |   |   |   |--- class: 0.0|   |   |--- 2_management  >  0.50
|   |   |   |--- 15  <= 1.52
|   |   |   |   |--- 15  <= 0.59
|   |   |   |   |   |--- class: 0.0|   |   |   |   |--- 15  >  0.59
|   |   |   |   |   |--- 13  <= 0.33
|   |   |   |   |   |   |--- class: 0.0|   |   |   |   |   |--- 13  >  0.33
|   |   |   |   |   |   |--- class: 0.0|   |   |   |--- 15  >  1.52
|   |   |   |   |--- class: 1.0|   |--- 2_entrepreneur  >  2_entrepreneur .52_entrepreneur 
|   |   |--- 16_unknown  <= 0.50
|   |   |   |--- 16_success  <= 0.50
|   |   |   |   |--- class: 0.0|   |   |   |--- 16_success  >  0.50
|   |   |   |   |--- 11  <= -0.06
|   |   |   |   |   |--- 11  <= -0.61
|   |   |   |   |   |   |--- class: 0.0|   |   |   |   |   |--- 11  >  -0.61
|   |   |   |   |   |   |--- class: 0.0|   |   |   |   |--- 11  >  -0.06
|   |   |   |   |   |--- 10  <= 1.53
|   |   |   |   |   |   |--- class: 1.0|   |   |   |   |   |--- 10  >  1.53
|   |   |   |   |   |   |--- class: 0.0|   |   |--- 16_unknown  >  0.50
|   |   |   |--- 12  <= 0.94
|   |   |   |   |--- class: 1.0|   |   |   |--- 12  >  0.94
|   |   |   |   |--- class: 0.0