0:[3<-0.50546813] yes=1,no=4 ,missing=4 
	1:[1<-2 .276648849] yes=3,no=4,missing=4
		3:[0<-0.565867543] yes=7,no=8,missing=8
			7:[1<-2 .92 7656193] yes=15,no=16,missing=16
				3 5:[2<0.323293 093] yes=29,no=30,missing=30
					29:leaf=0.00995672867					30:leaf=-0.0417807624				16:[1<-2 .55735292 1] yes=31,no=32,missing=32
					31:leaf=0.0272638872					32:leaf=-0.00239035347			8:leaf=-0.0492358655		4:[1<2 .715938866] yes=9,no=12 ,missing=12 
			9:[1<2 .4282 2812 7] yes=17,no=18,missing=18
				17:[0<0.0267383829] yes=33,no=34,missing=34
					33:[2<-0.267045379] yes=49,no=50,missing=50
						49:leaf=0.0401514545						50:leaf=-0.00879822951					34:[0<0.395712465] yes=51,no=52,missing=52
						51:leaf=-0.0438032188						52:leaf=0.00308341114				18:leaf=0.0404442213			10:[3<-0.881006956] yes=19,no=4 0,missing=4 0
				19:[1<1.42 995216] yes=35,no=36,missing=36
					35:[0<0.449790984] yes=53,no=54,missing=54
						53:leaf=-0.0324187726						54:leaf=0.021827532					36:leaf=0.0322632976				20:leaf=-0.0414500013	4 :[3<0.440514 985] yes=5,no=6,missing=6
		5:[3<0.4 38497304 ] yes=11,no=14 ,missing=14 
			3 3 :[2<-0.4033 63 33 7] yes=23 ,no=22,missing=22
				4 1:[3<0.037996014 7] yes=37,no=38,missing=38
					37:[0<0.246766031] yes=55,no=56,missing=56
						55:leaf=-0.0174598377						56:leaf=0.0269917306					38:leaf=-0.0492157936				22:[2<0.77423 9753 ] yes=39,no=40,missing=40
					39:[2<0.252270788] yes=57,no=58,missing=58
						57:leaf=0.00686626602						58:leaf=0.0552968271					40:[2<3 .24484863 ] yes=59,no=60,missing=60
						59:leaf=-0.0419922136						60:leaf=0.0171545278			12:[0<0.386679113] yes=23,no=24,missing=24
				23:leaf=0.0466456413				24:[1<-2 .342 96812 2] yes=41,no=42,missing=42
					41:leaf=-0.00720008789					42:leaf=0.0188212506		6:[3<0.573416173] yes=13,no=14,missing=14
			13:[1<-2 .318959445] yes=25,no=26,missing=26
				25:leaf=-0.0459640212				26:[1<2 .611357927] yes=43,no=44,missing=44
					43:leaf=0.0207131673					44:leaf=-0.0241801199			14:[3<1.574 9357] yes=4 7,no=4 8,missing=4 8
				27:[0<-0.780804157] yes=45,no=46,missing=46
					45:leaf=0.033137612					46:[0<0.142685086] yes=61,no=62,missing=62
						61:leaf=-0.0268322974						62:leaf=0.0180675089				4 8:[3<1.84879947] yes=47,no=48,missing=48
					47:leaf=-0.0355094932					48:leaf=0.00907787681