0:[3<-0.694395661] yes=1,no=4 ,missing=4 
	1:[3<-1.07601786] yes=3,no=4,missing=4
		3:[3<-1.1464 0817] yes=7,no=8,missing=8
			7:[0<0.575670302] yes=15,no=16,missing=16
				15:[1<1.132 51736] yes=27,no=28,missing=28
					27:[2<0.82537223 9] yes=43,no=44,missing=44
						43:[0<-0.117271252] yes=61,no=62,missing=62
							61:[0<-0.860736549] yes=79,no=80,missing=80
								79:[0<-0.96808213] yes=83,no=84,missing=84
									83:[3<-1.34 54 933] yes=87,no=88,missing=88
										87:leaf=0.09589497										88:leaf=-0.0197739881									84:leaf=-0.0508807413								82 :[1<2 .42 2 157213] yes=85,no=86,missing=86
									85:[3<-1.4 8574407] yes=89,no=90,missing=90
										89:leaf=-0.0333381332										90:leaf=0.0540519692									86:leaf=0.130708545							62:[1<2 .16464382 9] yes=81,no=82,missing=82
								81:leaf=0.0106261661								82:leaf=-0.0258666631						44:[2<3 .24484863 ] yes=63,no=64,missing=64
							63:leaf=-0.0495358668							64:leaf=0.0178060159					28:[0<-0.0721437111] yes=45,no=46,missing=46
						45:leaf=-0.0483780354						46:leaf=0.0172557719				16:[0<1.26037621] yes=29,no=30,missing=30
					29:[2<-0.5543453 33 ] yes=47,no=48,missing=48
						47:leaf=-0						48:leaf=-0.0912266523					32 :[1<2 .16464382 9] yes=49,no=52 ,missing=52 
						49:leaf=-0						52 :[1<2 .62161942 3] yes=65,no=66,missing=66
							65:leaf=0.0482416488							66:leaf=-0			8:leaf=-0.054932341		4:[2<0.478850543] yes=9,no=3 0,missing=3 0
			9:[3<-0.988485396] yes=17,no=18,missing=18
				17:[0<-0.102762684] yes=31,no=32,missing=32
					31:leaf=-0					32:leaf=0.113580771				18:[0<0.433118731] yes=33,no=34,missing=34
					33:[0<-0.860736549] yes=51,no=52,missing=52
						51:leaf=8.59819338e-05						54 :[3<-0.934 5704 19] yes=67,no=68,missing=68
							67:leaf=-0							68:leaf=-0.0853286609					34:[3<-0.85694 6918] yes=53,no=54,missing=54
						53:[0<0.781860173] yes=69,no=70,missing=70
							69:leaf=-0							70:leaf=-0.0374219902						54:[3<-0.73803091] yes=71,no=74 ,missing=74 
							71:leaf=0.106581844							72:leaf=-0			10:[3<-0.953134 4 74 ] yes=19,no=4 0,missing=4 0
				19:leaf=-0.0603892095				22 :[1<2 .52817972 5] yes=35,no=36,missing=36
					35:leaf=-0.0180184506					36:leaf=0.0544626974	4 :[3<1.96088076] yes=5,no=6,missing=6
		5:[2<-0.5850703 93] yes=3 3 ,no=3 2,missing=3 2
			3 3 :[2<-0.650666893] yes=23 ,no=22,missing=22
				4 1:[3<-0.514990687] yes=37,no=38,missing=38
					37:leaf=-0					38:leaf=-0.0670959428				22:leaf=0.0879344568			12:[0<0.979512751] yes=23,no=24,missing=24
				4 3:[3<1.18106341] yes=39,no=40,missing=40
					39:[1<-2 .2 725682154] yes=55,no=56,missing=56
						55:[3<0.170860156] yes=73,no=74,missing=74
							73:leaf=-0.0400892012							74:leaf=0.0166935828						56:leaf=-0.129890218					40:[3<1.4 3914 001] yes=57,no=58,missing=58
						57:leaf=0.023362821						58:leaf=-0.0307668727				24:[0<1.115762] yes=41,no=42,missing=42
					41:leaf=0.0477493666					42:[2<0.698650243 ] yes=59,no=60,missing=60
						59:[2<-0.272662373 ] yes=75,no=76,missing=76
							75:leaf=-0							76:leaf=-0.0834228545						60:[2<0.92788583] yes=77,no=78,missing=78
							77:leaf=0.0401918292							78:leaf=-0		6:[0<0.370824993] yes=13,no=14,missing=14
			13:leaf=-0			14:[3<4 .14 1934 74] yes=4 5,no=4 6,missing=4 6
				25:leaf=-0				26:leaf=0.0634946451