|--- 10  <= -0.39
|   |--- 14  <= -0.49
|   |   |--- 11  <= 0.63
|   |   |   |--- 8_yes  <= 0.50
|   |   |   |   |--- 4_tertiary  <= 0.50
|   |   |   |   |   |--- class: 0.0|   |   |   |   |--- 4_tertiary  >  0.50
|   |   |   |   |   |--- class: 0.0|   |   |   |--- 8_yes  >  0.50
|   |   |   |   |--- 15  <= 0.85
|   |   |   |   |   |--- 2_unemployed  <= 0.50
|   |   |   |   |   |   |--- 4_tertiary  <= 0.50
|   |   |   |   |   |   |   |--- 15  <= 0.00
|   |   |   |   |   |   |   |   |--- class: 0.0|   |   |   |   |   |   |   |--- 15  >  0.00
|   |   |   |   |   |   |   |   |--- class: 0.0|   |   |   |   |   |   |--- 4_tertiary  >  0.50
|   |   |   |   |   |   |   |--- class: 0.0|   |   |   |   |   |--- 2_unemployed  >  0.50
|   |   |   |   |   |   |--- class: 0.0|   |   |   |   |--- 15  >  0.85
|   |   |   |   |   |--- 15  <= 1.27
|   |   |   |   |   |   |--- class: 0.0|   |   |   |   |   |--- 15  >  1.27
|   |   |   |   |   |   |--- class: 0.0|   |   |--- 11  >  0.63
|   |   |   |--- 12  <= 1.10
|   |   |   |   |--- class_1  <= -0.22
|   |   |   |   |   |--- class: 0.0|   |   |   |   |--- class_1  >  -0.22
|   |   |   |   |   |--- 12  <= -0.08
|   |   |   |   |   |   |--- class: 0.0|   |   |   |   |   |--- 12  >  -0.08
|   |   |   |   |   |   |--- class: 0.0|   |   |   |--- 12  >  1.10
|   |   |   |   |--- class: 0.0|   |--- 14  >  -0.49
|   |   |--- 1  <= 0.50
|   |   |   |--- 16_success  <= 0.50
|   |   |   |   |--- 11  <= 0.99
|   |   |   |   |   |--- 13  <= 0.35
|   |   |   |   |   |   |--- 6  <= -0.72
|   |   |   |   |   |   |   |--- class: 0.0|   |   |   |   |   |   |--- 6  >  -0.72
|   |   |   |   |   |   |   |--- class: 0.0|   |   |   |   |   |--- 13  >  0.35
|   |   |   |   |   |   |--- 13  <= 0.85
|   |   |   |   |   |   |   |--- class: 0.0|   |   |   |   |   |   |--- 13  >  0.85
|   |   |   |   |   |   |   |--- class: 0.0|   |   |   |   |--- 11  >  0.99
|   |   |   |   |   |--- class: 0.0|   |   |   |--- 16_success  >  0.50
|   |   |   |   |--- class_1  <= 0.42
|   |   |   |   |   |--- class: 1.0|   |   |   |   |--- class_1  >  0.42
|   |   |   |   |   |--- class: 0.0|   |   |--- 1  >  0.50
|   |   |   |--- 15  <= -0.19
|   |   |   |   |--- 16_other  <= 0.50
|   |   |   |   |   |--- 4_unknown  <= 0.50
|   |   |   |   |   |   |--- 13  <= 0.18
|   |   |   |   |   |   |   |--- class_1  <= -0.21
|   |   |   |   |   |   |   |   |--- class: 0.0|   |   |   |   |   |   |   |--- class_1  >  -0.21
|   |   |   |   |   |   |   |   |--- 6  <= 0.50
|   |   |   |   |   |   |   |   |   |--- class: 0.0|   |   |   |   |   |   |   |   |--- 6  >  0.50
|   |   |   |   |   |   |   |   |   |--- class: 0.0|   |   |   |   |   |   |--- 13  >  0.18
|   |   |   |   |   |   |   |--- 9_telephone  <= 0.50
|   |   |   |   |   |   |   |   |--- 8_yes  <= 0.50
|   |   |   |   |   |   |   |   |   |--- 4_secondary  <= 0.50
|   |   |   |   |   |   |   |   |   |   |--- class: 0.0|   |   |   |   |   |   |   |   |   |--- 4_secondary  >  0.50
|   |   |   |   |   |   |   |   |   |   |--- class: 0.0|   |   |   |   |   |   |   |   |--- 8_yes  >  0.50
|   |   |   |   |   |   |   |   |   |--- class: 0.0|   |   |   |   |   |   |   |--- 9_telephone  >  0.50
|   |   |   |   |   |   |   |   |--- class: 1.0|   |   |   |   |   |--- 4_unknown  >  0.50
|   |   |   |   |   |   |--- 12  <= 0.15
|   |   |   |   |   |   |   |--- 14  <= 0.12
|   |   |   |   |   |   |   |   |--- class: 0.0|   |   |   |   |   |   |   |--- 14  >  0.12
|   |   |   |   |   |   |   |   |--- class: 1.0|   |   |   |   |   |   |--- 12  >  0.15
|   |   |   |   |   |   |   |--- class: 0.0|   |   |   |   |--- 16_other  >  0.50
|   |   |   |   |   |--- 11  <= 0.21
|   |   |   |   |   |   |--- class: 0.0|   |   |   |   |   |--- 11  >  0.21
|   |   |   |   |   |   |--- class: 0.0|   |   |   |--- 15  >  -0.19
|   |   |   |   |--- 8_yes  <= 0.50
|   |   |   |   |   |--- 4_tertiary  <= 0.50
|   |   |   |   |   |   |--- 13  <= 0.73
|   |   |   |   |   |   |   |--- 12  <= 0.00
|   |   |   |   |   |   |   |   |--- 13  <= -0.62
|   |   |   |   |   |   |   |   |   |--- class: 1.0|   |   |   |   |   |   |   |   |--- 13  >  -0.62
|   |   |   |   |   |   |   |   |   |--- class: 0.0|   |   |   |   |   |   |   |--- 12  >  0.00
|   |   |   |   |   |   |   |   |--- 11  <= -0.13
|   |   |   |   |   |   |   |   |   |--- class: 0.0|   |   |   |   |   |   |   |   |--- 11  >  -0.13
|   |   |   |   |   |   |   |   |   |--- class: 0.0|   |   |   |   |   |   |--- 13  >  0.73
|   |   |   |   |   |   |   |--- class: 1.0|   |   |   |   |   |--- 4_tertiary  >  0.50
|   |   |   |   |   |   |--- 11  <= 0.86
|   |   |   |   |   |   |   |--- 11  <= 0.07
|   |   |   |   |   |   |   |   |--- 6  <= -0.86
|   |   |   |   |   |   |   |   |   |--- class: 0.0|   |   |   |   |   |   |   |   |--- 6  >  -0.86
|   |   |   |   |   |   |   |   |   |--- 13  <= 0.01
|   |   |   |   |   |   |   |   |   |   |--- class: 0.0|   |   |   |   |   |   |   |   |   |--- 13  >  0.01
|   |   |   |   |   |   |   |   |   |   |--- class: 0.0|   |   |   |   |   |   |   |--- 11  >  0.07
|   |   |   |   |   |   |   |   |--- class: 1.0|   |   |   |   |   |   |--- 11  >  0.86
|   |   |   |   |   |   |   |--- class: 0.0|   |   |   |   |--- 8_yes  >  0.50
|   |   |   |   |   |--- class_1  <= 0.55
|   |   |   |   |   |   |--- 2_unemployed  <= 0.50
|   |   |   |   |   |   |   |--- class: 1.0|   |   |   |   |   |   |--- 2_unemployed  >  0.50
|   |   |   |   |   |   |   |--- 6  <= 0.51
|   |   |   |   |   |   |   |   |--- class: 1.0|   |   |   |   |   |   |   |--- 6  >  0.51
|   |   |   |   |   |   |   |   |--- class: 1.0|   |   |   |   |   |--- class_1  >  0.55
|   |   |   |   |   |   |--- 3_single  <= 0.50
|   |   |   |   |   |   |   |--- 12  <= -0.21
|   |   |   |   |   |   |   |   |--- class: 0.0|   |   |   |   |   |   |   |--- 12  >  -0.21
|   |   |   |   |   |   |   |   |--- class: 1.0|   |   |   |   |   |   |--- 3_single  >  0.50
|   |   |   |   |   |   |   |--- class: 0.0|--- 10  >  -0.39
|   |--- 14  <= -0.57
|   |   |--- 8_yes  <= 0.50
|   |   |   |--- 9_telephone  <= 0.50
|   |   |   |   |--- 16_success  <= 0.50
|   |   |   |   |   |--- 3_single  <= 0.50
|   |   |   |   |   |   |--- 10  <= 1.13
|   |   |   |   |   |   |   |--- class_1  <= 0.07
|   |   |   |   |   |   |   |   |--- 10  <= 0.40
|   |   |   |   |   |   |   |   |   |--- class: 0.0|   |   |   |   |   |   |   |   |--- 10  >  0.40
|   |   |   |   |   |   |   |   |   |--- class: 0.0|   |   |   |   |   |   |   |--- class_1  >  0.07
|   |   |   |   |   |   |   |   |--- class: 0.0|   |   |   |   |   |   |--- 10  >  1.13
|   |   |   |   |   |   |   |--- class: 0.0|   |   |   |   |   |--- 3_single  >  0.50
|   |   |   |   |   |   |--- 15  <= 0.53
|   |   |   |   |   |   |   |--- 2_retired  <= 0.50
|   |   |   |   |   |   |   |   |--- 14  <= -0.76
|   |   |   |   |   |   |   |   |   |--- class: 0.0|   |   |   |   |   |   |   |   |--- 14  >  -0.76
|   |   |   |   |   |   |   |   |   |--- class: 0.0|   |   |   |   |   |   |   |--- 2_retired  >  0.50
|   |   |   |   |   |   |   |   |--- class: 0.0|   |   |   |   |   |   |--- 15  >  0.53
|   |   |   |   |   |   |   |--- 4_unknown  <= 0.50
|   |   |   |   |   |   |   |   |--- 15  <= 0.91
|   |   |   |   |   |   |   |   |   |--- class: 0.0|   |   |   |   |   |   |   |   |--- 15  >  0.91
|   |   |   |   |   |   |   |   |   |--- class: 0.0|   |   |   |   |   |   |   |--- 4_unknown  >  0.50
|   |   |   |   |   |   |   |   |--- class: 0.0|   |   |   |   |--- 16_success  >  0.50
|   |   |   |   |   |--- class: 0.0|   |   |   |--- 9_telephone  >  0.50
|   |   |   |   |--- 4_unknown  <= 0.50
|   |   |   |   |   |--- class: 0.0|   |   |   |   |--- 4_unknown  >  0.50
|   |   |   |   |   |--- class: 1.0|   |   |--- 8_yes  >  0.50
|   |   |   |--- 16_other  <= 0.50
|   |   |   |   |--- 15  <= -0.20
|   |   |   |   |   |--- class_1  <= 0.45
|   |   |   |   |   |   |--- 6  <= -0.58
|   |   |   |   |   |   |   |--- class: 0.0|   |   |   |   |   |   |--- 6  >  -0.58
|   |   |   |   |   |   |   |--- class_1  <= -0.18
|   |   |   |   |   |   |   |   |--- class: 0.0|   |   |   |   |   |   |   |--- class_1  >  -0.18
|   |   |   |   |   |   |   |   |--- class: 1.0|   |   |   |   |   |--- class_1  >  0.45
|   |   |   |   |   |   |--- 12  <= 0.07
|   |   |   |   |   |   |   |--- class: 0.0|   |   |   |   |   |   |--- 12  >  0.07
|   |   |   |   |   |   |   |--- class: 0.0|   |   |   |   |--- 15  >  -0.20
|   |   |   |   |   |--- 15  <= 1.56
|   |   |   |   |   |   |--- 10  <= -0.12
|   |   |   |   |   |   |   |--- class: 1.0|   |   |   |   |   |   |--- 10  >  -0.12
|   |   |   |   |   |   |   |--- 11  <= -0.95
|   |   |   |   |   |   |   |   |--- class: 0.0|   |   |   |   |   |   |   |--- 11  >  -0.95
|   |   |   |   |   |   |   |   |--- 4_unknown  <= 0.50
|   |   |   |   |   |   |   |   |   |--- 12  <= 0.07
|   |   |   |   |   |   |   |   |   |   |--- 15  <= 0.57
|   |   |   |   |   |   |   |   |   |   |   |--- class: 1.0|   |   |   |   |   |   |   |   |   |   |--- 15  >  0.57
|   |   |   |   |   |   |   |   |   |   |   |--- class: 0.0|   |   |   |   |   |   |   |   |   |--- 12  >  0.07
|   |   |   |   |   |   |   |   |   |   |--- class: 1.0|   |   |   |   |   |   |   |   |--- 4_unknown  >  0.50
|   |   |   |   |   |   |   |   |   |--- class: 1.0|   |   |   |   |   |--- 15  >  1.56
|   |   |   |   |   |   |--- class: 0.0|   |   |   |--- 16_other  >  0.50
|   |   |   |   |--- class_1  <= 0.23
|   |   |   |   |   |--- 12  <= 0.24
|   |   |   |   |   |   |--- 13  <= 0.22
|   |   |   |   |   |   |   |--- class: 0.0|   |   |   |   |   |   |--- 13  >  0.22
|   |   |   |   |   |   |   |--- class: 0.0|   |   |   |   |   |--- 12  >  0.24
|   |   |   |   |   |   |--- class: 1.0|   |   |   |   |--- class_1  >  0.23
|   |   |   |   |   |--- 15  <= -0.14
|   |   |   |   |   |   |--- class: 0.0|   |   |   |   |   |--- 15  >  -0.14
|   |   |   |   |   |   |--- class: 0.0|   |--- 14  >  -0.57
|   |   |--- 2_housemaid  <= 0.50
|   |   |   |--- 2_unknown  <= 0.50
|   |   |   |   |--- 16_other  <= 0.50
|   |   |   |   |   |--- 4_unknown  <= 0.50
|   |   |   |   |   |   |--- 1  <= 0.50
|   |   |   |   |   |   |   |--- 10  <= 1.03
|   |   |   |   |   |   |   |   |--- 13  <= 0.78
|   |   |   |   |   |   |   |   |   |--- 16_success  <= 0.50
|   |   |   |   |   |   |   |   |   |   |--- 10  <= 0.53
|   |   |   |   |   |   |   |   |   |   |   |--- 3_single  <= 0.50
|   |   |   |   |   |   |   |   |   |   |   |   |--- 10  <= 0.23
|   |   |   |   |   |   |   |   |   |   |   |   |   |--- class: 0.0|   |   |   |   |   |   |   |   |   |   |   |   |--- 10  >  0.23
|   |   |   |   |   |   |   |   |   |   |   |   |   |--- class: 0.0|   |   |   |   |   |   |   |   |   |   |   |--- 3_single  >  0.50
|   |   |   |   |   |   |   |   |   |   |   |   |--- 11  <= 0.29
|   |   |   |   |   |   |   |   |   |   |   |   |   |--- class: 0.0|   |   |   |   |   |   |   |   |   |   |   |   |--- 11  >  0.29
|   |   |   |   |   |   |   |   |   |   |   |   |   |--- class: 0.0|   |   |   |   |   |   |   |   |   |   |--- 10  >  0.53
|   |   |   |   |   |   |   |   |   |   |   |--- 12  <= -0.09
|   |   |   |   |   |   |   |   |   |   |   |   |--- class: 1.0|   |   |   |   |   |   |   |   |   |   |   |--- 12  >  -0.09
|   |   |   |   |   |   |   |   |   |   |   |   |--- class: 0.0|   |   |   |   |   |   |   |   |   |--- 16_success  >  0.50
|   |   |   |   |   |   |   |   |   |   |--- class: 1.0|   |   |   |   |   |   |   |   |--- 13  >  0.78
|   |   |   |   |   |   |   |   |   |--- class: 1.0|   |   |   |   |   |   |   |--- 10  >  1.03
|   |   |   |   |   |   |   |   |--- class_1  <= 0.43
|   |   |   |   |   |   |   |   |   |--- class: 1.0|   |   |   |   |   |   |   |   |--- class_1  >  0.43
|   |   |   |   |   |   |   |   |   |--- class: 0.0|   |   |   |   |   |   |--- 1  >  0.50
|   |   |   |   |   |   |   |--- 2_self-employed  <= 0.50
|   |   |   |   |   |   |   |   |--- class_1  <= 0.06
|   |   |   |   |   |   |   |   |   |--- 4_secondary  <= 0.50
|   |   |   |   |   |   |   |   |   |   |--- 14  <= 0.70
|   |   |   |   |   |   |   |   |   |   |   |--- 10  <= -0.23
|   |   |   |   |   |   |   |   |   |   |   |   |--- class: 0.0|   |   |   |   |   |   |   |   |   |   |   |--- 10  >  -0.23
|   |   |   |   |   |   |   |   |   |   |   |   |--- 15  <= -0.39
|   |   |   |   |   |   |   |   |   |   |   |   |   |--- 13  <= -0.86
|   |   |   |   |   |   |   |   |   |   |   |   |   |   |--- class: 0.0|   |   |   |   |   |   |   |   |   |   |   |   |   |--- 13  >  -0.86
|   |   |   |   |   |   |   |   |   |   |   |   |   |   |--- 14  <= -0.11
|   |   |   |   |   |   |   |   |   |   |   |   |   |   |   |--- class: 1.0|   |   |   |   |   |   |   |   |   |   |   |   |   |   |--- 14  >  -0.11
|   |   |   |   |   |   |   |   |   |   |   |   |   |   |   |--- class: 1.0|   |   |   |   |   |   |   |   |   |   |   |   |--- 15  >  -0.39
|   |   |   |   |   |   |   |   |   |   |   |   |   |--- 15  <= 0.61
|   |   |   |   |   |   |   |   |   |   |   |   |   |   |--- 14  <= -0.23
|   |   |   |   |   |   |   |   |   |   |   |   |   |   |   |--- class: 1.0|   |   |   |   |   |   |   |   |   |   |   |   |   |   |--- 14  >  -0.23
|   |   |   |   |   |   |   |   |   |   |   |   |   |   |   |--- class: 1.0|   |   |   |   |   |   |   |   |   |   |   |   |   |--- 15  >  0.61
|   |   |   |   |   |   |   |   |   |   |   |   |   |   |--- 2_unemployed  <= 0.50
|   |   |   |   |   |   |   |   |   |   |   |   |   |   |   |--- class: 1.0|   |   |   |   |   |   |   |   |   |   |   |   |   |   |--- 2_unemployed  >  0.50
|   |   |   |   |   |   |   |   |   |   |   |   |   |   |   |--- class: 1.0|   |   |   |   |   |   |   |   |   |   |--- 14  >  0.70
|   |   |   |   |   |   |   |   |   |   |   |--- 12  <= -0.48
|   |   |   |   |   |   |   |   |   |   |   |   |--- class: 0.0|   |   |   |   |   |   |   |   |   |   |   |--- 12  >  -0.48
|   |   |   |   |   |   |   |   |   |   |   |   |--- 13  <= -0.40
|   |   |   |   |   |   |   |   |   |   |   |   |   |--- class: 0.0|   |   |   |   |   |   |   |   |   |   |   |   |--- 13  >  -0.40
|   |   |   |   |   |   |   |   |   |   |   |   |   |--- 11  <= 0.02
|   |   |   |   |   |   |   |   |   |   |   |   |   |   |--- class: 1.0|   |   |   |   |   |   |   |   |   |   |   |   |   |--- 11  >  0.02
|   |   |   |   |   |   |   |   |   |   |   |   |   |   |--- class: 1.0|   |   |   |   |   |   |   |   |   |--- 4_secondary  >  0.50
|   |   |   |   |   |   |   |   |   |   |--- 2_retired  <= 0.50
|   |   |   |   |   |   |   |   |   |   |   |--- 4_tertiary  <= 0.50
|   |   |   |   |   |   |   |   |   |   |   |   |--- class: 1.0|   |   |   |   |   |   |   |   |   |   |   |--- 4_tertiary  >  0.50
|   |   |   |   |   |   |   |   |   |   |   |   |--- class: 1.0|   |   |   |   |   |   |   |   |   |   |--- 2_retired  >  0.50
|   |   |   |   |   |   |   |   |   |   |   |--- class: 1.0|   |   |   |   |   |   |   |   |--- class_1  >  0.06
|   |   |   |   |   |   |   |   |   |--- 6  <= -1.53
|   |   |   |   |   |   |   |   |   |   |--- class: 0.0|   |   |   |   |   |   |   |   |   |--- 6  >  -1.53
|   |   |   |   |   |   |   |   |   |   |--- 13  <= -0.81
|   |   |   |   |   |   |   |   |   |   |   |--- 14  <= 0.18
|   |   |   |   |   |   |   |   |   |   |   |   |--- class: 0.0|   |   |   |   |   |   |   |   |   |   |   |--- 14  >  0.18
|   |   |   |   |   |   |   |   |   |   |   |   |--- 6  <= 0.37
|   |   |   |   |   |   |   |   |   |   |   |   |   |--- class: 1.0|   |   |   |   |   |   |   |   |   |   |   |   |--- 6  >  0.37
|   |   |   |   |   |   |   |   |   |   |   |   |   |--- class: 0.0|   |   |   |   |   |   |   |   |   |   |--- 13  >  -0.81
|   |   |   |   |   |   |   |   |   |   |   |--- 14  <= 0.08
|   |   |   |   |   |   |   |   |   |   |   |   |--- 2_retired  <= 0.50
|   |   |   |   |   |   |   |   |   |   |   |   |   |--- 15  <= 0.72
|   |   |   |   |   |   |   |   |   |   |   |   |   |   |--- 14  <= -0.15
|   |   |   |   |   |   |   |   |   |   |   |   |   |   |   |--- 15  <= -0.15 
|   |   |   |   |   |   |   |   |   |   |   |   |   |   |   |   |--- class: 1.0|   |   |   |   |   |   |   |   |   |   |   |   |   |   |   |--- 15  >  -0.15 
|   |   |   |   |   |   |   |   |   |   |   |   |   |   |   |   |--- class: 1.0|   |   |   |   |   |   |   |   |   |   |   |   |   |   |--- 14  >  -0.15
|   |   |   |   |   |   |   |   |   |   |   |   |   |   |   |--- class: 0.0|   |   |   |   |   |   |   |   |   |   |   |   |   |--- 15  >  0.72
|   |   |   |   |   |   |   |   |   |   |   |   |   |   |--- class: 1.0|   |   |   |   |   |   |   |   |   |   |   |   |--- 2_retired  >  0.50
|   |   |   |   |   |   |   |   |   |   |   |   |   |--- class: 0.0|   |   |   |   |   |   |   |   |   |   |   |--- 14  >  0.08
|   |   |   |   |   |   |   |   |   |   |   |   |--- 8_yes  <= 0.50
|   |   |   |   |   |   |   |   |   |   |   |   |   |--- 6  <= 0.84
|   |   |   |   |   |   |   |   |   |   |   |   |   |   |--- 14  <= 0.91
|   |   |   |   |   |   |   |   |   |   |   |   |   |   |   |--- class: 1.0|   |   |   |   |   |   |   |   |   |   |   |   |   |   |--- 14  >  0.91
|   |   |   |   |   |   |   |   |   |   |   |   |   |   |   |--- class: 1.0|   |   |   |   |   |   |   |   |   |   |   |   |   |--- 6  >  0.84
|   |   |   |   |   |   |   |   |   |   |   |   |   |   |--- class: 1.0|   |   |   |   |   |   |   |   |   |   |   |   |--- 8_yes  >  0.50
|   |   |   |   |   |   |   |   |   |   |   |   |   |--- 14  <= 0.78
|   |   |   |   |   |   |   |   |   |   |   |   |   |   |--- class: 1.0|   |   |   |   |   |   |   |   |   |   |   |   |   |--- 14  >  0.78
|   |   |   |   |   |   |   |   |   |   |   |   |   |   |--- 15  <= -0.26
|   |   |   |   |   |   |   |   |   |   |   |   |   |   |   |--- class: 1.0|   |   |   |   |   |   |   |   |   |   |   |   |   |   |--- 15  >  -0.26
|   |   |   |   |   |   |   |   |   |   |   |   |   |   |   |--- class: 1.0|   |   |   |   |   |   |   |--- 2_self-employed  >  0.50
|   |   |   |   |   |   |   |   |--- 6  <= 0.13
|   |   |   |   |   |   |   |   |   |--- class: 0.0|   |   |   |   |   |   |   |   |--- 6  >  0.13
|   |   |   |   |   |   |   |   |   |--- class: 0.0|   |   |   |   |   |--- 4_unknown  >  0.50
|   |   |   |   |   |   |--- 8_yes  <= 0.50
|   |   |   |   |   |   |   |--- 2_retired  <= 0.50
|   |   |   |   |   |   |   |   |--- 9_telephone  <= 0.50
|   |   |   |   |   |   |   |   |   |--- class_1  <= -0.02
|   |   |   |   |   |   |   |   |   |   |--- 14  <= 0.30
|   |   |   |   |   |   |   |   |   |   |   |--- class: 1.0|   |   |   |   |   |   |   |   |   |   |--- 14  >  0.30
|   |   |   |   |   |   |   |   |   |   |   |--- class: 1.0|   |   |   |   |   |   |   |   |   |--- class_1  >  -0.02
|   |   |   |   |   |   |   |   |   |   |--- 11  <= -1.22
|   |   |   |   |   |   |   |   |   |   |   |--- class: 1.0|   |   |   |   |   |   |   |   |   |   |--- 11  >  -1.22
|   |   |   |   |   |   |   |   |   |   |   |--- 11  <= 0.09
|   |   |   |   |   |   |   |   |   |   |   |   |--- class: 0.0|   |   |   |   |   |   |   |   |   |   |   |--- 11  >  0.09
|   |   |   |   |   |   |   |   |   |   |   |   |--- class: 0.0|   |   |   |   |   |   |   |   |--- 9_telephone  >  0.50
|   |   |   |   |   |   |   |   |   |--- class: 1.0|   |   |   |   |   |   |   |--- 2_retired  >  0.50
|   |   |   |   |   |   |   |   |--- class: 1.0|   |   |   |   |   |   |--- 8_yes  >  0.50
|   |   |   |   |   |   |   |--- 11  <= -1.01
|   |   |   |   |   |   |   |   |--- class: 1.0|   |   |   |   |   |   |   |--- 11  >  -1.01
|   |   |   |   |   |   |   |   |--- 2_student  <= 0.50
|   |   |   |   |   |   |   |   |   |--- 14  <= 1.20
|   |   |   |   |   |   |   |   |   |   |--- 10  <= -0.02
|   |   |   |   |   |   |   |   |   |   |   |--- class: 1.0|   |   |   |   |   |   |   |   |   |   |--- 10  >  -0.02
|   |   |   |   |   |   |   |   |   |   |   |--- 14  <= -0.34
|   |   |   |   |   |   |   |   |   |   |   |   |--- class: 1.0|   |   |   |   |   |   |   |   |   |   |   |--- 14  >  -0.34
|   |   |   |   |   |   |   |   |   |   |   |   |--- 12  <= 0.09
|   |   |   |   |   |   |   |   |   |   |   |   |   |--- 13  <= 0.21
|   |   |   |   |   |   |   |   |   |   |   |   |   |   |--- 15  <= -0.17
|   |   |   |   |   |   |   |   |   |   |   |   |   |   |   |--- class: 1.0|   |   |   |   |   |   |   |   |   |   |   |   |   |   |--- 15  >  -0.17
|   |   |   |   |   |   |   |   |   |   |   |   |   |   |   |--- class: 1.0|   |   |   |   |   |   |   |   |   |   |   |   |   |--- 13  >  0.21
|   |   |   |   |   |   |   |   |   |   |   |   |   |   |--- class: 1.0|   |   |   |   |   |   |   |   |   |   |   |   |--- 12  >  0.09
|   |   |   |   |   |   |   |   |   |   |   |   |   |--- class: 1.0|   |   |   |   |   |   |   |   |   |--- 14  >  1.20
|   |   |   |   |   |   |   |   |   |   |--- class: 1.0|   |   |   |   |   |   |   |   |--- 2_student  >  0.50
|   |   |   |   |   |   |   |   |   |--- class: 1.0|   |   |   |   |--- 16_other  >  0.50
|   |   |   |   |   |--- class_1  <= 0.52
|   |   |   |   |   |   |--- 8_yes  <= 0.50
|   |   |   |   |   |   |   |--- 4_tertiary  <= 0.50
|   |   |   |   |   |   |   |   |--- 2_retired  <= 0.50
|   |   |   |   |   |   |   |   |   |--- 2_entrepreneur  <= 2_entrepreneur .52_entrepreneur 
|   |   |   |   |   |   |   |   |   |   |--- 2_unemployed  <= 0.50
|   |   |   |   |   |   |   |   |   |   |   |--- class: 0.0|   |   |   |   |   |   |   |   |   |   |--- 2_unemployed  >  0.50
|   |   |   |   |   |   |   |   |   |   |   |--- class: 1.0|   |   |   |   |   |   |   |   |   |--- 2_entrepreneur  >  2_entrepreneur .52_entrepreneur 
|   |   |   |   |   |   |   |   |   |   |--- class: 0.0|   |   |   |   |   |   |   |   |--- 2_retired  >  0.50
|   |   |   |   |   |   |   |   |   |--- class: 1.0|   |   |   |   |   |   |   |--- 4_tertiary  >  0.50
|   |   |   |   |   |   |   |   |--- 2_student  <= 0.50
|   |   |   |   |   |   |   |   |   |--- 12  <= 0.19
|   |   |   |   |   |   |   |   |   |   |--- 10  <= 0.55
|   |   |   |   |   |   |   |   |   |   |   |--- class: 0.0|   |   |   |   |   |   |   |   |   |   |--- 10  >  0.55
|   |   |   |   |   |   |   |   |   |   |   |--- class: 0.0|   |   |   |   |   |   |   |   |   |--- 12  >  0.19
|   |   |   |   |   |   |   |   |   |   |--- 11  <= 0.28
|   |   |   |   |   |   |   |   |   |   |   |--- class: 0.0|   |   |   |   |   |   |   |   |   |   |--- 11  >  0.28
|   |   |   |   |   |   |   |   |   |   |   |--- class: 0.0|   |   |   |   |   |   |   |   |--- 2_student  >  0.50
|   |   |   |   |   |   |   |   |   |--- class: 0.0|   |   |   |   |   |   |--- 8_yes  >  0.50
|   |   |   |   |   |   |   |--- 6  <= -1.19
|   |   |   |   |   |   |   |   |--- class: 0.0|   |   |   |   |   |   |   |--- 6  >  -1.19
|   |   |   |   |   |   |   |   |--- 10  <= -0.13
|   |   |   |   |   |   |   |   |   |--- class: 0.0|   |   |   |   |   |   |   |   |--- 10  >  -0.13
|   |   |   |   |   |   |   |   |   |--- 4_tertiary  <= 0.50
|   |   |   |   |   |   |   |   |   |   |--- 15  <= -0.18
|   |   |   |   |   |   |   |   |   |   |   |--- 10  <= 0.61
|   |   |   |   |   |   |   |   |   |   |   |   |--- class: 1.0|   |   |   |   |   |   |   |   |   |   |   |--- 10  >  0.61
|   |   |   |   |   |   |   |   |   |   |   |   |--- class: 1.0|   |   |   |   |   |   |   |   |   |   |--- 15  >  -0.18
|   |   |   |   |   |   |   |   |   |   |   |--- class: 1.0|   |   |   |   |   |   |   |   |   |--- 4_tertiary  >  0.50
|   |   |   |   |   |   |   |   |   |   |--- class_1  <= -0.12
|   |   |   |   |   |   |   |   |   |   |   |--- 2_unemployed  <= 0.50
|   |   |   |   |   |   |   |   |   |   |   |   |--- class: 1.0|   |   |   |   |   |   |   |   |   |   |   |--- 2_unemployed  >  0.50
|   |   |   |   |   |   |   |   |   |   |   |   |--- class: 1.0|   |   |   |   |   |   |   |   |   |   |--- class_1  >  -0.12
|   |   |   |   |   |   |   |   |   |   |   |--- class: 0.0|   |   |   |   |   |--- class_1  >  0.52
|   |   |   |   |   |   |--- 3_single  <= 0.50
|   |   |   |   |   |   |   |--- 14  <= 0.35
|   |   |   |   |   |   |   |   |--- class: 0.0|   |   |   |   |   |   |   |--- 14  >  0.35
|   |   |   |   |   |   |   |   |--- class: 0.0|   |   |   |   |   |   |--- 3_single  >  0.50
|   |   |   |   |   |   |   |--- 11  <= -1.05
|   |   |   |   |   |   |   |   |--- class: 0.0|   |   |   |   |   |   |   |--- 11  >  -1.05
|   |   |   |   |   |   |   |   |--- 11  <= 0.98
|   |   |   |   |   |   |   |   |   |--- 6  <= 0.08
|   |   |   |   |   |   |   |   |   |   |--- class: 0.0|   |   |   |   |   |   |   |   |   |--- 6  >  0.08
|   |   |   |   |   |   |   |   |   |   |--- 12  <= 0.24
|   |   |   |   |   |   |   |   |   |   |   |--- class: 0.0|   |   |   |   |   |   |   |   |   |   |--- 12  >  0.24
|   |   |   |   |   |   |   |   |   |   |   |--- class: 0.0|   |   |   |   |   |   |   |   |--- 11  >  0.98
|   |   |   |   |   |   |   |   |   |--- class: 0.0|   |   |   |--- 2_unknown  >  0.50
|   |   |   |   |--- 6  <= 0.25
|   |   |   |   |   |--- class: 0.0|   |   |   |   |--- 6  >  0.25
|   |   |   |   |   |--- class: 0.0|   |   |--- 2_housemaid  >  0.50
|   |   |   |--- 13  <= -0.30
|   |   |   |   |--- class: 1.0|   |   |   |--- 13  >  -0.30
|   |   |   |   |--- 11  <= -0.16
|   |   |   |   |   |--- class: 1.0|   |   |   |   |--- 11  >  -0.16
|   |   |   |   |   |--- class: 1.0