|--- 8_yes  <= 0.50
|   |--- 14  <= 0.10
|   |   |--- 10  <= -0.21
|   |   |   |--- 9_telephone  <= 0.50
|   |   |   |   |--- 4_unknown  <= 0.50
|   |   |   |   |   |--- 15  <= 0.50
|   |   |   |   |   |   |--- class: 0.0|   |   |   |   |   |--- 15  >  0.50
|   |   |   |   |   |   |--- 11  <= -0.39
|   |   |   |   |   |   |   |--- 14  <= -0.65
|   |   |   |   |   |   |   |   |--- class: 0.0|   |   |   |   |   |   |   |--- 14  >  -0.65
|   |   |   |   |   |   |   |   |--- class: 0.0|   |   |   |   |   |   |--- 11  >  -0.39
|   |   |   |   |   |   |   |--- class: 0.0|   |   |   |   |--- 4_unknown  >  0.50
|   |   |   |   |   |--- 14  <= -0.49
|   |   |   |   |   |   |--- class_1  <= 0.10
|   |   |   |   |   |   |   |--- class: 0.0|   |   |   |   |   |   |--- class_1  >  0.10
|   |   |   |   |   |   |   |--- class: 0.0|   |   |   |   |   |--- 14  >  -0.49
|   |   |   |   |   |   |--- class: 0.0|   |   |   |--- 9_telephone  >  0.50
|   |   |   |   |--- 14  <= -0.54
|   |   |   |   |   |--- class: 0.0|   |   |   |   |--- 14  >  -0.54
|   |   |   |   |   |--- class: 0.0|   |   |--- 10  >  -0.21
|   |   |   |--- class_1  <= 0.20
|   |   |   |   |--- 9_telephone  <= 0.50
|   |   |   |   |   |--- class_1  <= 0.14
|   |   |   |   |   |   |--- 10  <= 1.14
|   |   |   |   |   |   |   |--- 16_other  <= 0.50
|   |   |   |   |   |   |   |   |--- 4_unknown  <= 0.50
|   |   |   |   |   |   |   |   |   |--- 6  <= -0.69
|   |   |   |   |   |   |   |   |   |   |--- class: 0.0|   |   |   |   |   |   |   |   |   |--- 6  >  -0.69
|   |   |   |   |   |   |   |   |   |   |--- class: 0.0|   |   |   |   |   |   |   |   |--- 4_unknown  >  0.50
|   |   |   |   |   |   |   |   |   |--- 10  <= 0.28
|   |   |   |   |   |   |   |   |   |   |--- class: 1.0|   |   |   |   |   |   |   |   |   |--- 10  >  0.28
|   |   |   |   |   |   |   |   |   |   |--- class: 0.0|   |   |   |   |   |   |   |--- 16_other  >  0.50
|   |   |   |   |   |   |   |   |--- 11  <= -0.50
|   |   |   |   |   |   |   |   |   |--- class: 0.0|   |   |   |   |   |   |   |   |--- 11  >  -0.50
|   |   |   |   |   |   |   |   |   |--- class: 0.0|   |   |   |   |   |   |--- 10  >  1.14
|   |   |   |   |   |   |   |--- 12  <= -0.73
|   |   |   |   |   |   |   |   |--- class: 0.0|   |   |   |   |   |   |   |--- 12  >  -0.73
|   |   |   |   |   |   |   |   |--- 11  <= 0.50
|   |   |   |   |   |   |   |   |   |--- class: 0.0|   |   |   |   |   |   |   |   |--- 11  >  0.50
|   |   |   |   |   |   |   |   |   |--- class: 1.0|   |   |   |   |   |--- class_1  >  0.14
|   |   |   |   |   |   |--- class: 1.0|   |   |   |   |--- 9_telephone  >  0.50
|   |   |   |   |   |--- class: 1.0|   |   |   |--- class_1  >  0.20
|   |   |   |   |--- 11  <= 0.56
|   |   |   |   |   |--- 12  <= 0.64
|   |   |   |   |   |   |--- 13  <= 1.05
|   |   |   |   |   |   |   |--- 2_retired  <= 0.50
|   |   |   |   |   |   |   |   |--- class: 0.0|   |   |   |   |   |   |   |--- 2_retired  >  0.50
|   |   |   |   |   |   |   |   |--- class: 0.0|   |   |   |   |   |   |--- 13  >  1.05
|   |   |   |   |   |   |   |--- class: 0.0|   |   |   |   |   |--- 12  >  0.64
|   |   |   |   |   |   |--- 13  <= -0.21
|   |   |   |   |   |   |   |--- class: 0.0|   |   |   |   |   |   |--- 13  >  -0.21
|   |   |   |   |   |   |   |--- class: 0.0|   |   |   |   |--- 11  >  0.56
|   |   |   |   |   |--- 11  <= 0.74
|   |   |   |   |   |   |--- class: 1.0|   |   |   |   |   |--- 11  >  0.74
|   |   |   |   |   |   |--- 14  <= -0.46
|   |   |   |   |   |   |   |--- 12  <= 0.16
|   |   |   |   |   |   |   |   |--- class: 0.0|   |   |   |   |   |   |   |--- 12  >  0.16
|   |   |   |   |   |   |   |   |--- class: 0.0|   |   |   |   |   |   |--- 14  >  -0.46
|   |   |   |   |   |   |   |--- class: 0.0|   |--- 14  >  0.10
|   |   |--- 14  <= 1.44
|   |   |   |--- 16_other  <= 0.50
|   |   |   |   |--- 10  <= -0.39
|   |   |   |   |   |--- 11  <= 1.28
|   |   |   |   |   |   |--- class_1  <= 0.43
|   |   |   |   |   |   |   |--- 15  <= 0.58
|   |   |   |   |   |   |   |   |--- 11  <= 0.47
|   |   |   |   |   |   |   |   |   |--- 12  <= -0.52
|   |   |   |   |   |   |   |   |   |   |--- class: 0.0|   |   |   |   |   |   |   |   |   |--- 12  >  -0.52
|   |   |   |   |   |   |   |   |   |   |--- 6  <= 0.19
|   |   |   |   |   |   |   |   |   |   |   |--- class: 1.0|   |   |   |   |   |   |   |   |   |   |--- 6  >  0.19
|   |   |   |   |   |   |   |   |   |   |   |--- class: 0.0|   |   |   |   |   |   |   |   |--- 11  >  0.47
|   |   |   |   |   |   |   |   |   |--- class: 0.0|   |   |   |   |   |   |   |--- 15  >  0.58
|   |   |   |   |   |   |   |   |--- class: 0.0|   |   |   |   |   |   |--- class_1  >  0.43
|   |   |   |   |   |   |   |--- 2_retired  <= 0.50
|   |   |   |   |   |   |   |   |--- class: 0.0|   |   |   |   |   |   |   |--- 2_retired  >  0.50
|   |   |   |   |   |   |   |   |--- class: 0.0|   |   |   |   |   |--- 11  >  1.28
|   |   |   |   |   |   |--- class: 1.0|   |   |   |   |--- 10  >  -0.39
|   |   |   |   |   |--- 1  <= 0.50
|   |   |   |   |   |   |--- 4_tertiary  <= 0.50
|   |   |   |   |   |   |   |--- class: 0.0|   |   |   |   |   |   |--- 4_tertiary  >  0.50
|   |   |   |   |   |   |   |--- 11  <= -0.17
|   |   |   |   |   |   |   |   |--- class: 0.0|   |   |   |   |   |   |   |--- 11  >  -0.17
|   |   |   |   |   |   |   |   |--- class: 0.0|   |   |   |   |   |--- 1  >  0.50
|   |   |   |   |   |   |--- 15  <= 1.28
|   |   |   |   |   |   |   |--- 4_unknown  <= 0.50
|   |   |   |   |   |   |   |   |--- 9_unknown  <= 0.50
|   |   |   |   |   |   |   |   |   |--- 14  <= 1.02
|   |   |   |   |   |   |   |   |   |   |--- 12  <= -0.05
|   |   |   |   |   |   |   |   |   |   |   |--- class_1  <= -0.05
|   |   |   |   |   |   |   |   |   |   |   |   |--- class: 1.0|   |   |   |   |   |   |   |   |   |   |   |--- class_1  >  -0.05
|   |   |   |   |   |   |   |   |   |   |   |   |--- class: 0.0|   |   |   |   |   |   |   |   |   |   |--- 12  >  -0.05
|   |   |   |   |   |   |   |   |   |   |   |--- 12  <= 0.50
|   |   |   |   |   |   |   |   |   |   |   |   |--- class: 1.0|   |   |   |   |   |   |   |   |   |   |   |--- 12  >  0.50
|   |   |   |   |   |   |   |   |   |   |   |   |--- class_1  <= 0.90
|   |   |   |   |   |   |   |   |   |   |   |   |   |--- class: 1.0|   |   |   |   |   |   |   |   |   |   |   |   |--- class_1  >  0.90
|   |   |   |   |   |   |   |   |   |   |   |   |   |--- class: 0.0|   |   |   |   |   |   |   |   |   |--- 14  >  1.02
|   |   |   |   |   |   |   |   |   |   |--- class: 0.0|   |   |   |   |   |   |   |   |--- 9_unknown  >  0.50
|   |   |   |   |   |   |   |   |   |--- class: 1.0|   |   |   |   |   |   |   |--- 4_unknown  >  0.50
|   |   |   |   |   |   |   |   |--- 4_secondary  <= 0.50
|   |   |   |   |   |   |   |   |   |--- 10  <= 0.86
|   |   |   |   |   |   |   |   |   |   |--- class: 1.0|   |   |   |   |   |   |   |   |   |--- 10  >  0.86
|   |   |   |   |   |   |   |   |   |   |--- class: 1.0|   |   |   |   |   |   |   |   |--- 4_secondary  >  0.50
|   |   |   |   |   |   |   |   |   |--- class: 1.0|   |   |   |   |   |   |--- 15  >  1.28
|   |   |   |   |   |   |   |--- class: 0.0|   |   |   |--- 16_other  >  0.50
|   |   |   |   |--- 9_telephone  <= 0.50
|   |   |   |   |   |--- 2_unemployed  <= 0.50
|   |   |   |   |   |   |--- 14  <= 0.26
|   |   |   |   |   |   |   |--- class: 0.0|   |   |   |   |   |   |--- 14  >  0.26
|   |   |   |   |   |   |   |--- 3_single  <= 0.50
|   |   |   |   |   |   |   |   |--- class_1  <= -0.09
|   |   |   |   |   |   |   |   |   |--- class: 0.0|   |   |   |   |   |   |   |   |--- class_1  >  -0.09
|   |   |   |   |   |   |   |   |   |--- class: 0.0|   |   |   |   |   |   |   |--- 3_single  >  0.50
|   |   |   |   |   |   |   |   |--- class_1  <= 0.18
|   |   |   |   |   |   |   |   |   |--- class: 0.0|   |   |   |   |   |   |   |   |--- class_1  >  0.18
|   |   |   |   |   |   |   |   |   |--- class: 0.0|   |   |   |   |   |--- 2_unemployed  >  0.50
|   |   |   |   |   |   |--- 10  <= 0.21
|   |   |   |   |   |   |   |--- class: 0.0|   |   |   |   |   |   |--- 10  >  0.21
|   |   |   |   |   |   |   |--- class: 1.0|   |   |   |   |--- 9_telephone  >  0.50
|   |   |   |   |   |--- 11  <= -0.32
|   |   |   |   |   |   |--- class: 0.0|   |   |   |   |   |--- 11  >  -0.32
|   |   |   |   |   |   |--- class: 1.0|   |   |--- 14  >  1.44
|   |   |   |--- 4_unknown  <= 0.50
|   |   |   |   |--- 10  <= 0.08
|   |   |   |   |   |--- 12  <= 0.22
|   |   |   |   |   |   |--- class: 0.0|   |   |   |   |   |--- 12  >  0.22
|   |   |   |   |   |   |--- class: 0.0|   |   |   |   |--- 10  >  0.08
|   |   |   |   |   |--- class_1  <= 0.01
|   |   |   |   |   |   |--- class: 1.0|   |   |   |   |   |--- class_1  >  0.01
|   |   |   |   |   |   |--- class: 0.0|   |   |   |--- 4_unknown  >  0.50
|   |   |   |   |--- 13  <= 0.38
|   |   |   |   |   |--- class: 1.0|   |   |   |   |--- 13  >  0.38
|   |   |   |   |   |--- class: 1.0|--- 8_yes  >  0.50
|   |--- 1  <= 0.50
|   |   |--- 10  <= -0.27
|   |   |   |--- 16_success  <= 0.50
|   |   |   |   |--- 3_single  <= 0.50
|   |   |   |   |   |--- 15  <= 0.21
|   |   |   |   |   |   |--- class: 0.0|   |   |   |   |   |--- 15  >  0.21
|   |   |   |   |   |   |--- class: 0.0|   |   |   |   |--- 3_single  >  0.50
|   |   |   |   |   |--- 11  <= 0.76
|   |   |   |   |   |   |--- 11  <= 0.47
|   |   |   |   |   |   |   |--- 15  <= -0.09
|   |   |   |   |   |   |   |   |--- class: 0.0|   |   |   |   |   |   |   |--- 15  >  -0.09
|   |   |   |   |   |   |   |   |--- class: 0.0|   |   |   |   |   |   |--- 11  >  0.47
|   |   |   |   |   |   |   |--- class: 0.0|   |   |   |   |   |--- 11  >  0.76
|   |   |   |   |   |   |--- class: 0.0|   |   |   |--- 16_success  >  0.50
|   |   |   |   |--- class_1  <= 0.01
|   |   |   |   |   |--- class: 1.0|   |   |   |   |--- class_1  >  0.01
|   |   |   |   |   |--- class: 0.0|   |   |--- 10  >  -0.27
|   |   |   |--- 11  <= -0.18
|   |   |   |   |--- 14  <= -0.17
|   |   |   |   |   |--- 15  <= 0.02
|   |   |   |   |   |   |--- class: 0.0|   |   |   |   |   |--- 15  >  0.02
|   |   |   |   |   |   |--- class: 0.0|   |   |   |   |--- 14  >  -0.17
|   |   |   |   |   |--- 15  <= 0.05
|   |   |   |   |   |   |--- class_1  <= 0.20
|   |   |   |   |   |   |   |--- class: 1.0|   |   |   |   |   |   |--- class_1  >  0.20
|   |   |   |   |   |   |   |--- class: 1.0|   |   |   |   |   |--- 15  >  0.05
|   |   |   |   |   |   |--- class: 0.0|   |   |   |--- 11  >  -0.18
|   |   |   |   |--- 15  <= -0.39
|   |   |   |   |   |--- 14  <= -0.20
|   |   |   |   |   |   |--- class: 1.0|   |   |   |   |   |--- 14  >  -0.20
|   |   |   |   |   |   |--- class: 1.0|   |   |   |   |--- 15  >  -0.39
|   |   |   |   |   |--- class_1  <= 0.77
|   |   |   |   |   |   |--- 4_unknown  <= 0.50
|   |   |   |   |   |   |   |--- 3_single  <= 0.50
|   |   |   |   |   |   |   |   |--- class: 0.0|   |   |   |   |   |   |   |--- 3_single  >  0.50
|   |   |   |   |   |   |   |   |--- class: 0.0|   |   |   |   |   |   |--- 4_unknown  >  0.50
|   |   |   |   |   |   |   |--- class: 1.0|   |   |   |   |   |--- class_1  >  0.77
|   |   |   |   |   |   |--- class: 1.0|   |--- 1  >  0.50
|   |   |--- 14  <= -0.57
|   |   |   |--- 15  <= -0.01
|   |   |   |   |--- 2_entrepreneur  <= 2_entrepreneur .52_entrepreneur 
|   |   |   |   |   |--- class_1  <= -0.08
|   |   |   |   |   |   |--- 4_secondary  <= 0.50
|   |   |   |   |   |   |   |--- 10  <= -0.11
|   |   |   |   |   |   |   |   |--- class: 0.0|   |   |   |   |   |   |   |--- 10  >  -0.11
|   |   |   |   |   |   |   |   |--- class: 0.0|   |   |   |   |   |   |--- 4_secondary  >  0.50
|   |   |   |   |   |   |   |--- class: 0.0|   |   |   |   |   |--- class_1  >  -0.08
|   |   |   |   |   |   |--- 11  <= 0.62
|   |   |   |   |   |   |   |--- 10  <= 0.40
|   |   |   |   |   |   |   |   |--- class: 0.0|   |   |   |   |   |   |   |--- 10  >  0.40
|   |   |   |   |   |   |   |   |--- class: 0.0|   |   |   |   |   |   |--- 11  >  0.62
|   |   |   |   |   |   |   |--- class: 0.0|   |   |   |   |--- 2_entrepreneur  >  2_entrepreneur .52_entrepreneur 
|   |   |   |   |   |--- 4_tertiary  <= 0.50
|   |   |   |   |   |   |--- class: 0.0|   |   |   |   |   |--- 4_tertiary  >  0.50
|   |   |   |   |   |   |--- class: 0.0|   |   |   |--- 15  >  -0.01
|   |   |   |   |--- 14  <= -0.74
|   |   |   |   |   |--- 15  <= 1.49
|   |   |   |   |   |   |--- 15  <= 1.16
|   |   |   |   |   |   |   |--- 4_tertiary  <= 0.50
|   |   |   |   |   |   |   |   |--- 10  <= 0.14
|   |   |   |   |   |   |   |   |   |--- 12  <= 0.36
|   |   |   |   |   |   |   |   |   |   |--- class: 1.0|   |   |   |   |   |   |   |   |   |--- 12  >  0.36
|   |   |   |   |   |   |   |   |   |   |--- class: 0.0|   |   |   |   |   |   |   |   |--- 10  >  0.14
|   |   |   |   |   |   |   |   |   |--- class: 1.0|   |   |   |   |   |   |   |--- 4_tertiary  >  0.50
|   |   |   |   |   |   |   |   |--- 15  <= 0.37
|   |   |   |   |   |   |   |   |   |--- class: 0.0|   |   |   |   |   |   |   |   |--- 15  >  0.37
|   |   |   |   |   |   |   |   |   |--- 11  <= -0.31
|   |   |   |   |   |   |   |   |   |   |--- class: 0.0|   |   |   |   |   |   |   |   |   |--- 11  >  -0.31
|   |   |   |   |   |   |   |   |   |   |--- class: 0.0|   |   |   |   |   |   |--- 15  >  1.16
|   |   |   |   |   |   |   |--- class: 1.0|   |   |   |   |   |--- 15  >  1.49
|   |   |   |   |   |   |--- class: 0.0|   |   |   |   |--- 14  >  -0.74
|   |   |   |   |   |--- 3_single  <= 0.50
|   |   |   |   |   |   |--- 14  <= -0.65
|   |   |   |   |   |   |   |--- class: 0.0|   |   |   |   |   |   |--- 14  >  -0.65
|   |   |   |   |   |   |   |--- class: 0.0|   |   |   |   |   |--- 3_single  >  0.50
|   |   |   |   |   |   |--- class: 0.0|   |   |--- 14  >  -0.57
|   |   |   |--- 16_other  <= 0.50
|   |   |   |   |--- 10  <= -0.40
|   |   |   |   |   |--- 14  <= 0.07
|   |   |   |   |   |   |--- 2_unemployed  <= 0.50
|   |   |   |   |   |   |   |--- 11  <= 1.04
|   |   |   |   |   |   |   |   |--- class_1  <= 0.45
|   |   |   |   |   |   |   |   |   |--- 2_retired  <= 0.50
|   |   |   |   |   |   |   |   |   |   |--- class: 0.0|   |   |   |   |   |   |   |   |   |--- 2_retired  >  0.50
|   |   |   |   |   |   |   |   |   |   |--- class: 1.0|   |   |   |   |   |   |   |   |--- class_1  >  0.45
|   |   |   |   |   |   |   |   |   |--- class: 0.0|   |   |   |   |   |   |   |--- 11  >  1.04
|   |   |   |   |   |   |   |   |--- class: 0.0|   |   |   |   |   |   |--- 2_unemployed  >  0.50
|   |   |   |   |   |   |   |--- class: 1.0|   |   |   |   |   |--- 14  >  0.07
|   |   |   |   |   |   |--- 6  <= -1.21
|   |   |   |   |   |   |   |--- class: 0.0|   |   |   |   |   |   |--- 6  >  -1.21
|   |   |   |   |   |   |   |--- 13  <= -0.38
|   |   |   |   |   |   |   |   |--- class_1  <= 0.55
|   |   |   |   |   |   |   |   |   |--- 14  <= 0.70
|   |   |   |   |   |   |   |   |   |   |--- class: 1.0|   |   |   |   |   |   |   |   |   |--- 14  >  0.70
|   |   |   |   |   |   |   |   |   |   |--- class: 1.0|   |   |   |   |   |   |   |   |--- class_1  >  0.55
|   |   |   |   |   |   |   |   |   |--- class: 0.0|   |   |   |   |   |   |   |--- 13  >  -0.38
|   |   |   |   |   |   |   |   |--- 2_entrepreneur  <= 2_entrepreneur .52_entrepreneur 
|   |   |   |   |   |   |   |   |   |--- 14  <= 1.07
|   |   |   |   |   |   |   |   |   |   |--- 11  <= 0.43
|   |   |   |   |   |   |   |   |   |   |   |--- 13  <= 0.17
|   |   |   |   |   |   |   |   |   |   |   |   |--- class: 1.0|   |   |   |   |   |   |   |   |   |   |   |--- 13  >  0.17
|   |   |   |   |   |   |   |   |   |   |   |   |--- class: 1.0|   |   |   |   |   |   |   |   |   |   |--- 11  >  0.43
|   |   |   |   |   |   |   |   |   |   |   |--- class: 1.0|   |   |   |   |   |   |   |   |   |--- 14  >  1.07
|   |   |   |   |   |   |   |   |   |   |--- class: 1.0|   |   |   |   |   |   |   |   |--- 2_entrepreneur  >  2_entrepreneur .52_entrepreneur 
|   |   |   |   |   |   |   |   |   |--- class: 1.0|   |   |   |   |--- 10  >  -0.40
|   |   |   |   |   |--- 2_self-employed  <= 0.50
|   |   |   |   |   |   |--- 15  <= -0.15
|   |   |   |   |   |   |   |--- 2_entrepreneur  <= 2_entrepreneur .52_entrepreneur 
|   |   |   |   |   |   |   |   |--- 13  <= -0.99
|   |   |   |   |   |   |   |   |   |--- 2_unemployed  <= 0.50
|   |   |   |   |   |   |   |   |   |   |--- class: 0.0|   |   |   |   |   |   |   |   |   |--- 2_unemployed  >  0.50
|   |   |   |   |   |   |   |   |   |   |--- class: 1.0|   |   |   |   |   |   |   |   |--- 13  >  -0.99
|   |   |   |   |   |   |   |   |   |--- 2_student  <= 0.50
|   |   |   |   |   |   |   |   |   |   |--- 10  <= 0.07
|   |   |   |   |   |   |   |   |   |   |   |--- 10  <= -0.17
|   |   |   |   |   |   |   |   |   |   |   |   |--- class: 1.0|   |   |   |   |   |   |   |   |   |   |   |--- 10  >  -0.17
|   |   |   |   |   |   |   |   |   |   |   |   |--- class: 1.0|   |   |   |   |   |   |   |   |   |   |--- 10  >  0.07
|   |   |   |   |   |   |   |   |   |   |   |--- 9_telephone  <= 0.50
|   |   |   |   |   |   |   |   |   |   |   |   |--- 14  <= 1.10
|   |   |   |   |   |   |   |   |   |   |   |   |   |--- 12  <= 0.49
|   |   |   |   |   |   |   |   |   |   |   |   |   |   |--- 11  <= -0.27
|   |   |   |   |   |   |   |   |   |   |   |   |   |   |   |--- class: 1.0|   |   |   |   |   |   |   |   |   |   |   |   |   |   |--- 11  >  -0.27
|   |   |   |   |   |   |   |   |   |   |   |   |   |   |   |--- class: 1.0|   |   |   |   |   |   |   |   |   |   |   |   |   |--- 12  >  0.49
|   |   |   |   |   |   |   |   |   |   |   |   |   |   |--- class: 1.0|   |   |   |   |   |   |   |   |   |   |   |   |--- 14  >  1.10
|   |   |   |   |   |   |   |   |   |   |   |   |   |--- class: 1.0|   |   |   |   |   |   |   |   |   |   |   |--- 9_telephone  >  0.50
|   |   |   |   |   |   |   |   |   |   |   |   |--- class: 1.0|   |   |   |   |   |   |   |   |   |--- 2_student  >  0.50
|   |   |   |   |   |   |   |   |   |   |--- class: 1.0|   |   |   |   |   |   |   |--- 2_entrepreneur  >  2_entrepreneur .52_entrepreneur 
|   |   |   |   |   |   |   |   |--- 13  <= -0.69
|   |   |   |   |   |   |   |   |   |--- class: 0.0|   |   |   |   |   |   |   |   |--- 13  >  -0.69
|   |   |   |   |   |   |   |   |   |--- 3_single  <= 0.50
|   |   |   |   |   |   |   |   |   |   |--- class: 1.0|   |   |   |   |   |   |   |   |   |--- 3_single  >  0.50
|   |   |   |   |   |   |   |   |   |   |--- class: 1.0|   |   |   |   |   |   |--- 15  >  -0.15
|   |   |   |   |   |   |   |--- 13  <= -1.00
|   |   |   |   |   |   |   |   |--- class: 1.0|   |   |   |   |   |   |   |--- 13  >  -1.00
|   |   |   |   |   |   |   |   |--- 14  <= 1.27
|   |   |   |   |   |   |   |   |   |--- 13  <= 1.25
|   |   |   |   |   |   |   |   |   |   |--- class_1  <= 0.39
|   |   |   |   |   |   |   |   |   |   |   |--- 9_telephone  <= 0.50
|   |   |   |   |   |   |   |   |   |   |   |   |--- 13  <= -0.58
|   |   |   |   |   |   |   |   |   |   |   |   |   |--- 12  <= 0.14
|   |   |   |   |   |   |   |   |   |   |   |   |   |   |--- class: 1.0|   |   |   |   |   |   |   |   |   |   |   |   |   |--- 12  >  0.14
|   |   |   |   |   |   |   |   |   |   |   |   |   |   |--- class: 1.0|   |   |   |   |   |   |   |   |   |   |   |   |--- 13  >  -0.58
|   |   |   |   |   |   |   |   |   |   |   |   |   |--- class: 1.0|   |   |   |   |   |   |   |   |   |   |   |--- 9_telephone  >  0.50
|   |   |   |   |   |   |   |   |   |   |   |   |--- class: 1.0|   |   |   |   |   |   |   |   |   |   |--- class_1  >  0.39
|   |   |   |   |   |   |   |   |   |   |   |--- 13  <= 0.11
|   |   |   |   |   |   |   |   |   |   |   |   |--- 10  <= 0.35
|   |   |   |   |   |   |   |   |   |   |   |   |   |--- class: 1.0|   |   |   |   |   |   |   |   |   |   |   |   |--- 10  >  0.35
|   |   |   |   |   |   |   |   |   |   |   |   |   |--- class: 1.0|   |   |   |   |   |   |   |   |   |   |   |--- 13  >  0.11
|   |   |   |   |   |   |   |   |   |   |   |   |--- 14  <= 0.19
|   |   |   |   |   |   |   |   |   |   |   |   |   |--- class: 1.0|   |   |   |   |   |   |   |   |   |   |   |   |--- 14  >  0.19
|   |   |   |   |   |   |   |   |   |   |   |   |   |--- class: 1.0|   |   |   |   |   |   |   |   |   |--- 13  >  1.25
|   |   |   |   |   |   |   |   |   |   |--- class: 1.0|   |   |   |   |   |   |   |   |--- 14  >  1.27
|   |   |   |   |   |   |   |   |   |--- 10  <= 0.61
|   |   |   |   |   |   |   |   |   |   |--- class: 1.0|   |   |   |   |   |   |   |   |   |--- 10  >  0.61
|   |   |   |   |   |   |   |   |   |   |--- class: 1.0|   |   |   |   |   |--- 2_self-employed  >  0.50
|   |   |   |   |   |   |--- class: 1.0|   |   |   |--- 16_other  >  0.50
|   |   |   |   |--- 6  <= 1.14
|   |   |   |   |   |--- 2_entrepreneur  <= 2_entrepreneur .52_entrepreneur 
|   |   |   |   |   |   |--- 6  <= -1.78
|   |   |   |   |   |   |   |--- class: 0.0|   |   |   |   |   |   |--- 6  >  -1.78
|   |   |   |   |   |   |   |--- 4_tertiary  <= 0.50
|   |   |   |   |   |   |   |   |--- 4_unknown  <= 0.50
|   |   |   |   |   |   |   |   |   |--- 15  <= 0.23
|   |   |   |   |   |   |   |   |   |   |--- class_1  <= 0.27
|   |   |   |   |   |   |   |   |   |   |   |--- class: 1.0|   |   |   |   |   |   |   |   |   |   |--- class_1  >  0.27
|   |   |   |   |   |   |   |   |   |   |   |--- class: 0.0|   |   |   |   |   |   |   |   |   |--- 15  >  0.23
|   |   |   |   |   |   |   |   |   |   |--- class: 0.0|   |   |   |   |   |   |   |   |--- 4_unknown  >  0.50
|   |   |   |   |   |   |   |   |   |--- 14  <= 1.09
|   |   |   |   |   |   |   |   |   |   |--- 12  <= -1.02
|   |   |   |   |   |   |   |   |   |   |   |--- class: 1.0|   |   |   |   |   |   |   |   |   |   |--- 12  >  -1.02
|   |   |   |   |   |   |   |   |   |   |   |--- 13  <= 0.35
|   |   |   |   |   |   |   |   |   |   |   |   |--- 6  <= -0.79
|   |   |   |   |   |   |   |   |   |   |   |   |   |--- class: 1.0|   |   |   |   |   |   |   |   |   |   |   |   |--- 6  >  -0.79
|   |   |   |   |   |   |   |   |   |   |   |   |   |--- class: 1.0|   |   |   |   |   |   |   |   |   |   |   |--- 13  >  0.35
|   |   |   |   |   |   |   |   |   |   |   |   |--- class: 1.0|   |   |   |   |   |   |   |   |   |--- 14  >  1.09
|   |   |   |   |   |   |   |   |   |   |--- class: 0.0|   |   |   |   |   |   |   |--- 4_tertiary  >  0.50
|   |   |   |   |   |   |   |   |--- 2_unemployed  <= 0.50
|   |   |   |   |   |   |   |   |   |--- class: 0.0|   |   |   |   |   |   |   |   |--- 2_unemployed  >  0.50
|   |   |   |   |   |   |   |   |   |--- class: 1.0|   |   |   |   |   |--- 2_entrepreneur  >  2_entrepreneur .52_entrepreneur 
|   |   |   |   |   |   |--- class_1  <= 0.40
|   |   |   |   |   |   |   |--- 10  <= -0.14
|   |   |   |   |   |   |   |   |--- class: 0.0|   |   |   |   |   |   |   |--- 10  >  -0.14
|   |   |   |   |   |   |   |   |--- class: 1.0|   |   |   |   |   |   |--- class_1  >  0.40
|   |   |   |   |   |   |   |--- class: 0.0|   |   |   |   |--- 6  >  1.14
|   |   |   |   |   |--- class_1  <= 0.30
|   |   |   |   |   |   |--- class: 0.0|   |   |   |   |   |--- class_1  >  0.30
|   |   |   |   |   |   |--- class: 0.0