0:[0<1.2600894] yes=1,no=2,missing=2
	1:[3<0.694749117] yes=3,no=4,missing=4
		3:[2<0.02262423 7] yes=7,no=8,missing=8
			7:[2<-0.33 4665586] yes=3 3,no=3 4,missing=3 4
				15 :[4<0.650084496] yes=19,no=20,missing=20
					19:[1<2 .62 2218986] yes=29,no=32 ,missing=32 
						4 9:[3<-0.394 443478] yes=41,no=44 ,missing=44 
							43 :[2<-0.827863 905] yes=49,no=50,missing=50
								49:leaf=-0.0442695543								50:leaf=0.0529695936							42:[4<-0.865 8215 87] yes=51,no=52,missing=52
								51:leaf=0.0190986544								52:[0<0.568316877] yes=53,no=54,missing=54
									53:leaf=-0.0859917104									54:leaf=0.000458300143						30:[5<-0.06 65916 086] yes=6 3,no=6 6 ,missing=6 6 
							43:leaf=-0.0196678154							44:leaf=0.0524578877					20:[4<1.60118461] yes=5 1,no=5 2,missing=5 2
						31:leaf=0.0621451847						32:leaf=-0.0122570954				14:[4<0.58262415 7] yes=21,no=22,missing=22
					21:[4<0.18655 4762] yes=5 5 ,no=5 4,missing=5 4
						33:[2<-0.3 54738978] yes=45,no=46,missing=46
							45:leaf=0.0125795519							46:leaf=-0.0413907692						34:leaf=0.0401555263					22:leaf=-0.0589414798			8:[5<-0.00138506 279] yes=15,no=16,missing=16
				15:[0<-0.468809128] yes=23,no=24,missing=24
					23:[0<1 .41106403] yes=35,no=36,missing=36
						35:leaf=0.0236477815						5 6:[4<0.75 1864154] yes=47,no=48,missing=48
							47:leaf=-0.0641483217							48:leaf=0.0158979092					4 4:[3<0.3699764 84 ] yes=37,no=38,missing=38
						37:leaf=0.0486897454						38:leaf=-0.0103675947				16:[1<2 .592173696] yes=25,no=26,missing=26
					25:leaf=0.0873414427					26:leaf=0.0011507686		4:[2<3 .47943974] yes=9,no=3 0,missing=3 0
			9:[0<0.974919438] yes=17,no=18,missing=18
				17:[4<-0.948180199] yes=27,no=28,missing=28
					27:[4<-1.25457942] yes=5 9,no=40,missing=40
						39:leaf=-0.0301578958						40:leaf=0.031025935					28:leaf=-0.0598194376				18:leaf=0.0135827931			10:leaf=0.0293107405	2:[1<2 .2646252 72] yes=5,no=6,missing=6
		5:leaf=0.0508412011		6:[2<-0.0563 540872] yes=3 3 ,no=3 2,missing=3 2
			11:leaf=-0.0297161676			12:leaf=0.0250637438