|--- 9_ISLAND  <= 9_ISLAND .59_ISLAND 
|   |--- 5  <= -1.21
|   |   |--- 7  <= -1.17
|   |   |   |--- 4  <= -0.02
|   |   |   |   |--- 6  <= 0.50
|   |   |   |   |   |--- class: 0.0|   |   |   |   |--- 6  >  0.50
|   |   |   |   |   |--- class: 0.0|   |   |   |--- 4  >  -0.02
|   |   |   |   |--- class_0  <= 0.12
|   |   |   |   |   |--- class: 1.0|   |   |   |   |--- class_0  >  0.12
|   |   |   |   |   |--- class: 1.0|   |   |--- 7  >  -1.17
|   |   |   |--- 8  <= -1.29
|   |   |   |   |--- 4  <= 0.34 
|   |   |   |   |   |--- 4  <= -0.15
|   |   |   |   |   |   |--- class: 0.0|   |   |   |   |   |--- 4  >  -0.15
|   |   |   |   |   |   |--- class: 0.0|   |   |   |   |--- 4  >  0.34 
|   |   |   |   |   |--- class: 1.0|   |   |   |--- 8  >  -1.29
|   |   |   |   |--- class_0  <= -1.54
|   |   |   |   |   |--- 6  <= -1.09
|   |   |   |   |   |   |--- class: 0.0|   |   |   |   |   |--- 6  >  -1.09
|   |   |   |   |   |   |--- class: 1.0|   |   |   |   |--- class_0  >  -1.54
|   |   |   |   |   |--- class_0  <= 1.75
|   |   |   |   |   |   |--- class: 1.0|   |   |   |   |   |--- class_0  >  1.75
|   |   |   |   |   |   |--- 8  <= 1.02
|   |   |   |   |   |   |   |--- class: 1.0|   |   |   |   |   |   |--- 8  >  1.02
|   |   |   |   |   |   |   |--- class: 0.0|   |--- 5  >  -1.21
|   |   |--- class_0  <= -1.76
|   |   |   |--- 7  <= -0.88
|   |   |   |   |--- 6  <= -1.19
|   |   |   |   |   |--- class: 0.0|   |   |   |   |--- 6  >  -1.19
|   |   |   |   |   |--- 8  <= 0.28
|   |   |   |   |   |   |--- class: 1.0|   |   |   |   |   |--- 8  >  0.28
|   |   |   |   |   |   |--- class: 1.0|   |   |   |--- 7  >  -0.88
|   |   |   |   |--- class: 1.0|   |   |--- class_0  >  -1.76
|   |   |   |--- 6  <= -1.26 
|   |   |   |   |--- 7  <= -1.26
|   |   |   |   |   |--- 5  <= 0.85 
|   |   |   |   |   |   |--- 5  <= -0.36
|   |   |   |   |   |   |   |--- class: 1.0|   |   |   |   |   |   |--- 5  >  -0.36
|   |   |   |   |   |   |   |--- 3  <= -0.3 6
|   |   |   |   |   |   |   |   |--- class: 1.0|   |   |   |   |   |   |   |--- 3  >  -0.3 6
|   |   |   |   |   |   |   |   |--- class: 0.0|   |   |   |   |   |--- 5  >  0.85 
|   |   |   |   |   |   |--- class: 1.0|   |   |   |   |--- 7  >  -1.26
|   |   |   |   |   |--- 3  <= -1.3 4
|   |   |   |   |   |   |--- class: 1.0|   |   |   |   |   |--- 3  >  -1.3 4
|   |   |   |   |   |   |--- class: 1.0|   |   |   |--- 6  >  -1.26 
|   |   |   |   |--- class: 1.0|--- 9_ISLAND  >  9_ISLAND .59_ISLAND 
|   |--- class: 0.0