0:[24<1.32442832] yes=1,no=2,missing=2
	1:[9<1] yes=3,no=4,missing=4
		3:[25<-0.402747571] yes=7,no=8,missing=8
			7:[26<0.503886223] yes=15,no=16,missing=16
				15:[17<1] yes=29,no=30,missing=30
					29:leaf=-0.0761307329					30:leaf=-0.0198716726				16:[20<1] yes=31,no=32,missing=32
					31:leaf=0.0538001619					32:leaf=-0.0395088159			8:[30<0.077921398] yes=17,no=18,missing=18
				17:[20<1] yes=33,no=34,missing=34
					33:leaf=0.0786188021					34:leaf=0.015792381				18:[21<1] yes=35,no=36,missing=36
					35:leaf=-0.0383222513					36:leaf=0.0413440578		4:[19<1] yes=9,no=10,missing=10
			9:leaf=-0.128578499			10:[25<0.0357097872] yes=19,no=20,missing=20
				19:leaf=-0.0895121694				20:leaf=0.0264685992	2:[25<-0.261850029] yes=5,no=6,missing=6
		5:[26<0.624042809] yes=11,no=12,missing=12
			11:[1<1] yes=21,no=22,missing=22
				21:[27<-0.0600718521] yes=37,no=38,missing=38
					37:leaf=-0.076677084					38:leaf=-0.126847237				22:leaf=0.00821791496			12:[26<1.34498203] yes=23,no=24,missing=24
				23:[25<-0.446757525] yes=39,no=40,missing=40
					39:leaf=-0.0735120252					40:leaf=0.0402834378				24:[24<1.5127741 ] yes=41,no=42,missing=42
					41:leaf=0.0257455744					42:leaf=-0.141328081		6:[27<0.355204672] yes=13,no=14,missing=14
			13:[17<1] yes=25,no=26,missing=26
				25:[24<3.58457875] yes=43,no=44,missing=44
					43:leaf=-0.107101001					44:leaf=0.0203028657				26:[29<0.0762291029] yes=45,no=46,missing=46
					45:leaf=-0.0501502939					46:leaf=0.058385618			14:[24<1.88946605] yes=27,no=28,missing=28
				27:[25<-0.0582219027] yes=47,no=48,missing=48
					47:leaf=0.00398805877					48:leaf=0.0833198279				28:[14<1] yes=49,no=50,missing=50
					49:leaf=-0.109092616					50:leaf=0.0612415038