0:[97<0.129764825] yes=1,no=2,missing=2
	1:[6<1] yes=3,no=4,missing=4
		3:[1<1] yes=7,no=8,missing=8
			7:[0<1] yes=13,no=14,missing=14
				13:[52<1] yes=21,no=22,missing=22
					21:leaf=-0.0548359826					22:leaf=-0.00538854208				14:[46<1] yes=23,no=24,missing=24
					23:leaf=0.0839940831					24:leaf=0.00132610567			8:[95<1.09728718] yes=15,no=16,missing=16
				15:[99<0.126548141] yes=25,no=26,missing=26
					25:leaf=0.0856174305					26:leaf=0.0192485005				16:leaf=0.0007278017		4:[46<1] yes=9,no=10,missing=10
			9:[94<-0.0426413715] yes=17,no=18,missing=18
				17:[24<1] yes=27,no=28,missing=28
					27:leaf=0.0113958856					28:leaf=0.0594948344				18:leaf=0.11358466			10:leaf=-0.0328793265	2:[40<1] yes=5,no=6,missing=6
		5:[95<-0.856507659] yes=11,no=12,missing=12
			11:leaf=0.0897893608			12:[18<1] yes=19,no=20,missing=20
				19:[97<0.923233807] yes=29,no=30,missing=30
					29:leaf=0.0742733628					30:leaf=-0.0165574569				20:[94<0.543850303] yes=31,no=32,missing=32
					31:leaf=-0.0472536795					32:leaf=0.0440874062		6:leaf=0.116447233